{"learner":{"attributes":{"scikit_learn":"{\"_estimator_type\": \"regressor\"}"},"feature_names":["trend","seasonal_strength","entropy","hurst","stability","lumpiness"],"feature_types":["float","float","float","float","float","float"],"gradient_booster":{"model":{"gbtree_model_param":{"num_parallel_tree":"1","num_trees":"100"},"iteration_indptr":[0,1,2,3,4,5,6,7,8,9,10,11,12,13,14,15,16,17,18,19,20,21,22,23,24,25,26,27,28,29,30,31,32,33,34,35,36,37,38,39,40,41,42,43,44,45,46,47,48,49,50,51,52,53,54,55,56,57,58,59,60,61,62,63,64,65,66,67,68,69,70,71,72,73,74,75,76,77,78,79,80,81,82,83,84,85,86,87,88,89,90,91,92,93,94,95,96,97,98,99,100],"tree_info":[0,0,0,0,0,0,0,0,0,0,0,0,0,0,0,0,0,0,0,0,0,0,0,0,0,0,0,0,0,0,0,0,0,0,0,0,0,0,0,0,0,0,0,0,0,0,0,0,0,0,0,0,0,0,0,0,0,0,0,0,0,0,0,0,0,0,0,0,0,0,0,0,0,0,0,0,0,0,0,0,0,0,0,0,0,0,0,0,0,0,0,0,0,0,0,0,0,0,0,0],"trees":[{"base_weights":[5.715514E-9,-4.66538E-2,2.9858437E-1,1.2248852E-1,-6.957459E-2,2.4418429E-2,4.125957E-1,-8.2654995E-4,1.6360259E-1,-2.8124973E-2,-1.2150509E-1,-8.381776E-4,8.843641E-4,1.5550815E-3,4.843291E-3,2.295159E-3,5.678863E-4,-7.5563245E-2,2.700089E-2,-1.4110372E-3,-1.4889846E-2,1.6258047E-4,-1.1212974E-3,-2.465113E-4,1.8811973E-3,5.262488E-4,-7.744129E-4],"categories":[],"categories_nodes":[],"categories_segments":[],"categories_sizes":[],"default_left":[0,0,0,0,0,0,0,0,0,0,0,0,0,0,0,0,0,0,0,0,0,0,0,0,0,0,0],"id":0,"left_children":[1,3,5,7,9,11,13,-1,15,17,19,-1,-1,-1,-1,-1,-1,21,23,-1,25,-1,-1,-1,-1,-1,-1],"loss_changes":[1.0308272E0,2.566421E-1,3.0250525E-1,8.099685E-2,1.1927515E-1,3.5128795E-2,5.377519E-2,0E0,3.6249354E-2,8.8337764E-2,5.0136775E-2,0E0,0E0,0E0,0E0,0E0,0E0,6.2259503E-2,1.3779119E-1,0E0,2.5191054E-2,0E0,0E0,0E0,0E0,0E0,0E0],"parents":[2147483647,0,0,1,1,2,2,3,3,4,4,5,5,6,6,8,8,9,9,10,10,17,17,18,18,20,20],"right_children":[2,4,6,8,10,12,14,-1,16,18,20,-1,-1,-1,-1,-1,-1,22,24,-1,26,-1,-1,-1,-1,-1,-1],"split_conditions":[1.1327423E0,2.6132414E-1,3.1365713E-1,9.7679144E-1,8.159345E-1,5.7087415E-1,1.6904539E-1,-8.2654995E-4,9.909842E-1,3.3804438E-1,6.028314E-1,-8.381776E-4,8.843641E-4,1.5550815E-3,4.843291E-3,2.295159E-3,5.678863E-4,3.7402225E-1,3.7327176E-1,-1.4110372E-3,2.4378201E-1,1.6258047E-4,-1.1212974E-3,-2.465113E-4,1.8811973E-3,5.262488E-4,-7.744129E-4],"split_indices":[5,2,1,0,3,2,4,0,0,4,2,0,0,0,0,0,0,0,5,0,1,0,0,0,0,0,0],"split_type":[0,0,0,0,0,0,0,0,0,0,0,0,0,0,0,0,0,0,0,0,0,0,0,0,0,0,0],"sum_hessian":[7.2E1,6.3E1,9E0,7E0,5.6E1,3E0,6E0,1E0,6E0,3.2E1,2.4E1,1E0,2E0,2E0,4E0,3E0,3E0,1.7E1,1.5E1,2E1,4E0,5E0,1.2E1,1.2E1,3E0,2E0,2E0],"tree_param":{"num_deleted":"0","num_feature":"6","num_nodes":"27","size_leaf_vector":"1"}},{"base_weights":[1.0271391E-4,-4.6170805E-2,2.9624298E-1,1.215182E-1,-6.889609E-2,2.4185788E-2,4.093838E-1,-8.224172E-4,1.6237558E-1,-2.782324E-2,-1.2035641E-1,-8.3398673E-4,8.784684E-4,1.5447141E-3,4.804544E-3,2.2779454E-3,5.6362717E-4,-7.486087E-2,2.683305E-2,-1.3975987E-3,-1.479058E-2,1.6122559E-4,-1.110947E-3,-2.4423582E-4,1.8670884E-3,5.227405E-4,-7.6925015E-4],"categories":[],"categories_nodes":[],"categories_segments":[],"categories_sizes":[],"default_left":[0,0,0,0,0,0,0,0,0,0,0,0,0,0,0,0,0,0,0,0,0,0,0,0,0,0,0],"id":1,"left_children":[1,3,5,7,9,11,13,-1,15,17,19,-1,-1,-1,-1,-1,-1,21,23,-1,25,-1,-1,-1,-1,-1,-1],"loss_changes":[1.0140297E0,2.5226206E-1,2.9790646E-1,7.995482E-2,1.1712775E-1,3.4722067E-2,5.26011E-2,0E0,3.5707653E-2,8.684852E-2,4.9141437E-2,0E0,0E0,0E0,0E0,0E0,0E0,6.113132E-2,1.356752E-1,0E0,2.4856295E-2,0E0,0E0,0E0,0E0,0E0,0E0],"parents":[2147483647,0,0,1,1,2,2,3,3,4,4,5,5,6,6,8,8,9,9,10,10,17,17,18,18,20,20],"right_children":[2,4,6,8,10,12,14,-1,16,18,20,-1,-1,-1,-1,-1,-1,22,24,-1,26,-1,-1,-1,-1,-1,-1],"split_conditions":[1.1327423E0,2.6132414E-1,3.1365713E-1,9.7679144E-1,8.159345E-1,5.7087415E-1,1.6904539E-1,-8.224172E-4,9.909842E-1,3.3804438E-1,6.028314E-1,-8.3398673E-4,8.784684E-4,1.5447141E-3,4.804544E-3,2.2779454E-3,5.6362717E-4,3.7402225E-1,3.7327176E-1,-1.3975987E-3,2.4378201E-1,1.6122559E-4,-1.110947E-3,-2.4423582E-4,1.8670884E-3,5.227405E-4,-7.6925015E-4],"split_indices":[5,2,1,0,3,2,4,0,0,4,2,0,0,0,0,0,0,0,5,0,1,0,0,0,0,0,0],"split_type":[0,0,0,0,0,0,0,0,0,0,0,0,0,0,0,0,0,0,0,0,0,0,0,0,0,0,0],"sum_hessian":[7.2E1,6.3E1,9E0,7E0,5.6E1,3E0,6E0,1E0,6E0,3.2E1,2.4E1,1E0,2E0,2E0,4E0,3E0,3E0,1.7E1,1.5E1,2E1,4E0,5E0,1.2E1,1.2E1,3E0,2E0,2E0],"tree_param":{"num_deleted":"0","num_feature":"6","num_nodes":"27","size_leaf_vector":"1"}},{"base_weights":[2.0362783E-4,-4.5692723E-2,2.9391992E-1,1.20555416E-1,-6.822417E-2,2.395505E-2,4.0619698E-1,-8.183051E-4,1.6115776E-1,-2.7524615E-2,-1.1921861E-1,-8.298168E-4,8.726119E-4,1.534416E-3,4.766108E-3,2.2608608E-3,5.594E-4,-7.416503E-2,2.6666142E-2,-1.3842882E-3,-1.4691976E-2,2.7813035E-4,-1.0528826E-3,-2.4198138E-4,1.8530851E-3,5.192555E-4,-7.6412177E-4],"categories":[],"categories_nodes":[],"categories_segments":[],"categories_sizes":[],"default_left":[0,0,0,0,0,0,0,0,0,0,0,0,0,0,0,0,0,0,0,0,0,0,0,0,0,0,0],"id":2,"left_children":[1,3,5,7,9,11,13,-1,15,17,19,-1,-1,-1,-1,-1,-1,21,23,-1,25,-1,-1,-1,-1,-1,-1],"loss_changes":[9.9750686E-1,2.479567E-1,2.9337823E-1,7.892637E-2,1.1501926E-1,3.4320086E-2,5.145037E-2,0E0,3.5174042E-2,8.538452E-2,4.816571E-2,0E0,0E0,0E0,0E0,0E0,0E0,6.0058363E-2,1.335918E-1,0E0,2.452598E-2,0E0,0E0,0E0,0E0,0E0,0E0],"parents":[2147483647,0,0,1,1,2,2,3,3,4,4,5,5,6,6,8,8,9,9,10,10,17,17,18,18,20,20],"right_children":[2,4,6,8,10,12,14,-1,16,18,20,-1,-1,-1,-1,-1,-1,22,24,-1,26,-1,-1,-1,-1,-1,-1],"split_conditions":[1.1327423E0,2.6132414E-1,3.1365713E-1,9.7679144E-1,8.159345E-1,5.7087415E-1,1.6904539E-1,-8.183051E-4,9.909842E-1,3.3804438E-1,6.028314E-1,-8.298168E-4,8.726119E-4,1.534416E-3,4.766108E-3,2.2608608E-3,5.594E-4,3.233479E-1,3.7327176E-1,-1.3842882E-3,2.4378201E-1,2.7813035E-4,-1.0528826E-3,-2.4198138E-4,1.8530851E-3,5.192555E-4,-7.6412177E-4],"split_indices":[5,2,1,0,3,2,4,0,0,4,2,0,0,0,0,0,0,0,5,0,1,0,0,0,0,0,0],"split_type":[0,0,0,0,0,0,0,0,0,0,0,0,0,0,0,0,0,0,0,0,0,0,0,0,0,0,0],"sum_hessian":[7.2E1,6.3E1,9E0,7E0,5.6E1,3E0,6E0,1E0,6E0,3.2E1,2.4E1,1E0,2E0,2E0,4E0,3E0,3E0,1.7E1,1.5E1,2E1,4E0,4E0,1.3E1,1.2E1,3E0,2E0,2E0],"tree_param":{"num_deleted":"0","num_feature":"6","num_nodes":"27","size_leaf_vector":"1"}},{"base_weights":[3.0505026E-4,-4.5216903E-2,2.9161504E-1,1.196001E-1,-6.755584E-2,2.3726199E-2,4.030351E-1,-8.142136E-4,1.5994908E-1,-2.7224023E-2,-1.1809159E-1,-8.2566775E-4,8.667945E-4,1.5241866E-3,4.727979E-3,2.2439042E-3,5.5520446E-4,-7.346642E-2,2.6500175E-2,-1.3711045E-3,-1.4594036E-2,1.5978262E-4,-1.0909731E-3,-2.3974774E-4,1.8391871E-3,5.1579374E-4,-7.5902767E-4],"categories":[],"categories_nodes":[],"categories_segments":[],"categories_sizes":[],"default_left":[0,0,0,0,0,0,0,0,0,0,0,0,0,0,0,0,0,0,0,0,0,0,0,0,0,0,0],"id":3,"left_children":[1,3,5,7,9,11,13,-1,15,17,19,-1,-1,-1,-1,-1,-1,21,23,-1,25,-1,-1,-1,-1,-1,-1],"loss_changes":[9.8123884E-1,2.4371716E-1,2.8891945E-1,7.7911355E-2,1.12962395E-1,3.3922795E-2,5.032277E-2,0E0,3.464839E-2,8.392995E-2,4.7209173E-2,0E0,0E0,0E0,0E0,0E0,0E0,5.9109077E-2,1.3154049E-1,0E0,2.4200056E-2,0E0,0E0,0E0,0E0,0E0,0E0],"parents":[2147483647,0,0,1,1,2,2,3,3,4,4,5,5,6,6,8,8,9,9,10,10,17,17,18,18,20,20],"right_children":[2,4,6,8,10,12,14,-1,16,18,20,-1,-1,-1,-1,-1,-1,22,24,-1,26,-1,-1,-1,-1,-1,-1],"split_conditions":[1.1327423E0,2.6132414E-1,3.1365713E-1,9.7679144E-1,8.159345E-1,5.7087415E-1,1.6904539E-1,-8.142136E-4,9.909842E-1,3.3804438E-1,6.028314E-1,-8.2566775E-4,8.667945E-4,1.5241866E-3,4.727979E-3,2.2439042E-3,5.5520446E-4,3.7402225E-1,3.7327176E-1,-1.3711045E-3,2.4378201E-1,1.5978262E-4,-1.0909731E-3,-2.3974774E-4,1.8391871E-3,5.1579374E-4,-7.5902767E-4],"split_indices":[5,2,1,0,3,2,4,0,0,4,2,0,0,0,0,0,0,0,5,0,1,0,0,0,0,0,0],"split_type":[0,0,0,0,0,0,0,0,0,0,0,0,0,0,0,0,0,0,0,0,0,0,0,0,0,0,0],"sum_hessian":[7.2E1,6.3E1,9E0,7E0,5.6E1,3E0,6E0,1E0,6E0,3.2E1,2.4E1,1E0,2E0,2E0,4E0,3E0,3E0,1.7E1,1.5E1,2E1,4E0,5E0,1.2E1,1.2E1,3E0,2E0,2E0],"tree_param":{"num_deleted":"0","num_feature":"6","num_nodes":"27","size_leaf_vector":"1"}},{"base_weights":[4.024373E-4,-4.4748507E-2,2.8932822E-1,1.1865221E-1,-6.689688E-2,2.3499217E-2,3.9989793E-1,2.4668255E-3,3.4861658E-2,-2.6931535E-2,-1.16975255E-1,-8.215394E-4,8.610158E-4,1.5140255E-3,4.6901554E-3,-8.101425E-4,7.4239686E-4,-7.278349E-2,2.6335135E-2,-1.3580465E-3,-1.4496741E-2,2.74627E-4,-1.0338688E-3,-2.375347E-4,1.8253931E-3,5.123551E-4,-7.539675E-4],"categories":[],"categories_nodes":[],"categories_segments":[],"categories_sizes":[],"default_left":[0,0,0,0,0,0,0,0,0,0,0,0,0,0,0,0,0,0,0,0,0,0,0,0,0,0,0],"id":4,"left_children":[1,3,5,7,9,11,13,-1,15,17,19,-1,-1,-1,-1,-1,-1,21,23,-1,25,-1,-1,-1,-1,-1,-1],"loss_changes":[9.652519E-1,2.395573E-1,2.8452897E-1,7.722212E-2,1.1092943E-1,3.3530135E-2,4.921782E-2,0E0,3.3392265E-2,8.251533E-2,4.6271503E-2,0E0,0E0,0E0,0E0,0E0,0E0,5.806102E-2,1.2952074E-1,0E0,2.3878466E-2,0E0,0E0,0E0,0E0,0E0,0E0],"parents":[2147483647,0,0,1,1,2,2,3,3,4,4,5,5,6,6,8,8,9,9,10,10,17,17,18,18,20,20],"right_children":[2,4,6,8,10,12,14,-1,16,18,20,-1,-1,-1,-1,-1,-1,22,24,-1,26,-1,-1,-1,-1,-1,-1],"split_conditions":[1.1327423E0,2.6132414E-1,3.1365713E-1,2.6354143E-1,8.159345E-1,5.7087415E-1,1.6904539E-1,2.4668255E-3,9.7679144E-1,3.3804438E-1,6.028314E-1,-8.215394E-4,8.610158E-4,1.5140255E-3,4.6901554E-3,-8.101425E-4,7.4239686E-4,3.233479E-1,3.7327176E-1,-1.3580465E-3,2.4378201E-1,2.74627E-4,-1.0338688E-3,-2.375347E-4,1.8253931E-3,5.123551E-4,-7.539675E-4],"split_indices":[5,2,1,1,3,2,4,0,0,4,2,0,0,0,0,0,0,0,5,0,1,0,0,0,0,0,0],"split_type":[0,0,0,0,0,0,0,0,0,0,0,0,0,0,0,0,0,0,0,0,0,0,0,0,0,0,0],"sum_hessian":[7.2E1,6.3E1,9E0,7E0,5.6E1,3E0,6E0,2E0,5E0,3.2E1,2.4E1,1E0,2E0,2E0,4E0,1E0,4E0,1.7E1,1.5E1,2E1,4E0,4E0,1.3E1,1.2E1,3E0,2E0,2E0],"tree_param":{"num_deleted":"0","num_feature":"6","num_nodes":"27","size_leaf_vector":"1"}},{"base_weights":[5.0624635E-4,-4.4275578E-2,2.870593E-1,1.17765576E-1,-6.6241436E-2,2.3274094E-2,3.9678523E-1,2.4503802E-3,3.4501754E-2,-2.6637107E-2,-1.15869485E-1,-8.1743166E-4,8.5527566E-4,1.5039318E-3,4.6526343E-3,-8.0609176E-4,7.3645776E-4,-7.209783E-2,2.6171027E-2,-1.3451127E-3,-1.4400098E-2,1.5834333E-4,-1.0713591E-3,-2.3534204E-4,1.8117026E-3,5.0893944E-4,-7.4894103E-4],"categories":[],"categories_nodes":[],"categories_segments":[],"categories_sizes":[],"default_left":[0,0,0,0,0,0,0,0,0,0,0,0,0,0,0,0,0,0,0,0,0,0,0,0,0,0,0],"id":5,"left_children":[1,3,5,7,9,11,13,-1,15,17,19,-1,-1,-1,-1,-1,-1,21,23,-1,25,-1,-1,-1,-1,-1,-1],"loss_changes":[9.494727E-1,2.356008E-1,2.8020597E-1,7.632329E-2,1.08946264E-1,3.3142053E-2,4.8134804E-2,0E0,3.2971952E-2,8.1109844E-2,4.535228E-2,0E0,0E0,0E0,0E0,0E0,0E0,5.7153977E-2,1.2753206E-1,0E0,2.3561146E-2,0E0,0E0,0E0,0E0,0E0,0E0],"parents":[2147483647,0,0,1,1,2,2,3,3,4,4,5,5,6,6,8,8,9,9,10,10,17,17,18,18,20,20],"right_children":[2,4,6,8,10,12,14,-1,16,18,20,-1,-1,-1,-1,-1,-1,22,24,-1,26,-1,-1,-1,-1,-1,-1],"split_conditions":[1.1327423E0,2.6132414E-1,3.1365713E-1,2.6354143E-1,8.159345E-1,5.7087415E-1,1.6904539E-1,2.4503802E-3,9.7679144E-1,3.3804438E-1,6.028314E-1,-8.1743166E-4,8.5527566E-4,1.5039318E-3,4.6526343E-3,-8.0609176E-4,7.3645776E-4,3.7402225E-1,3.7327176E-1,-1.3451127E-3,2.4378201E-1,1.5834333E-4,-1.0713591E-3,-2.3534204E-4,1.8117026E-3,5.0893944E-4,-7.4894103E-4],"split_indices":[5,2,1,1,3,2,4,0,0,4,2,0,0,0,0,0,0,0,5,0,1,0,0,0,0,0,0],"split_type":[0,0,0,0,0,0,0,0,0,0,0,0,0,0,0,0,0,0,0,0,0,0,0,0,0,0,0],"sum_hessian":[7.2E1,6.3E1,9E0,7E0,5.6E1,3E0,6E0,2E0,5E0,3.2E1,2.4E1,1E0,2E0,2E0,4E0,1E0,4E0,1.7E1,1.5E1,2E1,4E0,5E0,1.2E1,1.2E1,3E0,2E0,2E0],"tree_param":{"num_deleted":"0","num_feature":"6","num_nodes":"27","size_leaf_vector":"1"}},{"base_weights":[6.0602755E-4,-4.3810025E-2,2.8480816E-1,1.1688552E-1,-6.559519E-2,2.3050811E-2,3.936969E-1,2.4340446E-3,3.4145128E-2,-2.635063E-2,-1.147742E-1,-8.133445E-4,8.495738E-4,1.4939056E-3,4.615413E-3,-8.020613E-4,7.3056604E-4,-7.1427576E-2,2.6007846E-2,-1.3323021E-3,-1.4304096E-2,2.7116327E-4,-1.0151985E-3,-2.3316959E-4,1.7981151E-3,5.055465E-4,-7.4394816E-4],"categories":[],"categories_nodes":[],"categories_segments":[],"categories_sizes":[],"default_left":[0,0,0,0,0,0,0,0,0,0,0,0,0,0,0,0,0,0,0,0,0,0,0,0,0,0,0],"id":6,"left_children":[1,3,5,7,9,11,13,-1,15,17,19,-1,-1,-1,-1,-1,-1,21,23,-1,25,-1,-1,-1,-1,-1,-1],"loss_changes":[9.339664E-1,2.3171698E-1,2.7594924E-1,7.543473E-2,1.06986135E-1,3.2758497E-2,4.707384E-2,0E0,3.255705E-2,7.974295E-2,4.4451177E-2,0E0,0E0,0E0,0E0,0E0,0E0,5.6130238E-2,1.2557401E-1,0E0,2.3248047E-2,0E0,0E0,0E0,0E0,0E0,0E0],"parents":[2147483647,0,0,1,1,2,2,3,3,4,4,5,5,6,6,8,8,9,9,10,10,17,17,18,18,20,20],"right_children":[2,4,6,8,10,12,14,-1,16,18,20,-1,-1,-1,-1,-1,-1,22,24,-1,26,-1,-1,-1,-1,-1,-1],"split_conditions":[1.1327423E0,2.6132414E-1,3.1365713E-1,2.6354143E-1,8.159345E-1,5.7087415E-1,1.6904539E-1,2.4340446E-3,9.7679144E-1,3.3804438E-1,6.028314E-1,-8.133445E-4,8.495738E-4,1.4939056E-3,4.615413E-3,-8.020613E-4,7.3056604E-4,3.233479E-1,3.7327176E-1,-1.3323021E-3,2.4378201E-1,2.7116327E-4,-1.0151985E-3,-2.3316959E-4,1.7981151E-3,5.055465E-4,-7.4394816E-4],"split_indices":[5,2,1,1,3,2,4,0,0,4,2,0,0,0,0,0,0,0,5,0,1,0,0,0,0,0,0],"split_type":[0,0,0,0,0,0,0,0,0,0,0,0,0,0,0,0,0,0,0,0,0,0,0,0,0,0,0],"sum_hessian":[7.2E1,6.3E1,9E0,7E0,5.6E1,3E0,6E0,2E0,5E0,3.2E1,2.4E1,1E0,2E0,2E0,4E0,1E0,4E0,1.7E1,1.5E1,2E1,4E0,4E0,1.3E1,1.2E1,3E0,2E0,2E0],"tree_param":{"num_deleted":"0","num_feature":"6","num_nodes":"27","size_leaf_vector":"1"}},{"base_weights":[7.062465E-4,-4.3346725E-2,2.8257462E-1,1.1601198E-1,-6.495239E-2,2.2829361E-2,3.906327E-1,2.4178175E-3,3.3791766E-2,-2.6062243E-2,-1.1368929E-1,-8.092777E-4,8.4391E-4,1.4839462E-3,4.57849E-3,-7.98051E-4,7.247216E-4,-7.075463E-2,2.5845582E-2,-1.3196135E-3,-1.4208734E-2,6.614265E-5,-1.0999027E-3,-2.310172E-4,1.7846292E-3,5.021762E-4,-7.3898846E-4],"categories":[],"categories_nodes":[],"categories_segments":[],"categories_sizes":[],"default_left":[0,0,0,0,0,0,0,0,0,0,0,0,0,0,0,0,0,0,0,0,0,0,0,0,0,0,0],"id":7,"left_children":[1,3,5,7,9,11,13,-1,15,17,19,-1,-1,-1,-1,-1,-1,21,23,-1,25,-1,-1,-1,-1,-1,-1],"loss_changes":[9.1869986E-1,2.278905E-1,2.7175784E-1,7.45563E-2,1.05073914E-1,3.237941E-2,4.6034098E-2,0E0,3.2147482E-2,7.838488E-2,4.3567896E-2,0E0,0E0,0E0,0E0,0E0,0E0,5.5368625E-2,1.23646125E-1,0E0,2.2939105E-2,0E0,0E0,0E0,0E0,0E0,0E0],"parents":[2147483647,0,0,1,1,2,2,3,3,4,4,5,5,6,6,8,8,9,9,10,10,17,17,18,18,20,20],"right_children":[2,4,6,8,10,12,14,-1,16,18,20,-1,-1,-1,-1,-1,-1,22,24,-1,26,-1,-1,-1,-1,-1,-1],"split_conditions":[1.1327423E0,2.6132414E-1,3.1365713E-1,2.6354143E-1,8.159345E-1,5.7087415E-1,1.6904539E-1,2.4178175E-3,9.7679144E-1,3.3804438E-1,6.028314E-1,-8.092777E-4,8.4391E-4,1.4839462E-3,4.57849E-3,-7.98051E-4,7.247216E-4,4.2292726E-1,3.7327176E-1,-1.3196135E-3,2.4378201E-1,6.614265E-5,-1.0999027E-3,-2.310172E-4,1.7846292E-3,5.021762E-4,-7.3898846E-4],"split_indices":[5,2,1,1,3,2,4,0,0,4,2,0,0,0,0,0,0,0,5,0,1,0,0,0,0,0,0],"split_type":[0,0,0,0,0,0,0,0,0,0,0,0,0,0,0,0,0,0,0,0,0,0,0,0,0,0,0],"sum_hessian":[7.2E1,6.3E1,9E0,7E0,5.6E1,3E0,6E0,2E0,5E0,3.2E1,2.4E1,1E0,2E0,2E0,4E0,1E0,4E0,1.7E1,1.5E1,2E1,4E0,6E0,1.1E1,1.2E1,3E0,2E0,2E0],"tree_param":{"num_deleted":"0","num_feature":"6","num_nodes":"27","size_leaf_vector":"1"}},{"base_weights":[8.0062286E-4,-4.2892817E-2,2.8035858E-1,1.1514492E-1,-6.432105E-2,2.2609726E-2,3.8759243E-1,2.4016988E-3,3.344163E-2,-2.5785869E-2,-1.1261465E-1,-8.0523134E-4,8.3828386E-4,1.4740534E-3,4.541862E-3,-7.940608E-4,7.1892387E-4,-7.010452E-2,2.5684226E-2,-1.3070458E-3,-1.4114002E-2,1.5635691E-4,-1.0428426E-3,-2.2888478E-4,1.7712446E-3,4.988284E-4,-7.3406176E-4],"categories":[],"categories_nodes":[],"categories_segments":[],"categories_sizes":[],"default_left":[0,0,0,0,0,0,0,0,0,0,0,0,0,0,0,0,0,0,0,0,0,0,0,0,0,0,0],"id":8,"left_children":[1,3,5,7,9,11,13,-1,15,17,19,-1,-1,-1,-1,-1,-1,21,23,-1,25,-1,-1,-1,-1,-1,-1],"loss_changes":[9.037094E-1,2.2414029E-1,2.6763064E-1,7.368792E-2,1.0317327E-1,3.200475E-2,4.5015216E-2,0E0,3.1743173E-2,7.707638E-2,4.270199E-2,0E0,0E0,0E0,0E0,0E0,0E0,5.4380983E-2,1.2174789E-1,0E0,2.2634268E-2,0E0,0E0,0E0,0E0,0E0,0E0],"parents":[2147483647,0,0,1,1,2,2,3,3,4,4,5,5,6,6,8,8,9,9,10,10,17,17,18,18,20,20],"right_children":[2,4,6,8,10,12,14,-1,16,18,20,-1,-1,-1,-1,-1,-1,22,24,-1,26,-1,-1,-1,-1,-1,-1],"split_conditions":[1.1327423E0,2.6132414E-1,3.1365713E-1,2.6354143E-1,8.159345E-1,5.7087415E-1,1.6904539E-1,2.4016988E-3,9.7679144E-1,3.3804438E-1,6.028314E-1,-8.0523134E-4,8.3828386E-4,1.4740534E-3,4.541862E-3,-7.940608E-4,7.1892387E-4,3.7402225E-1,3.7327176E-1,-1.3070458E-3,2.4378201E-1,1.5635691E-4,-1.0428426E-3,-2.2888478E-4,1.7712446E-3,4.988284E-4,-7.3406176E-4],"split_indices":[5,2,1,1,3,2,4,0,0,4,2,0,0,0,0,0,0,0,5,0,1,0,0,0,0,0,0],"split_type":[0,0,0,0,0,0,0,0,0,0,0,0,0,0,0,0,0,0,0,0,0,0,0,0,0,0,0],"sum_hessian":[7.2E1,6.3E1,9E0,7E0,5.6E1,3E0,6E0,2E0,5E0,3.2E1,2.4E1,1E0,2E0,2E0,4E0,1E0,4E0,1.7E1,1.5E1,2E1,4E0,5E0,1.2E1,1.2E1,3E0,2E0,2E0],"tree_param":{"num_deleted":"0","num_feature":"6","num_nodes":"27","size_leaf_vector":"1"}},{"base_weights":[8.952046E-4,-4.244139E-2,2.781599E-1,1.142843E-1,-6.369339E-2,2.2391893E-2,3.845759E-1,2.3856873E-3,3.3094693E-2,-2.5508137E-2,-1.115502E-1,-8.0120517E-4,8.3269534E-4,1.4642264E-3,4.5055267E-3,-7.900905E-4,7.131725E-4,-6.945272E-2,2.5523778E-2,-1.2945978E-3,-1.4019909E-2,2.67214E-4,-9.883972E-4,-2.2677201E-4,1.7579602E-3,4.9550284E-4,-7.2916795E-4],"categories":[],"categories_nodes":[],"categories_segments":[],"categories_sizes":[],"default_left":[0,0,0,0,0,0,0,0,0,0,0,0,0,0,0,0,0,0,0,0,0,0,0,0,0,0,0],"id":9,"left_children":[1,3,5,7,9,11,13,-1,15,17,19,-1,-1,-1,-1,-1,-1,21,23,-1,25,-1,-1,-1,-1,-1,-1],"loss_changes":[8.889522E-1,2.2044618E-1,2.635668E-1,7.282948E-2,1.0131773E-1,3.1634454E-2,4.4016957E-2,0E0,3.1344056E-2,7.577772E-2,4.185316E-2,0E0,0E0,0E0,0E0,0E0,0E0,5.351396E-2,1.19878866E-1,0E0,2.2333482E-2,0E0,0E0,0E0,0E0,0E0,0E0],"parents":[2147483647,0,0,1,1,2,2,3,3,4,4,5,5,6,6,8,8,9,9,10,10,17,17,18,18,20,20],"right_children":[2,4,6,8,10,12,14,-1,16,18,20,-1,-1,-1,-1,-1,-1,22,24,-1,26,-1,-1,-1,-1,-1,-1],"split_conditions":[1.1327423E0,2.6132414E-1,3.1365713E-1,2.6354143E-1,8.159345E-1,5.7087415E-1,1.6904539E-1,2.3856873E-3,9.7679144E-1,3.3804438E-1,6.028314E-1,-8.0120517E-4,8.3269534E-4,1.4642264E-3,4.5055267E-3,-7.900905E-4,7.131725E-4,3.233479E-1,3.7327176E-1,-1.2945978E-3,2.4378201E-1,2.67214E-4,-9.883972E-4,-2.2677201E-4,1.7579602E-3,4.9550284E-4,-7.2916795E-4],"split_indices":[5,2,1,1,3,2,4,0,0,4,2,0,0,0,0,0,0,0,5,0,1,0,0,0,0,0,0],"split_type":[0,0,0,0,0,0,0,0,0,0,0,0,0,0,0,0,0,0,0,0,0,0,0,0,0,0,0],"sum_hessian":[7.2E1,6.3E1,9E0,7E0,5.6E1,3E0,6E0,2E0,5E0,3.2E1,2.4E1,1E0,2E0,2E0,4E0,1E0,4E0,1.7E1,1.5E1,2E1,4E0,4E0,1.3E1,1.2E1,3E0,2E0,2E0],"tree_param":{"num_deleted":"0","num_feature":"6","num_nodes":"27","size_leaf_vector":"1"}},{"base_weights":[9.902483E-4,-4.1992128E-2,2.7597842E-1,1.1343005E-1,-6.306906E-2,2.2175848E-2,3.8158298E-1,2.369783E-3,3.2750927E-2,-2.5228513E-2,-1.1049583E-1,-7.9719914E-4,8.271441E-4,1.4544647E-3,4.4694827E-3,-7.8614004E-4,7.074671E-4,-6.879826E-2,2.5364235E-2,-1.2822683E-3,-1.3926444E-2,6.72457E-5,-1.0712006E-3,-2.2467879E-4,1.7447755E-3,4.9219944E-4,-7.2430685E-4],"categories":[],"categories_nodes":[],"categories_segments":[],"categories_sizes":[],"default_left":[0,0,0,0,0,0,0,0,0,0,0,0,0,0,0,0,0,0,0,0,0,0,0,0,0,0,0],"id":10,"left_children":[1,3,5,7,9,11,13,-1,15,17,19,-1,-1,-1,-1,-1,-1,21,23,-1,25,-1,-1,-1,-1,-1,-1],"loss_changes":[8.74423E-1,2.1680662E-1,2.5956523E-1,7.198084E-2,9.950769E-2,3.1268477E-2,4.3038845E-2,0E0,3.0950071E-2,7.448736E-2,4.102108E-2,0E0,0E0,0E0,0E0,0E0,0E0,5.2815408E-2,1.18038625E-1,0E0,2.2036692E-2,0E0,0E0,0E0,0E0,0E0,0E0],"parents":[2147483647,0,0,1,1,2,2,3,3,4,4,5,5,6,6,8,8,9,9,10,10,17,17,18,18,20,20],"right_children":[2,4,6,8,10,12,14,-1,16,18,20,-1,-1,-1,-1,-1,-1,22,24,-1,26,-1,-1,-1,-1,-1,-1],"split_conditions":[1.1327423E0,2.6132414E-1,3.1365713E-1,2.6354143E-1,8.159345E-1,5.7087415E-1,1.6904539E-1,2.369783E-3,9.7679144E-1,3.3804438E-1,6.028314E-1,-7.9719914E-4,8.271441E-4,1.4544647E-3,4.4694827E-3,-7.8614004E-4,7.074671E-4,4.2292726E-1,3.7327176E-1,-1.2822683E-3,2.4378201E-1,6.72457E-5,-1.0712006E-3,-2.2467879E-4,1.7447755E-3,4.9219944E-4,-7.2430685E-4],"split_indices":[5,2,1,1,3,2,4,0,0,4,2,0,0,0,0,0,0,0,5,0,1,0,0,0,0,0,0],"split_type":[0,0,0,0,0,0,0,0,0,0,0,0,0,0,0,0,0,0,0,0,0,0,0,0,0,0,0],"sum_hessian":[7.2E1,6.3E1,9E0,7E0,5.6E1,3E0,6E0,2E0,5E0,3.2E1,2.4E1,1E0,2E0,2E0,4E0,1E0,4E0,1.7E1,1.5E1,2E1,4E0,6E0,1.1E1,1.2E1,3E0,2E0,2E0],"tree_param":{"num_deleted":"0","num_feature":"6","num_nodes":"27","size_leaf_vector":"1"}},{"base_weights":[1.0796168E-3,-4.1552003E-2,2.7381402E-1,1.1258215E-1,-6.2455885E-2,2.1961574E-2,3.786134E-1,2.3539842E-3,3.241031E-2,-2.4960589E-2,-1.09451436E-1,-7.9321314E-4,8.216298E-4,1.4447684E-3,4.433727E-3,-7.8220933E-4,7.0180744E-4,-6.8166055E-2,2.5205597E-2,-1.2700562E-3,-1.3833607E-2,6.666929E-5,-1.0613812E-3,-2.2260482E-4,1.7316896E-3,4.889181E-4,-7.194782E-4],"categories":[],"categories_nodes":[],"categories_segments":[],"categories_sizes":[],"default_left":[0,0,0,0,0,0,0,0,0,0,0,0,0,0,0,0,0,0,0,0,0,0,0,0,0,0,0],"id":11,"left_children":[1,3,5,7,9,11,13,-1,15,17,19,-1,-1,-1,-1,-1,-1,21,23,-1,25,-1,-1,-1,-1,-1,-1],"loss_changes":[8.601565E-1,2.1323952E-1,2.55625E-1,7.114192E-2,9.7708404E-2,3.0906763E-2,4.2080402E-2,0E0,3.0561145E-2,7.3244125E-2,4.020539E-2,0E0,0E0,0E0,0E0,0E0,0E0,5.1855758E-2,1.1622669E-1,0E0,2.1743853E-2,0E0,0E0,0E0,0E0,0E0,0E0],"parents":[2147483647,0,0,1,1,2,2,3,3,4,4,5,5,6,6,8,8,9,9,10,10,17,17,18,18,20,20],"right_children":[2,4,6,8,10,12,14,-1,16,18,20,-1,-1,-1,-1,-1,-1,22,24,-1,26,-1,-1,-1,-1,-1,-1],"split_conditions":[1.1327423E0,2.6132414E-1,3.1365713E-1,2.6354143E-1,8.159345E-1,5.7087415E-1,1.6904539E-1,2.3539842E-3,9.7679144E-1,3.3804438E-1,6.028314E-1,-7.9321314E-4,8.216298E-4,1.4447684E-3,4.433727E-3,-7.8220933E-4,7.0180744E-4,4.2292726E-1,3.7327176E-1,-1.2700562E-3,2.4378201E-1,6.666929E-5,-1.0613812E-3,-2.2260482E-4,1.7316896E-3,4.889181E-4,-7.194782E-4],"split_indices":[5,2,1,1,3,2,4,0,0,4,2,0,0,0,0,0,0,0,5,0,1,0,0,0,0,0,0],"split_type":[0,0,0,0,0,0,0,0,0,0,0,0,0,0,0,0,0,0,0,0,0,0,0,0,0,0,0],"sum_hessian":[7.2E1,6.3E1,9E0,7E0,5.6E1,3E0,6E0,2E0,5E0,3.2E1,2.4E1,1E0,2E0,2E0,4E0,1E0,4E0,1.7E1,1.5E1,2E1,4E0,6E0,1.1E1,1.2E1,3E0,2E0,2E0],"tree_param":{"num_deleted":"0","num_feature":"6","num_nodes":"27","size_leaf_vector":"1"}},{"base_weights":[1.1673716E-3,-4.1116368E-2,2.716666E-1,1.1174052E-1,-6.184863E-2,2.174906E-2,3.7566707E-1,2.3382911E-3,3.207281E-2,-2.4695396E-2,-1.0841695E-1,-7.8924705E-4,8.1615214E-4,1.4351367E-3,4.398257E-3,-7.782983E-4,6.96193E-4,-6.7539655E-2,2.5047861E-2,-1.2579603E-3,-1.3741383E-2,2.64005E-4,-9.626545E-4,1.0138322E-3,-6.3960394E-4,4.8565865E-4,-7.1468164E-4],"categories":[],"categories_nodes":[],"categories_segments":[],"categories_sizes":[],"default_left":[0,0,0,0,0,0,0,0,0,0,0,0,0,0,0,0,0,0,0,0,0,0,0,0,0,0,0],"id":12,"left_children":[1,3,5,7,9,11,13,-1,15,17,19,-1,-1,-1,-1,-1,-1,21,23,-1,25,-1,-1,-1,-1,-1,-1],"loss_changes":[8.461234E-1,2.097314E-1,2.5174505E-1,7.031258E-2,9.5941946E-2,3.0549265E-2,4.114163E-2,0E0,3.0177213E-2,7.202175E-2,3.9405763E-2,0E0,0E0,0E0,0E0,0E0,0E0,5.1114567E-2,1.15196146E-1,0E0,2.1454899E-2,0E0,0E0,0E0,0E0,0E0,0E0],"parents":[2147483647,0,0,1,1,2,2,3,3,4,4,5,5,6,6,8,8,9,9,10,10,17,17,18,18,20,20],"right_children":[2,4,6,8,10,12,14,-1,16,18,20,-1,-1,-1,-1,-1,-1,22,24,-1,26,-1,-1,-1,-1,-1,-1],"split_conditions":[1.1327423E0,2.6132414E-1,3.1365713E-1,2.6354143E-1,8.159345E-1,5.7087415E-1,1.6904539E-1,2.3382911E-3,9.7679144E-1,3.3804438E-1,6.028314E-1,-7.8924705E-4,8.1615214E-4,1.4351367E-3,4.398257E-3,-7.782983E-4,6.96193E-4,3.233479E-1,7.297066E-1,-1.2579603E-3,2.4378201E-1,2.64005E-4,-9.626545E-4,1.0138322E-3,-6.3960394E-4,4.8565865E-4,-7.1468164E-4],"split_indices":[5,2,1,1,3,2,4,0,0,4,2,0,0,0,0,0,0,0,0,0,1,0,0,0,0,0,0],"split_type":[0,0,0,0,0,0,0,0,0,0,0,0,0,0,0,0,0,0,0,0,0,0,0,0,0,0,0],"sum_hessian":[7.2E1,6.3E1,9E0,7E0,5.6E1,3E0,6E0,2E0,5E0,3.2E1,2.4E1,1E0,2E0,2E0,4E0,1E0,4E0,1.7E1,1.5E1,2E1,4E0,4E0,1.3E1,8E0,7E0,2E0,2E0],"tree_param":{"num_deleted":"0","num_feature":"6","num_nodes":"27","size_leaf_vector":"1"}},{"base_weights":[1.2420698E-3,-4.0698256E-2,2.6953596E-1,1.1090514E-1,-6.1261922E-2,2.1538295E-2,3.7274376E-1,2.3227024E-3,3.1738397E-2,-2.4458269E-2,-1.0739227E-1,-7.8530086E-4,8.107111E-4,1.4255691E-3,4.3630707E-3,-7.7440677E-4,6.906234E-4,-6.207432E-2,3.1025965E-2,-1.2459798E-3,-1.3649779E-2,2.6189297E-4,-8.577705E-4,1.3450992E-3,-6.3400745E-4,4.824209E-4,-7.099172E-4],"categories":[],"categories_nodes":[],"categories_segments":[],"categories_sizes":[],"default_left":[0,0,0,0,0,0,0,0,0,0,0,0,0,0,0,0,0,0,0,0,0,0,0,0,0,0,0],"id":13,"left_children":[1,3,5,7,9,11,13,-1,15,17,19,-1,-1,-1,-1,-1,-1,21,23,-1,25,-1,-1,-1,-1,-1,-1],"loss_changes":[8.3238995E-1,2.0631564E-1,2.4792463E-1,6.9492765E-2,9.414597E-2,3.0195937E-2,4.0221572E-2,0E0,2.9798204E-2,7.080015E-2,3.8621932E-2,0E0,0E0,0E0,0E0,0E0,0E0,4.4088222E-2,1.4533111E-1,0E0,2.116979E-2,0E0,0E0,0E0,0E0,0E0,0E0],"parents":[2147483647,0,0,1,1,2,2,3,3,4,4,5,5,6,6,8,8,9,9,10,10,17,17,18,18,20,20],"right_children":[2,4,6,8,10,12,14,-1,16,18,20,-1,-1,-1,-1,-1,-1,22,24,-1,26,-1,-1,-1,-1,-1,-1],"split_conditions":[1.1327423E0,2.6132414E-1,3.1365713E-1,2.6354143E-1,8.159345E-1,5.7087415E-1,1.6904539E-1,2.3227024E-3,9.7679144E-1,3.466177E-1,6.028314E-1,-7.8530086E-4,8.107111E-4,1.4255691E-3,4.3630707E-3,-7.7440677E-4,6.906234E-4,3.233479E-1,7.297066E-1,-1.2459798E-3,2.4378201E-1,2.6189297E-4,-8.577705E-4,1.3450992E-3,-6.3400745E-4,4.824209E-4,-7.099172E-4],"split_indices":[5,2,1,1,3,2,4,0,0,4,2,0,0,0,0,0,0,0,0,0,1,0,0,0,0,0,0],"split_type":[0,0,0,0,0,0,0,0,0,0,0,0,0,0,0,0,0,0,0,0,0,0,0,0,0,0,0],"sum_hessian":[7.2E1,6.3E1,9E0,7E0,5.6E1,3E0,6E0,2E0,5E0,3.2E1,2.4E1,1E0,2E0,2E0,4E0,1E0,4E0,1.9E1,1.3E1,2E1,4E0,4E0,1.5E1,6E0,7E0,2E0,2E0],"tree_param":{"num_deleted":"0","num_feature":"6","num_nodes":"27","size_leaf_vector":"1"}},{"base_weights":[1.3213584E-3,-4.027751E-2,2.67422E-1,1.1007596E-1,-6.067313E-2,2.1329265E-2,3.6984327E-1,2.3072178E-3,3.1407047E-2,-2.4210192E-2,-1.0637728E-1,-7.8137434E-4,8.053064E-4,1.4160653E-3,4.3281666E-3,-7.705347E-4,6.850985E-2,-6.6341765E-2,2.4700966E-2,-1.2341134E-3,-1.3558781E-2,2.0952478E-4,7.5161067E-4,6.829398E-5,-1.0349646E-3,-2.1937583E-4,1.7010099E-3,4.7920475E-4,-7.051844E-4],"categories":[],"categories_nodes":[],"categories_segments":[],"categories_sizes":[],"default_left":[0,0,0,0,0,0,0,0,0,0,0,0,0,0,0,0,0,0,0,0,0,0,0,0,0,0,0,0,0],"id":14,"left_children":[1,3,5,7,9,11,13,-1,15,17,19,-1,-1,-1,-1,-1,21,23,25,-1,27,-1,-1,-1,-1,-1,-1,-1,-1],"loss_changes":[8.188436E-1,2.0293798E-1,2.4416286E-1,6.868232E-2,9.241553E-2,2.9846722E-2,3.932023E-2,0E0,2.9424055E-2,6.964194E-2,3.785357E-2,0E0,0E0,0E0,0E0,0E0,6.761402E-6,4.964257E-2,1.12231545E-1,0E0,2.0888468E-2,0E0,0E0,0E0,0E0,0E0,0E0,0E0,0E0],"parents":[2147483647,0,0,1,1,2,2,3,3,4,4,5,5,6,6,8,8,9,9,10,10,16,16,17,17,18,18,20,20],"right_children":[2,4,6,8,10,12,14,-1,16,18,20,-1,-1,-1,-1,-1,22,24,26,-1,28,-1,-1,-1,-1,-1,-1,-1,-1],"split_conditions":[1.1327423E0,2.6132414E-1,3.1365713E-1,2.6354143E-1,8.159345E-1,5.7087415E-1,1.6904539E-1,2.3072178E-3,9.7679144E-1,3.3804438E-1,6.028314E-1,-7.8137434E-4,8.053064E-4,1.4160653E-3,4.3281666E-3,-7.705347E-4,6.895474E-1,4.2292726E-1,3.7327176E-1,-1.2341134E-3,2.4378201E-1,2.0952478E-4,7.5161067E-4,6.829398E-5,-1.0349646E-3,-2.1937583E-4,1.7010099E-3,4.7920475E-4,-7.051844E-4],"split_indices":[5,2,1,1,3,2,4,0,0,4,2,0,0,0,0,0,3,0,5,0,1,0,0,0,0,0,0,0,0],"split_type":[0,0,0,0,0,0,0,0,0,0,0,0,0,0,0,0,0,0,0,0,0,0,0,0,0,0,0,0,0],"sum_hessian":[7.2E1,6.3E1,9E0,7E0,5.6E1,3E0,6E0,2E0,5E0,3.2E1,2.4E1,1E0,2E0,2E0,4E0,1E0,4E0,1.7E1,1.5E1,2E1,4E0,1E0,3E0,6E0,1.1E1,1.2E1,3E0,2E0,2E0],"tree_param":{"num_deleted":"0","num_feature":"6","num_nodes":"29","size_leaf_vector":"1"}},{"base_weights":[1.4084296E-3,-3.9850477E-2,2.653246E-1,1.0928742E-1,-6.0082983E-2,2.1121956E-2,3.6696544E-1,2.2918363E-3,3.1124743E-2,-2.3952488E-2,-1.05371915E-1,-7.7746745E-4,7.9993776E-4,1.4066247E-3,4.2935414E-3,-7.6668203E-4,6.8016973E-4,-6.5732054E-2,2.4546556E-2,-1.22236E-3,-1.346839E-2,6.7708614E-5,-1.0254774E-3,9.933079E-4,-6.265402E-4,4.7601003E-4,-7.004832E-4],"categories":[],"categories_nodes":[],"categories_segments":[],"categories_sizes":[],"default_left":[0,0,0,0,0,0,0,0,0,0,0,0,0,0,0,0,0,0,0,0,0,0,0,0,0,0,0],"id":15,"left_children":[1,3,5,7,9,11,13,-1,15,17,19,-1,-1,-1,-1,-1,-1,21,23,-1,25,-1,-1,-1,-1,-1,-1],"loss_changes":[8.0546254E-1,1.9968203E-1,2.4045861E-1,6.783799E-2,9.074584E-2,2.9501576E-2,3.8437247E-2,0E0,2.9075073E-2,6.848037E-2,3.7100375E-2,0E0,0E0,0E0,0E0,0E0,0E0,4.8740752E-2,1.1056312E-1,0E0,2.0610882E-2,0E0,0E0,0E0,0E0,0E0,0E0],"parents":[2147483647,0,0,1,1,2,2,3,3,4,4,5,5,6,6,8,8,9,9,10,10,17,17,18,18,20,20],"right_children":[2,4,6,8,10,12,14,-1,16,18,20,-1,-1,-1,-1,-1,-1,22,24,-1,26,-1,-1,-1,-1,-1,-1],"split_conditions":[1.1327423E0,2.6132414E-1,3.1365713E-1,2.6354143E-1,8.159345E-1,5.7087415E-1,1.6904539E-1,2.2918363E-3,9.7679144E-1,3.3804438E-1,6.028314E-1,-7.7746745E-4,7.9993776E-4,1.4066247E-3,4.2935414E-3,-7.6668203E-4,6.8016973E-4,4.2292726E-1,7.297066E-1,-1.22236E-3,2.4378201E-1,6.7708614E-5,-1.0254774E-3,9.933079E-4,-6.265402E-4,4.7601003E-4,-7.004832E-4],"split_indices":[5,2,1,1,3,2,4,0,0,4,2,0,0,0,0,0,0,0,0,0,1,0,0,0,0,0,0],"split_type":[0,0,0,0,0,0,0,0,0,0,0,0,0,0,0,0,0,0,0,0,0,0,0,0,0,0,0],"sum_hessian":[7.2E1,6.3E1,9E0,7E0,5.6E1,3E0,6E0,2E0,5E0,3.2E1,2.4E1,1E0,2E0,2E0,4E0,1E0,4E0,1.7E1,1.5E1,2E1,4E0,6E0,1.1E1,8E0,7E0,2E0,2E0],"tree_param":{"num_deleted":"0","num_feature":"6","num_nodes":"27","size_leaf_vector":"1"}},{"base_weights":[1.4750332E-3,-3.9449356E-2,2.6324362E-1,1.0847022E-1,-5.95179E-2,2.0916354E-2,3.641101E-1,2.2765575E-3,3.0799082E-2,-2.3730872E-2,-1.0437606E-1,-7.735801E-4,7.9460477E-4,1.3972473E-3,4.259193E-3,-7.628486E-4,6.7472845E-2,-6.046832E-2,3.0446257E-2,-1.2107184E-3,-1.3378593E-2,2.0507633E-4,7.408723E-4,2.5870983E-4,-8.367008E-4,1.3187059E-3,-6.210581E-4,4.7283666E-4,-6.958132E-4],"categories":[],"categories_nodes":[],"categories_segments":[],"categories_sizes":[],"default_left":[0,0,0,0,0,0,0,0,0,0,0,0,0,0,0,0,0,0,0,0,0,0,0,0,0,0,0,0,0],"id":16,"left_children":[1,3,5,7,9,11,13,-1,15,17,19,-1,-1,-1,-1,-1,21,23,25,-1,27,-1,-1,-1,-1,-1,-1,-1,-1],"loss_changes":[7.9241323E-1,1.9644192E-1,2.3681116E-1,6.7046605E-2,8.9027464E-2,2.9160453E-2,3.7572145E-2,0E0,2.8710185E-2,6.752191E-2,3.6362052E-2,0E0,0E0,0E0,0E0,0E0,3.387779E-5,4.222911E-2,1.3960837E-1,0E0,2.0336986E-2,0E0,0E0,0E0,0E0,0E0,0E0,0E0,0E0],"parents":[2147483647,0,0,1,1,2,2,3,3,4,4,5,5,6,6,8,8,9,9,10,10,16,16,17,17,18,18,20,20],"right_children":[2,4,6,8,10,12,14,-1,16,18,20,-1,-1,-1,-1,-1,22,24,26,-1,28,-1,-1,-1,-1,-1,-1,-1,-1],"split_conditions":[1.1327423E0,2.6132414E-1,3.1365713E-1,2.6354143E-1,8.159345E-1,5.7087415E-1,1.6904539E-1,2.2765575E-3,9.7679144E-1,3.466177E-1,6.028314E-1,-7.735801E-4,7.9460477E-4,1.3972473E-3,4.259193E-3,-7.628486E-4,6.895474E-1,3.233479E-1,7.297066E-1,-1.2107184E-3,2.4378201E-1,2.0507633E-4,7.408723E-4,2.5870983E-4,-8.367008E-4,1.3187059E-3,-6.210581E-4,4.7283666E-4,-6.958132E-4],"split_indices":[5,2,1,1,3,2,4,0,0,4,2,0,0,0,0,0,3,0,0,0,1,0,0,0,0,0,0,0,0],"split_type":[0,0,0,0,0,0,0,0,0,0,0,0,0,0,0,0,0,0,0,0,0,0,0,0,0,0,0,0,0],"sum_hessian":[7.2E1,6.3E1,9E0,7E0,5.6E1,3E0,6E0,2E0,5E0,3.2E1,2.4E1,1E0,2E0,2E0,4E0,1E0,4E0,1.9E1,1.3E1,2E1,4E0,1E0,3E0,4E0,1.5E1,6E0,7E0,2E0,2E0],"tree_param":{"num_deleted":"0","num_feature":"6","num_nodes":"29","size_leaf_vector":"1"}},{"base_weights":[1.5537483E-3,-3.9036963E-2,2.611789E-1,1.0769297E-1,-5.894578E-2,2.0712446E-2,3.6127704E-1,2.2613804E-3,3.0521609E-2,-2.3489939E-2,-1.0338965E-1,-7.6971226E-4,7.893074E-4,1.3879322E-3,4.2251195E-3,-7.5903436E-4,6.6987306E-2,-5.989254E-2,3.0191626E-2,-1.1991877E-3,-1.328941E-2,2.0405099E-4,7.353158E-4,2.566401E-4,-8.288567E-4,1.3074025E-3,-6.156238E-4,4.696844E-4,-6.9117453E-4],"categories":[],"categories_nodes":[],"categories_segments":[],"categories_sizes":[],"default_left":[0,0,0,0,0,0,0,0,0,0,0,0,0,0,0,0,0,0,0,0,0,0,0,0,0,0,0,0,0],"id":17,"left_children":[1,3,5,7,9,11,13,-1,15,17,19,-1,-1,-1,-1,-1,21,23,25,-1,27,-1,-1,-1,-1,-1,-1,-1,-1],"loss_changes":[7.794966E-1,1.9330606E-1,2.332195E-1,6.622244E-2,8.7391704E-2,2.8823305E-2,3.6724687E-2,0E0,2.8369745E-2,6.629515E-2,3.5638273E-2,0E0,0E0,0E0,0E0,0E0,2.381578E-5,4.147145E-2,1.3720903E-1,0E0,2.0066729E-2,0E0,0E0,0E0,0E0,0E0,0E0,0E0,0E0],"parents":[2147483647,0,0,1,1,2,2,3,3,4,4,5,5,6,6,8,8,9,9,10,10,16,16,17,17,18,18,20,20],"right_children":[2,4,6,8,10,12,14,-1,16,18,20,-1,-1,-1,-1,-1,22,24,26,-1,28,-1,-1,-1,-1,-1,-1,-1,-1],"split_conditions":[1.1327423E0,2.6132414E-1,3.1365713E-1,2.6354143E-1,8.159345E-1,5.7087415E-1,1.6904539E-1,2.2613804E-3,9.7679144E-1,3.466177E-1,6.028314E-1,-7.6971226E-4,7.893074E-4,1.3879322E-3,4.2251195E-3,-7.5903436E-4,6.895474E-1,3.233479E-1,7.297066E-1,-1.1991877E-3,2.4378201E-1,2.0405099E-4,7.353158E-4,2.566401E-4,-8.288567E-4,1.3074025E-3,-6.156238E-4,4.696844E-4,-6.9117453E-4],"split_indices":[5,2,1,1,3,2,4,0,0,4,2,0,0,0,0,0,3,0,0,0,1,0,0,0,0,0,0,0,0],"split_type":[0,0,0,0,0,0,0,0,0,0,0,0,0,0,0,0,0,0,0,0,0,0,0,0,0,0,0,0,0],"sum_hessian":[7.2E1,6.3E1,9E0,7E0,5.6E1,3E0,6E0,2E0,5E0,3.2E1,2.4E1,1E0,2E0,2E0,4E0,1E0,4E0,1.9E1,1.3E1,2E1,4E0,1E0,3E0,4E0,1.5E1,6E0,7E0,2E0,2E0],"tree_param":{"num_deleted":"0","num_feature":"6","num_nodes":"29","size_leaf_vector":"1"}},{"base_weights":[1.6309978E-3,-3.862877E-2,2.591304E-1,1.06921256E-1,-5.8379143E-2,2.0510219E-2,3.5846615E-1,2.2463046E-3,3.024645E-2,-2.3251412E-2,-1.0241259E-1,-7.6586363E-4,7.840454E-4,1.3786794E-3,4.1913185E-3,-7.5523916E-4,6.6505305E-2,-6.403956E-2,2.4088467E-2,-1.1877669E-3,-1.3200814E-2,2.0303071E-4,7.2980096E-4,6.894209E-5,-1.0008096E-3,-2.1463634E-4,1.6611067E-3,4.6655315E-4,-6.8656675E-4],"categories":[],"categories_nodes":[],"categories_segments":[],"categories_sizes":[],"default_left":[0,0,0,0,0,0,0,0,0,0,0,0,0,0,0,0,0,0,0,0,0,0,0,0,0,0,0,0,0],"id":18,"left_children":[1,3,5,7,9,11,13,-1,15,17,19,-1,-1,-1,-1,-1,21,23,25,-1,27,-1,-1,-1,-1,-1,-1,-1,-1],"loss_changes":[7.667911E-1,1.9022068E-1,2.2968298E-1,6.540837E-2,8.578606E-2,2.849008E-2,3.5894334E-2,0E0,2.8033419E-2,6.526251E-2,3.492883E-2,0E0,0E0,0E0,0E0,0E0,1.4027581E-5,4.670793E-2,1.070759E-1,0E0,1.9800065E-2,0E0,0E0,0E0,0E0,0E0,0E0,0E0,0E0],"parents":[2147483647,0,0,1,1,2,2,3,3,4,4,5,5,6,6,8,8,9,9,10,10,16,16,17,17,18,18,20,20],"right_children":[2,4,6,8,10,12,14,-1,16,18,20,-1,-1,-1,-1,-1,22,24,26,-1,28,-1,-1,-1,-1,-1,-1,-1,-1],"split_conditions":[1.1327423E0,2.6132414E-1,3.1365713E-1,2.6354143E-1,8.159345E-1,5.7087415E-1,1.6904539E-1,2.2463046E-3,9.7679144E-1,3.3804438E-1,6.028314E-1,-7.6586363E-4,7.840454E-4,1.3786794E-3,4.1913185E-3,-7.5523916E-4,6.895474E-1,4.2292726E-1,3.7327176E-1,-1.1877669E-3,2.4378201E-1,2.0303071E-4,7.2980096E-4,6.894209E-5,-1.0008096E-3,-2.1463634E-4,1.6611067E-3,4.6655315E-4,-6.8656675E-4],"split_indices":[5,2,1,1,3,2,4,0,0,4,2,0,0,0,0,0,3,0,5,0,1,0,0,0,0,0,0,0,0],"split_type":[0,0,0,0,0,0,0,0,0,0,0,0,0,0,0,0,0,0,0,0,0,0,0,0,0,0,0,0,0],"sum_hessian":[7.2E1,6.3E1,9E0,7E0,5.6E1,3E0,6E0,2E0,5E0,3.2E1,2.4E1,1E0,2E0,2E0,4E0,1E0,4E0,1.7E1,1.5E1,2E1,4E0,1E0,3E0,6E0,1.1E1,1.2E1,3E0,2E0,2E0],"tree_param":{"num_deleted":"0","num_feature":"6","num_nodes":"29","size_leaf_vector":"1"}},{"base_weights":[1.7122076E-3,-3.821856E-2,2.570979E-1,1.0615504E-1,-5.781102E-2,2.0309664E-2,3.5567722E-1,2.2313292E-3,2.9973583E-2,-2.3003306E-2,-1.01444766E-1,-7.620343E-4,7.788184E-4,1.3694881E-3,4.157788E-3,-7.51463E-4,6.602682E-2,-6.345094E-2,2.3937985E-2,-1.1764548E-3,-1.3112804E-2,2.0201557E-4,7.2432746E-4,6.835111E-5,-9.916355E-4,-2.1265508E-4,1.6486483E-3,4.634428E-4,-6.8198954E-4],"categories":[],"categories_nodes":[],"categories_segments":[],"categories_sizes":[],"default_left":[0,0,0,0,0,0,0,0,0,0,0,0,0,0,0,0,0,0,0,0,0,0,0,0,0,0,0,0,0],"id":19,"left_children":[1,3,5,7,9,11,13,-1,15,17,19,-1,-1,-1,-1,-1,21,23,25,-1,27,-1,-1,-1,-1,-1,-1,-1,-1],"loss_changes":[7.542615E-1,1.8716949E-1,2.2620046E-1,6.460427E-2,8.423753E-2,2.8160742E-2,3.508103E-2,0E0,2.7701143E-2,6.41748E-2,3.423336E-2,0E0,0E0,0E0,0E0,0E0,4.513189E-6,4.5859568E-2,1.0543212E-1,0E0,1.953694E-2,0E0,0E0,0E0,0E0,0E0,0E0,0E0,0E0],"parents":[2147483647,0,0,1,1,2,2,3,3,4,4,5,5,6,6,8,8,9,9,10,10,16,16,17,17,18,18,20,20],"right_children":[2,4,6,8,10,12,14,-1,16,18,20,-1,-1,-1,-1,-1,22,24,26,-1,28,-1,-1,-1,-1,-1,-1,-1,-1],"split_conditions":[1.1327423E0,2.6132414E-1,3.1365713E-1,2.6354143E-1,8.159345E-1,5.7087415E-1,1.6904539E-1,2.2313292E-3,9.7679144E-1,3.3804438E-1,6.028314E-1,-7.620343E-4,7.788184E-4,1.3694881E-3,4.157788E-3,-7.51463E-4,6.895474E-1,4.2292726E-1,3.7327176E-1,-1.1764548E-3,2.4378201E-1,2.0201557E-4,7.2432746E-4,6.835111E-5,-9.916355E-4,-2.1265508E-4,1.6486483E-3,4.634428E-4,-6.8198954E-4],"split_indices":[5,2,1,1,3,2,4,0,0,4,2,0,0,0,0,0,3,0,5,0,1,0,0,0,0,0,0,0,0],"split_type":[0,0,0,0,0,0,0,0,0,0,0,0,0,0,0,0,0,0,0,0,0,0,0,0,0,0,0,0,0],"sum_hessian":[7.2E1,6.3E1,9E0,7E0,5.6E1,3E0,6E0,2E0,5E0,3.2E1,2.4E1,1E0,2E0,2E0,4E0,1E0,4E0,1.7E1,1.5E1,2E1,4E0,1E0,3E0,6E0,1.1E1,1.2E1,3E0,2E0,2E0],"tree_param":{"num_deleted":"0","num_feature":"6","num_nodes":"29","size_leaf_vector":"1"}},{"base_weights":[1.7919093E-3,-3.7812565E-2,2.5508136E-1,1.0539426E-1,-5.7248387E-2,2.011076E-2,3.5291004E-1,2.2164537E-3,2.9702993E-2,-2.2757735E-2,-1.00486115E-1,-7.5822417E-4,7.7362626E-4,1.3603581E-3,4.1245255E-3,-7.477057E-4,6.5551815E-4,-6.2867716E-2,2.3788355E-2,-1.1652504E-3,-1.30253825E-2,2.534886E-4,-8.988309E-4,-2.1069212E-4,1.6362835E-3,4.6035319E-4,-6.7744293E-4],"categories":[],"categories_nodes":[],"categories_segments":[],"categories_sizes":[],"default_left":[0,0,0,0,0,0,0,0,0,0,0,0,0,0,0,0,0,0,0,0,0,0,0,0,0,0,0],"id":20,"left_children":[1,3,5,7,9,11,13,-1,15,17,19,-1,-1,-1,-1,-1,-1,21,23,-1,25,-1,-1,-1,-1,-1,-1],"loss_changes":[7.4193704E-1,1.8416758E-1,2.227714E-1,6.381001E-2,8.2717136E-2,2.7835237E-2,3.4284353E-2,0E0,2.7372874E-2,6.310529E-2,3.3551604E-2,0E0,0E0,0E0,0E0,0E0,0E0,4.5176104E-2,1.0381363E-1,0E0,1.9277314E-2,0E0,0E0,0E0,0E0,0E0,0E0],"parents":[2147483647,0,0,1,1,2,2,3,3,4,4,5,5,6,6,8,8,9,9,10,10,17,17,18,18,20,20],"right_children":[2,4,6,8,10,12,14,-1,16,18,20,-1,-1,-1,-1,-1,-1,22,24,-1,26,-1,-1,-1,-1,-1,-1],"split_conditions":[1.1327423E0,2.6132414E-1,3.1365713E-1,2.6354143E-1,8.159345E-1,5.7087415E-1,1.6904539E-1,2.2164537E-3,9.7679144E-1,3.3804438E-1,6.028314E-1,-7.5822417E-4,7.7362626E-4,1.3603581E-3,4.1245255E-3,-7.477057E-4,6.5551815E-4,3.233479E-1,3.7327176E-1,-1.1652504E-3,2.4378201E-1,2.534886E-4,-8.988309E-4,-2.1069212E-4,1.6362835E-3,4.6035319E-4,-6.7744293E-4],"split_indices":[5,2,1,1,3,2,4,0,0,4,2,0,0,0,0,0,0,0,5,0,1,0,0,0,0,0,0],"split_type":[0,0,0,0,0,0,0,0,0,0,0,0,0,0,0,0,0,0,0,0,0,0,0,0,0,0,0],"sum_hessian":[7.2E1,6.3E1,9E0,7E0,5.6E1,3E0,6E0,2E0,5E0,3.2E1,2.4E1,1E0,2E0,2E0,4E0,1E0,4E0,1.7E1,1.5E1,2E1,4E0,4E0,1.3E1,1.2E1,3E0,2E0,2E0],"tree_param":{"num_deleted":"0","num_feature":"6","num_nodes":"27","size_leaf_vector":"1"}},{"base_weights":[1.8701913E-3,-3.741065E-2,2.5308055E-1,1.0460585E-1,-5.6686465E-2,1.9913506E-2,3.501645E-1,2.2016773E-3,2.9390601E-2,-2.250651E-2,-9.9536546E-2,-7.5443304E-4,7.684687E-4,1.3512891E-3,4.0915296E-3,-7.4396713E-4,6.502741E-2,-6.227489E-2,2.3639567E-2,-1.15415275E-1,-1.293855E-2,1.977279E-4,7.139786E-4,6.8884874E-5,-9.7430614E-4,9.577299E-4,-6.046548E-4,-1.3213101E-3,-8.381487E-4,4.5728413E-4,-6.7292666E-4],"categories":[],"categories_nodes":[],"categories_segments":[],"categories_sizes":[],"default_left":[0,0,0,0,0,0,0,0,0,0,0,0,0,0,0,0,0,0,0,0,0,0,0,0,0,0,0,0,0,0,0],"id":21,"left_children":[1,3,5,7,9,11,13,-1,15,17,19,-1,-1,-1,-1,-1,21,23,25,27,29,-1,-1,-1,-1,-1,-1,-1,-1,-1,-1],"loss_changes":[7.29814E-1,1.8112871E-1,2.193948E-1,6.306526E-2,8.1242755E-2,2.751352E-2,3.350395E-2,0E0,2.7029715E-2,6.2032245E-2,3.2883346E-2,0E0,0E0,0E0,0E0,0E0,2.972968E-5,4.4437952E-2,1.0285951E-1,1.8149614E-5,1.9021142E-2,0E0,0E0,0E0,0E0,0E0,0E0,0E0,0E0,0E0,0E0],"parents":[2147483647,0,0,1,1,2,2,3,3,4,4,5,5,6,6,8,8,9,9,10,10,16,16,17,17,18,18,19,19,20,20],"right_children":[2,4,6,8,10,12,14,-1,16,18,20,-1,-1,-1,-1,-1,22,24,26,28,30,-1,-1,-1,-1,-1,-1,-1,-1,-1,-1],"split_conditions":[1.1327423E0,2.6132414E-1,3.1365713E-1,2.6354143E-1,8.159345E-1,5.7087415E-1,1.6904539E-1,2.2016773E-3,9.7679144E-1,3.3804438E-1,6.028314E-1,-7.5443304E-4,7.684687E-4,1.3512891E-3,4.0915296E-3,-7.4396713E-4,6.895474E-1,4.2292726E-1,7.297066E-1,5.210893E-1,2.4378201E-1,1.977279E-4,7.139786E-4,6.8884874E-5,-9.7430614E-4,9.577299E-4,-6.046548E-4,-1.3213101E-3,-8.381487E-4,4.5728413E-4,-6.7292666E-4],"split_indices":[5,2,1,1,3,2,4,0,0,4,2,0,0,0,0,0,3,0,0,2,1,0,0,0,0,0,0,0,0,0,0],"split_type":[0,0,0,0,0,0,0,0,0,0,0,0,0,0,0,0,0,0,0,0,0,0,0,0,0,0,0,0,0,0,0],"sum_hessian":[7.2E1,6.3E1,9E0,7E0,5.6E1,3E0,6E0,2E0,5E0,3.2E1,2.4E1,1E0,2E0,2E0,4E0,1E0,4E0,1.7E1,1.5E1,2E1,4E0,1E0,3E0,6E0,1.1E1,8E0,7E0,1.1E1,9E0,2E0,2E0],"tree_param":{"num_deleted":"0","num_feature":"6","num_nodes":"31","size_leaf_vector":"1"}},{"base_weights":[1.9185991E-3,-3.7045263E-2,2.5109544E-1,1.03855975E-1,-5.6170955E-2,1.971788E-2,3.4744042E-1,2.1869994E-3,2.9124655E-2,-2.2298181E-2,-9.863618E-2,-7.506609E-4,7.633456E-4,1.3422807E-3,4.0587974E-3,-7.4024725E-4,6.4559475E-2,-6.679245E-2,1.849107E-2,-1.1436395E-1,-1.2852299E-2,1.9673927E-4,7.086238E-4,6.82944E-5,-1.1164852E-3,-2.0926142E-4,1.6168284E-3,-1.309198E-3,-8.306054E-4,4.5423556E-4,-6.6844054E-4],"categories":[],"categories_nodes":[],"categories_segments":[],"categories_sizes":[],"default_left":[0,0,0,0,0,0,0,0,0,0,0,0,0,0,0,0,0,0,0,0,0,0,0,0,0,0,0,0,0,0,0],"id":22,"left_children":[1,3,5,7,9,11,13,-1,15,17,19,-1,-1,-1,-1,-1,21,23,25,27,29,-1,-1,-1,-1,-1,-1,-1,-1,-1,-1],"loss_changes":[7.18051E-1,1.7830306E-1,2.1606988E-1,6.2289976E-2,7.979025E-2,2.7195554E-2,3.273946E-2,0E0,2.6709478E-2,6.1126366E-2,3.2259896E-2,0E0,0E0,0E0,0E0,0E0,2.0405278E-5,5.3600736E-2,1.0497937E-1,9.089708E-6,1.8768374E-2,0E0,0E0,0E0,0E0,0E0,0E0,0E0,0E0,0E0,0E0],"parents":[2147483647,0,0,1,1,2,2,3,3,4,4,5,5,6,6,8,8,9,9,10,10,16,16,17,17,18,18,19,19,20,20],"right_children":[2,4,6,8,10,12,14,-1,16,18,20,-1,-1,-1,-1,-1,22,24,26,28,30,-1,-1,-1,-1,-1,-1,-1,-1,-1,-1],"split_conditions":[1.1327423E0,2.6132414E-1,3.1365713E-1,2.6354143E-1,8.159345E-1,5.7087415E-1,1.6904539E-1,2.1869994E-3,9.7679144E-1,2.9973823E-1,6.028314E-1,-7.506609E-4,7.633456E-4,1.3422807E-3,4.0587974E-3,-7.4024725E-4,6.895474E-1,4.2292726E-1,3.7327176E-1,5.210893E-1,2.4378201E-1,1.9673927E-4,7.086238E-4,6.82944E-5,-1.1164852E-3,-2.0926142E-4,1.6168284E-3,-1.309198E-3,-8.306054E-4,4.5423556E-4,-6.6844054E-4],"split_indices":[5,2,1,1,3,2,4,0,0,4,2,0,0,0,0,0,3,0,5,2,1,0,0,0,0,0,0,0,0,0,0],"split_type":[0,0,0,0,0,0,0,0,0,0,0,0,0,0,0,0,0,0,0,0,0,0,0,0,0,0,0,0,0,0,0],"sum_hessian":[7.2E1,6.3E1,9E0,7E0,5.6E1,3E0,6E0,2E0,5E0,3.2E1,2.4E1,1E0,2E0,2E0,4E0,1E0,4E0,1.5E1,1.7E1,2E1,4E0,1E0,3E0,6E0,9E0,1.4E1,3E0,1.1E1,9E0,2E0,2E0],"tree_param":{"num_deleted":"0","num_feature":"6","num_nodes":"31","size_leaf_vector":"1"}},{"base_weights":[1.978469E-3,-3.6669225E-2,2.4912585E-1,1.0311142E-1,-5.564424E-2,1.9523874E-2,3.447376E-1,2.1724193E-3,2.8860927E-2,-2.2064311E-2,-9.774398E-2,-7.4690755E-4,7.5825665E-4,1.333332E-3,4.026327E-3,-7.3654606E-4,6.409495E-2,-6.619004E-2,1.8384354E-2,-1.133222E-3,-1.2766617E-2,1.9575558E-4,7.0330914E-4,6.770904E-5,-1.106437E-3,-2.0730835E-4,1.6047021E-3,4.5120734E-4,-6.6398433E-4],"categories":[],"categories_nodes":[],"categories_segments":[],"categories_sizes":[],"default_left":[0,0,0,0,0,0,0,0,0,0,0,0,0,0,0,0,0,0,0,0,0,0,0,0,0,0,0,0,0],"id":23,"left_children":[1,3,5,7,9,11,13,-1,15,17,19,-1,-1,-1,-1,-1,21,23,25,-1,27,-1,-1,-1,-1,-1,-1,-1,-1],"loss_changes":[7.0640767E-1,1.7548734E-1,2.1279585E-1,6.1524168E-2,7.842459E-2,2.688129E-2,3.1990647E-2,0E0,2.6393097E-2,6.0116142E-2,3.164819E-2,0E0,0E0,0E0,0E0,0E0,1.1341646E-5,5.2643254E-2,1.0336556E-1,0E0,1.8518966E-2,0E0,0E0,0E0,0E0,0E0,0E0,0E0,0E0],"parents":[2147483647,0,0,1,1,2,2,3,3,4,4,5,5,6,6,8,8,9,9,10,10,16,16,17,17,18,18,20,20],"right_children":[2,4,6,8,10,12,14,-1,16,18,20,-1,-1,-1,-1,-1,22,24,26,-1,28,-1,-1,-1,-1,-1,-1,-1,-1],"split_conditions":[1.1327423E0,2.6132414E-1,3.1365713E-1,2.6354143E-1,8.159345E-1,5.7087415E-1,1.6904539E-1,2.1724193E-3,9.7679144E-1,2.9973823E-1,6.028314E-1,-7.4690755E-4,7.5825665E-4,1.333332E-3,4.026327E-3,-7.3654606E-4,6.895474E-1,4.2292726E-1,3.7327176E-1,-1.133222E-3,2.4378201E-1,1.9575558E-4,7.0330914E-4,6.770904E-5,-1.106437E-3,-2.0730835E-4,1.6047021E-3,4.5120734E-4,-6.6398433E-4],"split_indices":[5,2,1,1,3,2,4,0,0,4,2,0,0,0,0,0,3,0,5,0,1,0,0,0,0,0,0,0,0],"split_type":[0,0,0,0,0,0,0,0,0,0,0,0,0,0,0,0,0,0,0,0,0,0,0,0,0,0,0,0,0],"sum_hessian":[7.2E1,6.3E1,9E0,7E0,5.6E1,3E0,6E0,2E0,5E0,3.2E1,2.4E1,1E0,2E0,2E0,4E0,1E0,4E0,1.5E1,1.7E1,2E1,4E0,1E0,3E0,6E0,9E0,1.4E1,3E0,2E0,2E0],"tree_param":{"num_deleted":"0","num_feature":"6","num_nodes":"29","size_leaf_vector":"1"}},{"base_weights":[2.0507202E-3,-3.6281478E-2,2.471717E-1,1.02372184E-1,-5.510512E-2,1.933147E-2,3.420559E-1,2.1579366E-3,2.8599406E-2,-2.18328E-2,-9.6820384E-2,-7.4317306E-4,7.532016E-4,1.3244431E-3,3.9941166E-3,-7.328633E-4,6.363382E-2,-6.559306E-2,1.827814E-2,-1.1224295E-1,-1.2681505E-2,1.947768E-4,6.980343E-4,6.712866E-5,-1.096479E-3,-2.053735E-4,1.592667E-3,-1.2868091E-3,-8.12931E-4,4.481993E-4,-6.595577E-4],"categories":[],"categories_nodes":[],"categories_segments":[],"categories_sizes":[],"default_left":[0,0,0,0,0,0,0,0,0,0,0,0,0,0,0,0,0,0,0,0,0,0,0,0,0,0,0,0,0,0,0],"id":24,"left_children":[1,3,5,7,9,11,13,-1,15,17,19,-1,-1,-1,-1,-1,21,23,25,27,29,-1,-1,-1,-1,-1,-1,-1,-1,-1,-1],"loss_changes":[6.9487756E-1,1.7267914E-1,2.095719E-1,6.0767785E-2,7.700004E-2,2.6570683E-2,3.1257212E-2,0E0,2.6080534E-2,5.912266E-2,3.1017542E-2,0E0,0E0,0E0,0E0,0E0,2.5220215E-6,5.1702872E-2,1.0177664E-1,2.2292137E-4,1.8272867E-2,0E0,0E0,0E0,0E0,0E0,0E0,0E0,0E0,0E0,0E0],"parents":[2147483647,0,0,1,1,2,2,3,3,4,4,5,5,6,6,8,8,9,9,10,10,16,16,17,17,18,18,19,19,20,20],"right_children":[2,4,6,8,10,12,14,-1,16,18,20,-1,-1,-1,-1,-1,22,24,26,28,30,-1,-1,-1,-1,-1,-1,-1,-1,-1,-1],"split_conditions":[1.1327423E0,2.6132414E-1,3.1365713E-1,2.6354143E-1,8.159345E-1,5.7087415E-1,1.6904539E-1,2.1579366E-3,9.7679144E-1,2.9973823E-1,6.028314E-1,-7.4317306E-4,7.532016E-4,1.3244431E-3,3.9941166E-3,-7.328633E-4,6.895474E-1,4.2292726E-1,3.7327176E-1,5.210893E-1,2.4378201E-1,1.947768E-4,6.980343E-4,6.712866E-5,-1.096479E-3,-2.053735E-4,1.592667E-3,-1.2868091E-3,-8.12931E-4,4.481993E-4,-6.595577E-4],"split_indices":[5,2,1,1,3,2,4,0,0,4,2,0,0,0,0,0,3,0,5,2,1,0,0,0,0,0,0,0,0,0,0],"split_type":[0,0,0,0,0,0,0,0,0,0,0,0,0,0,0,0,0,0,0,0,0,0,0,0,0,0,0,0,0,0,0],"sum_hessian":[7.2E1,6.3E1,9E0,7E0,5.6E1,3E0,6E0,2E0,5E0,3.2E1,2.4E1,1E0,2E0,2E0,4E0,1E0,4E0,1.5E1,1.7E1,2E1,4E0,1E0,3E0,6E0,9E0,1.4E1,3E0,1.1E1,9E0,2E0,2E0],"tree_param":{"num_deleted":"0","num_feature":"6","num_nodes":"31","size_leaf_vector":"1"}},{"base_weights":[2.1082023E-3,-3.5912964E-2,2.4523285E-1,1.016382E-1,-5.458834E-2,1.914066E-2,3.3939514E-1,2.1435504E-3,2.8340073E-2,-2.1603629E-2,-9.594462E-2,-7.3945714E-4,7.481802E-4,1.3156135E-3,3.9621633E-3,-7.29199E-4,6.317605E-4,-6.5001465E-2,1.8172426E-2,-1.1122051E-1,-1.2596962E-2,6.655327E-5,-1.0866107E-3,-2.0345674E-4,1.580722E-3,-1.2750136E-3,-8.056146E-4,4.4521134E-4,-6.551607E-4],"categories":[],"categories_nodes":[],"categories_segments":[],"categories_sizes":[],"default_left":[0,0,0,0,0,0,0,0,0,0,0,0,0,0,0,0,0,0,0,0,0,0,0,0,0,0,0,0,0],"id":25,"left_children":[1,3,5,7,9,11,13,-1,15,17,19,-1,-1,-1,-1,-1,-1,21,23,25,27,-1,-1,-1,-1,-1,-1,-1,-1],"loss_changes":[6.836105E-1,1.6995269E-1,2.063973E-1,6.0020633E-2,7.568237E-2,2.6263688E-2,3.0538857E-2,0E0,2.5771728E-2,5.8145665E-2,3.042923E-2,0E0,0E0,0E0,0E0,0E0,0E0,5.0779298E-2,1.002122E-1,2.1055341E-4,1.8030042E-2,0E0,0E0,0E0,0E0,0E0,0E0,0E0,0E0],"parents":[2147483647,0,0,1,1,2,2,3,3,4,4,5,5,6,6,8,8,9,9,10,10,17,17,18,18,19,19,20,20],"right_children":[2,4,6,8,10,12,14,-1,16,18,20,-1,-1,-1,-1,-1,-1,22,24,26,28,-1,-1,-1,-1,-1,-1,-1,-1],"split_conditions":[1.1327423E0,2.6132414E-1,3.1365713E-1,2.6354143E-1,8.159345E-1,5.7087415E-1,1.6904539E-1,2.1435504E-3,9.7679144E-1,2.9973823E-1,6.028314E-1,-7.3945714E-4,7.481802E-4,1.3156135E-3,3.9621633E-3,-7.29199E-4,6.317605E-4,4.2292726E-1,3.7327176E-1,5.210893E-1,2.4378201E-1,6.655327E-5,-1.0866107E-3,-2.0345674E-4,1.580722E-3,-1.2750136E-3,-8.056146E-4,4.4521134E-4,-6.551607E-4],"split_indices":[5,2,1,1,3,2,4,0,0,4,2,0,0,0,0,0,0,0,5,2,1,0,0,0,0,0,0,0,0],"split_type":[0,0,0,0,0,0,0,0,0,0,0,0,0,0,0,0,0,0,0,0,0,0,0,0,0,0,0,0,0],"sum_hessian":[7.2E1,6.3E1,9E0,7E0,5.6E1,3E0,6E0,2E0,5E0,3.2E1,2.4E1,1E0,2E0,2E0,4E0,1E0,4E0,1.5E1,1.7E1,2E1,4E0,6E0,9E0,1.4E1,3E0,1.1E1,9E0,2E0,2E0],"tree_param":{"num_deleted":"0","num_feature":"6","num_nodes":"29","size_leaf_vector":"1"}},{"base_weights":[2.161083E-3,-3.5552073E-2,2.4330917E-1,1.00877576E-1,-5.4076374E-2,1.895143E-2,3.3675516E-1,2.1292602E-3,2.8040431E-2,-2.1376766E-2,-9.50768E-2,-7.3575985E-4,7.4319233E-4,1.3068428E-3,3.9304662E-3,-7.2555296E-4,6.267063E-2,-6.44152E-2,1.806722E-2,-1.1020739E-1,-1.25129875E-2,1.9064412E-4,6.880609E-4,6.598285E-5,-1.0768312E-3,-2.0155778E-4,1.5688667E-3,-1.2633258E-3,-7.9836405E-4,4.422432E-4,-6.50793E-4],"categories":[],"categories_nodes":[],"categories_segments":[],"categories_sizes":[],"default_left":[0,0,0,0,0,0,0,0,0,0,0,0,0,0,0,0,0,0,0,0,0,0,0,0,0,0,0,0,0,0,0],"id":26,"left_children":[1,3,5,7,9,11,13,-1,15,17,19,-1,-1,-1,-1,-1,21,23,25,27,29,-1,-1,-1,-1,-1,-1,-1,-1,-1,-1],"loss_changes":[6.725454E-1,1.6719997E-1,2.0327133E-1,5.9319757E-2,7.438734E-2,2.596027E-2,2.9835224E-2,0E0,2.5448991E-2,5.7184856E-2,2.9851928E-2,0E0,0E0,0E0,0E0,0E0,2.5970861E-5,4.987222E-2,9.867188E-2,1.9857287E-4,1.7790446E-2,0E0,0E0,0E0,0E0,0E0,0E0,0E0,0E0,0E0,0E0],"parents":[2147483647,0,0,1,1,2,2,3,3,4,4,5,5,6,6,8,8,9,9,10,10,16,16,17,17,18,18,19,19,20,20],"right_children":[2,4,6,8,10,12,14,-1,16,18,20,-1,-1,-1,-1,-1,22,24,26,28,30,-1,-1,-1,-1,-1,-1,-1,-1,-1,-1],"split_conditions":[1.1327423E0,2.6132414E-1,3.1365713E-1,2.6354143E-1,8.159345E-1,5.7087415E-1,1.6904539E-1,2.1292602E-3,9.7679144E-1,2.9973823E-1,6.028314E-1,-7.3575985E-4,7.4319233E-4,1.3068428E-3,3.9304662E-3,-7.2555296E-4,6.895474E-1,4.2292726E-1,3.7327176E-1,5.210893E-1,2.4378201E-1,1.9064412E-4,6.880609E-4,6.598285E-5,-1.0768312E-3,-2.0155778E-4,1.5688667E-3,-1.2633258E-3,-7.9836405E-4,4.422432E-4,-6.50793E-4],"split_indices":[5,2,1,1,3,2,4,0,0,4,2,0,0,0,0,0,3,0,5,2,1,0,0,0,0,0,0,0,0,0,0],"split_type":[0,0,0,0,0,0,0,0,0,0,0,0,0,0,0,0,0,0,0,0,0,0,0,0,0,0,0,0,0,0,0],"sum_hessian":[7.2E1,6.3E1,9E0,7E0,5.6E1,3E0,6E0,2E0,5E0,3.2E1,2.4E1,1E0,2E0,2E0,4E0,1E0,4E0,1.5E1,1.7E1,2E1,4E0,1E0,3E0,6E0,9E0,1.4E1,3E0,1.1E1,9E0,2E0,2E0],"tree_param":{"num_deleted":"0","num_feature":"6","num_nodes":"31","size_leaf_vector":"1"}},{"base_weights":[2.2163661E-3,-3.5190795E-2,2.4140055E-1,1.001541E-1,-5.3569186E-2,1.8763773E-2,3.3413577E-1,2.115065E-3,2.7785553E-2,-2.1152198E-2,-9.4216846E-2,-7.3208107E-4,7.382377E-4,1.2981306E-3,3.8990225E-3,-7.219252E-4,6.2219672E-2,-6.383423E-2,1.7962508E-2,-1.0920349E-1,-1.2429565E-2,1.8969088E-4,6.8290037E-4,6.541729E-5,-1.0671398E-3,-1.9967662E-4,1.5571001E-3,-1.2517454E-3,-7.911788E-4,4.3929496E-4,-6.464544E-4],"categories":[],"categories_nodes":[],"categories_segments":[],"categories_sizes":[],"default_left":[0,0,0,0,0,0,0,0,0,0,0,0,0,0,0,0,0,0,0,0,0,0,0,0,0,0,0,0,0,0,0],"id":27,"left_children":[1,3,5,7,9,11,13,-1,15,17,19,-1,-1,-1,-1,-1,21,23,25,27,29,-1,-1,-1,-1,-1,-1,-1,-1,-1,-1],"loss_changes":[6.6164076E-1,1.6456015E-1,2.001931E-1,5.8590464E-2,7.311456E-2,2.5660384E-2,2.9146075E-2,0E0,2.5147734E-2,5.6239963E-2,2.928558E-2,0E0,0E0,0E0,0E0,0E0,1.7337501E-5,4.898134E-2,9.7155325E-2,1.8692017E-4,1.755403E-2,0E0,0E0,0E0,0E0,0E0,0E0,0E0,0E0,0E0,0E0],"parents":[2147483647,0,0,1,1,2,2,3,3,4,4,5,5,6,6,8,8,9,9,10,10,16,16,17,17,18,18,19,19,20,20],"right_children":[2,4,6,8,10,12,14,-1,16,18,20,-1,-1,-1,-1,-1,22,24,26,28,30,-1,-1,-1,-1,-1,-1,-1,-1,-1,-1],"split_conditions":[1.1327423E0,2.6132414E-1,3.1365713E-1,2.6354143E-1,8.159345E-1,5.7087415E-1,1.6904539E-1,2.115065E-3,9.7679144E-1,2.9973823E-1,6.028314E-1,-7.3208107E-4,7.382377E-4,1.2981306E-3,3.8990225E-3,-7.219252E-4,6.895474E-1,4.2292726E-1,3.7327176E-1,5.210893E-1,2.4378201E-1,1.8969088E-4,6.8290037E-4,6.541729E-5,-1.0671398E-3,-1.9967662E-4,1.5571001E-3,-1.2517454E-3,-7.911788E-4,4.3929496E-4,-6.464544E-4],"split_indices":[5,2,1,1,3,2,4,0,0,4,2,0,0,0,0,0,3,0,5,2,1,0,0,0,0,0,0,0,0,0,0],"split_type":[0,0,0,0,0,0,0,0,0,0,0,0,0,0,0,0,0,0,0,0,0,0,0,0,0,0,0,0,0,0,0],"sum_hessian":[7.2E1,6.3E1,9E0,7E0,5.6E1,3E0,6E0,2E0,5E0,3.2E1,2.4E1,1E0,2E0,2E0,4E0,1E0,4E0,1.5E1,1.7E1,2E1,4E0,1E0,3E0,6E0,9E0,1.4E1,3E0,1.1E1,9E0,2E0,2E0],"tree_param":{"num_deleted":"0","num_feature":"6","num_nodes":"31","size_leaf_vector":"1"}},{"base_weights":[2.270568E-3,-3.4833085E-2,2.3950689E-1,9.943578E-2,-5.306673E-2,1.8577676E-2,3.3153686E-1,2.1009645E-3,2.7532807E-2,-2.0929895E-2,-9.336468E-2,-7.284207E-4,7.333162E-4,1.2894763E-3,3.8678301E-3,-7.1831554E-4,6.177199E-2,-6.325849E-2,1.7858293E-2,-1.0820874E-1,-1.23467E-2,1.8874243E-4,6.777786E-4,6.4856584E-5,-1.0575354E-3,-1.9781297E-4,1.5454218E-3,-1.240271E-3,-7.840582E-4,4.363663E-4,-6.421446E-4],"categories":[],"categories_nodes":[],"categories_segments":[],"categories_sizes":[],"default_left":[0,0,0,0,0,0,0,0,0,0,0,0,0,0,0,0,0,0,0,0,0,0,0,0,0,0,0,0,0,0,0],"id":28,"left_children":[1,3,5,7,9,11,13,-1,15,17,19,-1,-1,-1,-1,-1,21,23,25,27,29,-1,-1,-1,-1,-1,-1,-1,-1,-1,-1],"loss_changes":[6.509131E-1,1.6196224E-1,1.9716191E-1,5.7870105E-2,7.186364E-2,2.5363991E-2,2.8471172E-2,0E0,2.4850104E-2,5.5310726E-2,2.8729886E-2,0E0,0E0,0E0,0E0,0E0,8.938834E-6,4.8106387E-2,9.56621E-2,1.7565489E-4,1.7320752E-2,0E0,0E0,0E0,0E0,0E0,0E0,0E0,0E0,0E0,0E0],"parents":[2147483647,0,0,1,1,2,2,3,3,4,4,5,5,6,6,8,8,9,9,10,10,16,16,17,17,18,18,19,19,20,20],"right_children":[2,4,6,8,10,12,14,-1,16,18,20,-1,-1,-1,-1,-1,22,24,26,28,30,-1,-1,-1,-1,-1,-1,-1,-1,-1,-1],"split_conditions":[1.1327423E0,2.6132414E-1,3.1365713E-1,2.6354143E-1,8.159345E-1,5.7087415E-1,1.6904539E-1,2.1009645E-3,9.7679144E-1,2.9973823E-1,6.028314E-1,-7.284207E-4,7.333162E-4,1.2894763E-3,3.8678301E-3,-7.1831554E-4,6.895474E-1,4.2292726E-1,3.7327176E-1,5.210893E-1,2.4378201E-1,1.8874243E-4,6.777786E-4,6.4856584E-5,-1.0575354E-3,-1.9781297E-4,1.5454218E-3,-1.240271E-3,-7.840582E-4,4.363663E-4,-6.421446E-4],"split_indices":[5,2,1,1,3,2,4,0,0,4,2,0,0,0,0,0,3,0,5,2,1,0,0,0,0,0,0,0,0,0,0],"split_type":[0,0,0,0,0,0,0,0,0,0,0,0,0,0,0,0,0,0,0,0,0,0,0,0,0,0,0,0,0,0,0],"sum_hessian":[7.2E1,6.3E1,9E0,7E0,5.6E1,3E0,6E0,2E0,5E0,3.2E1,2.4E1,1E0,2E0,2E0,4E0,1E0,4E0,1.5E1,1.7E1,2E1,4E0,1E0,3E0,6E0,9E0,1.4E1,3E0,1.1E1,9E0,2E0,2E0],"tree_param":{"num_deleted":"0","num_feature":"6","num_nodes":"31","size_leaf_vector":"1"}},{"base_weights":[2.323699E-3,-3.447891E-2,2.3762803E-1,9.872256E-2,-5.256896E-2,1.8393122E-2,3.2895827E-1,2.0869581E-3,2.7282178E-2,-2.0709842E-2,-9.252024E-2,-7.247786E-4,7.284274E-4,1.2808798E-3,3.8368877E-3,-7.1472395E-4,6.1327574E-4,-3.868951E-2,6.664691E-2,-1.0722305E-1,-1.2264386E-2,-8.963105E-4,-5.409149E-5,-7.1217E-4,1.533831E-3,-1.2289019E-3,-7.770017E-4,4.334572E-4,-6.3786365E-4],"categories":[],"categories_nodes":[],"categories_segments":[],"categories_sizes":[],"default_left":[0,0,0,0,0,0,0,0,0,0,0,0,0,0,0,0,0,0,0,0,0,0,0,0,0,0,0,0,0],"id":29,"left_children":[1,3,5,7,9,11,13,-1,15,17,19,-1,-1,-1,-1,-1,-1,21,23,25,27,-1,-1,-1,-1,-1,-1,-1,-1],"loss_changes":[6.403595E-1,1.5940551E-1,1.9417721E-1,5.7158582E-2,7.063423E-2,2.5071045E-2,2.7810156E-2,0E0,2.455606E-2,5.4409828E-2,2.8184652E-2,0E0,0E0,0E0,0E0,0E0,0E0,4.6985045E-2,8.267024E-2,1.6473234E-4,1.7090578E-2,0E0,0E0,0E0,0E0,0E0,0E0,0E0,0E0],"parents":[2147483647,0,0,1,1,2,2,3,3,4,4,5,5,6,6,8,8,9,9,10,10,17,17,18,18,19,19,20,20],"right_children":[2,4,6,8,10,12,14,-1,16,18,20,-1,-1,-1,-1,-1,-1,22,24,26,28,-1,-1,-1,-1,-1,-1,-1,-1],"split_conditions":[1.1327423E0,2.6132414E-1,3.1365713E-1,2.6354143E-1,8.159345E-1,5.7087415E-1,1.6904539E-1,2.0869581E-3,9.7679144E-1,4.7876278E-1,6.028314E-1,-7.247786E-4,7.284274E-4,1.2808798E-3,3.8368877E-3,-7.1472395E-4,6.1327574E-4,4.103223E-1,4.5652145E-1,5.210893E-1,2.4378201E-1,-8.963105E-4,-5.409149E-5,-7.1217E-4,1.533831E-3,-1.2289019E-3,-7.770017E-4,4.334572E-4,-6.3786365E-4],"split_indices":[5,2,1,1,3,2,4,0,0,5,2,0,0,0,0,0,0,2,0,2,1,0,0,0,0,0,0,0,0],"split_type":[0,0,0,0,0,0,0,0,0,0,0,0,0,0,0,0,0,0,0,0,0,0,0,0,0,0,0,0,0],"sum_hessian":[7.2E1,6.3E1,9E0,7E0,5.6E1,3E0,6E0,2E0,5E0,3.2E1,2.4E1,1E0,2E0,2E0,4E0,1E0,4E0,2.7E1,5E0,2E1,4E0,1E1,1.7E1,2E0,3E0,1.1E1,9E0,2E0,2E0],"tree_param":{"num_deleted":"0","num_feature":"6","num_nodes":"29","size_leaf_vector":"1"}},{"base_weights":[2.365773E-3,-3.4139648E-2,2.3576388E-1,9.7983524E-2,-5.2084308E-2,1.8210102E-2,3.2639977E-1,2.073045E-3,2.699245E-2,-2.0506646E-2,-9.168345E-2,-7.2115473E-4,7.2357117E-4,1.2723405E-3,3.8061924E-3,-7.1115035E-4,6.0836956E-2,-5.3354546E-2,2.7883682E-2,-1.0624634E-1,-1.2182626E-2,1.8473237E-4,6.680958E-4,2.4761492E-4,-7.4431143E-4,1.22186E-3,-5.811631E-4,-1.217637E-3,-7.700086E-4,4.3056745E-4,-6.336112E-4],"categories":[],"categories_nodes":[],"categories_segments":[],"categories_sizes":[],"default_left":[0,0,0,0,0,0,0,0,0,0,0,0,0,0,0,0,0,0,0,0,0,0,0,0,0,0,0,0,0,0,0],"id":30,"left_children":[1,3,5,7,9,11,13,-1,15,17,19,-1,-1,-1,-1,-1,21,23,25,27,29,-1,-1,-1,-1,-1,-1,-1,-1,-1,-1],"loss_changes":[6.300305E-1,1.5684135E-1,1.9123805E-1,5.6490846E-2,6.939542E-2,2.478151E-2,2.716291E-2,0E0,2.424882E-2,5.3941898E-2,2.76497E-2,0E0,0E0,0E0,0E0,0E0,3.0923635E-5,3.4771442E-2,1.20640986E-1,1.5415251E-4,1.6863465E-2,0E0,0E0,0E0,0E0,0E0,0E0,0E0,0E0,0E0,0E0],"parents":[2147483647,0,0,1,1,2,2,3,3,4,4,5,5,6,6,8,8,9,9,10,10,16,16,17,17,18,18,19,19,20,20],"right_children":[2,4,6,8,10,12,14,-1,16,18,20,-1,-1,-1,-1,-1,22,24,26,28,30,-1,-1,-1,-1,-1,-1,-1,-1,-1,-1],"split_conditions":[1.1327423E0,2.6132414E-1,3.1365713E-1,2.6354143E-1,8.159345E-1,5.7087415E-1,1.6904539E-1,2.073045E-3,9.7679144E-1,3.466177E-1,6.028314E-1,-7.2115473E-4,7.2357117E-4,1.2723405E-3,3.8061924E-3,-7.1115035E-4,6.895474E-1,3.233479E-1,7.297066E-1,5.210893E-1,2.4378201E-1,1.8473237E-4,6.680958E-4,2.4761492E-4,-7.4431143E-4,1.22186E-3,-5.811631E-4,-1.217637E-3,-7.700086E-4,4.3056745E-4,-6.336112E-4],"split_indices":[5,2,1,1,3,2,4,0,0,4,2,0,0,0,0,0,3,0,0,2,1,0,0,0,0,0,0,0,0,0,0],"split_type":[0,0,0,0,0,0,0,0,0,0,0,0,0,0,0,0,0,0,0,0,0,0,0,0,0,0,0,0,0,0,0],"sum_hessian":[7.2E1,6.3E1,9E0,7E0,5.6E1,3E0,6E0,2E0,5E0,3.2E1,2.4E1,1E0,2E0,2E0,4E0,1E0,4E0,1.9E1,1.3E1,2E1,4E0,1E0,3E0,4E0,1.5E1,6E0,7E0,1.1E1,9E0,2E0,2E0],"tree_param":{"num_deleted":"0","num_feature":"6","num_nodes":"31","size_leaf_vector":"1"}},{"base_weights":[2.4140172E-3,-3.379563E-2,2.3391435E-1,9.728053E-2,-5.1599376E-2,1.8028606E-2,3.2386127E-1,2.0592248E-3,2.6746139E-2,-2.0297216E-2,-9.085425E-2,-7.1754894E-4,7.187474E-4,1.2638582E-3,3.7757428E-3,-7.075947E-4,6.0399152E-2,-6.1841972E-2,1.7759077E-2,-1.0527853E-1,-1.2101412E-2,1.8380872E-4,6.63085E-4,6.5476044E-5,-1.0353047E-3,-1.9040129E-4,1.5131634E-3,-1.2064754E-3,-7.630786E-4,4.27697E-4,-6.293872E-4],"categories":[],"categories_nodes":[],"categories_segments":[],"categories_sizes":[],"default_left":[0,0,0,0,0,0,0,0,0,0,0,0,0,0,0,0,0,0,0,0,0,0,0,0,0,0,0,0,0,0,0],"id":31,"left_children":[1,3,5,7,9,11,13,-1,15,17,19,-1,-1,-1,-1,-1,21,23,25,27,29,-1,-1,-1,-1,-1,-1,-1,-1,-1,-1],"loss_changes":[6.19831E-1,1.54373E-1,1.8834382E-1,5.5796303E-2,6.819536E-2,2.449534E-2,2.6528955E-2,0E0,2.396196E-2,5.3272557E-2,2.7124822E-2,0E0,0E0,0E0,0E0,0E0,2.2696331E-5,4.6294827E-2,9.134751E-2,1.4387071E-4,1.6639369E-2,0E0,0E0,0E0,0E0,0E0,0E0,0E0,0E0,0E0,0E0],"parents":[2147483647,0,0,1,1,2,2,3,3,4,4,5,5,6,6,8,8,9,9,10,10,16,16,17,17,18,18,19,19,20,20],"right_children":[2,4,6,8,10,12,14,-1,16,18,20,-1,-1,-1,-1,-1,22,24,26,28,30,-1,-1,-1,-1,-1,-1,-1,-1,-1,-1],"split_conditions":[1.1327423E0,2.6132414E-1,3.1365713E-1,2.6354143E-1,8.159345E-1,5.7087415E-1,1.6904539E-1,2.0592248E-3,9.7679144E-1,2.9973823E-1,6.028314E-1,-7.1754894E-4,7.187474E-4,1.2638582E-3,3.7757428E-3,-7.075947E-4,6.895474E-1,4.2292726E-1,3.7327176E-1,5.210893E-1,2.4378201E-1,1.8380872E-4,6.63085E-4,6.5476044E-5,-1.0353047E-3,-1.9040129E-4,1.5131634E-3,-1.2064754E-3,-7.630786E-4,4.27697E-4,-6.293872E-4],"split_indices":[5,2,1,1,3,2,4,0,0,4,2,0,0,0,0,0,3,0,5,2,1,0,0,0,0,0,0,0,0,0,0],"split_type":[0,0,0,0,0,0,0,0,0,0,0,0,0,0,0,0,0,0,0,0,0,0,0,0,0,0,0,0,0,0,0],"sum_hessian":[7.2E1,6.3E1,9E0,7E0,5.6E1,3E0,6E0,2E0,5E0,3.2E1,2.4E1,1E0,2E0,2E0,4E0,1E0,4E0,1.5E1,1.7E1,2E1,4E0,1E0,3E0,6E0,9E0,1.4E1,3E0,1.1E1,9E0,2E0,2E0],"tree_param":{"num_deleted":"0","num_feature":"6","num_nodes":"31","size_leaf_vector":"1"}},{"base_weights":[2.4641377E-3,-3.345173E-2,2.3207927E-1,9.658254E-2,-5.1115282E-2,1.7848622E-2,3.2134262E-1,2.0454966E-3,2.6501894E-2,-2.0083547E-2,-9.0032555E-2,-7.139612E-4,7.139557E-4,1.2554325E-3,3.7455368E-3,-7.040567E-4,5.996454E-2,-6.1284166E-2,1.765498E-2,-1.04319535E-1,-1.2020734E-2,1.828897E-4,6.581119E-4,6.491482E-5,-1.025987E-3,-1.8862417E-4,1.5018147E-3,-1.1954161E-3,-7.5621094E-4,4.248457E-4,-6.2519126E-4],"categories":[],"categories_nodes":[],"categories_segments":[],"categories_sizes":[],"default_left":[0,0,0,0,0,0,0,0,0,0,0,0,0,0,0,0,0,0,0,0,0,0,0,0,0,0,0,0,0,0,0],"id":32,"left_children":[1,3,5,7,9,11,13,-1,15,17,19,-1,-1,-1,-1,-1,21,23,25,27,29,-1,-1,-1,-1,-1,-1,-1,-1,-1,-1],"loss_changes":[6.097818E-1,1.5193632E-1,1.8549389E-1,5.511029E-2,6.702906E-2,2.4212504E-2,2.5908232E-2,0E0,2.3678547E-2,5.2392047E-2,2.6609823E-2,0E0,0E0,0E0,0E0,0E0,1.4692545E-5,4.5467928E-2,8.9944184E-2,1.3397634E-4,1.641825E-2,0E0,0E0,0E0,0E0,0E0,0E0,0E0,0E0,0E0,0E0],"parents":[2147483647,0,0,1,1,2,2,3,3,4,4,5,5,6,6,8,8,9,9,10,10,16,16,17,17,18,18,19,19,20,20],"right_children":[2,4,6,8,10,12,14,-1,16,18,20,-1,-1,-1,-1,-1,22,24,26,28,30,-1,-1,-1,-1,-1,-1,-1,-1,-1,-1],"split_conditions":[1.1327423E0,2.6132414E-1,3.1365713E-1,2.6354143E-1,8.159345E-1,5.7087415E-1,1.6904539E-1,2.0454966E-3,9.7679144E-1,2.9973823E-1,6.028314E-1,-7.139612E-4,7.139557E-4,1.2554325E-3,3.7455368E-3,-7.040567E-4,6.895474E-1,4.2292726E-1,3.7327176E-1,5.210893E-1,2.4378201E-1,1.828897E-4,6.581119E-4,6.491482E-5,-1.025987E-3,-1.8862417E-4,1.5018147E-3,-1.1954161E-3,-7.5621094E-4,4.248457E-4,-6.2519126E-4],"split_indices":[5,2,1,1,3,2,4,0,0,4,2,0,0,0,0,0,3,0,5,2,1,0,0,0,0,0,0,0,0,0,0],"split_type":[0,0,0,0,0,0,0,0,0,0,0,0,0,0,0,0,0,0,0,0,0,0,0,0,0,0,0,0,0,0,0],"sum_hessian":[7.2E1,6.3E1,9E0,7E0,5.6E1,3E0,6E0,2E0,5E0,3.2E1,2.4E1,1E0,2E0,2E0,4E0,1E0,4E0,1.5E1,1.7E1,2E1,4E0,1E0,3E0,6E0,9E0,1.4E1,3E0,1.1E1,9E0,2E0,2E0],"tree_param":{"num_deleted":"0","num_feature":"6","num_nodes":"31","size_leaf_vector":"1"}},{"base_weights":[2.5132431E-3,-3.3111237E-2,2.3025858E-1,9.588952E-2,-5.0635707E-2,1.7670132E-2,3.188436E-1,2.03186E-3,2.6259698E-2,-1.9872043E-2,-8.921831E-2,-7.103914E-4,7.09196E-4,1.247063E-3,3.7155726E-3,-7.005364E-4,5.9533097E-2,-6.073139E-2,1.7551377E-2,-1.0336928E-1,-1.1940596E-2,1.819752E-4,6.5317604E-4,6.435846E-5,-1.0167531E-3,-1.8686372E-4,1.4905509E-3,-1.1844581E-3,-7.494052E-4,4.220134E-4,-6.210233E-4],"categories":[],"categories_nodes":[],"categories_segments":[],"categories_sizes":[],"default_left":[0,0,0,0,0,0,0,0,0,0,0,0,0,0,0,0,0,0,0,0,0,0,0,0,0,0,0,0,0,0,0],"id":33,"left_children":[1,3,5,7,9,11,13,-1,15,17,19,-1,-1,-1,-1,-1,21,23,25,27,29,-1,-1,-1,-1,-1,-1,-1,-1,-1,-1],"loss_changes":[5.9989566E-1,1.4953831E-1,1.8268764E-1,5.4432675E-2,6.588277E-2,2.3932956E-2,2.5300264E-2,0E0,2.3398543E-2,5.1526107E-2,2.610457E-2,0E0,0E0,0E0,0E0,0E0,6.912276E-6,4.465581E-2,8.856248E-2,1.2435019E-4,1.6200071E-2,0E0,0E0,0E0,0E0,0E0,0E0,0E0,0E0,0E0,0E0],"parents":[2147483647,0,0,1,1,2,2,3,3,4,4,5,5,6,6,8,8,9,9,10,10,16,16,17,17,18,18,19,19,20,20],"right_children":[2,4,6,8,10,12,14,-1,16,18,20,-1,-1,-1,-1,-1,22,24,26,28,30,-1,-1,-1,-1,-1,-1,-1,-1,-1,-1],"split_conditions":[1.1327423E0,2.6132414E-1,3.1365713E-1,2.6354143E-1,8.159345E-1,5.7087415E-1,1.6904539E-1,2.03186E-3,9.7679144E-1,2.9973823E-1,6.028314E-1,-7.103914E-4,7.09196E-4,1.247063E-3,3.7155726E-3,-7.005364E-4,6.895474E-1,4.2292726E-1,3.7327176E-1,5.210893E-1,2.4378201E-1,1.819752E-4,6.5317604E-4,6.435846E-5,-1.0167531E-3,-1.8686372E-4,1.4905509E-3,-1.1844581E-3,-7.494052E-4,4.220134E-4,-6.210233E-4],"split_indices":[5,2,1,1,3,2,4,0,0,4,2,0,0,0,0,0,3,0,5,2,1,0,0,0,0,0,0,0,0,0,0],"split_type":[0,0,0,0,0,0,0,0,0,0,0,0,0,0,0,0,0,0,0,0,0,0,0,0,0,0,0,0,0,0,0],"sum_hessian":[7.2E1,6.3E1,9E0,7E0,5.6E1,3E0,6E0,2E0,5E0,3.2E1,2.4E1,1E0,2E0,2E0,4E0,1E0,4E0,1.5E1,1.7E1,2E1,4E0,1E0,3E0,6E0,9E0,1.4E1,3E0,1.1E1,9E0,2E0,2E0],"tree_param":{"num_deleted":"0","num_feature":"6","num_nodes":"31","size_leaf_vector":"1"}},{"base_weights":[2.5613476E-3,-3.277411E-2,2.2845215E-1,9.520143E-2,-5.0160605E-2,1.7493136E-2,3.163641E-1,2.018314E-3,2.6019536E-2,-1.966268E-2,-8.841144E-2,-7.068394E-4,7.044681E-4,1.2387494E-3,3.685848E-3,-6.9703377E-4,5.910479E-4,-6.01836E-2,1.7448287E-2,-1.0242767E-1,-1.1860994E-2,6.3806816E-5,-1.0076023E-3,-1.8511969E-4,1.4793718E-3,-1.1736006E-3,-7.426604E-4,4.1919993E-4,-6.1688316E-4],"categories":[],"categories_nodes":[],"categories_segments":[],"categories_sizes":[],"default_left":[0,0,0,0,0,0,0,0,0,0,0,0,0,0,0,0,0,0,0,0,0,0,0,0,0,0,0,0,0],"id":34,"left_children":[1,3,5,7,9,11,13,-1,15,17,19,-1,-1,-1,-1,-1,-1,21,23,25,27,-1,-1,-1,-1,-1,-1,-1,-1],"loss_changes":[5.9016997E-1,1.4717832E-1,1.7992407E-1,5.376336E-2,6.4756155E-2,2.365666E-2,2.4704933E-2,0E0,2.3121908E-2,5.0674528E-2,2.5608793E-2,0E0,0E0,0E0,0E0,0E0,0E0,4.38582E-2,8.720206E-2,1.1506677E-4,1.5984789E-2,0E0,0E0,0E0,0E0,0E0,0E0,0E0,0E0],"parents":[2147483647,0,0,1,1,2,2,3,3,4,4,5,5,6,6,8,8,9,9,10,10,17,17,18,18,19,19,20,20],"right_children":[2,4,6,8,10,12,14,-1,16,18,20,-1,-1,-1,-1,-1,-1,22,24,26,28,-1,-1,-1,-1,-1,-1,-1,-1],"split_conditions":[1.1327423E0,2.6132414E-1,3.1365713E-1,2.6354143E-1,8.159345E-1,5.7087415E-1,1.6904539E-1,2.018314E-3,9.7679144E-1,2.9973823E-1,6.028314E-1,-7.068394E-4,7.044681E-4,1.2387494E-3,3.685848E-3,-6.9703377E-4,5.910479E-4,4.2292726E-1,3.7327176E-1,5.210893E-1,2.4378201E-1,6.3806816E-5,-1.0076023E-3,-1.8511969E-4,1.4793718E-3,-1.1736006E-3,-7.426604E-4,4.1919993E-4,-6.1688316E-4],"split_indices":[5,2,1,1,3,2,4,0,0,4,2,0,0,0,0,0,0,0,5,2,1,0,0,0,0,0,0,0,0],"split_type":[0,0,0,0,0,0,0,0,0,0,0,0,0,0,0,0,0,0,0,0,0,0,0,0,0,0,0,0,0],"sum_hessian":[7.2E1,6.3E1,9E0,7E0,5.6E1,3E0,6E0,2E0,5E0,3.2E1,2.4E1,1E0,2E0,2E0,4E0,1E0,4E0,1.5E1,1.7E1,2E1,4E0,6E0,9E0,1.4E1,3E0,1.1E1,9E0,2E0,2E0],"tree_param":{"num_deleted":"0","num_feature":"6","num_nodes":"29","size_leaf_vector":"1"}},{"base_weights":[2.6051998E-3,-3.2444045E-2,2.2665983E-1,9.448846E-2,-4.9689937E-2,1.7317612E-2,3.13904E-1,2.0048588E-3,2.5741672E-2,-1.9455435E-2,-8.7611884E-2,-7.0330524E-4,6.997716E-4,1.230491E-3,3.656361E-3,-6.935486E-4,5.863195E-2,-5.9640754E-2,1.7345706E-2,-1.0149465E-1,-1.1781922E-2,1.7811007E-4,6.438443E-4,6.32599E-5,-9.985339E-4,-1.8339194E-4,1.4682766E-3,-1.1628425E-3,-7.3597656E-4,4.164053E-4,-6.127706E-4],"categories":[],"categories_nodes":[],"categories_segments":[],"categories_sizes":[],"default_left":[0,0,0,0,0,0,0,0,0,0,0,0,0,0,0,0,0,0,0,0,0,0,0,0,0,0,0,0,0,0,0],"id":35,"left_children":[1,3,5,7,9,11,13,-1,15,17,19,-1,-1,-1,-1,-1,21,23,25,27,29,-1,-1,-1,-1,-1,-1,-1,-1,-1,-1],"loss_changes":[5.8061886E-1,1.4479525E-1,1.7720276E-1,5.3135023E-2,6.3648894E-2,2.3383576E-2,2.4122119E-2,0E0,2.283292E-2,4.9837075E-2,2.5122434E-2,0E0,0E0,0E0,0E0,0E0,2.735667E-5,4.3074824E-2,8.5862614E-2,1.0603666E-4,1.577237E-2,0E0,0E0,0E0,0E0,0E0,0E0,0E0,0E0,0E0,0E0],"parents":[2147483647,0,0,1,1,2,2,3,3,4,4,5,5,6,6,8,8,9,9,10,10,16,16,17,17,18,18,19,19,20,20],"right_children":[2,4,6,8,10,12,14,-1,16,18,20,-1,-1,-1,-1,-1,22,24,26,28,30,-1,-1,-1,-1,-1,-1,-1,-1,-1,-1],"split_conditions":[1.1327423E0,2.6132414E-1,3.1365713E-1,2.6354143E-1,8.159345E-1,5.7087415E-1,1.6904539E-1,2.0048588E-3,9.7679144E-1,2.9973823E-1,6.028314E-1,-7.0330524E-4,6.997716E-4,1.230491E-3,3.656361E-3,-6.935486E-4,6.895474E-1,4.2292726E-1,3.7327176E-1,5.210893E-1,2.4378201E-1,1.7811007E-4,6.438443E-4,6.32599E-5,-9.985339E-4,-1.8339194E-4,1.4682766E-3,-1.1628425E-3,-7.3597656E-4,4.164053E-4,-6.127706E-4],"split_indices":[5,2,1,1,3,2,4,0,0,4,2,0,0,0,0,0,3,0,5,2,1,0,0,0,0,0,0,0,0,0,0],"split_type":[0,0,0,0,0,0,0,0,0,0,0,0,0,0,0,0,0,0,0,0,0,0,0,0,0,0,0,0,0,0,0],"sum_hessian":[7.2E1,6.3E1,9E0,7E0,5.6E1,3E0,6E0,2E0,5E0,3.2E1,2.4E1,1E0,2E0,2E0,4E0,1E0,4E0,1.5E1,1.7E1,2E1,4E0,1E0,3E0,6E0,9E0,1.4E1,3E0,1.1E1,9E0,2E0,2E0],"tree_param":{"num_deleted":"0","num_feature":"6","num_nodes":"31","size_leaf_vector":"1"}},{"base_weights":[2.651353E-3,-3.2113545E-2,2.2488157E-1,9.381023E-2,-4.922366E-2,1.7143551E-2,3.1146306E-1,1.9914932E-3,2.5505653E-2,-1.9250287E-2,-8.6819574E-2,-6.997887E-4,6.9510646E-4,1.2222878E-3,3.6271103E-3,-6.9008087E-4,5.821002E-2,-3.63427E-2,6.372269E-2,-1.0057011E-1,-1.1703375E-2,1.7721951E-4,6.390154E-4,-8.5478026E-4,-4.296517E-5,-6.685656E-4,1.4572645E-3,-1.152183E-3,-7.2935264E-4,4.1362928E-4,-6.0868554E-4],"categories":[],"categories_nodes":[],"categories_segments":[],"categories_sizes":[],"default_left":[0,0,0,0,0,0,0,0,0,0,0,0,0,0,0,0,0,0,0,0,0,0,0,0,0,0,0,0,0,0,0],"id":36,"left_children":[1,3,5,7,9,11,13,-1,15,17,19,-1,-1,-1,-1,-1,21,23,25,27,29,-1,-1,-1,-1,-1,-1,-1,-1,-1,-1],"loss_changes":[5.712059E-1,1.425102E-1,1.7452312E-1,5.2481696E-2,6.256063E-2,2.311367E-2,2.3551404E-2,0E0,2.2563037E-2,4.911674E-2,2.464521E-2,0E0,0E0,0E0,0E0,0E0,1.9732863E-5,4.372153E-2,7.399071E-2,9.7334385E-5,1.5562776E-2,0E0,0E0,0E0,0E0,0E0,0E0,0E0,0E0,0E0,0E0],"parents":[2147483647,0,0,1,1,2,2,3,3,4,4,5,5,6,6,8,8,9,9,10,10,16,16,17,17,18,18,19,19,20,20],"right_children":[2,4,6,8,10,12,14,-1,16,18,20,-1,-1,-1,-1,-1,22,24,26,28,30,-1,-1,-1,-1,-1,-1,-1,-1,-1,-1],"split_conditions":[1.1327423E0,2.6132414E-1,3.1365713E-1,2.6354143E-1,8.159345E-1,5.7087415E-1,1.6904539E-1,1.9914932E-3,9.7679144E-1,4.7876278E-1,6.028314E-1,-6.997887E-4,6.9510646E-4,1.2222878E-3,3.6271103E-3,-6.9008087E-4,6.895474E-1,4.103223E-1,4.5652145E-1,5.210893E-1,2.4378201E-1,1.7721951E-4,6.390154E-4,-8.5478026E-4,-4.296517E-5,-6.685656E-4,1.4572645E-3,-1.152183E-3,-7.2935264E-4,4.1362928E-4,-6.0868554E-4],"split_indices":[5,2,1,1,3,2,4,0,0,5,2,0,0,0,0,0,3,2,0,2,1,0,0,0,0,0,0,0,0,0,0],"split_type":[0,0,0,0,0,0,0,0,0,0,0,0,0,0,0,0,0,0,0,0,0,0,0,0,0,0,0,0,0,0,0],"sum_hessian":[7.2E1,6.3E1,9E0,7E0,5.6E1,3E0,6E0,2E0,5E0,3.2E1,2.4E1,1E0,2E0,2E0,4E0,1E0,4E0,2.7E1,5E0,2E1,4E0,1E0,3E0,1E1,1.7E1,2E0,3E0,1.1E1,9E0,2E0,2E0],"tree_param":{"num_deleted":"0","num_feature":"6","num_nodes":"31","size_leaf_vector":"1"}},{"base_weights":[2.6902726E-3,-3.1793475E-2,2.2311723E-1,9.313683E-2,-4.8769772E-2,1.6970944E-2,3.090412E-1,1.9782165E-3,2.5271619E-2,-1.9061094E-2,-8.603444E-2,-6.9628976E-4,6.904724E-4,1.2141392E-3,3.5980933E-3,-6.8663043E-4,5.7791162E-2,-5.8730632E-2,1.7259669E-2,-9.965401E-2,-1.1625352E-2,1.7633341E-4,6.3422276E-4,6.3085936E-5,-9.838502E-4,-1.7857332E-4,1.446335E-3,-1.1416214E-3,-7.227885E-4,4.1087178E-4,-6.0462765E-4],"categories":[],"categories_nodes":[],"categories_segments":[],"categories_sizes":[],"default_left":[0,0,0,0,0,0,0,0,0,0,0,0,0,0,0,0,0,0,0,0,0,0,0,0,0,0,0,0,0,0,0],"id":37,"left_children":[1,3,5,7,9,11,13,-1,15,17,19,-1,-1,-1,-1,-1,21,23,25,27,29,-1,-1,-1,-1,-1,-1,-1,-1,-1,-1],"loss_changes":[5.6197745E-1,1.4027694E-1,1.7188436E-1,5.1836394E-2,6.1463878E-2,2.2846902E-2,2.2992551E-2,0E0,2.2296391E-2,4.8560992E-2,2.4176985E-2,0E0,0E0,0E0,0E0,0E0,1.2321398E-5,4.1886136E-2,8.3096534E-2,8.888543E-5,1.5355964E-2,0E0,0E0,0E0,0E0,0E0,0E0,0E0,0E0,0E0,0E0],"parents":[2147483647,0,0,1,1,2,2,3,3,4,4,5,5,6,6,8,8,9,9,10,10,16,16,17,17,18,18,19,19,20,20],"right_children":[2,4,6,8,10,12,14,-1,16,18,20,-1,-1,-1,-1,-1,22,24,26,28,30,-1,-1,-1,-1,-1,-1,-1,-1,-1,-1],"split_conditions":[1.1327423E0,2.6132414E-1,3.1365713E-1,2.6354143E-1,8.159345E-1,5.7087415E-1,1.6904539E-1,1.9782165E-3,9.7679144E-1,2.9973823E-1,6.028314E-1,-6.9628976E-4,6.904724E-4,1.2141392E-3,3.5980933E-3,-6.8663043E-4,6.895474E-1,4.2292726E-1,3.7327176E-1,5.210893E-1,2.4378201E-1,1.7633341E-4,6.3422276E-4,6.3085936E-5,-9.838502E-4,-1.7857332E-4,1.446335E-3,-1.1416214E-3,-7.227885E-4,4.1087178E-4,-6.0462765E-4],"split_indices":[5,2,1,1,3,2,4,0,0,4,2,0,0,0,0,0,3,0,5,2,1,0,0,0,0,0,0,0,0,0,0],"split_type":[0,0,0,0,0,0,0,0,0,0,0,0,0,0,0,0,0,0,0,0,0,0,0,0,0,0,0,0,0,0,0],"sum_hessian":[7.2E1,6.3E1,9E0,7E0,5.6E1,3E0,6E0,2E0,5E0,3.2E1,2.4E1,1E0,2E0,2E0,4E0,1E0,4E0,1.5E1,1.7E1,2E1,4E0,1E0,3E0,6E0,9E0,1.4E1,3E0,1.1E1,9E0,2E0,2E0],"tree_param":{"num_deleted":"0","num_feature":"6","num_nodes":"31","size_leaf_vector":"1"}},{"base_weights":[2.7345677E-3,-3.146943E-2,2.2136669E-1,9.246823E-2,-4.8312094E-2,1.6799778E-2,3.0663827E-1,1.9650285E-3,2.5039556E-2,-1.8859968E-2,-8.525642E-2,-6.928083E-4,6.858692E-4,1.2060449E-3,3.5693087E-3,-6.831973E-4,5.737536E-2,-5.8200877E-2,1.7157504E-2,-9.874625E-2,-1.1547849E-2,1.754517E-4,6.2946614E-4,6.254516E-5,-9.749956E-4,-1.769066E-4,1.4354875E-3,-1.0836995E-3,-6.4017414E-4,4.0813268E-4,-6.005968E-4],"categories":[],"categories_nodes":[],"categories_segments":[],"categories_sizes":[],"default_left":[0,0,0,0,0,0,0,0,0,0,0,0,0,0,0,0,0,0,0,0,0,0,0,0,0,0,0,0,0,0,0],"id":38,"left_children":[1,3,5,7,9,11,13,-1,15,17,19,-1,-1,-1,-1,-1,21,23,25,27,29,-1,-1,-1,-1,-1,-1,-1,-1,-1,-1],"loss_changes":[5.5286705E-1,1.3806352E-1,1.6928595E-1,5.119899E-2,6.0413137E-2,2.2583235E-2,2.244538E-2,0E0,2.2032954E-2,4.7758266E-2,2.3717597E-2,0E0,0E0,0E0,0E0,0E0,5.1110983E-6,4.113801E-2,8.182053E-2,8.1047416E-5,1.5151901E-2,0E0,0E0,0E0,0E0,0E0,0E0,0E0,0E0,0E0,0E0],"parents":[2147483647,0,0,1,1,2,2,3,3,4,4,5,5,6,6,8,8,9,9,10,10,16,16,17,17,18,18,19,19,20,20],"right_children":[2,4,6,8,10,12,14,-1,16,18,20,-1,-1,-1,-1,-1,22,24,26,28,30,-1,-1,-1,-1,-1,-1,-1,-1,-1,-1],"split_conditions":[1.1327423E0,2.6132414E-1,3.1365713E-1,2.6354143E-1,8.159345E-1,5.7087415E-1,1.6904539E-1,1.9650285E-3,9.7679144E-1,2.9973823E-1,6.028314E-1,-6.928083E-4,6.858692E-4,1.2060449E-3,3.5693087E-3,-6.831973E-4,6.895474E-1,4.2292726E-1,3.7327176E-1,5.472348E-1,2.4378201E-1,1.754517E-4,6.2946614E-4,6.254516E-5,-9.749956E-4,-1.769066E-4,1.4354875E-3,-1.0836995E-3,-6.4017414E-4,4.0813268E-4,-6.005968E-4],"split_indices":[5,2,1,1,3,2,4,0,0,4,2,0,0,0,0,0,3,0,5,2,1,0,0,0,0,0,0,0,0,0,0],"split_type":[0,0,0,0,0,0,0,0,0,0,0,0,0,0,0,0,0,0,0,0,0,0,0,0,0,0,0,0,0,0,0],"sum_hessian":[7.2E1,6.3E1,9E0,7E0,5.6E1,3E0,6E0,2E0,5E0,3.2E1,2.4E1,1E0,2E0,2E0,4E0,1E0,4E0,1.5E1,1.7E1,2E1,4E0,1E0,3E0,6E0,9E0,1.4E1,3E0,1.4E1,6E0,2E0,2E0],"tree_param":{"num_deleted":"0","num_feature":"6","num_nodes":"31","size_leaf_vector":"1"}},{"base_weights":[2.779619E-3,-3.1146664E-2,2.1962987E-1,9.18044E-2,-4.785652E-2,1.6630046E-2,3.0425406E-1,1.9519283E-3,2.4809448E-2,-1.8660879E-2,-8.448051E-2,-6.8934425E-4,6.812968E-4,1.1980047E-3,3.5407539E-3,-6.7978125E-4,5.696259E-4,-5.7675894E-2,1.705585E-2,-9.7840875E-2,-1.1470866E-2,2.423982E-4,-8.700111E-4,-1.7525548E-4,1.4247213E-3,-1.1212226E-3,-7.0919126E-4,4.0541182E-4,-5.965929E-4],"categories":[],"categories_nodes":[],"categories_segments":[],"categories_sizes":[],"default_left":[0,0,0,0,0,0,0,0,0,0,0,0,0,0,0,0,0,0,0,0,0,0,0,0,0,0,0,0,0],"id":39,"left_children":[1,3,5,7,9,11,13,-1,15,17,19,-1,-1,-1,-1,-1,-1,21,23,25,27,-1,-1,-1,-1,-1,-1,-1,-1],"loss_changes":[5.438961E-1,1.3588108E-1,1.6672724E-1,5.05694E-2,5.9371382E-2,2.2322634E-2,2.1909654E-2,0E0,2.1772683E-2,4.696884E-2,2.3263574E-2,0E0,0E0,0E0,0E0,0E0,0E0,4.054404E-2,8.056417E-2,1.2245774E-4,1.4950552E-2,0E0,0E0,0E0,0E0,0E0,0E0,0E0,0E0],"parents":[2147483647,0,0,1,1,2,2,3,3,4,4,5,5,6,6,8,8,9,9,10,10,17,17,18,18,19,19,20,20],"right_children":[2,4,6,8,10,12,14,-1,16,18,20,-1,-1,-1,-1,-1,-1,22,24,26,28,-1,-1,-1,-1,-1,-1,-1,-1],"split_conditions":[1.1327423E0,2.6132414E-1,3.1365713E-1,2.6354143E-1,8.159345E-1,5.7087415E-1,1.6904539E-1,1.9519283E-3,9.7679144E-1,2.9973823E-1,6.028314E-1,-6.8934425E-4,6.812968E-4,1.1980047E-3,3.5407539E-3,-6.7978125E-4,5.696259E-4,3.233479E-1,3.7327176E-1,5.210893E-1,2.4378201E-1,2.423982E-4,-8.700111E-4,-1.7525548E-4,1.4247213E-3,-1.1212226E-3,-7.0919126E-4,4.0541182E-4,-5.965929E-4],"split_indices":[5,2,1,1,3,2,4,0,0,4,2,0,0,0,0,0,0,0,5,2,1,0,0,0,0,0,0,0,0],"split_type":[0,0,0,0,0,0,0,0,0,0,0,0,0,0,0,0,0,0,0,0,0,0,0,0,0,0,0,0,0],"sum_hessian":[7.2E1,6.3E1,9E0,7E0,5.6E1,3E0,6E0,2E0,5E0,3.2E1,2.4E1,1E0,2E0,2E0,4E0,1E0,4E0,1.5E1,1.7E1,2E1,4E0,4E0,1.1E1,1.4E1,3E0,1.1E1,9E0,2E0,2E0],"tree_param":{"num_deleted":"0","num_feature":"6","num_nodes":"29","size_leaf_vector":"1"}},{"base_weights":[2.8226809E-3,-3.0828292E-2,2.1790664E-1,9.111658E-2,-4.7402512E-2,1.6461734E-2,3.018885E-1,1.9389153E-3,2.4542993E-2,-1.8455429E-2,-8.3716564E-2,-6.8589754E-4,6.7675475E-4,1.190018E-3,3.5124281E-3,-6.763824E-4,5.6506887E-2,-3.5038166E-2,6.200658E-2,-9.694963E-2,-1.1394391E-2,1.7172634E-4,6.204729E-4,-8.317387E-4,-3.6753358E-5,-6.452495E-4,1.4140358E-3,-1.1109448E-3,-7.028085E-4,4.0270906E-4,-5.926156E-4],"categories":[],"categories_nodes":[],"categories_segments":[],"categories_sizes":[],"default_left":[0,0,0,0,0,0,0,0,0,0,0,0,0,0,0,0,0,0,0,0,0,0,0,0,0,0,0,0,0,0,0],"id":40,"left_children":[1,3,5,7,9,11,13,-1,15,17,19,-1,-1,-1,-1,-1,21,23,25,27,29,-1,-1,-1,-1,-1,-1,-1,-1,-1,-1],"loss_changes":[5.35076E-1,1.3367221E-1,1.6420752E-1,4.99781E-2,5.8372572E-2,2.2065066E-2,2.1385252E-2,0E0,2.1500856E-2,4.620385E-2,2.2821411E-2,0E0,0E0,0E0,0E0,0E0,2.4123117E-5,4.196512E-2,6.9401406E-2,1.1391938E-4,1.4751873E-2,0E0,0E0,0E0,0E0,0E0,0E0,0E0,0E0,0E0,0E0],"parents":[2147483647,0,0,1,1,2,2,3,3,4,4,5,5,6,6,8,8,9,9,10,10,16,16,17,17,18,18,19,19,20,20],"right_children":[2,4,6,8,10,12,14,-1,16,18,20,-1,-1,-1,-1,-1,22,24,26,28,30,-1,-1,-1,-1,-1,-1,-1,-1,-1,-1],"split_conditions":[1.1327423E0,2.6132414E-1,3.1365713E-1,2.6354143E-1,8.159345E-1,5.7087415E-1,1.6904539E-1,1.9389153E-3,9.7679144E-1,4.7876278E-1,6.028314E-1,-6.8589754E-4,6.7675475E-4,1.190018E-3,3.5124281E-3,-6.763824E-4,6.895474E-1,4.103223E-1,4.5652145E-1,5.210893E-1,2.4378201E-1,1.7172634E-4,6.204729E-4,-8.317387E-4,-3.6753358E-5,-6.452495E-4,1.4140358E-3,-1.1109448E-3,-7.028085E-4,4.0270906E-4,-5.926156E-4],"split_indices":[5,2,1,1,3,2,4,0,0,5,2,0,0,0,0,0,3,2,0,2,1,0,0,0,0,0,0,0,0,0,0],"split_type":[0,0,0,0,0,0,0,0,0,0,0,0,0,0,0,0,0,0,0,0,0,0,0,0,0,0,0,0,0,0,0],"sum_hessian":[7.2E1,6.3E1,9E0,7E0,5.6E1,3E0,6E0,2E0,5E0,3.2E1,2.4E1,1E0,2E0,2E0,4E0,1E0,4E0,2.7E1,5E0,2E1,4E0,1E0,3E0,1E1,1.7E1,2E0,3E0,1.1E1,9E0,2E0,2E0],"tree_param":{"num_deleted":"0","num_feature":"6","num_nodes":"31","size_leaf_vector":"1"}},{"base_weights":[2.8580793E-3,-3.052077E-2,2.1619691E-1,9.046225E-2,-4.696539E-2,1.6294833E-2,2.9954138E-1,1.9259894E-3,2.4316868E-2,-1.82739E-2,-8.295955E-2,-6.82468E-4,6.722431E-4,1.1820847E-3,3.4843285E-3,-6.730005E-4,5.610026E-2,-5.677942E-2,1.6968444E-2,-9.60665E-2,-1.1318425E-2,1.7086773E-4,6.1581936E-4,2.4075298E-4,-8.5737265E-4,-1.7062684E-4,1.4034307E-3,-1.100761E-3,-6.964832E-4,4.0002435E-4,-5.886647E-4],"categories":[],"categories_nodes":[],"categories_segments":[],"categories_sizes":[],"default_left":[0,0,0,0,0,0,0,0,0,0,0,0,0,0,0,0,0,0,0,0,0,0,0,0,0,0,0,0,0,0,0],"id":41,"left_children":[1,3,5,7,9,11,13,-1,15,17,19,-1,-1,-1,-1,-1,21,23,25,27,29,-1,-1,-1,-1,-1,-1,-1,-1,-1,-1],"loss_changes":[5.2643186E-1,1.3157786E-1,1.6172636E-1,4.936357E-2,5.7349384E-2,2.1810493E-2,2.0871758E-2,0E0,2.124693E-2,4.5745276E-2,2.2387594E-2,0E0,0E0,0E0,0E0,0E0,1.7059967E-5,3.9526206E-2,7.796903E-2,1.0564923E-4,1.4555836E-2,0E0,0E0,0E0,0E0,0E0,0E0,0E0,0E0,0E0,0E0],"parents":[2147483647,0,0,1,1,2,2,3,3,4,4,5,5,6,6,8,8,9,9,10,10,16,16,17,17,18,18,19,19,20,20],"right_children":[2,4,6,8,10,12,14,-1,16,18,20,-1,-1,-1,-1,-1,22,24,26,28,30,-1,-1,-1,-1,-1,-1,-1,-1,-1,-1],"split_conditions":[1.1327423E0,2.6132414E-1,3.1365713E-1,2.6354143E-1,8.159345E-1,5.7087415E-1,1.6904539E-1,1.9259894E-3,9.7679144E-1,2.9973823E-1,6.028314E-1,-6.82468E-4,6.722431E-4,1.1820847E-3,3.4843285E-3,-6.730005E-4,6.895474E-1,3.233479E-1,3.7327176E-1,5.210893E-1,2.4378201E-1,1.7086773E-4,6.1581936E-4,2.4075298E-4,-8.5737265E-4,-1.7062684E-4,1.4034307E-3,-1.100761E-3,-6.964832E-4,4.0002435E-4,-5.886647E-4],"split_indices":[5,2,1,1,3,2,4,0,0,4,2,0,0,0,0,0,3,0,5,2,1,0,0,0,0,0,0,0,0,0,0],"split_type":[0,0,0,0,0,0,0,0,0,0,0,0,0,0,0,0,0,0,0,0,0,0,0,0,0,0,0,0,0,0,0],"sum_hessian":[7.2E1,6.3E1,9E0,7E0,5.6E1,3E0,6E0,2E0,5E0,3.2E1,2.4E1,1E0,2E0,2E0,4E0,1E0,4E0,1.5E1,1.7E1,2E1,4E0,1E0,3E0,4E0,1.1E1,1.4E1,3E0,1.1E1,9E0,2E0,2E0],"tree_param":{"num_deleted":"0","num_feature":"6","num_nodes":"31","size_leaf_vector":"1"}},{"base_weights":[2.9024598E-3,-3.0205093E-2,2.1450055E-1,8.981259E-2,-4.6519767E-2,1.6129334E-2,2.972126E-1,1.9131495E-3,2.4092644E-2,-1.8072488E-2,-8.2209386E-2,-6.7905564E-4,6.6776155E-4,1.174204E-3,3.4564538E-3,-6.6963554E-4,5.5696595E-2,-5.6250166E-2,1.6867254E-2,-9.519142E-2,-1.1242968E-2,1.7001337E-4,6.1120075E-4,6.449853E-5,-9.4515155E-4,-1.6903426E-4,1.3929049E-3,-1.0449266E-3,-6.166142E-4,3.973575E-4,-5.847403E-4],"categories":[],"categories_nodes":[],"categories_segments":[],"categories_sizes":[],"default_left":[0,0,0,0,0,0,0,0,0,0,0,0,0,0,0,0,0,0,0,0,0,0,0,0,0,0,0,0,0,0,0],"id":42,"left_children":[1,3,5,7,9,11,13,-1,15,17,19,-1,-1,-1,-1,-1,21,23,25,27,29,-1,-1,-1,-1,-1,-1,-1,-1,-1,-1],"loss_changes":[5.1788014E-1,1.294932E-1,1.5928304E-1,4.8756562E-2,5.638481E-2,2.1558875E-2,2.0369053E-2,0E0,2.0996056E-2,4.4968087E-2,2.1961972E-2,0E0,0E0,0E0,0E0,0E0,1.0190532E-5,3.8997073E-2,7.677218E-2,1.0611117E-4,1.4362407E-2,0E0,0E0,0E0,0E0,0E0,0E0,0E0,0E0,0E0,0E0],"parents":[2147483647,0,0,1,1,2,2,3,3,4,4,5,5,6,6,8,8,9,9,10,10,16,16,17,17,18,18,19,19,20,20],"right_children":[2,4,6,8,10,12,14,-1,16,18,20,-1,-1,-1,-1,-1,22,24,26,28,30,-1,-1,-1,-1,-1,-1,-1,-1,-1,-1],"split_conditions":[1.1327423E0,2.6132414E-1,3.1365713E-1,2.6354143E-1,8.159345E-1,5.7087415E-1,1.6904539E-1,1.9131495E-3,9.7679144E-1,2.9973823E-1,6.028314E-1,-6.7905564E-4,6.6776155E-4,1.174204E-3,3.4564538E-3,-6.6963554E-4,6.895474E-1,4.2292726E-1,3.7327176E-1,5.472348E-1,2.4378201E-1,1.7001337E-4,6.1120075E-4,6.449853E-5,-9.4515155E-4,-1.6903426E-4,1.3929049E-3,-1.0449266E-3,-6.166142E-4,3.973575E-4,-5.847403E-4],"split_indices":[5,2,1,1,3,2,4,0,0,4,2,0,0,0,0,0,3,0,5,2,1,0,0,0,0,0,0,0,0,0,0],"split_type":[0,0,0,0,0,0,0,0,0,0,0,0,0,0,0,0,0,0,0,0,0,0,0,0,0,0,0,0,0,0,0],"sum_hessian":[7.2E1,6.3E1,9E0,7E0,5.6E1,3E0,6E0,2E0,5E0,3.2E1,2.4E1,1E0,2E0,2E0,4E0,1E0,4E0,1.5E1,1.7E1,2E1,4E0,1E0,3E0,6E0,9E0,1.4E1,3E0,1.4E1,6E0,2E0,2E0],"tree_param":{"num_deleted":"0","num_feature":"6","num_nodes":"31","size_leaf_vector":"1"}},{"base_weights":[2.9438254E-3,-2.9894931E-2,2.1281749E-1,8.916755E-2,-4.6080984E-2,1.5965216E-2,2.94902E-1,1.9003951E-3,2.3870314E-2,-1.7881358E-2,-8.146125E-2,-6.756604E-4,6.6330977E-4,1.166376E-3,3.4288021E-3,-6.662874E-4,5.5295873E-2,-5.5742703E-2,1.6766578E-2,-9.431863E-2,-1.1168012E-2,1.6916334E-4,6.066167E-4,2.3831098E-4,-8.4253226E-4,-1.6745659E-4,1.3824581E-3,-1.0810922E-3,-6.833804E-4,3.947085E-4,-5.80842E-4],"categories":[],"categories_nodes":[],"categories_segments":[],"categories_sizes":[],"default_left":[0,0,0,0,0,0,0,0,0,0,0,0,0,0,0,0,0,0,0,0,0,0,0,0,0,0,0,0,0,0,0],"id":43,"left_children":[1,3,5,7,9,11,13,-1,15,17,19,-1,-1,-1,-1,-1,21,23,25,27,29,-1,-1,-1,-1,-1,-1,-1,-1,-1,-1],"loss_changes":[5.094774E-1,1.2744662E-1,1.5687704E-1,4.8156984E-2,5.541283E-2,2.1310184E-2,1.9876897E-2,0E0,2.0748194E-2,4.422459E-2,2.1541327E-2,0E0,0E0,0E0,0E0,0E0,3.511086E-6,3.830691E-2,7.5593755E-2,1.360625E-4,1.4171546E-2,0E0,0E0,0E0,0E0,0E0,0E0,0E0,0E0,0E0,0E0],"parents":[2147483647,0,0,1,1,2,2,3,3,4,4,5,5,6,6,8,8,9,9,10,10,16,16,17,17,18,18,19,19,20,20],"right_children":[2,4,6,8,10,12,14,-1,16,18,20,-1,-1,-1,-1,-1,22,24,26,28,30,-1,-1,-1,-1,-1,-1,-1,-1,-1,-1],"split_conditions":[1.1327423E0,2.6132414E-1,3.1365713E-1,2.6354143E-1,8.159345E-1,5.7087415E-1,1.6904539E-1,1.9003951E-3,9.7679144E-1,2.9973823E-1,6.028314E-1,-6.756604E-4,6.6330977E-4,1.166376E-3,3.4288021E-3,-6.662874E-4,6.895474E-1,3.233479E-1,3.7327176E-1,5.210893E-1,2.4378201E-1,1.6916334E-4,6.066167E-4,2.3831098E-4,-8.4253226E-4,-1.6745659E-4,1.3824581E-3,-1.0810922E-3,-6.833804E-4,3.947085E-4,-5.80842E-4],"split_indices":[5,2,1,1,3,2,4,0,0,4,2,0,0,0,0,0,3,0,5,2,1,0,0,0,0,0,0,0,0,0,0],"split_type":[0,0,0,0,0,0,0,0,0,0,0,0,0,0,0,0,0,0,0,0,0,0,0,0,0,0,0,0,0,0,0],"sum_hessian":[7.2E1,6.3E1,9E0,7E0,5.6E1,3E0,6E0,2E0,5E0,3.2E1,2.4E1,1E0,2E0,2E0,4E0,1E0,4E0,1.5E1,1.7E1,2E1,4E0,1E0,3E0,4E0,1.1E1,1.4E1,3E0,1.1E1,9E0,2E0,2E0],"tree_param":{"num_deleted":"0","num_feature":"6","num_nodes":"31","size_leaf_vector":"1"}},{"base_weights":[2.9863438E-3,-2.9585512E-2,2.1114759E-1,8.852711E-2,-4.564368E-2,1.5802477E-2,2.9260942E-1,1.8877257E-3,2.3649864E-2,-1.7684039E-2,-8.072466E-2,-6.7228207E-4,6.588877E-4,1.1586002E-3,3.4013717E-3,-6.629559E-4,5.489807E-4,-5.5223044E-2,1.6666412E-2,-9.345946E-2,-1.1093554E-2,6.499116E-5,-9.290625E-4,-1.6589362E-4,1.3720896E-3,-1.0711822E-3,-6.7722995E-4,3.9207714E-4,-5.769697E-4],"categories":[],"categories_nodes":[],"categories_segments":[],"categories_sizes":[],"default_left":[0,0,0,0,0,0,0,0,0,0,0,0,0,0,0,0,0,0,0,0,0,0,0,0,0,0,0,0,0],"id":44,"left_children":[1,3,5,7,9,11,13,-1,15,17,19,-1,-1,-1,-1,-1,-1,21,23,25,27,-1,-1,-1,-1,-1,-1,-1,-1],"loss_changes":[5.0120133E-1,1.2542772E-1,1.5450776E-1,4.756476E-2,5.4481E-2,2.1064382E-2,1.9395232E-2,0E0,2.0503309E-2,4.3473274E-2,2.113165E-2,0E0,0E0,0E0,0E0,0E0,0E0,3.7818033E-2,7.443346E-2,1.2771785E-4,1.3983223E-2,0E0,0E0,0E0,0E0,0E0,0E0,0E0,0E0],"parents":[2147483647,0,0,1,1,2,2,3,3,4,4,5,5,6,6,8,8,9,9,10,10,17,17,18,18,19,19,20,20],"right_children":[2,4,6,8,10,12,14,-1,16,18,20,-1,-1,-1,-1,-1,-1,22,24,26,28,-1,-1,-1,-1,-1,-1,-1,-1],"split_conditions":[1.1327423E0,2.6132414E-1,3.1365713E-1,2.6354143E-1,8.159345E-1,5.7087415E-1,1.6904539E-1,1.8877257E-3,9.7679144E-1,2.9973823E-1,6.028314E-1,-6.7228207E-4,6.588877E-4,1.1586002E-3,3.4013717E-3,-6.629559E-4,5.489807E-4,4.2292726E-1,3.7327176E-1,5.210893E-1,2.4378201E-1,6.499116E-5,-9.290625E-4,-1.6589362E-4,1.3720896E-3,-1.0711822E-3,-6.7722995E-4,3.9207714E-4,-5.769697E-4],"split_indices":[5,2,1,1,3,2,4,0,0,4,2,0,0,0,0,0,0,0,5,2,1,0,0,0,0,0,0,0,0],"split_type":[0,0,0,0,0,0,0,0,0,0,0,0,0,0,0,0,0,0,0,0,0,0,0,0,0,0,0,0,0],"sum_hessian":[7.2E1,6.3E1,9E0,7E0,5.6E1,3E0,6E0,2E0,5E0,3.2E1,2.4E1,1E0,2E0,2E0,4E0,1E0,4E0,1.5E1,1.7E1,2E1,4E0,6E0,9E0,1.4E1,3E0,1.1E1,9E0,2E0,2E0],"tree_param":{"num_deleted":"0","num_feature":"6","num_nodes":"29","size_leaf_vector":"1"}},{"base_weights":[3.0212642E-3,-2.9286804E-2,2.0949078E-1,8.7863564E-2,-4.5215156E-2,1.5641104E-2,2.9033476E-1,1.8751408E-3,2.3394374E-2,-1.7496832E-2,-7.999474E-2,-6.6892063E-4,6.5449515E-4,1.1508763E-3,3.3741607E-3,-6.5964117E-4,5.4458894E-2,-3.346353E-2,5.9930574E-2,-9.2608124E-2,-1.1019597E-2,1.6557268E-4,5.9794984E-4,-8.0487237E-4,-2.8677376E-5,-6.171204E-4,1.361799E-3,-1.061363E-3,-6.7113497E-4,3.894633E-4,-5.731232E-4],"categories":[],"categories_nodes":[],"categories_segments":[],"categories_sizes":[],"default_left":[0,0,0,0,0,0,0,0,0,0,0,0,0,0,0,0,0,0,0,0,0,0,0,0,0,0,0,0,0,0,0],"id":45,"left_children":[1,3,5,7,9,11,13,-1,15,17,19,-1,-1,-1,-1,-1,21,23,25,27,29,-1,-1,-1,-1,-1,-1,-1,-1,-1,-1],"loss_changes":[4.9309137E-1,1.2339756E-1,1.5217462E-1,4.7008336E-2,5.3550147E-2,2.082144E-2,1.89237E-2,0E0,2.0247605E-2,4.2802073E-2,2.072975E-2,0E0,0E0,0E0,0E0,0E0,2.1191314E-5,4.0053554E-2,6.405494E-2,1.1962652E-4,1.37974005E-2,0E0,0E0,0E0,0E0,0E0,0E0,0E0,0E0,0E0,0E0],"parents":[2147483647,0,0,1,1,2,2,3,3,4,4,5,5,6,6,8,8,9,9,10,10,16,16,17,17,18,18,19,19,20,20],"right_children":[2,4,6,8,10,12,14,-1,16,18,20,-1,-1,-1,-1,-1,22,24,26,28,30,-1,-1,-1,-1,-1,-1,-1,-1,-1,-1],"split_conditions":[1.1327423E0,2.6132414E-1,3.1365713E-1,2.6354143E-1,8.159345E-1,5.7087415E-1,1.6904539E-1,1.8751408E-3,9.7679144E-1,4.7876278E-1,6.028314E-1,-6.6892063E-4,6.5449515E-4,1.1508763E-3,3.3741607E-3,-6.5964117E-4,6.895474E-1,4.103223E-1,4.5652145E-1,5.210893E-1,2.4378201E-1,1.6557268E-4,5.9794984E-4,-8.0487237E-4,-2.8677376E-5,-6.171204E-4,1.361799E-3,-1.061363E-3,-6.7113497E-4,3.894633E-4,-5.731232E-4],"split_indices":[5,2,1,1,3,2,4,0,0,5,2,0,0,0,0,0,3,2,0,2,1,0,0,0,0,0,0,0,0,0,0],"split_type":[0,0,0,0,0,0,0,0,0,0,0,0,0,0,0,0,0,0,0,0,0,0,0,0,0,0,0,0,0,0,0],"sum_hessian":[7.2E1,6.3E1,9E0,7E0,5.6E1,3E0,6E0,2E0,5E0,3.2E1,2.4E1,1E0,2E0,2E0,4E0,1E0,4E0,2.7E1,5E0,2E1,4E0,1E0,3E0,1E1,1.7E1,2E0,3E0,1.1E1,9E0,2E0,2E0],"tree_param":{"num_deleted":"0","num_feature":"6","num_nodes":"31","size_leaf_vector":"1"}},{"base_weights":[3.052487E-3,-2.899434E-2,2.0784692E-1,8.723231E-2,-4.479818E-2,1.5481092E-2,2.8807786E-1,1.8626399E-3,2.3177743E-2,-1.7324552E-2,-7.9271436E-2,-6.65576E-4,6.501319E-4,1.1432037E-3,3.3471675E-3,-6.5634295E-4,5.406701E-2,-5.4381814E-2,1.6577713E-2,-9.176454E-2,-1.0946129E-2,1.6474485E-4,5.9346517E-4,2.3611407E-4,-8.2347175E-4,-1.6149026E-4,1.3515855E-3,-1.0075436E-3,-5.9391407E-4,3.8686692E-4,-5.693024E-4],"categories":[],"categories_nodes":[],"categories_segments":[],"categories_sizes":[],"default_left":[0,0,0,0,0,0,0,0,0,0,0,0,0,0,0,0,0,0,0,0,0,0,0,0,0,0,0,0,0,0,0],"id":46,"left_children":[1,3,5,7,9,11,13,-1,15,17,19,-1,-1,-1,-1,-1,21,23,25,27,29,-1,-1,-1,-1,-1,-1,-1,-1,-1,-1],"loss_changes":[4.8512626E-1,1.2146479E-1,1.4987719E-1,4.6430275E-2,5.2611664E-2,2.0581314E-2,1.8462062E-2,0E0,2.0008683E-2,4.2360254E-2,2.0335406E-2,0E0,0E0,0E0,0E0,0E0,1.464691E-5,3.684207E-2,7.203644E-2,1.2767315E-4,1.3614049E-2,0E0,0E0,0E0,0E0,0E0,0E0,0E0,0E0,0E0,0E0],"parents":[2147483647,0,0,1,1,2,2,3,3,4,4,5,5,6,6,8,8,9,9,10,10,16,16,17,17,18,18,19,19,20,20],"right_children":[2,4,6,8,10,12,14,-1,16,18,20,-1,-1,-1,-1,-1,22,24,26,28,30,-1,-1,-1,-1,-1,-1,-1,-1,-1,-1],"split_conditions":[1.1327423E0,2.6132414E-1,3.1365713E-1,2.6354143E-1,8.159345E-1,5.7087415E-1,1.6904539E-1,1.8626399E-3,9.7679144E-1,2.9973823E-1,6.028314E-1,-6.65576E-4,6.501319E-4,1.1432037E-3,3.3471675E-3,-6.5634295E-4,6.895474E-1,3.233479E-1,3.7327176E-1,5.472348E-1,2.4378201E-1,1.6474485E-4,5.9346517E-4,2.3611407E-4,-8.2347175E-4,-1.6149026E-4,1.3515855E-3,-1.0075436E-3,-5.9391407E-4,3.8686692E-4,-5.693024E-4],"split_indices":[5,2,1,1,3,2,4,0,0,4,2,0,0,0,0,0,3,0,5,2,1,0,0,0,0,0,0,0,0,0,0],"split_type":[0,0,0,0,0,0,0,0,0,0,0,0,0,0,0,0,0,0,0,0,0,0,0,0,0,0,0,0,0,0,0],"sum_hessian":[7.2E1,6.3E1,9E0,7E0,5.6E1,3E0,6E0,2E0,5E0,3.2E1,2.4E1,1E0,2E0,2E0,4E0,1E0,4E0,1.5E1,1.7E1,2E1,4E0,1E0,3E0,4E0,1.1E1,1.4E1,3E0,1.4E1,6E0,2E0,2E0],"tree_param":{"num_deleted":"0","num_feature":"6","num_nodes":"31","size_leaf_vector":"1"}},{"base_weights":[3.0939912E-3,-2.869216E-2,2.0621595E-1,8.660555E-2,-4.4370923E-2,1.5322417E-2,2.8583854E-1,1.8502224E-3,2.2962943E-2,-1.7133046E-2,-7.855008E-2,-6.622481E-4,6.457976E-4,1.1355823E-3,3.3203901E-3,-6.5306126E-4,5.3677984E-2,-5.387471E-2,1.6478047E-2,-9.092315E-2,-1.0873156E-2,1.6392111E-4,5.890142E-4,6.56836E-5,-9.0797385E-4,-1.5998307E-4,1.3414485E-3,-1.042398E-3,-6.585086E-4,3.8428782E-4,-5.6550704E-4],"categories":[],"categories_nodes":[],"categories_segments":[],"categories_sizes":[],"default_left":[0,0,0,0,0,0,0,0,0,0,0,0,0,0,0,0,0,0,0,0,0,0,0,0,0,0,0,0,0,0,0],"id":47,"left_children":[1,3,5,7,9,11,13,-1,15,17,19,-1,-1,-1,-1,-1,21,23,25,27,29,-1,-1,-1,-1,-1,-1,-1,-1,-1,-1],"loss_changes":[4.7723874E-1,1.1953719E-1,1.4761469E-1,4.5859303E-2,5.171936E-2,2.0343984E-2,1.8010259E-2,0E0,1.9772628E-2,4.1640356E-2,1.9945666E-2,0E0,0E0,0E0,0E0,0E0,8.284114E-6,3.6303904E-2,7.093109E-2,1.4717877E-4,1.3433134E-2,0E0,0E0,0E0,0E0,0E0,0E0,0E0,0E0,0E0,0E0],"parents":[2147483647,0,0,1,1,2,2,3,3,4,4,5,5,6,6,8,8,9,9,10,10,16,16,17,17,18,18,19,19,20,20],"right_children":[2,4,6,8,10,12,14,-1,16,18,20,-1,-1,-1,-1,-1,22,24,26,28,30,-1,-1,-1,-1,-1,-1,-1,-1,-1,-1],"split_conditions":[1.1327423E0,2.6132414E-1,3.1365713E-1,2.6354143E-1,8.159345E-1,5.7087415E-1,1.6904539E-1,1.8502224E-3,9.7679144E-1,2.9973823E-1,6.028314E-1,-6.622481E-4,6.457976E-4,1.1355823E-3,3.3203901E-3,-6.5306126E-4,6.895474E-1,4.2292726E-1,3.7327176E-1,5.210893E-1,2.4378201E-1,1.6392111E-4,5.890142E-4,6.56836E-5,-9.0797385E-4,-1.5998307E-4,1.3414485E-3,-1.042398E-3,-6.585086E-4,3.8428782E-4,-5.6550704E-4],"split_indices":[5,2,1,1,3,2,4,0,0,4,2,0,0,0,0,0,3,0,5,2,1,0,0,0,0,0,0,0,0,0,0],"split_type":[0,0,0,0,0,0,0,0,0,0,0,0,0,0,0,0,0,0,0,0,0,0,0,0,0,0,0,0,0,0,0],"sum_hessian":[7.2E1,6.3E1,9E0,7E0,5.6E1,3E0,6E0,2E0,5E0,3.2E1,2.4E1,1E0,2E0,2E0,4E0,1E0,4E0,1.5E1,1.7E1,2E1,4E0,1E0,3E0,6E0,9E0,1.4E1,3E0,1.1E1,9E0,2E0,2E0],"tree_param":{"num_deleted":"0","num_feature":"6","num_nodes":"31","size_leaf_vector":"1"}},{"base_weights":[3.1294425E-3,-2.8398877E-2,2.0459774E-1,8.5983254E-2,-4.3954283E-2,1.5165079E-2,2.8361672E-1,1.8378876E-3,2.2749959E-2,-1.695144E-2,-7.783987E-2,-6.5893686E-4,6.414923E-4,1.1280117E-3,3.2938272E-3,-6.49796E-4,5.329179E-2,-5.3388607E-2,1.6378896E-2,-9.009492E-2,-1.0800664E-2,1.6310147E-4,5.845966E-4,2.3369973E-4,-8.09223E-4,-1.5848991E-4,1.3313876E-3,-1.0328428E-3,-6.52582E-4,3.817259E-4,-5.61737E-4],"categories":[],"categories_nodes":[],"categories_segments":[],"categories_sizes":[],"default_left":[0,0,0,0,0,0,0,0,0,0,0,0,0,0,0,0,0,0,0,0,0,0,0,0,0,0,0,0,0,0,0],"id":48,"left_children":[1,3,5,7,9,11,13,-1,15,17,19,-1,-1,-1,-1,-1,21,23,25,27,29,-1,-1,-1,-1,-1,-1,-1,-1,-1,-1],"loss_changes":[4.695032E-1,1.17652014E-1,1.4538673E-1,4.5295328E-2,5.08359E-2,2.0109408E-2,1.7567992E-2,0E0,1.9539407E-2,4.095173E-2,1.9566149E-2,0E0,0E0,0E0,0E0,0E0,2.0964071E-6,3.57063E-2,6.984275E-2,1.3902783E-4,1.3254623E-2,0E0,0E0,0E0,0E0,0E0,0E0,0E0,0E0,0E0,0E0],"parents":[2147483647,0,0,1,1,2,2,3,3,4,4,5,5,6,6,8,8,9,9,10,10,16,16,17,17,18,18,19,19,20,20],"right_children":[2,4,6,8,10,12,14,-1,16,18,20,-1,-1,-1,-1,-1,22,24,26,28,30,-1,-1,-1,-1,-1,-1,-1,-1,-1,-1],"split_conditions":[1.1327423E0,2.6132414E-1,3.1365713E-1,2.6354143E-1,8.159345E-1,5.7087415E-1,1.6904539E-1,1.8378876E-3,9.7679144E-1,2.9973823E-1,6.028314E-1,-6.5893686E-4,6.414923E-4,1.1280117E-3,3.2938272E-3,-6.49796E-4,6.895474E-1,3.233479E-1,3.7327176E-1,5.210893E-1,2.4378201E-1,1.6310147E-4,5.845966E-4,2.3369973E-4,-8.09223E-4,-1.5848991E-4,1.3313876E-3,-1.0328428E-3,-6.52582E-4,3.817259E-4,-5.61737E-4],"split_indices":[5,2,1,1,3,2,4,0,0,4,2,0,0,0,0,0,3,0,5,2,1,0,0,0,0,0,0,0,0,0,0],"split_type":[0,0,0,0,0,0,0,0,0,0,0,0,0,0,0,0,0,0,0,0,0,0,0,0,0,0,0,0,0,0,0],"sum_hessian":[7.2E1,6.3E1,9E0,7E0,5.6E1,3E0,6E0,2E0,5E0,3.2E1,2.4E1,1E0,2E0,2E0,4E0,1E0,4E0,1.5E1,1.7E1,2E1,4E0,1E0,3E0,4E0,1.1E1,1.4E1,3E0,1.1E1,9E0,2E0,2E0],"tree_param":{"num_deleted":"0","num_feature":"6","num_nodes":"31","size_leaf_vector":"1"}},{"base_weights":[3.16763E-3,-2.8104454E-2,2.0299222E-1,8.536539E-2,-4.3536987E-2,1.5009068E-2,2.8141227E-1,1.825635E-3,2.2538772E-2,-1.6763825E-2,-7.7136084E-2,-6.556421E-4,6.372157E-4,1.1204917E-3,3.2674766E-3,-6.46547E-4,5.2908406E-4,-5.289069E-2,1.6280267E-2,-8.927423E-2,-1.0728655E-2,6.609725E-5,-8.92519E-4,-1.570107E-4,1.3214021E-3,-9.802993E-4,-5.7758536E-4,3.791811E-4,-5.57992E-4],"categories":[],"categories_nodes":[],"categories_segments":[],"categories_sizes":[],"default_left":[0,0,0,0,0,0,0,0,0,0,0,0,0,0,0,0,0,0,0,0,0,0,0,0,0,0,0,0,0],"id":49,"left_children":[1,3,5,7,9,11,13,-1,15,17,19,-1,-1,-1,-1,-1,-1,21,23,25,27,-1,-1,-1,-1,-1,-1,-1,-1],"loss_changes":[4.6187693E-1,1.1578869E-1,1.4319277E-1,4.473828E-2,4.998149E-2,1.987756E-2,1.7135262E-2,0E0,1.930898E-2,4.02558E-2,1.9193783E-2,0E0,0E0,0E0,0E0,0E0,0E0,3.5206046E-2,6.877116E-2,1.3272464E-4,1.3078483E-2,0E0,0E0,0E0,0E0,0E0,0E0,0E0,0E0],"parents":[2147483647,0,0,1,1,2,2,3,3,4,4,5,5,6,6,8,8,9,9,10,10,17,17,18,18,19,19,20,20],"right_children":[2,4,6,8,10,12,14,-1,16,18,20,-1,-1,-1,-1,-1,-1,22,24,26,28,-1,-1,-1,-1,-1,-1,-1,-1],"split_conditions":[1.1327423E0,2.6132414E-1,3.1365713E-1,2.6354143E-1,8.159345E-1,5.7087415E-1,1.6904539E-1,1.825635E-3,9.7679144E-1,2.9973823E-1,6.028314E-1,-6.556421E-4,6.372157E-4,1.1204917E-3,3.2674766E-3,-6.46547E-4,5.2908406E-4,4.2292726E-1,3.7327176E-1,5.472348E-1,2.4378201E-1,6.609725E-5,-8.92519E-4,-1.570107E-4,1.3214021E-3,-9.802993E-4,-5.7758536E-4,3.791811E-4,-5.57992E-4],"split_indices":[5,2,1,1,3,2,4,0,0,4,2,0,0,0,0,0,0,0,5,2,1,0,0,0,0,0,0,0,0],"split_type":[0,0,0,0,0,0,0,0,0,0,0,0,0,0,0,0,0,0,0,0,0,0,0,0,0,0,0,0,0],"sum_hessian":[7.2E1,6.3E1,9E0,7E0,5.6E1,3E0,6E0,2E0,5E0,3.2E1,2.4E1,1E0,2E0,2E0,4E0,1E0,4E0,1.5E1,1.7E1,2E1,4E0,6E0,9E0,1.4E1,3E0,1.4E1,6E0,2E0,2E0],"tree_param":{"num_deleted":"0","num_feature":"6","num_nodes":"29","size_leaf_vector":"1"}},{"base_weights":[3.2000514E-3,-2.7818574E-2,2.0139925E-1,8.472526E-2,-4.3126155E-2,1.4854375E-2,2.79225E-1,1.8134641E-3,2.2293808E-2,-1.6585944E-2,-7.643419E-2,-6.5236393E-4,6.329676E-4,1.1130217E-3,3.241337E-3,-6.4331427E-4,5.2485142E-2,-3.1960618E-2,5.7926852E-2,-8.845567E-2,-1.065713E-2,1.5964053E-4,5.7624397E-4,-7.7905465E-4,-2.1076192E-5,-5.9011846E-4,1.3114917E-3,-1.0143889E-3,-6.403024E-4,3.7665325E-4,-5.542721E-4],"categories":[],"categories_nodes":[],"categories_segments":[],"categories_sizes":[],"default_left":[0,0,0,0,0,0,0,0,0,0,0,0,0,0,0,0,0,0,0,0,0,0,0,0,0,0,0,0,0,0,0],"id":50,"left_children":[1,3,5,7,9,11,13,-1,15,17,19,-1,-1,-1,-1,-1,21,23,25,27,29,-1,-1,-1,-1,-1,-1,-1,-1,-1,-1],"loss_changes":[4.5439693E-1,1.139114E-1,1.4103228E-1,4.421469E-2,4.912039E-2,1.9648407E-2,1.6711533E-2,0E0,1.9068431E-2,3.9656505E-2,1.8825755E-2,0E0,0E0,0E0,0E0,0E0,1.8537045E-5,3.8240373E-2,5.9114486E-2,1.6437471E-4,1.2904686E-2,0E0,0E0,0E0,0E0,0E0,0E0,0E0,0E0,0E0,0E0],"parents":[2147483647,0,0,1,1,2,2,3,3,4,4,5,5,6,6,8,8,9,9,10,10,16,16,17,17,18,18,19,19,20,20],"right_children":[2,4,6,8,10,12,14,-1,16,18,20,-1,-1,-1,-1,-1,22,24,26,28,30,-1,-1,-1,-1,-1,-1,-1,-1,-1,-1],"split_conditions":[1.1327423E0,2.6132414E-1,3.1365713E-1,2.6354143E-1,8.159345E-1,5.7087415E-1,1.6904539E-1,1.8134641E-3,9.7679144E-1,4.7876278E-1,6.028314E-1,-6.5236393E-4,6.329676E-4,1.1130217E-3,3.241337E-3,-6.4331427E-4,6.895474E-1,4.103223E-1,4.5652145E-1,5.210893E-1,2.4378201E-1,1.5964053E-4,5.7624397E-4,-7.7905465E-4,-2.1076192E-5,-5.9011846E-4,1.3114917E-3,-1.0143889E-3,-6.403024E-4,3.7665325E-4,-5.542721E-4],"split_indices":[5,2,1,1,3,2,4,0,0,5,2,0,0,0,0,0,3,2,0,2,1,0,0,0,0,0,0,0,0,0,0],"split_type":[0,0,0,0,0,0,0,0,0,0,0,0,0,0,0,0,0,0,0,0,0,0,0,0,0,0,0,0,0,0,0],"sum_hessian":[7.2E1,6.3E1,9E0,7E0,5.6E1,3E0,6E0,2E0,5E0,3.2E1,2.4E1,1E0,2E0,2E0,4E0,1E0,4E0,2.7E1,5E0,2E1,4E0,1E0,3E0,1E1,1.7E1,2E0,3E0,1.1E1,9E0,2E0,2E0],"tree_param":{"num_deleted":"0","num_feature":"6","num_nodes":"31","size_leaf_vector":"1"}},{"base_weights":[3.2273615E-3,-2.7540471E-2,1.9981875E-1,8.4116265E-2,-4.2728424E-2,1.4700979E-2,2.770548E-1,1.8013744E-3,2.2086298E-2,-1.6422477E-2,-7.574314E-2,-6.4910215E-4,6.2874786E-4,1.1056016E-3,3.215406E-3,-6.400977E-4,5.2107465E-2,-4.4459887E-2,2.4804E-2,-8.764991E-2,-1.0586081E-2,1.5884235E-4,5.719221E-4,3.3155165E-4,-6.010696E-4,1.1029735E-3,-5.3103175E-4,-1.0050904E-3,-6.3453964E-4,3.7414223E-4,-5.505769E-4],"categories":[],"categories_nodes":[],"categories_segments":[],"categories_sizes":[],"default_left":[0,0,0,0,0,0,0,0,0,0,0,0,0,0,0,0,0,0,0,0,0,0,0,0,0,0,0,0,0,0,0],"id":51,"left_children":[1,3,5,7,9,11,13,-1,15,17,19,-1,-1,-1,-1,-1,21,23,25,27,29,-1,-1,-1,-1,-1,-1,-1,-1,-1,-1],"loss_changes":[4.4705755E-1,1.1212775E-1,1.3890466E-1,4.3670952E-2,4.8259668E-2,1.9421913E-2,1.6296983E-2,0E0,1.8843614E-2,3.924694E-2,1.8467382E-2,0E0,0E0,0E0,0E0,0E0,1.2475066E-5,2.628183E-2,9.910478E-2,1.5622377E-4,1.2733195E-2,0E0,0E0,0E0,0E0,0E0,0E0,0E0,0E0,0E0,0E0],"parents":[2147483647,0,0,1,1,2,2,3,3,4,4,5,5,6,6,8,8,9,9,10,10,16,16,17,17,18,18,19,19,20,20],"right_children":[2,4,6,8,10,12,14,-1,16,18,20,-1,-1,-1,-1,-1,22,24,26,28,30,-1,-1,-1,-1,-1,-1,-1,-1,-1,-1],"split_conditions":[1.1327423E0,2.6132414E-1,3.1365713E-1,2.6354143E-1,8.159345E-1,5.7087415E-1,1.6904539E-1,1.8013744E-3,9.7679144E-1,3.466177E-1,6.028314E-1,-6.4910215E-4,6.2874786E-4,1.1056016E-3,3.215406E-3,-6.400977E-4,6.895474E-1,1.0062991E-1,7.297066E-1,5.210893E-1,2.4378201E-1,1.5884235E-4,5.719221E-4,3.3155165E-4,-6.010696E-4,1.1029735E-3,-5.3103175E-4,-1.0050904E-3,-6.3453964E-4,3.7414223E-4,-5.505769E-4],"split_indices":[5,2,1,1,3,2,4,0,0,4,2,0,0,0,0,0,3,4,0,2,1,0,0,0,0,0,0,0,0,0,0],"split_type":[0,0,0,0,0,0,0,0,0,0,0,0,0,0,0,0,0,0,0,0,0,0,0,0,0,0,0,0,0,0,0],