{"learner":{"attributes":{"scikit_learn":"{\"_estimator_type\": \"regressor\"}"},"feature_names":["freq","prediction_length","domain"],"feature_types":["float","int","float"],"gradient_booster":{"model":{"gbtree_model_param":{"num_parallel_tree":"1","num_trees":"200"},"iteration_indptr":[0,1,2,3,4,5,6,7,8,9,10,11,12,13,14,15,16,17,18,19,20,21,22,23,24,25,26,27,28,29,30,31,32,33,34,35,36,37,38,39,40,41,42,43,44,45,46,47,48,49,50,51,52,53,54,55,56,57,58,59,60,61,62,63,64,65,66,67,68,69,70,71,72,73,74,75,76,77,78,79,80,81,82,83,84,85,86,87,88,89,90,91,92,93,94,95,96,97,98,99,100,101,102,103,104,105,106,107,108,109,110,111,112,113,114,115,116,117,118,119,120,121,122,123,124,125,126,127,128,129,130,131,132,133,134,135,136,137,138,139,140,141,142,143,144,145,146,147,148,149,150,151,152,153,154,155,156,157,158,159,160,161,162,163,164,165,166,167,168,169,170,171,172,173,174,175,176,177,178,179,180,181,182,183,184,185,186,187,188,189,190,191,192,193,194,195,196,197,198,199,200],"tree_info":[0,0,0,0,0,0,0,0,0,0,0,0,0,0,0,0,0,0,0,0,0,0,0,0,0,0,0,0,0,0,0,0,0,0,0,0,0,0,0,0,0,0,0,0,0,0,0,0,0,0,0,0,0,0,0,0,0,0,0,0,0,0,0,0,0,0,0,0,0,0,0,0,0,0,0,0,0,0,0,0,0,0,0,0,0,0,0,0,0,0,0,0,0,0,0,0,0,0,0,0,0,0,0,0,0,0,0,0,0,0,0,0,0,0,0,0,0,0,0,0,0,0,0,0,0,0,0,0,0,0,0,0,0,0,0,0,0,0,0,0,0,0,0,0,0,0,0,0,0,0,0,0,0,0,0,0,0,0,0,0,0,0,0,0,0,0,0,0,0,0,0,0,0,0,0,0,0,0,0,0,0,0,0,0,0,0,0,0,0,0,0,0,0,0,0,0,0,0,0,0],"trees":[{"base_weights":[8.16502E-9,3.2181464E-2,-9.3156844E-2,-1.9522985E-2,1.3954745E-1,1.4525926E-2,-1.2284064E-1,7.048043E-4,-3.218458E-4,9.488145E-4,2.7215804E-3,-5.855645E-4,8.276633E-4,-3.612936E-4,-1.5108752E-3],"categories":[],"categories_nodes":[],"categories_segments":[],"categories_sizes":[],"default_left":[0,0,0,0,0,0,0,0,0,0,0,0,0,0,0],"id":0,"left_children":[1,3,5,7,9,11,13,-1,-1,-1,-1,-1,-1,-1,-1],"loss_changes":[2.2184631E-1,3.080458E-1,6.251663E-2,4.5572676E-2,8.07946E-2,2.9782362E-2,3.1281143E-2,0E0,0E0,0E0,0E0,0E0,0E0,0E0,0E0],"parents":[2147483647,0,0,1,1,2,2,3,3,4,4,5,5,6,6],"right_children":[2,4,6,8,10,12,14,-1,-1,-1,-1,-1,-1,-1,-1],"split_conditions":[5.256E4,4E0,6E1,5.2142857E1,3.504E4,1.0512E5,6E0,7.048043E-4,-3.218458E-4,9.488145E-4,2.7215804E-3,-5.855645E-4,8.276633E-4,-3.612936E-4,-1.5108752E-3],"split_indices":[0,2,1,0,0,0,2,0,0,0,0,0,0,0,0],"split_type":[0,0,0,0,0,0,0,0,0,0,0,0,0,0,0],"sum_hessian":[7.2E1,5.4E1,1.8E1,3.7E1,1.7E1,4E0,1.4E1,4E0,3.3E1,1.4E1,3E0,2E0,2E0,4E0,1E1],"tree_param":{"num_deleted":"0","num_feature":"3","num_nodes":"15","size_leaf_vector":"1"}},{"base_weights":[3.3201013E-5,3.193334E-2,-9.231106E-2,-1.9317687E-2,1.3835588E-1,1.442908E-2,-1.2173704E-1,6.99166E-4,-3.1872207E-4,9.399589E-4,2.7011686E-3,-5.8166083E-4,8.2214555E-4,-3.5840325E-4,-1.4971399E-3],"categories":[],"categories_nodes":[],"categories_segments":[],"categories_sizes":[],"default_left":[0,0,0,0,0,0,0,0,0,0,0,0,0,0,0],"id":1,"left_children":[1,3,5,7,9,11,13,-1,-1,-1,-1,-1,-1,-1,-1],"loss_changes":[2.1799083E-1,3.0265725E-1,6.1434284E-2,4.479956E-2,7.981861E-2,2.9386587E-2,3.0681133E-2,0E0,0E0,0E0,0E0,0E0,0E0,0E0,0E0],"parents":[2147483647,0,0,1,1,2,2,3,3,4,4,5,5,6,6],"right_children":[2,4,6,8,10,12,14,-1,-1,-1,-1,-1,-1,-1,-1],"split_conditions":[5.256E4,4E0,6E1,5.2142857E1,3.504E4,1.0512E5,6E0,6.99166E-4,-3.1872207E-4,9.399589E-4,2.7011686E-3,-5.8166083E-4,8.2214555E-4,-3.5840325E-4,-1.4971399E-3],"split_indices":[0,2,1,0,0,0,2,0,0,0,0,0,0,0,0],"split_type":[0,0,0,0,0,0,0,0,0,0,0,0,0,0,0],"sum_hessian":[7.2E1,5.4E1,1.8E1,3.7E1,1.7E1,4E0,1.4E1,4E0,3.3E1,1.4E1,3E0,2E0,2E0,4E0,1E1],"tree_param":{"num_deleted":"0","num_feature":"3","num_nodes":"15","size_leaf_vector":"1"}},{"base_weights":[6.584068E-5,3.1687137E-2,-9.147295E-2,-1.9114485E-2,1.371746E-1,1.4332878E-2,-1.2064336E-1,6.935727E-4,-3.1562845E-4,9.311859E-4,2.6809103E-3,-5.7778315E-4,8.166644E-4,-3.5553603E-4,-1.4835295E-3],"categories":[],"categories_nodes":[],"categories_segments":[],"categories_sizes":[],"default_left":[0,0,0,0,0,0,0,0,0,0,0,0,0,0,0],"id":2,"left_children":[1,3,5,7,9,11,13,-1,-1,-1,-1,-1,-1,-1,-1],"loss_changes":[2.1420251E-1,2.9736346E-1,6.037076E-2,4.4039596E-2,7.885352E-2,2.899607E-2,3.0092537E-2,0E0,0E0,0E0,0E0,0E0,0E0,0E0,0E0],"parents":[2147483647,0,0,1,1,2,2,3,3,4,4,5,5,6,6],"right_children":[2,4,6,8,10,12,14,-1,-1,-1,-1,-1,-1,-1,-1],"split_conditions":[5.256E4,4E0,6E1,5.2142857E1,3.504E4,1.0512E5,6E0,6.935727E-4,-3.1562845E-4,9.311859E-4,2.6809103E-3,-5.7778315E-4,8.166644E-4,-3.5553603E-4,-1.4835295E-3],"split_indices":[0,2,1,0,0,0,2,0,0,0,0,0,0,0,0],"split_type":[0,0,0,0,0,0,0,0,0,0,0,0,0,0,0],"sum_hessian":[7.2E1,5.4E1,1.8E1,3.7E1,1.7E1,4E0,1.4E1,4E0,3.3E1,1.4E1,3E0,2E0,2E0,4E0,1E1],"tree_param":{"num_deleted":"0","num_feature":"3","num_nodes":"15","size_leaf_vector":"1"}},{"base_weights":[9.792757E-5,3.144282E-2,-9.0642445E-2,-1.8913386E-2,1.3600354E-1,1.423732E-2,-1.19559534E-1,6.880242E-4,-3.1256492E-4,9.22495E-4,2.660803E-3,-5.739313E-4,8.1122003E-4,-3.526917E-4,-1.4700429E-3],"categories":[],"categories_nodes":[],"categories_segments":[],"categories_sizes":[],"default_left":[0,0,0,0,0,0,0,0,0,0,0,0,0,0,0],"id":3,"left_children":[1,3,5,7,9,11,13,-1,-1,-1,-1,-1,-1,-1,-1],"loss_changes":[2.104801E-1,2.9216278E-1,5.9325725E-2,4.3292575E-2,7.789916E-2,2.8610747E-2,2.9515207E-2,0E0,0E0,0E0,0E0,0E0,0E0,0E0,0E0],"parents":[2147483647,0,0,1,1,2,2,3,3,4,4,5,5,6,6],"right_children":[2,4,6,8,10,12,14,-1,-1,-1,-1,-1,-1,-1,-1],"split_conditions":[5.256E4,4E0,6E1,5.2142857E1,3.504E4,1.0512E5,6E0,6.880242E-4,-3.1256492E-4,9.22495E-4,2.660803E-3,-5.739313E-4,8.1122003E-4,-3.526917E-4,-1.4700429E-3],"split_indices":[0,2,1,0,0,0,2,0,0,0,0,0,0,0,0],"split_type":[0,0,0,0,0,0,0,0,0,0,0,0,0,0,0],"sum_hessian":[7.2E1,5.4E1,1.8E1,3.7E1,1.7E1,4E0,1.4E1,4E0,3.3E1,1.4E1,3E0,2E0,2E0,4E0,1E1],"tree_param":{"num_deleted":"0","num_feature":"3","num_nodes":"15","size_leaf_vector":"1"}},{"base_weights":[1.2945679E-4,3.1200368E-2,-8.981947E-2,-1.8714368E-2,1.3484257E-1,1.4142406E-2,-1.18485466E-1,6.825201E-4,-3.095312E-4,9.138849E-4,2.6408471E-3,-5.701051E-4,8.0581184E-4,-3.4987024E-4,-1.456679E-3],"categories":[],"categories_nodes":[],"categories_segments":[],"categories_sizes":[],"default_left":[0,0,0,0,0,0,0,0,0,0,0,0,0,0,0],"id":4,"left_children":[1,3,5,7,9,11,13,-1,-1,-1,-1,-1,-1,-1,-1],"loss_changes":[2.0682245E-1,2.8705353E-1,5.82989E-2,4.2558286E-2,7.695547E-2,2.8230542E-2,2.8948873E-2,0E0,0E0,0E0,0E0,0E0,0E0,0E0,0E0],"parents":[2147483647,0,0,1,1,2,2,3,3,4,4,5,5,6,6],"right_children":[2,4,6,8,10,12,14,-1,-1,-1,-1,-1,-1,-1,-1],"split_conditions":[5.256E4,4E0,6E1,5.2142857E1,3.504E4,1.0512E5,6E0,6.825201E-4,-3.095312E-4,9.138849E-4,2.6408471E-3,-5.701051E-4,8.0581184E-4,-3.4987024E-4,-1.456679E-3],"split_indices":[0,2,1,0,0,0,2,0,0,0,0,0,0,0,0],"split_type":[0,0,0,0,0,0,0,0,0,0,0,0,0,0,0],"sum_hessian":[7.2E1,5.4E1,1.8E1,3.7E1,1.7E1,4E0,1.4E1,4E0,3.3E1,1.4E1,3E0,2E0,2E0,4E0,1E1],"tree_param":{"num_deleted":"0","num_feature":"3","num_nodes":"15","size_leaf_vector":"1"}},{"base_weights":[1.604455E-4,3.0959774E-2,-8.900395E-2,-1.8517414E-2,1.3369162E-1,1.4048124E-2,-1.17421046E-1,6.770598E-4,-3.0652696E-4,9.0535526E-4,2.621041E-3,-5.663043E-4,8.004397E-4,-3.470712E-4,-1.4434364E-3],"categories":[],"categories_nodes":[],"categories_segments":[],"categories_sizes":[],"default_left":[0,0,0,0,0,0,0,0,0,0,0,0,0,0,0],"id":5,"left_children":[1,3,5,7,9,11,13,-1,-1,-1,-1,-1,-1,-1,-1],"loss_changes":[2.032284E-1,2.8203422E-1,5.728993E-2,4.183649E-2,7.60223E-2,2.785538E-2,2.8393343E-2,0E0,0E0,0E0,0E0,0E0,0E0,0E0,0E0],"parents":[2147483647,0,0,1,1,2,2,3,3,4,4,5,5,6,6],"right_children":[2,4,6,8,10,12,14,-1,-1,-1,-1,-1,-1,-1,-1],"split_conditions":[5.256E4,4E0,6E1,5.2142857E1,3.504E4,1.0512E5,6E0,6.770598E-4,-3.0652696E-4,9.0535526E-4,2.621041E-3,-5.663043E-4,8.004397E-4,-3.470712E-4,-1.4434364E-3],"split_indices":[0,2,1,0,0,0,2,0,0,0,0,0,0,0,0],"split_type":[0,0,0,0,0,0,0,0,0,0,0,0,0,0,0],"sum_hessian":[7.2E1,5.4E1,1.8E1,3.7E1,1.7E1,4E0,1.4E1,4E0,3.3E1,1.4E1,3E0,2E0,2E0,4E0,1E1],"tree_param":{"num_deleted":"0","num_feature":"3","num_nodes":"15","size_leaf_vector":"1"}},{"base_weights":[1.9089857E-4,3.072102E-2,-8.8195816E-2,-1.8322498E-2,1.3255061E-1,1.3954473E-2,-1.1636619E-1,6.716435E-4,-3.0355196E-4,8.969052E-4,2.601383E-3,-5.6252896E-4,7.951035E-4,-3.442946E-4,-1.4303142E-3],"categories":[],"categories_nodes":[],"categories_segments":[],"categories_sizes":[],"default_left":[0,0,0,0,0,0,0,0,0,0,0,0,0,0,0],"id":6,"left_children":[1,3,5,7,9,11,13,-1,-1,-1,-1,-1,-1,-1,-1],"loss_changes":[1.9969684E-1,2.7710316E-1,5.6298465E-2,4.1127004E-2,7.509962E-2,2.7485216E-2,2.7848423E-2,0E0,0E0,0E0,0E0,0E0,0E0,0E0,0E0],"parents":[2147483647,0,0,1,1,2,2,3,3,4,4,5,5,6,6],"right_children":[2,4,6,8,10,12,14,-1,-1,-1,-1,-1,-1,-1,-1],"split_conditions":[5.256E4,4E0,6E1,5.2142857E1,3.504E4,1.0512E5,6E0,6.716435E-4,-3.0355196E-4,8.969052E-4,2.601383E-3,-5.6252896E-4,7.951035E-4,-3.442946E-4,-1.4303142E-3],"split_indices":[0,2,1,0,0,0,2,0,0,0,0,0,0,0,0],"split_type":[0,0,0,0,0,0,0,0,0,0,0,0,0,0,0],"sum_hessian":[7.2E1,5.4E1,1.8E1,3.7E1,1.7E1,4E0,1.4E1,4E0,3.3E1,1.4E1,3E0,2E0,2E0,4E0,1E1],"tree_param":{"num_deleted":"0","num_feature":"3","num_nodes":"15","size_leaf_vector":"1"}},{"base_weights":[2.2083562E-4,3.0484118E-2,-8.739502E-2,-1.8129576E-2,1.3141946E-1,1.3861442E-2,-1.1532085E-1,6.6627015E-4,-3.0060558E-4,8.885342E-4,2.5818725E-3,-5.587788E-4,7.8980287E-4,-3.4154014E-4,-1.4173114E-3],"categories":[],"categories_nodes":[],"categories_segments":[],"categories_sizes":[],"default_left":[0,0,0,0,0,0,0,0,0,0,0,0,0,0,0],"id":7,"left_children":[1,3,5,7,9,11,13,-1,-1,-1,-1,-1,-1,-1,-1],"loss_changes":[1.9622684E-1,2.7225876E-1,5.5324227E-2,4.0429566E-2,7.418725E-2,2.7119974E-2,2.7313918E-2,0E0,0E0,0E0,0E0,0E0,0E0,0E0,0E0],"parents":[2147483647,0,0,1,1,2,2,3,3,4,4,5,5,6,6],"right_children":[2,4,6,8,10,12,14,-1,-1,-1,-1,-1,-1,-1,-1],"split_conditions":[5.256E4,4E0,6E1,5.2142857E1,3.504E4,1.0512E5,6E0,6.6627015E-4,-3.0060558E-4,8.885342E-4,2.5818725E-3,-5.587788E-4,7.8980287E-4,-3.4154014E-4,-1.4173114E-3],"split_indices":[0,2,1,0,0,0,2,0,0,0,0,0,0,0,0],"split_type":[0,0,0,0,0,0,0,0,0,0,0,0,0,0,0],"sum_hessian":[7.2E1,5.4E1,1.8E1,3.7E1,1.7E1,4E0,1.4E1,4E0,3.3E1,1.4E1,3E0,2E0,2E0,4E0,1E1],"tree_param":{"num_deleted":"0","num_feature":"3","num_nodes":"15","size_leaf_vector":"1"}},{"base_weights":[2.5025458E-4,3.0249033E-2,-8.660149E-2,-1.7938646E-2,1.3029808E-1,1.3769043E-2,-1.14284895E-1,6.609401E-4,-2.976878E-4,8.802412E-4,2.5625085E-3,-5.550535E-4,7.845375E-4,-3.3880788E-4,-1.4044268E-3],"categories":[],"categories_nodes":[],"categories_segments":[],"categories_sizes":[],"default_left":[0,0,0,0,0,0,0,0,0,0,0,0,0,0,0],"id":8,"left_children":[1,3,5,7,9,11,13,-1,-1,-1,-1,-1,-1,-1,-1],"loss_changes":[1.9281717E-1,2.674996E-1,5.436696E-2,3.9744016E-2,7.328513E-2,2.6759578E-2,2.6789606E-2,0E0,0E0,0E0,0E0,0E0,0E0,0E0,0E0],"parents":[2147483647,0,0,1,1,2,2,3,3,4,4,5,5,6,6],"right_children":[2,4,6,8,10,12,14,-1,-1,-1,-1,-1,-1,-1,-1],"split_conditions":[5.256E4,4E0,6E1,5.2142857E1,3.504E4,1.0512E5,6E0,6.609401E-4,-2.976878E-4,8.802412E-4,2.5625085E-3,-5.550535E-4,7.845375E-4,-3.3880788E-4,-1.4044268E-3],"split_indices":[0,2,1,0,0,0,2,0,0,0,0,0,0,0,0],"split_type":[0,0,0,0,0,0,0,0,0,0,0,0,0,0,0],"sum_hessian":[7.2E1,5.4E1,1.8E1,3.7E1,1.7E1,4E0,1.4E1,4E0,3.3E1,1.4E1,3E0,2E0,2E0,4E0,1E1],"tree_param":{"num_deleted":"0","num_feature":"3","num_nodes":"15","size_leaf_vector":"1"}},{"base_weights":[2.7915795E-4,3.0015746E-2,-8.581513E-2,-1.7749693E-2,1.2918636E-1,1.36772515E-2,-1.1325825E-1,6.556527E-4,-2.9479843E-4,8.720256E-4,2.5432897E-3,-5.513531E-4,7.793073E-4,-3.360973E-4,-1.3916591E-3],"categories":[],"categories_nodes":[],"categories_segments":[],"categories_sizes":[],"default_left":[0,0,0,0,0,0,0,0,0,0,0,0,0,0,0],"id":9,"left_children":[1,3,5,7,9,11,13,-1,-1,-1,-1,-1,-1,-1,-1],"loss_changes":[1.894668E-1,2.6282406E-1,5.342628E-2,3.907014E-2,7.239315E-2,2.6403965E-2,2.6275292E-2,0E0,0E0,0E0,0E0,0E0,0E0,0E0,0E0],"parents":[2147483647,0,0,1,1,2,2,3,3,4,4,5,5,6,6],"right_children":[2,4,6,8,10,12,14,-1,-1,-1,-1,-1,-1,-1,-1],"split_conditions":[5.256E4,4E0,6E1,5.2142857E1,3.504E4,1.0512E5,6E0,6.556527E-4,-2.9479843E-4,8.720256E-4,2.5432897E-3,-5.513531E-4,7.793073E-4,-3.360973E-4,-1.3916591E-3],"split_indices":[0,2,1,0,0,0,2,0,0,0,0,0,0,0,0],"split_type":[0,0,0,0,0,0,0,0,0,0,0,0,0,0,0],"sum_hessian":[7.2E1,5.4E1,1.8E1,3.7E1,1.7E1,4E0,1.4E1,4E0,3.3E1,1.4E1,3E0,2E0,2E0,4E0,1E1],"tree_param":{"num_deleted":"0","num_feature":"3","num_nodes":"15","size_leaf_vector":"1"}},{"base_weights":[3.0755304E-4,2.9784253E-2,-8.503592E-2,-1.7562695E-2,1.2808424E-1,1.35860685E-2,-1.1224086E-1,6.504075E-4,-2.919371E-4,8.6388685E-4,2.524215E-3,-5.4767745E-4,7.7411195E-4,-3.3340842E-4,-1.3790078E-3],"categories":[],"categories_nodes":[],"categories_segments":[],"categories_sizes":[],"default_left":[0,0,0,0,0,0,0,0,0,0,0,0,0,0,0],"id":10,"left_children":[1,3,5,7,9,11,13,-1,-1,-1,-1,-1,-1,-1,-1],"loss_changes":[1.8617474E-1,2.5823075E-1,5.2502006E-2,3.840773E-2,7.151121E-2,2.605309E-2,2.5770798E-2,0E0,0E0,0E0,0E0,0E0,0E0,0E0,0E0],"parents":[2147483647,0,0,1,1,2,2,3,3,4,4,5,5,6,6],"right_children":[2,4,6,8,10,12,14,-1,-1,-1,-1,-1,-1,-1,-1],"split_conditions":[5.256E4,4E0,6E1,5.2142857E1,3.504E4,1.0512E5,6E0,6.504075E-4,-2.919371E-4,8.6388685E-4,2.524215E-3,-5.4767745E-4,7.7411195E-4,-3.3340842E-4,-1.3790078E-3],"split_indices":[0,2,1,0,0,0,2,0,0,0,0,0,0,0,0],"split_type":[0,0,0,0,0,0,0,0,0,0,0,0,0,0,0],"sum_hessian":[7.2E1,5.4E1,1.8E1,3.7E1,1.7E1,4E0,1.4E1,4E0,3.3E1,1.4E1,3E0,2E0,2E0,4E0,1E1],"tree_param":{"num_deleted":"0","num_feature":"3","num_nodes":"15","size_leaf_vector":"1"}},{"base_weights":[3.3544842E-4,2.9554535E-2,-8.426377E-2,-1.7377628E-2,1.2699163E-1,1.3495493E-2,-1.1123261E-1,1.484988E-5,-7.034145E-4,8.55824E-4,2.5052833E-3,-5.440263E-4,7.6895114E-4,-3.3074123E-4,-1.3664713E-3],"categories":[],"categories_nodes":[],"categories_segments":[],"categories_sizes":[],"default_left":[0,0,0,0,0,0,0,0,0,0,0,0,0,0,0],"id":11,"left_children":[1,3,5,7,9,11,13,-1,-1,-1,-1,-1,-1,-1,-1],"loss_changes":[1.8293996E-1,2.5371817E-1,5.159375E-2,3.806784E-2,7.063928E-2,2.5706874E-2,2.527593E-2,0E0,0E0,0E0,0E0,0E0,0E0,0E0,0E0],"parents":[2147483647,0,0,1,1,2,2,3,3,4,4,5,5,6,6],"right_children":[2,4,6,8,10,12,14,-1,-1,-1,-1,-1,-1,-1,-1],"split_conditions":[5.256E4,4E0,6E1,3E0,3.504E4,1.0512E5,6E0,1.484988E-5,-7.034145E-4,8.55824E-4,2.5052833E-3,-5.440263E-4,7.6895114E-4,-3.3074123E-4,-1.3664713E-3],"split_indices":[0,2,1,2,0,0,2,0,0,0,0,0,0,0,0],"split_type":[0,0,0,0,0,0,0,0,0,0,0,0,0,0,0],"sum_hessian":[7.2E1,5.4E1,1.8E1,3.7E1,1.7E1,4E0,1.4E1,2.8E1,9E0,1.4E1,3E0,2E0,2E0,4E0,1E1],"tree_param":{"num_deleted":"0","num_feature":"3","num_nodes":"15","size_leaf_vector":"1"}},{"base_weights":[3.4853775E-4,2.9307585E-2,-8.349863E-2,-1.7221963E-2,1.2590843E-1,1.3405514E-2,-1.1023343E-1,6.4652204E-4,-2.8755754E-4,8.478362E-4,2.4864937E-3,-5.403995E-4,7.638248E-4,-3.2809525E-4,-1.354049E-3],"categories":[],"categories_nodes":[],"categories_segments":[],"categories_sizes":[],"default_left":[0,0,0,0,0,0,0,0,0,0,0,0,0,0,0],"id":12,"left_children":[1,3,5,7,9,11,13,-1,-1,-1,-1,-1,-1,-1,-1],"loss_changes":[1.7970093E-1,2.4938208E-1,5.070129E-2,3.7743263E-2,6.977716E-2,2.5365261E-2,2.479051E-2,0E0,0E0,0E0,0E0,0E0,0E0,0E0,0E0],"parents":[2147483647,0,0,1,1,2,2,3,3,4,4,5,5,6,6],"right_children":[2,4,6,8,10,12,14,-1,-1,-1,-1,-1,-1,-1,-1],"split_conditions":[5.256E4,4E0,6E1,5.2142857E1,3.504E4,1.0512E5,6E0,6.4652204E-4,-2.8755754E-4,8.478362E-4,2.4864937E-3,-5.403995E-4,7.638248E-4,-3.2809525E-4,-1.354049E-3],"split_indices":[0,2,1,0,0,0,2,0,0,0,0,0,0,0,0],"split_type":[0,0,0,0,0,0,0,0,0,0,0,0,0,0,0],"sum_hessian":[7.2E1,5.4E1,1.8E1,3.7E1,1.7E1,4E0,1.4E1,4E0,3.3E1,1.4E1,3E0,2E0,2E0,4E0,1E1],"tree_param":{"num_deleted":"0","num_feature":"3","num_nodes":"15","size_leaf_vector":"1"}},{"base_weights":[3.7566276E-4,2.9081661E-2,-8.274042E-2,-1.7040294E-2,1.2483458E-1,1.3316142E-2,-1.0924325E-1,1.6516755E-5,-6.9542974E-4,8.399229E-4,2.467845E-3,-5.3679687E-4,7.5873255E-4,-3.254705E-4,-1.3417394E-3],"categories":[],"categories_nodes":[],"categories_segments":[],"categories_sizes":[],"default_left":[0,0,0,0,0,0,0,0,0,0,0,0,0,0,0],"id":13,"left_children":[1,3,5,7,9,11,13,-1,-1,-1,-1,-1,-1,-1,-1],"loss_changes":[1.7657915E-1,2.450244E-1,4.9824342E-2,3.7407245E-2,6.8924844E-2,2.5028182E-2,2.4314389E-2,0E0,0E0,0E0,0E0,0E0,0E0,0E0,0E0],"parents":[2147483647,0,0,1,1,2,2,3,3,4,4,5,5,6,6],"right_children":[2,4,6,8,10,12,14,-1,-1,-1,-1,-1,-1,-1,-1],"split_conditions":[5.256E4,4E0,6E1,3E0,3.504E4,1.0512E5,6E0,1.6516755E-5,-6.9542974E-4,8.399229E-4,2.467845E-3,-5.3679687E-4,7.5873255E-4,-3.254705E-4,-1.3417394E-3],"split_indices":[0,2,1,2,0,0,2,0,0,0,0,0,0,0,0],"split_type":[0,0,0,0,0,0,0,0,0,0,0,0,0,0,0],"sum_hessian":[7.2E1,5.4E1,1.8E1,3.7E1,1.7E1,4E0,1.4E1,2.8E1,9E0,1.4E1,3E0,2E0,2E0,4E0,1E1],"tree_param":{"num_deleted":"0","num_feature":"3","num_nodes":"15","size_leaf_vector":"1"}},{"base_weights":[3.8812135E-4,2.8838646E-2,-8.198909E-2,-1.688775E-2,1.23770006E-1,1.3227368E-2,-1.08261965E-1,6.426416E-4,-2.8325155E-4,8.3208375E-4,2.4493362E-3,-5.332182E-4,7.5367425E-4,-3.2286672E-4,-1.3295419E-3],"categories":[],"categories_nodes":[],"categories_segments":[],"categories_sizes":[],"default_left":[0,0,0,0,0,0,0,0,0,0,0,0,0,0,0],"id":14,"left_children":[1,3,5,7,9,11,13,-1,-1,-1,-1,-1,-1,-1,-1],"loss_changes":[1.734527E-1,2.4083799E-1,4.8962638E-2,3.709065E-2,6.808218E-2,2.4695585E-2,2.3847327E-2,0E0,0E0,0E0,0E0,0E0,0E0,0E0,0E0],"parents":[2147483647,0,0,1,1,2,2,3,3,4,4,5,5,6,6],"right_children":[2,4,6,8,10,12,14,-1,-1,-1,-1,-1,-1,-1,-1],"split_conditions":[5.256E4,4E0,6E1,5.2142857E1,3.504E4,1.0512E5,6E0,6.426416E-4,-2.8325155E-4,8.3208375E-4,2.4493362E-3,-5.332182E-4,7.5367425E-4,-3.2286672E-4,-1.3295419E-3],"split_indices":[0,2,1,0,0,0,2,0,0,0,0,0,0,0,0],"split_type":[0,0,0,0,0,0,0,0,0,0,0,0,0,0,0],"sum_hessian":[7.2E1,5.4E1,1.8E1,3.7E1,1.7E1,4E0,1.4E1,4E0,3.3E1,1.4E1,3E0,2E0,2E0,4E0,1E1],"tree_param":{"num_deleted":"0","num_feature":"3","num_nodes":"15","size_leaf_vector":"1"}},{"base_weights":[4.14496E-4,2.8616453E-2,-8.124456E-2,-1.6709423E-2,1.2271461E-1,1.3139188E-2,-1.0728951E-1,1.8134291E-5,-6.8754744E-4,8.243176E-4,2.4309661E-3,-5.2966335E-4,7.486498E-4,-3.202837E-4,-1.3174552E-3],"categories":[],"categories_nodes":[],"categories_segments":[],"categories_sizes":[],"default_left":[0,0,0,0,0,0,0,0,0,0,0,0,0,0,0],"id":15,"left_children":[1,3,5,7,9,11,13,-1,-1,-1,-1,-1,-1,-1,-1],"loss_changes":[1.7043993E-1,2.3662996E-1,4.811588E-2,3.675774E-2,6.724906E-2,2.4367403E-2,2.3389205E-2,0E0,0E0,0E0,0E0,0E0,0E0,0E0,0E0],"parents":[2147483647,0,0,1,1,2,2,3,3,4,4,5,5,6,6],"right_children":[2,4,6,8,10,12,14,-1,-1,-1,-1,-1,-1,-1,-1],"split_conditions":[5.256E4,4E0,6E1,3E0,3.504E4,1.0512E5,6E0,1.8134291E-5,-6.8754744E-4,8.243176E-4,2.4309661E-3,-5.2966335E-4,7.486498E-4,-3.202837E-4,-1.3174552E-3],"split_indices":[0,2,1,2,0,0,2,0,0,0,0,0,0,0,0],"split_type":[0,0,0,0,0,0,0,0,0,0,0,0,0,0,0],"sum_hessian":[7.2E1,5.4E1,1.8E1,3.7E1,1.7E1,4E0,1.4E1,2.8E1,9E0,1.4E1,3E0,2E0,2E0,4E0,1E1],"tree_param":{"num_deleted":"0","num_feature":"3","num_nodes":"15","size_leaf_vector":"1"}},{"base_weights":[4.2633855E-4,2.8377306E-2,-8.0506794E-2,-1.6559936E-2,1.21668294E-1,1.3051594E-2,-1.06325805E-1,6.38767E-4,-2.7901793E-4,8.1662385E-4,2.4127339E-3,-5.261322E-4,7.4365875E-4,-3.1772142E-4,-1.3054785E-3],"categories":[],"categories_nodes":[],"categories_segments":[],"categories_sizes":[],"default_left":[0,0,0,0,0,0,0,0,0,0,0,0,0,0,0],"id":16,"left_children":[1,3,5,7,9,11,13,-1,-1,-1,-1,-1,-1,-1,-1],"loss_changes":[1.674222E-1,2.3258801E-1,4.7283836E-2,3.644971E-2,6.642541E-2,2.4043582E-2,2.293986E-2,0E0,0E0,0E0,0E0,0E0,0E0,0E0,0E0],"parents":[2147483647,0,0,1,1,2,2,3,3,4,4,5,5,6,6],"right_children":[2,4,6,8,10,12,14,-1,-1,-1,-1,-1,-1,-1,-1],"split_conditions":[5.256E4,4E0,6E1,5.2142857E1,3.504E4,1.0512E5,6E0,6.38767E-4,-2.7901793E-4,8.1662385E-4,2.4127339E-3,-5.261322E-4,7.4365875E-4,-3.1772142E-4,-1.3054785E-3],"split_indices":[0,2,1,0,0,0,2,0,0,0,0,0,0,0,0],"split_type":[0,0,0,0,0,0,0,0,0,0,0,0,0,0,0],"sum_hessian":[7.2E1,5.4E1,1.8E1,3.7E1,1.7E1,4E0,1.4E1,4E0,3.3E1,1.4E1,3E0,2E0,2E0,4E0,1E1],"tree_param":{"num_deleted":"0","num_feature":"3","num_nodes":"15","size_leaf_vector":"1"}},{"base_weights":[4.519857E-4,2.8158788E-2,-7.97757E-2,-1.6384875E-2,1.2063103E-1,1.2964582E-2,-1.0537075E-1,1.9703813E-5,-6.797663E-4,8.0900214E-4,2.3946383E-3,-5.2262464E-4,7.3870097E-4,-3.1517964E-4,-1.2936103E-3],"categories":[],"categories_nodes":[],"categories_segments":[],"categories_sizes":[],"default_left":[0,0,0,0,0,0,0,0,0,0,0,0,0,0,0],"id":17,"left_children":[1,3,5,7,9,11,13,-1,-1,-1,-1,-1,-1,-1,-1],"loss_changes":[1.6451462E-1,2.2852439E-1,4.646624E-2,3.6119178E-2,6.561118E-2,2.372407E-2,2.2499055E-2,0E0,0E0,0E0,0E0,0E0,0E0,0E0,0E0],"parents":[2147483647,0,0,1,1,2,2,3,3,4,4,5,5,6,6],"right_children":[2,4,6,8,10,12,14,-1,-1,-1,-1,-1,-1,-1,-1],"split_conditions":[5.256E4,4E0,6E1,3E0,3.504E4,1.0512E5,6E0,1.9703813E-5,-6.797663E-4,8.0900214E-4,2.3946383E-3,-5.2262464E-4,7.3870097E-4,-3.1517964E-4,-1.2936103E-3],"split_indices":[0,2,1,2,0,0,2,0,0,0,0,0,0,0,0],"split_type":[0,0,0,0,0,0,0,0,0,0,0,0,0,0,0],"sum_hessian":[7.2E1,5.4E1,1.8E1,3.7E1,1.7E1,4E0,1.4E1,2.8E1,9E0,1.4E1,3E0,2E0,2E0,4E0,1E1],"tree_param":{"num_deleted":"0","num_feature":"3","num_nodes":"15","size_leaf_vector":"1"}},{"base_weights":[4.6322893E-4,2.7923446E-2,-7.905125E-2,-1.6238395E-2,1.19602695E-1,1.2878144E-2,-1.044243E-1,6.3489826E-4,-2.7485535E-4,8.0145133E-4,2.3766786E-3,-5.1914057E-4,7.337763E-4,-3.1265814E-4,-1.2818503E-3],"categories":[],"categories_nodes":[],"categories_segments":[],"categories_sizes":[],"default_left":[0,0,0,0,0,0,0,0,0,0,0,0,0,0,0],"id":18,"left_children":[1,3,5,7,9,11,13,-1,-1,-1,-1,-1,-1,-1,-1],"loss_changes":[1.6160178E-1,2.2462198E-1,4.5662843E-2,3.5820197E-2,6.480625E-2,2.3408802E-2,2.2066697E-2,0E0,0E0,0E0,0E0,0E0,0E0,0E0,0E0],"parents":[2147483647,0,0,1,1,2,2,3,3,4,4,5,5,6,6],"right_children":[2,4,6,8,10,12,14,-1,-1,-1,-1,-1,-1,-1,-1],"split_conditions":[5.256E4,4E0,6E1,5.2142857E1,3.504E4,1.0512E5,6E0,6.3489826E-4,-2.7485535E-4,8.0145133E-4,2.3766786E-3,-5.1914057E-4,7.337763E-4,-3.1265814E-4,-1.2818503E-3],"split_indices":[0,2,1,0,0,0,2,0,0,0,0,0,0,0,0],"split_type":[0,0,0,0,0,0,0,0,0,0,0,0,0,0,0],"sum_hessian":[7.2E1,5.4E1,1.8E1,3.7E1,1.7E1,4E0,1.4E1,4E0,3.3E1,1.4E1,3E0,2E0,2E0,4E0,1E1],"tree_param":{"num_deleted":"0","num_feature":"3","num_nodes":"15","size_leaf_vector":"1"}},{"base_weights":[4.881698E-4,2.7708549E-2,-7.833336E-2,-1.6066527E-2,1.1858324E-1,1.2792289E-2,-1.0348635E-1,2.1226355E-5,-6.7208445E-4,7.939712E-4,2.3588536E-3,-5.156797E-4,7.2888454E-4,-3.1015687E-4,-1.2701971E-3],"categories":[],"categories_nodes":[],"categories_segments":[],"categories_sizes":[],"default_left":[0,0,0,0,0,0,0,0,0,0,0,0,0,0,0],"id":19,"left_children":[1,3,5,7,9,11,13,-1,-1,-1,-1,-1,-1,-1,-1],"loss_changes":[1.587958E-1,2.2069779E-1,4.48734E-2,3.5491344E-2,6.401044E-2,2.3097733E-2,2.1642566E-2,0E0,0E0,0E0,0E0,0E0,0E0,0E0,0E0],"parents":[2147483647,0,0,1,1,2,2,3,3,4,4,5,5,6,6],"right_children":[2,4,6,8,10,12,14,-1,-1,-1,-1,-1,-1,-1,-1],"split_conditions":[5.256E4,4E0,6E1,3E0,3.504E4,1.0512E5,6E0,2.1226355E-5,-6.7208445E-4,7.939712E-4,2.3588536E-3,-5.156797E-4,7.2888454E-4,-3.1015687E-4,-1.2701971E-3],"split_indices":[0,2,1,2,0,0,2,0,0,0,0,0,0,0,0],"split_type":[0,0,0,0,0,0,0,0,0,0,0,0,0,0,0],"sum_hessian":[7.2E1,5.4E1,1.8E1,3.7E1,1.7E1,4E0,1.4E1,2.8E1,9E0,1.4E1,3E0,2E0,2E0,4E0,1E1],"tree_param":{"num_deleted":"0","num_feature":"3","num_nodes":"15","size_leaf_vector":"1"}},{"base_weights":[4.98837E-4,2.7476959E-2,-7.762198E-2,-1.5922988E-2,1.1757257E-1,1.2707007E-2,-1.0255684E-1,6.310358E-4,-2.707622E-4,7.865608E-4,2.3411622E-3,-5.122419E-4,7.2402536E-4,-3.0767565E-4,-1.2586497E-3],"categories":[],"categories_nodes":[],"categories_segments":[],"categories_sizes":[],"default_left":[0,0,0,0,0,0,0,0,0,0,0,0,0,0,0],"id":20,"left_children":[1,3,5,7,9,11,13,-1,-1,-1,-1,-1,-1,-1,-1],"loss_changes":[1.5598418E-1,2.1693006E-1,4.4097662E-2,3.5201866E-2,6.322378E-2,2.2790795E-2,2.122657E-2,0E0,0E0,0E0,0E0,0E0,0E0,0E0,0E0],"parents":[2147483647,0,0,1,1,2,2,3,3,4,4,5,5,6,6],"right_children":[2,4,6,8,10,12,14,-1,-1,-1,-1,-1,-1,-1,-1],"split_conditions":[5.256E4,4E0,6E1,5.2142857E1,3.504E4,1.0512E5,6E0,6.310358E-4,-2.707622E-4,7.865608E-4,2.3411622E-3,-5.122419E-4,7.2402536E-4,-3.0767565E-4,-1.2586497E-3],"split_indices":[0,2,1,0,0,0,2,0,0,0,0,0,0,0,0],"split_type":[0,0,0,0,0,0,0,0,0,0,0,0,0,0,0],"sum_hessian":[7.2E1,5.4E1,1.8E1,3.7E1,1.7E1,4E0,1.4E1,4E0,3.3E1,1.4E1,3E0,2E0,2E0,4E0,1E1],"tree_param":{"num_deleted":"0","num_feature":"3","num_nodes":"15","size_leaf_vector":"1"}},{"base_weights":[5.230675E-4,2.7265599E-2,-7.691705E-2,-1.5754284E-2,1.165706E-1,1.2622297E-2,-1.016357E-1,2.2702761E-5,-6.645008E-4,7.792195E-4,2.3236035E-3,-5.08827E-4,7.1919855E-4,-3.0521423E-4,-1.2472075E-3],"categories":[],"categories_nodes":[],"categories_segments":[],"categories_sizes":[],"default_left":[0,0,0,0,0,0,0,0,0,0,0,0,0,0,0],"id":21,"left_children":[1,3,5,7,9,11,13,-1,-1,-1,-1,-1,-1,-1,-1],"loss_changes":[1.5327616E-1,2.1314046E-1,4.333543E-2,3.4874097E-2,6.2446177E-2,2.2487933E-2,2.0818502E-2,0E0,0E0,0E0,0E0,0E0,0E0,0E0,0E0],"parents":[2147483647,0,0,1,1,2,2,3,3,4,4,5,5,6,6],"right_children":[2,4,6,8,10,12,14,-1,-1,-1,-1,-1,-1,-1,-1],"split_conditions":[5.256E4,4E0,6E1,3E0,3.504E4,1.0512E5,6E0,2.2702761E-5,-6.645008E-4,7.792195E-4,2.3236035E-3,-5.08827E-4,7.1919855E-4,-3.0521423E-4,-1.2472075E-3],"split_indices":[0,2,1,2,0,0,2,0,0,0,0,0,0,0,0],"split_type":[0,0,0,0,0,0,0,0,0,0,0,0,0,0,0],"sum_hessian":[7.2E1,5.4E1,1.8E1,3.7E1,1.7E1,4E0,1.4E1,2.8E1,9E0,1.4E1,3E0,2E0,2E0,4E0,1E1],"tree_param":{"num_deleted":"0","num_feature":"3","num_nodes":"15","size_leaf_vector":"1"}},{"base_weights":[5.331615E-4,2.7037686E-2,-7.621852E-2,-1.5613635E-2,1.1557727E-1,1.2538147E-2,-1.0072285E-1,6.2718027E-4,-2.6673774E-4,7.719469E-4,2.3061763E-3,-5.054349E-4,7.14404E-4,-3.0277256E-4,-1.2358695E-3],"categories":[],"categories_nodes":[],"categories_segments":[],"categories_sizes":[],"default_left":[0,0,0,0,0,0,0,0,0,0,0,0,0,0,0],"id":22,"left_children":[1,3,5,7,9,11,13,-1,-1,-1,-1,-1,-1,-1,-1],"loss_changes":[1.5056226E-1,2.0950276E-1,4.2586394E-2,3.4594573E-2,6.1677396E-2,2.21891E-2,2.0418257E-2,0E0,0E0,0E0,0E0,0E0,0E0,0E0,0E0],"parents":[2147483647,0,0,1,1,2,2,3,3,4,4,5,5,6,6],"right_children":[2,4,6,8,10,12,14,-1,-1,-1,-1,-1,-1,-1,-1],"split_conditions":[5.256E4,4E0,6E1,5.2142857E1,3.504E4,1.0512E5,6E0,6.2718027E-4,-2.6673774E-4,7.719469E-4,2.3061763E-3,-5.054349E-4,7.14404E-4,-3.0277256E-4,-1.2358695E-3],"split_indices":[0,2,1,0,0,0,2,0,0,0,0,0,0,0,0],"split_type":[0,0,0,0,0,0,0,0,0,0,0,0,0,0,0],"sum_hessian":[7.2E1,5.4E1,1.8E1,3.7E1,1.7E1,4E0,1.4E1,4E0,3.3E1,1.4E1,3E0,2E0,2E0,4E0,1E1],"tree_param":{"num_deleted":"0","num_feature":"3","num_nodes":"15","size_leaf_vector":"1"}},{"base_weights":[5.5671757E-4,2.6829828E-2,-7.552632E-2,-1.5448021E-2,1.14592515E-1,1.2454569E-2,-9.981819E-2,2.4134086E-5,-6.570136E-4,7.647421E-4,2.28888E-3,-5.0206523E-4,7.096413E-4,-3.0035048E-4,-1.2246342E-3],"categories":[],"categories_nodes":[],"categories_segments":[],"categories_sizes":[],"default_left":[0,0,0,0,0,0,0,0,0,0,0,0,0,0,0],"id":23,"left_children":[1,3,5,7,9,11,13,-1,-1,-1,-1,-1,-1,-1,-1],"loss_changes":[1.4794883E-1,2.058432E-1,4.185038E-2,3.426723E-2,6.0917467E-2,2.189423E-2,2.002564E-2,0E0,0E0,0E0,0E0,0E0,0E0,0E0,0E0],"parents":[2147483647,0,0,1,1,2,2,3,3,4,4,5,5,6,6],"right_children":[2,4,6,8,10,12,14,-1,-1,-1,-1,-1,-1,-1,-1],"split_conditions":[5.256E4,4E0,6E1,3E0,3.504E4,1.0512E5,6E0,2.4134086E-5,-6.570136E-4,7.647421E-4,2.28888E-3,-5.0206523E-4,7.096413E-4,-3.0035048E-4,-1.2246342E-3],"split_indices":[0,2,1,2,0,0,2,0,0,0,0,0,0,0,0],"split_type":[0,0,0,0,0,0,0,0,0,0,0,0,0,0,0],"sum_hessian":[7.2E1,5.4E1,1.8E1,3.7E1,1.7E1,4E0,1.4E1,2.8E1,9E0,1.4E1,3E0,2E0,2E0,4E0,1E1],"tree_param":{"num_deleted":"0","num_feature":"3","num_nodes":"15","size_leaf_vector":"1"}},{"base_weights":[5.662666E-4,2.6605545E-2,-7.48404E-2,-1.5310197E-2,1.1361624E-1,1.237154E-2,-9.892168E-2,6.233319E-4,-2.6278044E-4,7.5760466E-4,2.2717135E-3,-4.98718E-4,7.049104E-4,-2.979477E-4,-1.2135011E-3],"categories":[],"categories_nodes":[],"categories_segments":[],"categories_sizes":[],"default_left":[0,0,0,0,0,0,0,0,0,0,0,0,0,0,0],"id":24,"left_children":[1,3,5,7,9,11,13,-1,-1,-1,-1,-1,-1,-1,-1],"loss_changes":[1.4532922E-1,2.0233098E-1,4.1127145E-2,3.3998065E-2,6.0166284E-2,2.1603273E-2,1.9640535E-2,0E0,0E0,0E0,0E0,0E0,0E0,0E0,0E0],"parents":[2147483647,0,0,1,1,2,2,3,3,4,4,5,5,6,6],"right_children":[2,4,6,8,10,12,14,-1,-1,-1,-1,-1,-1,-1,-1],"split_conditions":[5.256E4,4E0,6E1,5.2142857E1,3.504E4,1.0512E5,6E0,6.233319E-4,-2.6278044E-4,7.5760466E-4,2.2717135E-3,-4.98718E-4,7.049104E-4,-2.979477E-4,-1.2135011E-3],"split_indices":[0,2,1,0,0,0,2,0,0,0,0,0,0,0,0],"split_type":[0,0,0,0,0,0,0,0,0,0,0,0,0,0,0],"sum_hessian":[7.2E1,5.4E1,1.8E1,3.7E1,1.7E1,4E0,1.4E1,4E0,3.3E1,1.4E1,3E0,2E0,2E0,4E0,1E1],"tree_param":{"num_deleted":"0","num_feature":"3","num_nodes":"15","size_leaf_vector":"1"}},{"base_weights":[5.891515E-4,2.6401114E-2,-7.4160695E-2,-1.5147619E-2,1.1264838E-1,1.2289059E-2,-9.8033234E-2,2.5521414E-5,-6.496216E-4,7.505337E-4,2.2546758E-3,-4.9539324E-4,7.002109E-4,-2.9556424E-4,-1.2024695E-3],"categories":[],"categories_nodes":[],"categories_segments":[],"categories_sizes":[],"default_left":[0,0,0,0,0,0,0,0,0,0,0,0,0,0,0],"id":25,"left_children":[1,3,5,7,9,11,13,-1,-1,-1,-1,-1,-1,-1,-1],"loss_changes":[1.4280708E-1,1.987969E-1,4.041645E-2,3.3670604E-2,5.9423804E-2,2.131619E-2,1.9262806E-2,0E0,0E0,0E0,0E0,0E0,0E0,0E0,0E0],"parents":[2147483647,0,0,1,1,2,2,3,3,4,4,5,5,6,6],"right_children":[2,4,6,8,10,12,14,-1,-1,-1,-1,-1,-1,-1,-1],"split_conditions":[5.256E4,4E0,6E1,3E0,3.504E4,1.0512E5,6E0,2.5521414E-5,-6.496216E-4,7.505337E-4,2.2546758E-3,-4.9539324E-4,7.002109E-4,-2.9556424E-4,-1.2024695E-3],"split_indices":[0,2,1,2,0,0,2,0,0,0,0,0,0,0,0],"split_type":[0,0,0,0,0,0,0,0,0,0,0,0,0,0,0],"sum_hessian":[7.2E1,5.4E1,1.8E1,3.7E1,1.7E1,4E0,1.4E1,2.8E1,9E0,1.4E1,3E0,2E0,2E0,4E0,1E1],"tree_param":{"num_deleted":"0","num_feature":"3","num_nodes":"15","size_leaf_vector":"1"}},{"base_weights":[5.981657E-4,2.6180401E-2,-7.3487155E-2,-1.5012557E-2,1.11688845E-1,1.2207138E-2,-9.715278E-2,6.194914E-4,-2.5888905E-4,7.435286E-4,2.2377658E-3,-4.920906E-4,6.955429E-4,-2.9319982E-4,-1.191538E-3],"categories":[],"categories_nodes":[],"categories_segments":[],"categories_sizes":[],"default_left":[0,0,0,0,0,0,0,0,0,0,0,0,0,0,0],"id":26,"left_children":[1,3,5,7,9,11,13,-1,-1,-1,-1,-1,-1,-1,-1],"loss_changes":[1.402785E-1,1.9540575E-1,3.971813E-2,3.341217E-2,5.8689877E-2,2.103292E-2,1.8892273E-2,0E0,0E0,0E0,0E0,0E0,0E0,0E0,0E0],"parents":[2147483647,0,0,1,1,2,2,3,3,4,4,5,5,6,6],"right_children":[2,4,6,8,10,12,14,-1,-1,-1,-1,-1,-1,-1,-1],"split_conditions":[5.256E4,4E0,6E1,5.2142857E1,3.504E4,1.0512E5,6E0,6.194914E-4,-2.5888905E-4,7.435286E-4,2.2377658E-3,-4.920906E-4,6.955429E-4,-2.9319982E-4,-1.191538E-3],"split_indices":[0,2,1,0,0,0,2,0,0,0,0,0,0,0,0],"split_type":[0,0,0,0,0,0,0,0,0,0,0,0,0,0,0],"sum_hessian":[7.2E1,5.4E1,1.8E1,3.7E1,1.7E1,4E0,1.4E1,4E0,3.3E1,1.4E1,3E0,2E0,2E0,4E0,1E1],"tree_param":{"num_deleted":"0","num_feature":"3","num_nodes":"15","size_leaf_vector":"1"}},{"base_weights":[6.204096E-4,2.5979359E-2,-7.281973E-2,-1.485294E-2,1.10737585E-1,1.2125755E-2,-9.628024E-2,2.6866064E-5,-6.4232334E-4,7.365889E-4,2.2209827E-3,-4.8880995E-4,6.909058E-4,-2.9085428E-4,-1.180706E-3],"categories":[],"categories_nodes":[],"categories_segments":[],"categories_sizes":[],"default_left":[0,0,0,0,0,0,0,0,0,0,0,0,0,0,0],"id":27,"left_children":[1,3,5,7,9,11,13,-1,-1,-1,-1,-1,-1,-1,-1],"loss_changes":[1.3784444E-1,1.9199279E-1,3.9031893E-2,3.308407E-2,5.796446E-2,2.0753412E-2,1.8528849E-2,0E0,0E0,0E0,0E0,0E0,0E0,0E0,0E0],"parents":[2147483647,0,0,1,1,2,2,3,3,4,4,5,5,6,6],"right_children":[2,4,6,8,10,12,14,-1,-1,-1,-1,-1,-1,-1,-1],"split_conditions":[5.256E4,4E0,6E1,3E0,3.504E4,1.0512E5,6E0,2.6866064E-5,-6.4232334E-4,7.365889E-4,2.2209827E-3,-4.8880995E-4,6.909058E-4,-2.9085428E-4,-1.180706E-3],"split_indices":[0,2,1,2,0,0,2,0,0,0,0,0,0,0,0],"split_type":[0,0,0,0,0,0,0,0,0,0,0,0,0,0,0],"sum_hessian":[7.2E1,5.4E1,1.8E1,3.7E1,1.7E1,4E0,1.4E1,2.8E1,9E0,1.4E1,3E0,2E0,2E0,4E0,1E1],"tree_param":{"num_deleted":"0","num_feature":"3","num_nodes":"15","size_leaf_vector":"1"}},{"base_weights":[6.2890456E-4,2.5762158E-2,-7.2158344E-2,-1.47205945E-2,1.0979451E-1,1.2044919E-2,-9.541555E-2,6.1565894E-4,-2.5506236E-4,7.29714E-4,2.2043253E-3,-4.8555117E-4,6.862998E-4,-2.8852755E-4,-1.1699721E-3],"categories":[],"categories_nodes":[],"categories_segments":[],"categories_sizes":[],"default_left":[0,0,0,0,0,0,0,0,0,0,0,0,0,0,0],"id":28,"left_children":[1,3,5,7,9,11,13,-1,-1,-1,-1,-1,-1,-1,-1],"loss_changes":[1.3540372E-1,1.8871859E-1,3.8357593E-2,3.283667E-2,5.7247385E-2,2.047762E-2,1.8172339E-2,0E0,0E0,0E0,0E0,0E0,0E0,0E0,0E0],"parents":[2147483647,0,0,1,1,2,2,3,3,4,4,5,5,6,6],"right_children":[2,4,6,8,10,12,14,-1,-1,-1,-1,-1,-1,-1,-1],"split_conditions":[5.256E4,4E0,6E1,5.2142857E1,3.504E4,1.0512E5,6E0,6.1565894E-4,-2.5506236E-4,7.29714E-4,2.2043253E-3,-4.8555117E-4,6.862998E-4,-2.8852755E-4,-1.1699721E-3],"split_indices":[0,2,1,0,0,0,2,0,0,0,0,0,0,0,0],"split_type":[0,0,0,0,0,0,0,0,0,0,0,0,0,0,0],"sum_hessian":[7.2E1,5.4E1,1.8E1,3.7E1,1.7E1,4E0,1.4E1,4E0,3.3E1,1.4E1,3E0,2E0,2E0,4E0,1E1],"tree_param":{"num_deleted":"0","num_feature":"3","num_nodes":"15","size_leaf_vector":"1"}},{"base_weights":[6.505141E-4,2.5564432E-2,-7.150296E-2,-1.4563911E-2,1.0885958E-1,1.1964619E-2,-9.455862E-2,2.8168619E-5,-6.351176E-4,7.2290347E-4,2.1877931E-3,-4.823142E-4,6.817245E-4,-2.862194E-4,-1.1593361E-3],"categories":[],"categories_nodes":[],"categories_segments":[],"categories_sizes":[],"default_left":[0,0,0,0,0,0,0,0,0,0,0,0,0,0,0],"id":29,"left_children":[1,3,5,7,9,11,13,-1,-1,-1,-1,-1,-1,-1,-1],"loss_changes":[1.3305461E-1,1.854227E-1,3.769497E-2,3.250746E-2,5.6538627E-2,2.02055E-2,1.7822668E-2,0E0,0E0,0E0,0E0,0E0,0E0,0E0,0E0],"parents":[2147483647,0,0,1,1,2,2,3,3,4,4,5,5,6,6],"right_children":[2,4,6,8,10,12,14,-1,-1,-1,-1,-1,-1,-1,-1],"split_conditions":[5.256E4,4E0,6E1,3E0,3.504E4,1.0512E5,6E0,2.8168619E-5,-6.351176E-4,7.2290347E-4,2.1877931E-3,-4.823142E-4,6.817245E-4,-2.862194E-4,-1.1593361E-3],"split_indices":[0,2,1,2,0,0,2,0,0,0,0,0,0,0,0],"split_type":[0,0,0,0,0,0,0,0,0,0,0,0,0,0,0],"sum_hessian":[7.2E1,5.4E1,1.8E1,3.7E1,1.7E1,4E0,1.4E1,2.8E1,9E0,1.4E1,3E0,2E0,2E0,4E0,1E1],"tree_param":{"num_deleted":"0","num_feature":"3","num_nodes":"15","size_leaf_vector":"1"}},{"base_weights":[6.58497E-4,2.5350673E-2,-7.085352E-2,-1.4434241E-2,1.0793268E-1,1.1884856E-2,-9.37094E-2,6.118349E-4,-2.5129959E-4,7.161562E-4,2.1713846E-3,-4.7909873E-4,6.7717966E-4,-2.8392964E-4,-1.1487965E-3],"categories":[],"categories_nodes":[],"categories_segments":[],"categories_sizes":[],"default_left":[0,0,0,0,0,0,0,0,0,0,0,0,0,0,0],"id":30,"left_children":[1,3,5,7,9,11,13,-1,-1,-1,-1,-1,-1,-1,-1],"loss_changes":[1.3069865E-1,1.822614E-1,3.7043847E-2,3.2271404E-2,5.583808E-2,1.9936988E-2,1.7479718E-2,0E0,0E0,0E0,0E0,0E0,0E0,0E0,0E0],"parents":[2147483647,0,0,1,1,2,2,3,3,4,4,5,5,6,6],"right_children":[2,4,6,8,10,12,14,-1,-1,-1,-1,-1,-1,-1,-1],"split_conditions":[5.256E4,4E0,6E1,5.2142857E1,3.504E4,1.0512E5,6E0,6.118349E-4,-2.5129959E-4,7.161562E-4,2.1713846E-3,-4.7909873E-4,6.7717966E-4,-2.8392964E-4,-1.1487965E-3],"split_indices":[0,2,1,0,0,0,2,0,0,0,0,0,0,0,0],"split_type":[0,0,0,0,0,0,0,0,0,0,0,0,0,0,0],"sum_hessian":[7.2E1,5.4E1,1.8E1,3.7E1,1.7E1,4E0,1.4E1,4E0,3.3E1,1.4E1,3E0,2E0,2E0,4E0,1E1],"tree_param":{"num_deleted":"0","num_feature":"3","num_nodes":"15","size_leaf_vector":"1"}},{"base_weights":[6.794901E-4,2.5156219E-2,-7.0209965E-2,-1.4280417E-2,1.0701378E-1,1.1805629E-2,-9.286783E-2,-9.894491E-4,-4.196463E-5,7.094721E-4,2.155099E-3,-4.7590476E-4,6.7266525E-4,-2.8165823E-4,-1.138353E-3],"categories":[],"categories_nodes":[],"categories_segments":[],"categories_sizes":[],"default_left":[0,0,0,0,0,0,0,0,0,0,0,0,0,0,0],"id":31,"left_children":[1,3,5,7,9,11,13,-1,-1,-1,-1,-1,-1,-1,-1],"loss_changes":[1.2843159E-1,1.7907846E-1,3.640403E-2,3.202739E-2,5.514565E-2,1.9672051E-2,1.714331E-2,0E0,0E0,0E0,0E0,0E0,0E0,0E0,0E0],"parents":[2147483647,0,0,1,1,2,2,3,3,4,4,5,5,6,6],"right_children":[2,4,6,8,10,12,14,-1,-1,-1,-1,-1,-1,-1,-1],"split_conditions":[5.256E4,4E0,6E1,1E0,3.504E4,1.0512E5,6E0,-9.894491E-4,-4.196463E-5,7.094721E-4,2.155099E-3,-4.7590476E-4,6.7266525E-4,-2.8165823E-4,-1.138353E-3],"split_indices":[0,2,1,2,0,0,2,0,0,0,0,0,0,0,0],"split_type":[0,0,0,0,0,0,0,0,0,0,0,0,0,0,0],"sum_hessian":[7.2E1,5.4E1,1.8E1,3.7E1,1.7E1,4E0,1.4E1,3E0,3.4E1,1.4E1,3E0,2E0,2E0,4E0,1E1],"tree_param":{"num_deleted":"0","num_feature":"3","num_nodes":"15","size_leaf_vector":"1"}},{"base_weights":[6.8104797E-4,2.4937984E-2,-6.957224E-2,-1.4164759E-2,1.0610277E-1,1.1726928E-2,-9.203381E-2,3.0815365E-5,-6.2762544E-4,7.0285035E-4,2.1389357E-3,-4.7273198E-4,6.681808E-4,-2.7940492E-4,-1.1280043E-3],"categories":[],"categories_nodes":[],"categories_segments":[],"categories_sizes":[],"default_left":[0,0,0,0,0,0,0,0,0,0,0,0,0,0,0],"id":32,"left_children":[1,3,5,7,9,11,13,-1,-1,-1,-1,-1,-1,-1,-1],"loss_changes":[1.2613645E-1,1.7606004E-1,3.5775296E-2,3.204241E-2,5.4461285E-2,1.9410629E-2,1.6813338E-2,0E0,0E0,0E0,0E0,0E0,0E0,0E0,0E0],"parents":[2147483647,0,0,1,1,2,2,3,3,4,4,5,5,6,6],"right_children":[2,4,6,8,10,12,14,-1,-1,-1,-1,-1,-1,-1,-1],"split_conditions":[5.256E4,4E0,6E1,3E0,3.504E4,1.0512E5,6E0,3.0815365E-5,-6.2762544E-4,7.0285035E-4,2.1389357E-3,-4.7273198E-4,6.681808E-4,-2.7940492E-4,-1.1280043E-3],"split_indices":[0,2,1,2,0,0,2,0,0,0,0,0,0,0,0],"split_type":[0,0,0,0,0,0,0,0,0,0,0,0,0,0,0],"sum_hessian":[7.2E1,5.4E1,1.8E1,3.7E1,1.7E1,4E0,1.4E1,2.8E1,9E0,1.4E1,3E0,2E0,2E0,4E0,1E1],"tree_param":{"num_deleted":"0","num_feature":"3","num_nodes":"15","size_leaf_vector":"1"}},{"base_weights":[6.883908E-4,2.4729421E-2,-6.89403E-2,-1.4038814E-2,1.0519962E-1,1.164875E-2,-9.1207296E-2,6.102412E-4,-2.4664574E-4,6.9629034E-4,2.122894E-3,-4.6958047E-4,6.637263E-4,-2.7716975E-4,-1.1177496E-3],"categories":[],"categories_nodes":[],"categories_segments":[],"categories_sizes":[],"default_left":[0,0,0,0,0,0,0,0,0,0,0,0,0,0,0],"id":33,"left_children":[1,3,5,7,9,11,13,-1,-1,-1,-1,-1,-1,-1,-1],"loss_changes":[1.2390287E-1,1.730597E-1,3.51575E-2,3.1813964E-2,5.3784907E-2,1.9152688E-2,1.648964E-2,0E0,0E0,0E0,0E0,0E0,0E0,0E0,0E0],"parents":[2147483647,0,0,1,1,2,2,3,3,4,4,5,5,6,6],"right_children":[2,4,6,8,10,12,14,-1,-1,-1,-1,-1,-1,-1,-1],"split_conditions":[5.256E4,4E0,6E1,5.2142857E1,3.504E4,1.0512E5,6E0,6.102412E-4,-2.4664574E-4,6.9629034E-4,2.122894E-3,-4.6958047E-4,6.637263E-4,-2.7716975E-4,-1.1177496E-3],"split_indices":[0,2,1,0,0,0,2,0,0,0,0,0,0,0,0],"split_type":[0,0,0,0,0,0,0,0,0,0,0,0,0,0,0],"sum_hessian":[7.2E1,5.4E1,1.8E1,3.7E1,1.7E1,4E0,1.4E1,4E0,3.3E1,1.4E1,3E0,2E0,2E0,4E0,1E1],"tree_param":{"num_deleted":"0","num_feature":"3","num_nodes":"15","size_leaf_vector":"1"}},{"base_weights":[7.086539E-4,2.4539994E-2,-6.8314105E-2,-1.3888858E-2,1.0430424E-1,1.1571097E-2,-9.038823E-2,-9.825517E-4,-3.8501687E-5,6.897916E-4,2.1069723E-3,-4.6644986E-4,6.5930147E-4,-2.7495247E-4,-1.1075883E-3],"categories":[],"categories_nodes":[],"categories_segments":[],"categories_sizes":[],"default_left":[0,0,0,0,0,0,0,0,0,0,0,0,0,0,0],"id":34,"left_children":[1,3,5,7,9,11,13,-1,-1,-1,-1,-1,-1,-1,-1],"loss_changes":[1.2175448E-1,1.7003733E-1,3.4550413E-2,3.1804938E-2,5.3116426E-2,1.8898165E-2,1.6172178E-2,0E0,0E0,0E0,0E0,0E0,0E0,0E0,0E0],"parents":[2147483647,0,0,1,1,2,2,3,3,4,4,5,5,6,6],"right_children":[2,4,6,8,10,12,14,-1,-1,-1,-1,-1,-1,-1,-1],"split_conditions":[5.256E4,4E0,6E1,1E0,3.504E4,1.0512E5,6E0,-9.825517E-4,-3.8501687E-5,6.897916E-4,2.1069723E-3,-4.6644986E-4,6.5930147E-4,-2.7495247E-4,-1.1075883E-3],"split_indices":[0,2,1,2,0,0,2,0,0,0,0,0,0,0,0],"split_type":[0,0,0,0,0,0,0,0,0,0,0,0,0,0,0],"sum_hessian":[7.2E1,5.4E1,1.8E1,3.7E1,1.7E1,4E0,1.4E1,3E0,3.4E1,1.4E1,3E0,2E0,2E0,4E0,1E1],"tree_param":{"num_deleted":"0","num_feature":"3","num_nodes":"15","size_leaf_vector":"1"}},{"base_weights":[7.095925E-4,2.432688E-2,-6.769358E-2,-1.3776837E-2,1.0341656E-1,1.1493957E-2,-8.957653E-2,3.336117E-5,-6.202672E-4,6.833534E-4,2.09117E-3,-4.633403E-4,6.5490627E-4,-2.7275283E-4,-1.0975194E-3],"categories":[],"categories_nodes":[],"categories_segments":[],"categories_sizes":[],"default_left":[0,0,0,0,0,0,0,0,0,0,0,0,0,0,0],"id":35,"left_children":[1,3,5,7,9,11,13,-1,-1,-1,-1,-1,-1,-1,-1],"loss_changes":[1.19578086E-1,1.6717336E-1,3.395386E-2,3.158345E-2,5.245574E-2,1.8647037E-2,1.5860789E-2,0E0,0E0,0E0,0E0,0E0,0E0,0E0,0E0],"parents":[2147483647,0,0,1,1,2,2,3,3,4,4,5,5,6,6],"right_children":[2,4,6,8,10,12,14,-1,-1,-1,-1,-1,-1,-1,-1],"split_conditions":[5.256E4,4E0,6E1,3E0,3.504E4,1.0512E5,6E0,3.336117E-5,-6.202672E-4,6.833534E-4,2.09117E-3,-4.633403E-4,6.5490627E-4,-2.7275283E-4,-1.0975194E-3],"split_indices":[0,2,1,2,0,0,2,0,0,0,0,0,0,0,0],"split_type":[0,0,0,0,0,0,0,0,0,0,0,0,0,0,0],"sum_hessian":[7.2E1,5.4E1,1.8E1,3.7E1,1.7E1,4E0,1.4E1,2.8E1,9E0,1.4E1,3E0,2E0,2E0,4E0,1E1],"tree_param":{"num_deleted":"0","num_feature":"3","num_nodes":"15","size_leaf_vector":"1"}},{"base_weights":[7.163221E-4,2.412339E-2,-6.707868E-2,-1.3654502E-2,1.0253653E-1,1.1417329E-2,-8.87721E-2,-9.7543275E-4,-3.6770845E-5,6.769753E-4,2.0754864E-3,-4.6025138E-4,6.505402E-4,-2.705708E-4,-1.0875419E-3],"categories":[],"categories_nodes":[],"categories_segments":[],"categories_sizes":[],"default_left":[0,0,0,0,0,0,0,0,0,0,0,0,0,0,0],"id":36,"left_children":[1,3,5,7,9,11,13,-1,-1,-1,-1,-1,-1,-1,-1],"loss_changes":[1.1746057E-1,1.6432564E-1,3.3367634E-2,3.1447075E-2,5.180277E-2,1.8399239E-2,1.55553445E-2,0E0,0E0,0E0,0E0,0E0,0E0,0E0,0E0],"parents":[2147483647,0,0,1,1,2,2,3,3,4,4,5,5,6,6],"right_children":[2,4,6,8,10,12,14,-1,-1,-1,-1,-1,-1,-1,-1],"split_conditions":[5.256E4,4E0,6E1,1E0,3.504E4,1.0512E5,6E0,-9.7543275E-4,-3.6770845E-5,6.769753E-4,2.0754864E-3,-4.6025138E-4,6.505402E-4,-2.705708E-4,-1.0875419E-3],"split_indices":[0,2,1,2,0,0,2,0,0,0,0,0,0,0,0],"split_type":[0,0,0,0,0,0,0,0,0,0,0,0,0,0,0],"sum_hessian":[7.2E1,5.4E1,1.8E1,3.7E1,1.7E1,4E0,1.4E1,3E0,3.4E1,1.4E1,3E0,2E0,2E0,4E0,1E1],"tree_param":{"num_deleted":"0","num_feature":"3","num_nodes":"15","size_leaf_vector":"1"}},{"base_weights":[7.169998E-4,2.3913795E-2,-6.646936E-2,-1.3544589E-2,1.0166407E-1,1.1341202E-2,-8.797492E-2,6.1076746E-4,-2.4119945E-4,6.706567E-4,2.05992E-3,-4.571831E-4,6.462032E-4,-2.684062E-4,-1.0776551E-3],"categories":[],"categories_nodes":[],"categories_segments":[],"categories_sizes":[],"default_left":[0,0,0,0,0,0,0,0,0,0,0,0,0,0,0],"id":37,"left_children":[1,3,5,7,9,11,13,-1,-1,-1,-1,-1,-1,-1,-1],"loss_changes":[1.1536064E-1,1.6155897E-1,3.279157E-2,3.1460762E-2,5.115743E-2,1.8154735E-2,1.5255772E-2,0E0,0E0,0E0,0E0,0E0,0E0,0E0,0E0],"parents":[2147483647,0,0,1,1,2,2,3,3,4,4,5,5,6,6],"right_children":[2,4,6,8,10,12,14,-1,-1,-1,-1,-1,-1,-1,-1],"split_conditions":[5.256E4,4E0,6E1,5.2142857E1,3.504E4,1.0512E5,6E0,6.1076746E-4,-2.4119945E-4,6.706567E-4,2.05992E-3,-4.571831E-4,6.462032E-4,-2.684062E-4,-1.0776551E-3],"split_indices":[0,2,1,0,0,0,2,0,0,0,0,0,0,0,0],"split_type":[0,0,0,0,0,0,0,0,0,0,0,0,0,0,0],"sum_hessian":[7.2E1,5.4E1,1.8E1,3.7E1,1.7E1,4E0,1.4E1,4E0,3.3E1,1.4E1,3E0,2E0,2E0,4E0,1E1],"tree_param":{"num_deleted":"0","num_feature":"3","num_nodes":"15","size_leaf_vector":"1"}},{"base_weights":[7.364448E-4,2.3731021E-2,-6.586556E-2,-1.3399427E-2,1.0079913E-1,1.12656E-2,-8.718491E-2,3.5812678E-5,-6.13035E-4,6.643974E-4,2.0444705E-3,-4.5413512E-4,6.4189517E-4,-2.66259E-4,-1.0678583E-3],"categories":[],"categories_nodes":[],"categories_segments":[],"categories_sizes":[],"default_left":[0,0,0,0,0,0,0,0,0,0,0,0,0,0,0],"id":38,"left_children":[1,3,5,7,9,11,13,-1,-1,-1,-1,-1,-1,-1,-1],"loss_changes":[1.13361456E-1,1.5873718E-1,3.222552E-2,3.1130435E-2,5.05196E-2,1.7913476E-2,1.4961913E-2,0E0,0E0,0E0,0E0,0E0,0E0,0E0,0E0],"parents":[2147483647,0,0,1,1,2,2,3,3,4,4,5,5,6,6],"right_children":[2,4,6,8,10,12,14,-1,-1,-1,-1,-1,-1,-1,-1],"split_conditions":[5.256E4,4E0,6E1,3E0,3.504E4,1.0512E5,6E0,3.5812678E-5,-6.13035E-4,6.643974E-4,2.0444705E-3,-4.5413512E-4,6.4189517E-4,-2.66259E-4,-1.0678583E-3],"split_indices":[0,2,1,2,0,0,2,0,0,0,0,0,0,0,0],"split_type":[0,0,0,0,0,0,0,0,0,0,0,0,0,0,0],"sum_hessian":[7.2E1,5.4E1,1.8E1,3.7E1,1.7E1,4E0,1.4E1,2.8E1,9E0,1.4E1,3E0,2E0,2E0,4E0,1E1],"tree_param":{"num_deleted":"0","num_feature":"3","num_nodes":"15","size_leaf_vector":"1"}},{"base_weights":[7.425677E-4,9.95606E-2,-1.4709353E-2,1.3502359E-2,2.2527238E-3,-4.5712914E-2,2.6784971E-2,-1.4104247E-4,3.7733375E-4,-2.5952297E-5,-1.1636373E-3,1.3470708E-3,-6.25758E-4],"categories":[],"categories_nodes":[],"categories_segments":[],"categories_sizes":[],"default_left":[0,0,0,0,0,0,0,0,0,0,0,0,0],"id":39,"left_children":[1,3,5,7,-1,9,11,-1,-1,-1,-1,-1,-1],"loss_changes":[1.1293025E-1,1.05143644E-1,8.355862E-2,5.214754E-3,0E0,1.1241109E-1,2.7846146E-1,0E0,0E0,0E0,0E0,0E0,0E0],"parents":[2147483647,0,0,1,1,2,2,3,3,5,5,6,6],"right_children":[2,4,6,8,-1,10,12,-1,-1,-1,-1,-1,-1],"split_conditions":[1.4E1,3E0,5E0,2E0,2.2527238E-3,2E0,6E0,-1.4104247E-4,3.7733375E-4,-2.5952297E-5,-1.1636373E-3,1.3470708E-3,-6.25758E-4],"split_indices":[1,2,2,2,0,2,2,0,0,0,0,0,0],"split_type":[0,0,0,0,0,0,0,0,0,0,0,0,0],"sum_hessian":[7.2E1,9E0,6.3E1,6E0,3E0,3.6E1,2.7E1,3E0,3E0,2.3E1,1.3E1,1.2E1,1.5E1],"tree_param":{"num_deleted":"0","num_feature":"3","num_nodes":"13","size_leaf_vector":"1"}},{"base_weights":[7.6282595E-4,9.8813914E-2,-1.4569576E-2,1.3401104E-2,2.2358287E-3,-4.5287933E-2,2.6542883E-2,-1.3998449E-4,3.745038E-4,-2.5703534E-5,-1.1528322E-3,1.3346364E-3,-6.198915E-4],"categories":[],"categories_nodes":[],"categories_segments":[],"categories_sizes":[],"default_left":[0,0,0,0,0,0,0,0,0,0,0,0,0],"id":40,"left_children":[1,3,5,7,-1,9,11,-1,-1,-1,-1,-1,-1],"loss_changes":[1.11184865E-1,1.035724E-1,8.202814E-2,5.1368233E-3,0E0,1.1033477E-1,2.7331883E-1,0E0,0E0,0E0,0E0,0E0,0E0],"parents":[2147483647,0,0,1,1,2,2,3,3,5,5,6,6],"right_children":[2,4,6,8,-1,10,12,-1,-1,-1,-1,-1,-1],"split_conditions":[1.4E1,3E0,5E0,2E0,2.2358287E-3,2E0,6E0,-1.3998449E-4,3.745038E-4,-2.5703534E-5,-1.1528322E-3,1.3346364E-3,-6.198915E-4],"split_indices":[1,2,2,2,0,2,2,0,0,0,0,0,0],"split_type":[0,0,0,0,0,0,0,0,0,0,0,0,0],"sum_hessian":[7.2E1,9E0,6.3E1,6E0,3E0,3.6E1,2.7E1,3E0,3E0,2.3E1,1.3E1,1.2E1,1.5E1],"tree_param":{"num_deleted":"0","num_feature":"3","num_nodes":"13","size_leaf_vector":"1"}},{"base_weights":[7.8268576E-4,9.807281E-2,-1.44311255E-2,1.3300593E-2,2.2190597E-3,-4.4866912E-2,2.630299E-2,-1.389347E-4,3.716951E-4,-2.545734E-5,-1.1421272E-3,1.3223168E-3,-6.1408005E-4],"categories":[],"categories_nodes":[],"categories_segments":[],"categories_sizes":[],"default_left":[0,0,0,0,0,0,0,0,0,0,0,0,0],"id":41,"left_children":[1,3,5,7,-1,9,11,-1,-1,-1,-1,-1,-1],"loss_changes":[1.0946651E-1,1.0202465E-1,8.0525726E-2,5.0600627E-3,0E0,1.0829671E-1,2.682712E-1,0E0,0E0,0E0,0E0,0E0,0E0],"parents":[2147483647,0,0,1,1,2,2,3,3,5,5,6,6],"right_children":[2,4,6,8,-1,10,12,-1,-1,-1,-1,-1,-1],"split_conditions":[1.4E1,3E0,5E0,2E0,2.2190597E-3,2E0,6E0,-1.389347E-4,3.716951E-4,-2.545734E-5,-1.1421272E-3,1.3223168E-3,-6.1408005E-4],"split_indices":[1,2,2,2,0,2,2,0,0,0,0,0,0],"split_type":[0,0,0,0,0,0,0,0,0,0,0,0,0],"sum_hessian":[7.2E1,9E0,6.3E1,6E0,3E0,3.6E1,2.7E1,3E0,3E0,2.3E1,1.3E1,1.2E1,1.5E1],"tree_param":{"num_deleted":"0","num_feature":"3","num_nodes":"13","size_leaf_vector":"1"}},{"base_weights":[8.0214586E-4,9.733726E-2,-1.4293999E-2,1.3200841E-2,2.2024168E-3,-4.4449806E-2,2.6065247E-2,-1.3789265E-4,3.6890738E-4,-2.5213434E-5,-1.1315219E-3,1.3101107E-3,-6.0832314E-4],"categories":[],"categories_nodes":[],"categories_segments":[],"categories_sizes":[],"default_left":[0,0,0,0,0,0,0,0,0,0,0,0,0],"id":42,"left_children":[1,3,5,7,-1,9,11,-1,-1,-1,-1,-1,-1],"loss_changes":[1.0777483E-1,1.0050001E-1,7.90508E-2,4.984446E-3,0E0,1.0629637E-1,2.633167E-1,0E0,0E0,0E0,0E0,0E0,0E0],"parents":[2147483647,0,0,1,1,2,2,3,3,5,5,6,6],"right_children":[2,4,6,8,-1,10,12,-1,-1,-1,-1,-1,-1],"split_conditions":[1.4E1,3E0,5E0,2E0,2.2024168E-3,2E0,6E0,-1.3789265E-4,3.6890738E-4,-2.5213434E-5,-1.1315219E-3,1.3101107E-3,-6.0832314E-4],"split_indices":[1,2,2,2,0,2,2,0,0,0,0,0,0],"split_type":[0,0,0,0,0,0,0,0,0,0,0,0,0],"sum_hessian":[7.2E1,9E0,6.3E1,6E0,3E0,3.6E1,2.7E1,3E0,3E0,2.3E1,1.3E1,1.2E1,1.5E1],"tree_param":{"num_deleted":"0","num_feature":"3","num_nodes":"13","size_leaf_vector":"1"}},{"base_weights":[8.2123117E-4,9.6607246E-2,-1.4158165E-2,1.3101846E-2,2.1858986E-3,-4.4036567E-2,2.582966E-2,-1.3685838E-4,3.6614068E-4,-2.4971812E-5,-1.1210148E-3,1.2980173E-3,-6.026201E-4],"categories":[],"categories_nodes":[],"categories_segments":[],"categories_sizes":[],"default_left":[0,0,0,0,0,0,0,0,0,0,0,0,0],"id":43,"left_children":[1,3,5,7,-1,9,11,-1,-1,-1,-1,-1,-1],"loss_changes":[1.06109396E-1,9.899816E-2,7.760288E-2,4.9099596E-3,0E0,1.0433294E-1,2.5845373E-1,0E0,0E0,0E0,0E0,0E0,0E0],"parents":[2147483647,0,0,1,1,2,2,3,3,5,5,6,6],"right_children":[2,4,6,8,-1,10,12,-1,-1,-1,-1,-1,-1],"split_conditions":[1.4E1,3E0,5E0,2E0,2.1858986E-3,2E0,6E0,-1.3685838E-4,3.6614068E-4,-2.4971812E-5,-1.1210148E-3,1.2980173E-3,-6.026201E-4],"split_indices":[1,2,2,2,0,2,2,0,0,0,0,0,0],"split_type":[0,0,0,0,0,0,0,0,0,0,0,0,0],"sum_hessian":[7.2E1,9E0,6.3E1,6E0,3E0,3.6E1,2.7E1,3E0,3E0,2.3E1,1.3E1,1.2E1,1.5E1],"tree_param":{"num_deleted":"0","num_feature":"3","num_nodes":"13","size_leaf_vector":"1"}},{"base_weights":[8.399352E-4,9.5882684E-2,-1.4023619E-2,1.3003575E-2,2.1695045E-3,-4.3627173E-2,2.5596209E-2,-1.3583199E-4,3.6339453E-4,-2.4732473E-5,-1.1106053E-3,1.2860358E-3,-5.969704E-4],"categories":[],"categories_nodes":[],"categories_segments":[],"categories_sizes":[],"default_left":[0,0,0,0,0,0,0,0,0,0,0,0,0],"id":44,"left_children":[1,3,5,7,-1,9,11,-1,-1,-1,-1,-1,-1],"loss_changes":[1.0446976E-1,9.7518764E-2,7.618151E-2,4.8365863E-3,0E0,1.0240578E-1,2.536806E-1,0E0,0E0,0E0,0E0,0E0,0E0],"parents":[2147483647,0,0,1,1,2,2,3,3,5,5,6,6],"right_children":[2,4,6,8,-1,10,12,-1,-1,-1,-1,-1,-1],"split_conditions":[1.4E1,3E0,5E0,2E0,2.1695045E-3,2E0,6E0,-1.3583199E-4,3.6339453E-4,-2.4732473E-5,-1.1106053E-3,1.2860358E-3,-5.969704E-4],"split_indices":[1,2,2,2,0,2,2,0,0,0,0,0,0],"split_type":[0,0,0,0,0,0,0,0,0,0,0,0,0],"sum_hessian":[7.2E1,9E0,6.3E1,6E0,3E0,3.6E1,2.7E1,3E0,3E0,2.3E1,1.3E1,1.2E1,1.5E1],"tree_param":{"num_deleted":"0","num_feature":"3","num_nodes":"13","size_leaf_vector":"1"}},{"base_weights":[8.5826404E-4,2.277305E-2,-6.262445E-2,-1.1864357E-2,9.463129E-2,1.4052314E-2,-8.40084E-2,-9.675665E-4,-1.823398E-5,6.102687E-4,1.9699007E-3,-4.278617E-4,6.620669E-4,-2.6567373E-4,-1.0248084E-3],"categories":[],"categories_nodes":[],"categories_segments":[],"categories_sizes":[],"default_left":[0,0,0,0,0,0,0,0,0,0,0,0,0,0,0],"id":45,"left_children":[1,3,5,7,9,11,13,-1,-1,-1,-1,-1,-1,-1,-1],"loss_changes":[1.0298448E-1,1.3801682E-1,3.233391E-2,3.2214776E-2,4.9893066E-2,1.765461E-2,1.3193481E-2,0E0,0E0,0E0,0E0,0E0,0E0,0E0,0E0],"parents":[2147483647,0,0,1,1,2,2,3,3,4,4,5,5,6,6],"right_children":[2,4,6,8,10,12,14,-1,-1,-1,-1,-1,-1,-1,-1],"split_conditions":[5.256E4,4E0,6E1,1E0,3.504E4,1.0512E5,6E0,-9.675665E-4,-1.823398E-5,6.102687E-4,1.9699007E-3,-4.278617E-4,6.620669E-4,-2.6567373E-4,-1.0248084E-3],"split_indices":[0,2,1,2,0,0,2,0,0,0,0,0,0,0,0],"split_type":[0,0,0,0,0,0,0,0,0,0,0,0,0,0,0],"sum_hessian":[7.2E1,5.4E1,1.8E1,3.7E1,1.7E1,4E0,1.4E1,3E0,3.4E1,1.4E1,3E0,2E0,2E0,4E0,1E1],"tree_param":{"num_deleted":"0","num_feature":"3","num_nodes":"15","size_leaf_vector":"1"}},{"base_weights":[8.570548E-4,9.5054284E-2,-1.3874654E-2,1.2921691E-2,2.1502275E-3,-4.3101646E-2,2.524225E-2,-1.3467639E-4,3.6080598E-4,-2.275709E-5,-1.1001027E-3,1.2660676E-3,-5.869405E-4],"categories":[],"categories_nodes":[],"categories_segments":[],"categories_sizes":[],"default_left":[0,0,0,0,0,0,0,0,0,0,0,0,0],"id":46,"left_children":[1,3,5,7,-1,9,11,-1,-1,-1,-1,-1,-1],"loss_changes":[1.0261994E-1,9.575476E-2,7.4257225E-2,4.7639566E-3,0E0,1.0081913E-1,2.456596E-1,0E0,0E0,0E0,0E0,0E0,0E0],"parents":[2147483647,0,0,1,1,2,2,3,3,5,5,6,6],"right_children":[2,4,6,8,-1,10,12,-1,-1,-1,-1,-1,-1],"split_conditions":[1.4E1,3E0,5E0,2E0,2.1502275E-3,2E0,6E0,-1.3467639E-4,3.6080598E-4,-2.275709E-5,-1.1001027E-3,1.2660676E-3,-5.869405E-4],"split_indices":[1,2,2,2,0,2,2,0,0,0,0,0,0],"split_type":[0,0,0,0,0,0,0,0,0,0,0,0,0],"sum_hessian":[7.2E1,9E0,6.3E1,6E0,3E0,3.6E1,2.7E1,3E0,3E0,2.3E1,1.3E1,1.2E1,1.5E1],"tree_param":{"num_deleted":"0","num_feature":"3","num_nodes":"13","size_leaf_vector":"1"}},{"base_weights":[8.749574E-4,9.434137E-2,-1.3742841E-2,1.2824769E-2,2.1341008E-3,-4.2700972E-2,2.5014076E-2,-1.336664E-4,3.5809985E-4,-2.2538889E-5,-1.0898876E-3,1.2543808E-3,-5.814381E-4],"categories":[],"categories_nodes":[],"categories_segments":[],"categories_sizes":[],"default_left":[0,0,0,0,0,0,0,0,0,0,0,0,0],"id":47,"left_children":[1,3,5,7,-1,9,11,-1,-1,-1,-1,-1,-1],"loss_changes":[1.0103446E-1,9.432382E-2,7.2897114E-2,4.692766E-3,0E0,9.8956816E-2,2.4112281E-1,0E0,0E0,0E0,0E0,0E0,0E0],"parents":[2147483647,0,0,1,1,2,2,3,3,5,5,6,6],"right_children":[2,4,6,8,-1,10,12,-1,-1,-1,-1,-1,-1],"split_conditions":[1.4E1,3E0,5E0,2E0,2.1341008E-3,2E0,6E0,-1.336664E-4,3.5809985E-4,-2.2538889E-5,-1.0898876E-3,1.2543808E-3,-5.814381E-4],"split_indices":[1,2,2,2,0,2,2,0,0,0,0,0,0],"split_type":[0,0,0,0,0,0,0,0,0,0,0,0,0],"sum_hessian":[7.2E1,9E0,6.3E1,6E0,3E0,3.6E1,2.7E1,3E0,3E0,2.3E1,1.3E1,1.2E1,1.5E1],"tree_param":{"num_deleted":"0","num_feature":"3","num_nodes":"13","size_leaf_vector":"1"}},{"base_weights":[8.924975E-4,9.3633816E-2,-1.3612278E-2,1.2728585E-2,2.118095E-3,-4.2304028E-2,2.4787974E-2,-1.3266384E-4,3.5541406E-4,-2.232297E-5,-1.0797671E-3,1.242802E-3,-5.7598704E-4],"categories":[],"categories_nodes":[],"categories_segments":[],"categories_sizes":[],"default_left":[0,0,0,0,0,0,0,0,0,0,0,0,0],"id":48,"left_children":[1,3,5,7,-1,9,11,-1,-1,-1,-1,-1,-1],"loss_changes":[9.947357E-2,9.291428E-2,7.156194E-2,4.6226364E-3,0E0,9.712883E-2,2.3666973E-1,0E0,0E0,0E0,0E0,0E0,0E0],"parents":[2147483647,0,0,1,1,2,2,3,3,5,5,6,6],"right_children":[2,4,6,8,-1,10,12,-1,-1,-1,-1,-1,-1],"split_conditions":[1.4E1,3E0,5E0,2E0,2.118095E-3,2E0,6E0,-1.3266384E-4,3.5541406E-4,-2.232297E-5,-1.0797671E-3,1.242802E-3,-5.7598704E-4],"split_indices":[1,2,2,2,0,2,2,0,0,0,0,0,0],"split_type":[0,0,0,0,0,0,0,0,0,0,0,0,0],"sum_hessian":[7.2E1,9E0,6.3E1,6E0,3E0,3.6E1,2.7E1,3E0,3E0,2.3E1,1.3E1,1.2E1,1.5E1],"tree_param":{"num_deleted":"0","num_feature":"3","num_nodes":"13","size_leaf_vector":"1"}},{"base_weights":[9.0967264E-4,9.2931546E-2,-1.3482959E-2,1.2633107E-2,2.1022093E-3,-4.1910775E-2,2.4563903E-2,-1.3166905E-4,3.527484E-4,-2.210905E-5,-1.0697406E-3,1.2313297E-3,-5.705871E-4],"categories":[],"categories_nodes":[],"categories_segments":[],"categories_sizes":[],"default_left":[0,0,0,0,0,0,0,0,0,0,0,0,0],"id":49,"left_children":[1,3,5,7,-1,9,11,-1,-1,-1,-1,-1,-1],"loss_changes":[9.793689E-2,9.15258E-2,7.02512E-2,4.5535592E-3,0E0,9.533465E-2,2.3229888E-1,0E0,0E0,0E0,0E0,0E0,0E0],"parents":[2147483647,0,0,1,1,2,2,3,3,5,5,6,6],"right_children":[2,4,6,8,-1,10,12,-1,-1,-1,-1,-1,-1],"split_conditions":[1.4E1,3E0,5E0,2E0,2.1022093E-3,2E0,6E0,-1.3166905E-4,3.527484E-4,-2.210905E-5,-1.0697406E-3,1.2313297E-3,-5.705871E-4],"split_indices":[1,2,2,2,0,2,2,0,0,0,0,0,0],"split_type":[0,0,0,0,0,0,0,0,0,0,0,0,0],"sum_hessian":[7.2E1,9E0,6.3E1,6E0,3E0,3.6E1,2.7E1,3E0,3E0,2.3E1,1.3E1,1.2E1,1.5E1],"tree_param":{"num_deleted":"0","num_feature":"3","num_nodes":"13","size_leaf_vector":"1"}},{"base_weights":[9.265048E-4,9.223457E-2,-1.33548565E-2,1.253836E-2,2.086443E-3,-4.152117E-2,2.4341872E-2,-1.3068154E-4,3.5010284E-4,-2.1897133E-5,-1.0598073E-3,1.2199638E-3,-5.6523783E-4],"categories":[],"categories_nodes":[],"categories_segments":[],"categories_sizes":[],"default_left":[0,0,0,0,0,0,0,0,0,0,0,0,0],"id":50,"left_children":[1,3,5,7,-1,9,11,-1,-1,-1,-1,-1,-1],"loss_changes":[9.642403E-2,9.015808E-2,6.896449E-2,4.4855135E-3,0E0,9.35736E-2,2.2800878E-1,0E0,0E0,0E0,0E0,0E0,0E0],"parents":[2147483647,0,0,1,1,2,2,3,3,5,5,6,6],"right_children":[2,4,6,8,-1,10,12,-1,-1,-1,-1,-1,-1],"split_conditions":[1.4E1,3E0,5E0,2E0,2.086443E-3,2E0,6E0,-1.3068154E-4,3.5010284E-4,-2.1897133E-5,-1.0598073E-3,1.2199638E-3,-5.6523783E-4],"split_indices":[1,2,2,2,0,2,2,0,0,0,0,0,0],"split_type":[0,0,0,0,0,0,0,0,0,0,0,0,0],"sum_hessian":[7.2E1,9E0,6.3E1,6E0,3E0,3.6E1,2.7E1,3E0,3E0,2.3E1,1.3E1,1.2E1,1.5E1],"tree_param":{"num_deleted":"0","num_feature":"3","num_nodes":"13","size_leaf_vector":"1"}},{"base_weights":[9.4297365E-4,9.15428E-2,-1.3227984E-2,1.2444322E-2,2.0707943E-3,-4.1135192E-2,2.4121825E-2,-1.2970134E-4,3.4747698E-4,-2.1687212E-5,-1.0499662E-3,1.2087023E-3,-5.599388E-4],"categories":[],"categories_nodes":[],"categories_segments":[],"categories_sizes":[],"default_left":[0,0,0,0,0,0,0,0,0,0,0,0,0],"id":51,"left_children":[1,3,5,7,-1,9,11,-1,-1,-1,-1,-1,-1],"loss_changes":[9.4934635E-2,8.881077E-2,6.7701295E-2,4.4184793E-3,0E0,9.184511E-2,2.2379786E-1,0E0,0E0,0E0,0E0,0E0,0E0],"parents":[2147483647,0,0,1,1,2,2,3,3,5,5,6,6],"right_children":[2,4,6,8,-1,10,12,-1,-1,-1,-1,-1,-1],"split_conditions":[1.4E1,3E0,5E0,2E0,2.0707943E-3,2E0,6E0,-1.2970134E-4,3.4747698E-4,-2.1687212E-5,-1.0499662E-3,1.2087023E-3,-5.599388E-4],"split_indices":[1,2,2,2,0,2,2,0,0,0,0,0,0],"split_type":[0,0,0,0,0,0,0,0,0,0,0,0,0],"sum_hessian":[7.2E1,9E0,6.3E1,6E0,3E0,3.6E1,2.7E1,3E0,3E0,2.3E1,1.3E1,1.2E1,1.5E1],"tree_param":{"num_deleted":"0","num_feature":"3","num_nodes":"13","size_leaf_vector":"1"}},{"base_weights":[9.5909875E-4,2.1852355E-2,-5.957186E-2,-1.044263E-2,8.8816635E-2,1.6651208E-2,-8.100809E-2,-9.5930975E-4,-3.741724E-6,5.592791E-4,1.8994521E-3,-4.0306716E-4,6.8058725E-4,-2.6496284E-4,-9.842181E-4],"categories":[],"categories_nodes":[],"categories_segments":[],"categories_sizes":[],"default_left":[0,0,0,0,0,0,0,0,0,0,0,0,0,0,0],"id":52,"left_children":[1,3,5,7,9,11,13,-1,-1,-1,-1,-1,-1,-1,-1],"loss_changes":[9.362407E-2,1.1987106E-1,3.2393657E-2,3.2672063E-2,4.9244583E-2,1.7383555E-2,1.163099E-2,0E0,0E0,0E0,0E0,0E0,0E0,0E0,0E0],"parents":[2147483647,0,0,1,1,2,2,3,3,4,4,5,5,6,6],"right_children":[2,4,6,8,10,12,14,-1,-1,-1,-1,-1,-1,-1,-1],"split_conditions":[5.256E4,4E0,6E1,1E0,3.504E4,1.0512E5,6E0,-9.5930975E-4,-3.741724E-6,5.592791E-4,1.8994521E-3,-4.0306716E-4,6.8058725E-4,-2.6496284E-4,-9.842181E-4],"split_indices":[0,2,1,2,0,0,2,0,0,0,0,0,0,0,0],"split_type":[0,0,0,0,0,0,0,0,0,0,0,0,0,0,0],"sum_hessian":[7.2E1,5.4E1,1.8E1,3.7E1,1.7E1,4E0,1.4E1,3E0,3.4E1,1.4E1,3E0,2E0,2E0,4E0,1E1],"tree_param":{"num_deleted":"0","num_feature":"3","num_nodes":"15","size_leaf_vector":"1"}},{"base_weights":[9.566937E-4,9.074701E-2,-1.3087992E-2,1.2354212E-2,2.0524764E-3,-4.0644117E-2,2.3792889E-2,-1.2870043E-4,3.4489913E-4,-1.9864801E-5,-1.040112E-3,1.1899237E-3,-5.504375E-4],"categories":[],"categories_nodes":[],"categories_segments":[],"categories_sizes":[],"default_left":[0,0,0,0,0,0,0,0,0,0,0,0,0],"id":53,"left_children":[1,3,5,7,-1,9,11,-1,-1,-1,-1,-1,-1],"loss_changes":[9.3246296E-2,8.722458E-2,6.600987E-2,4.3523833E-3,0E0,9.0429395E-2,2.1669559E-1,0E0,0E0,0E0,0E0,0E0,0E0],"parents":[2147483647,0,0,1,1,2,2,3,3,5,5,6,6],"right_children":[2,4,6,8,-1,10,12,-1,-1,-1,-1,-1,-1],"split_conditions":[1.4E1,3E0,5E0,2E0,2.0524764E-3,2E0,6E0,-1.2870043E-4,3.4489913E-4,-1.9864801E-5,-1.040112E-3,1.1899237E-3,-5.504375E-4],"split_indices":[1,2,2,2,0,2,2,0,0,0,0,0,0],"split_type":[0,0,0,0,0,0,0,0,0,0,0,0,0],"sum_hessian":[7.2E1,9E0,6.3E1,6E0,3E0,3.6E1,2.7E1,3E0,3E0,2.3E1,1.3E1,1.2E1,1.5E1],"tree_param":{"num_deleted":"0","num_feature":"3","num_nodes":"13","size_leaf_vector":"1"}},{"base_weights":[9.724445E-4,9.00664E-2,-1.2963681E-2,1.2261548E-2,2.0370828E-3,-4.026632E-2,2.3577796E-2,-1.2773529E-4,3.4231239E-4,-1.96743E-5,-1.030454E-3,1.1789396E-3,-5.4527697E-4],"categories":[],"categories_nodes":[],"categories_segments":[],"categories_sizes":[],"default_left":[0,0,0,0,0,0,0,0,0,0,0,0,0],"id":54,"left_children":[1,3,5,7,-1,9,11,-1,-1,-1,-1,-1,-1],"loss_changes":[9.180619E-2,8.592112E-2,6.4800836E-2,4.2873435E-3,0E0,8.875891E-2,2.126936E-1,0E0,0E0,0E0,0E0,0E0,0E0],"parents":[2147483647,0,0,1,1,2,2,3,3,5,5,6,6],"right_children":[2,4,6,8,-1,10,12,-1,-1,-1,-1,-1,-1],"split_conditions":[1.4E1,3E0,5E0,2E0,2.0370828E-3,2E0,6E0,-1.2773529E-4,3.4231239E-4,-1.96743E-5,-1.030454E-3,1.1789396E-3,-5.4527697E-4],"split_indices":[1,2,2,2,0,2,2,0,0,0,0,0,0],"split_type":[0,0,0,0,0,0,0,0,0,0,0,0,0],"sum_hessian":[7.2E1,9E0,6.3E1,6E0,3E0,3.6E1,2.7E1,3E0,3E0,2.3E1,1.3E1,1.2E1,1.5E1],"tree_param":{"num_deleted":"0","num_feature":"3","num_nodes":"13","size_leaf_vector":"1"}},{"base_weights":[9.878555E-4,8.9390896E-2,-1.2840554E-2,1.21695865E-2,2.0218045E-3,-3.9892044E-2,2.336465E-2,-1.2677729E-4,3.3974505E-4,-1.94858E-5,-1.0208855E-3,1.1680572E-3,-5.401652E-4],"categories":[],"categories_nodes":[],"categories_segments":[],"categories_sizes":[],"default_left":[0,0,0,0,0,0,0,0,0,0,0,0,0],"id":55,"left_children":[1,3,5,7,-1,9,11,-1,-1,-1,-1,-1,-1],"loss_changes":[9.0388395E-2,8.463713E-2,6.3613966E-2,4.223276E-3,0E0,8.711927E-2,2.0876567E-1,0E0,0E0,0E0,0E0,0E0,0E0],"parents":[2147483647,0,0,1,1,2,2,3,3,5,5,6,6],"right_children":[2,4,6,8,-1,10,12,-1,-1,-1,-1,-1,-1],"split_conditions":[1.4E1,3E0,5E0,2E0,2.0218045E-3,2E0,6E0,-1.2677729E-4,3.3974505E-4,-1.94858E-5,-1.0208855E-3,1.1680572E-3,-5.401652E-4],"split_indices":[1,2,2,2,0,2,2,0,0,0,0,0,0],"split_type":[0,0,0,0,0,0,0,0,0,0,0,0,0],"sum_hessian":[7.2E1,9E0,6.3E1,6E0,3E0,3.6E1,2.7E1,3E0,3E0,2.3E1,1.3E1,1.2E1,1.5E1],"tree_param":{"num_deleted":"0","num_feature":"3","num_nodes":"13","size_leaf_vector":"1"}},{"base_weights":[1.0029392E-3,8.872047E-2,-1.2718596E-2,1.2078315E-2,2.0066411E-3,-3.9521243E-2,2.3153422E-2,-1.2582644E-4,3.3719695E-4,-1.9299016E-5,-1.011406E-3,1.157275E-3,-5.351011E-4],"categories":[],"categories_nodes":[],"categories_segments":[],"categories_sizes":[],"default_left":[0,0,0,0,0,0,0,0,0,0,0,0,0],"id":56,"left_children":[1,3,5,7,-1,9,11,-1,-1,-1,-1,-1,-1],"loss_changes":[8.8992596E-2,8.337235E-2,6.2448815E-2,4.1601635E-3,0E0,8.550991E-2,2.0491017E-1,0E0,0E0,0E0,0E0,0E0,0E0],"parents":[2147483647,0,0,1,1,2,2,3,3,5,5,6,6],"right_children":[2,4,6,8,-1,10,12,-1,-1,-1,-1,-1,-1],"split_conditions":[1.4E1,3E0,5E0,2E0,2.0066411E-3,2E0,6E0,-1.2582644E-4,3.3719695E-4,-1.9299016E-5,-1.011406E-3,1.157275E-3,-5.351011E-4],"split_indices":[1,2,2,2,0,2,2,0,0,0,0,0,0],"split_type":[0,0,0,0,0,0,0,0,0,0,0,0,0],"sum_hessian":[7.2E1,9E0,6.3E1,6E0,3E0,3.6E1,2.7E1,3E0,3E0,2.3E1,1.3E1,1.2E1,1.5E1],"tree_param":{"num_deleted":"0","num_feature":"3","num_nodes":"13","size_leaf_vector":"1"}},{"base_weights":[1.0176991E-3,8.805507E-2,-1.2597791E-2,1.1987733E-2,1.9915912E-3,-3.915388E-2,2.2944106E-2,-1.2488276E-4,3.346681E-4,-1.9113942E-5,-1.0020144E-3,1.1465924E-3,-5.3008454E-4],"categories":[],"categories_nodes":[],"categories_segments":[],"categories_sizes":[],"default_left":[0,0,0,0,0,0,0,0,0,0,0,0,0],"id":57,"left_children":[1,3,5,7,-1,9,11,-1,-1,-1,-1,-1,-1],"loss_changes":[8.761842E-2,8.212643E-2,6.1304994E-2,4.097997E-3,0E0,8.393029E-2,2.011259E-1,0E0,0E0,0E0,0E0,0E0,0E0],"parents":[2147483647,0,0,1,1,2,2,3,3,5,5,6,6],"right_children":[2,4,6,8,-1,10,12,-1,-1,-1,-1,-1,-1],"split_conditions":[1.4E1,3E0,5E0,2E0,1.9915912E-3,2E0,6E0,-1.2488276E-4,3.346681E-4,-1.9113942E-5,-1.0020144E-3,1.1465924E-3,-5.3008454E-4],"split_indices":[1,2,2,2,0,2,2,0,0,0,0,0,0],"split_type":[0,0,0,0,0,0,0,0,0,0,0,0,0],"sum_hessian":[7.2E1,9E0,6.3E1,6E0,3E0,3.6E1,2.7E1,3E0,3E0,2.3E1,1.3E1,1.2E1,1.5E1],"tree_param":{"num_deleted":"0","num_feature":"3","num_nodes":"13","size_leaf_vector":"1"}},{"base_weights":[1.0321303E-3,2.1087084E-2,-5.7076007E-2,-5.921434E-3,9.350456E-2,1.8661087E-2,-7.851664E-2,8.739465E-4,-3.4897667E-4,5.5500714E-4,1.8413996E-3,-3.83039E-4,6.940571E-4,-2.6392515E-4,-9.5071545E-4],"categories":[],"categories_nodes":[],"categories_segments":[],"categories_sizes":[],"default_left":[0,0,0,0,0,0,0,0,0,0,0,0,0,0,0],"id":58,"left_children":[1,3,5,7,9,11,13,-1,-1,-1,-1,-1,-1,-1,-1],"loss_changes":[8.627455E-2,1.0812757E-1,3.2318372E-2,1.13911755E-1,4.144752E-2,1.7111847E-2,1.0434471E-2,0E0,0E0,0E0,0E0,0E0,0E0,0E0,0E0],"parents":[2147483647,0,0,1,1,2,2,3,3,4,4,5,5,6,6],"right_children":[2,4,6,8,10,12,14,-1,-1,-1,-1,-1,-1,-1,-1],"split_conditions":[5.256E4,5E0,6E1,1.4E1,3.504E4,1.0512E5,6E0,8.739465E-4,-3.4897667E-4,5.5500714E-4,1.8413996E-3,-3.83039E-4,6.940571E-4,-2.6392515E-4,-9.5071545E-4],"split_indices":[0,2,1,1,0,0,2,0,0,0,0,0,0,0,0],"split_type":[0,0,0,0,0,0,0,0,0,0,0,0,0,0,0],"sum_hessian":[7.2E1,5.4E1,1.8E1,4E1,1.4E1,4E0,1.4E1,9E0,3.1E1,1.1E1,3E0,2E0,2E0,4E0,1E1],"tree_param":{"num_deleted":"0","num_feature":"3","num_nodes":"15","size_leaf_vector":"1"}},{"base_weights":[1.0494565E-3,2.0929337E-2,-5.6552798E-2,-5.8494094E-3,9.2729285E-2,1.8536681E-2,-7.781244E-2,8.660809E-4,-3.4559585E-4,5.499197E-4,1.8275889E-3,-3.8048535E-4,6.8943E-4,-2.618137E-4,-9.420725E-4],"categories":[],"categories_nodes":[],"categories_segments":[],"categories_sizes":[],"default_left":[0,0,0,0,0,0,0,0,0,0,0,0,0,0,0],"id":59,"left_children":[1,3,5,7,9,11,13,-1,-1,-1,-1,-1,-1,-1,-1],"loss_changes":[8.477781E-2,1.06291614E-1,3.177351E-2,1.1182647E-1,4.0911853E-2,1.6884444E-2,1.023075E-2,0E0,0E0,0E0,0E0,0E0,0E0,0E0,0E0],"parents":[2147483647,0,0,1,1,2,2,3,3,4,4,5,5,6,6],"right_children":[2,4,6,8,10,12,14,-1,-1,-1,-1,-1,-1,-1,-1],"split_conditions":[5.256E4,5E0,6E1,1.4E1,3.504E4,1.0512E5,6E0,8.660809E-4,-3.4559585E-4,5.499197E-4,1.8275889E-3,-3.8048535E-4,6.8943E-4,-2.618137E-4,-9.420725E-4],"split_indices":[0,2,1,1,0,0,2,0,0,0,0,0,0,0,0],"split_type":[0,0,0,0,0,0,0,0,0,0,0,0,0,0,0],"sum_hessian":[7.2E1,5.4E1,1.8E1,4E1,1.4E1,4E0,1.4E1,9E0,3.1E1,1.1E1,3E0,2E0,2E0,4E0,1E1],"tree_param":{"num_deleted":"0","num_feature":"3","num_nodes":"15","size_leaf_vector":"1"}},{"base_weights":[1.066401E-3,2.0772731E-2,-5.6034368E-2,-5.7782247E-3,9.19605E-2,1.8413108E-2,-7.711457E-2,8.582863E-4,-3.42248E-4,5.448789E-4,1.8138819E-3,-3.7794877E-4,6.848339E-4,-2.5971918E-4,-9.335081E-4],"categories":[],"categories_nodes":[],"categories_segments":[],"categories_sizes":[],"default_left":[0,0,0,0,0,0,0,0,0,0,0,0,0,0,0],"id":60,"left_children":[1,3,5,7,9,11,13,-1,-1,-1,-1,-1,-1,-1,-1],"loss_changes":[8.330699E-2,1.04487054E-1,3.1237919E-2,1.09779425E-1,4.0382877E-2,1.6660072E-2,1.003097E-2,0E0,0E0,0E0,0E0,0E0,0E0,0E0,0E0],"parents":[2147483647,0,0,1,1,2,2,3,3,4,4,5,5,6,6],"right_children":[2,4,6,8,10,12,14,-1,-1,-1,-1,-1,-1,-1,-1],"split_conditions":[5.256E4,5E0,6E1,1.4E1,3.504E4,1.0512E5,6E0,8.582863E-4,-3.42248E-4,5.448789E-4,1.8138819E-3,-3.7794877E-4,6.848339E-4,-2.5971918E-4,-9.335081E-4],"split_indices":[0,2,1,1,0,0,2,0,0,0,0,0,0,0,0],"split_type":[0,0,0,0,0,0,0,0,0,0,0,0,0,0,0],"sum_hessian":[7.2E1,5.4E1,1.8E1,4E1,1.4E1,4E0,1.4E1,9E0,3.1E1,1.1E1,3E0,2E0,2E0,4E0,1E1],"tree_param":{"num_deleted":"0","num_feature":"3","num_nodes":"15","size_leaf_vector":"1"}},{"base_weights":[1.0829727E-3,2.061727E-2,-5.5520676E-2,-5.707856E-3,9.119813E-2,1.829036E-2,-7.6422974E-2,8.505617E-4,-3.389324E-4,5.39884E-4,1.8002777E-3,-3.7542908E-4,6.802684E-4,-2.5764137E-4,-9.2502177E-4],"categories":[],"categories_nodes":[],"categories_segments":[],"categories_sizes":[],"default_left":[0,0,0,0,0,0,0,0,0,0,0,0,0,0,0],"id":61,"left_children":[1,3,5,7,9,11,13,-1,-1,-1,-1,-1,-1,-1,-1],"loss_changes":[8.1861705E-2,1.0271329E-1,3.0711383E-2,1.07769825E-1,3.9860494E-2,1.6438678E-2,9.835064E-3,0E0,0E0,0E0,0E0,0E0,0E0,0E0,0E0],"parents":[2147483647,0,0,1,1,2,2,3,3,4,4,5,5,6,6],"right_children":[2,4,6,8,10,12,14,-1,-1,-1,-1,-1,-1,-1,-1],"split_conditions":[5.256E4,5E0,6E1,1.4E1,3.504E4,1.0512E5,6E0,8.505617E-4,-3.389324E-4,5.39884E-4,1.8002777E-3,-3.7542908E-4,6.802684E-4,-2.5764137E-4,-9.2502177E-4],"split_indices":[0,2,1,1,0,0,2,0,0,0,0,0,0,0,0],"split_type":[0,0,0,0,0,0,0,0,0,0,0,0,0,0,0],"sum_hessian":[7.2E1,5.4E1,1.8E1,4E1,1.4E1,4E0,1.4E1,9E0,3.1E1,1.1E1,3E0,2E0,2E0,4E0,1E1],"tree_param":{"num_deleted":"0","num_feature":"3","num_nodes":"15","size_leaf_vector":"1"}},{"base_weights":[1.0991864E-3,2.0462949E-2,-5.5011664E-2,-5.6382907E-3,9.044214E-2,1.816842E-2,-7.573758E-2,8.4290665E-4,-3.3564895E-4,5.349349E-4,1.7867755E-3,-3.729263E-4,6.757333E-4,-2.5558023E-4,-9.1661233E-4],"categories":[],"categories_nodes":[],"categories_segments":[],"categories_sizes":[],"default_left":[0,0,0,0,0,0,0,0,0,0,0,0,0,0,0],"id":62,"left_children":[1,3,5,7,9,11,13,-1,-1,-1,-1,-1,-1,-1,-1],"loss_changes":[8.044146E-2,1.0096985E-1,3.0193802E-2,1.0579704E-1,3.9344616E-2,1.6220227E-2,9.642944E-3,0E0,0E0,0E0,0E0,0E0,0E0,0E0,0E0],"parents":[2147483647,0,0,1,1,2,2,3,3,4,4,5,5,6,6],"right_children":[2,4,6,8,10,12,14,-1,-1,-1,-1,-1,-1,-1,-1],"split_conditions":[5.256E4,5E0,6E1,1.4E1,3.504E4,1.0512E5,6E0,8.4290665E-4,-3.3564895E-4,5.349349E-4,1.7867755E-3,-3.729263E-4,6.757333E-4,-2.5558023E-4,-9.1661233E-4],"split_indices":[0,2,1,1,0,0,2,0,0,0,0,0,0,0,0],"split_type":[0,0,0,0,0,0,0,0,0,0,0,0,0,0,0],"sum_hessian":[7.2E1,5.4E1,1.8E1,4E1,1.4E1,4E0,1.4E1,9E0,3.1E1,1.1E1,3E0,2E0,2E0,4E0,1E1],"tree_param":{"num_deleted":"0","num_feature":"3","num_nodes":"15","size_leaf_vector":"1"}},{"base_weights":[1.1150417E-3,2.0309763E-2,-5.450731E-2,-5.569524E-3,8.9692496E-2,1.8047292E-2,-7.5058356E-2,8.3532056E-4,-3.323972E-4,5.300313E-4,1.7733747E-3,-3.704402E-4,6.712284E-4,-2.5353555E-4,-9.082796E-4],"categories":[],"categories_nodes":[],"categories_segments":[],"categories_sizes":[],"default_left":[0,0,0,0,0,0,0,0,0,0,0,0,0,0,0],"id":63,"left_children":[1,3,5,7,9,11,13,-1,-1,-1,-1,-1,-1,-1,-1],"loss_changes":[7.904589E-2,9.925621E-2,2.968499E-2,1.0386036E-1,3.883516E-2,1.600468E-2,9.454563E-3,0E0,0E0,0E0,0E0,0E0,0E0,0E0,0E0],"parents":[2147483647,0,0,1,1,2,2,3,3,4,4,5,5,6,6],"right_children":[2,4,6,8,10,12,14,-1,-1,-1,-1,-1,-1,-1,-1],"split_conditions":[5.256E4,5E0,6E1,1.4E1,3.504E4,1.0512E5,6E0,8.3532056E-4,-3.323972E-4,5.300313E-4,1.7733747E-3,-3.704402E-4,6.712284E-4,-2.5353555E-4,-9.082796E-4],"split_indices":[0,2,1,1,0,0,2,0,0,0,0,0,0,0,0],"split_type":[0,0,0,0,0,0,0,0,0,0,0,0,0,0,0],"sum_hessian":[7.2E1,5.4E1,1.8E1,4E1,1.4E1,4E0,1.4E1,9E0,3.1E1,1.1E1,3E0,2E0,2E0,4E0,1E1],"tree_param":{"num_deleted":"0","num_feature":"3","num_nodes":"15","size_leaf_vector":"1"}},{"base_weights":[1.1305376E-3,2.0157687E-2,-5.4007556E-2,-5.501572E-3,8.894915E-2,1.7926972E-2,-7.4385226E-2,8.2780264E-4,-3.2917722E-4,5.251728E-4,1.7600746E-3,-3.6797058E-4,6.667534E-4,-2.5150736E-4,-9.0002245E-4],"categories":[],"categories_nodes":[],"categories_segments":[],"categories_sizes":[],"default_left":[0,0,0,0,0,0,0,0,0,0,0,0,0,0,0],"id":64,"left_children":[1,3,5,7,9,11,13,-1,-1,-1,-1,-1,-1,-1,-1],"loss_changes":[7.767448E-2,9.7571954E-2,2.9184815E-2,1.01959206E-1,3.8332015E-2,1.5791994E-2,9.269811E-3,0E0,0E0,0E0,0E0,0E0,0E0,0E0,0E0],"parents":[2147483647,0,0,1,1,2,2,3,3,4,4,5,5,6,6],"right_children":[2,4,6,8,10,12,14,-1,-1,-1,-1,-1,-1,-1,-1],"split_conditions":[5.256E4,5E0,6E1,1.4E1,3.504E4,1.0512E5,6E0,8.2780264E-4,-3.2917722E-4,5.251728E-4,1.7600746E-3,-3.6797058E-4,6.667534E-4,-2.5150736E-4,-9.0002245E-4],"split_indices":[0,2,1,1,0,0,2,0,0,0,0,0,0,0,0],"split_type":[0,0,0,0,0,0,0,0,0,0,0,0,0,0,0],"sum_hessian":[7.2E1,5.4E1,1.8E1,4E1,1.4E1,4E0,1.4E1,9E0,3.1E1,1.1E1,3E0,2E0,2E0,4E0,1E1],"tree_param":{"num_deleted":"0","num_feature":"3","num_nodes":"15","size_leaf_vector":"1"}},{"base_weights":[1.1456833E-3,2.0006722E-2,-5.351236E-2,-5.4343995E-3,8.8212006E-2,1.7807454E-2,-7.371814E-2,8.203526E-4,-3.2598843E-4,5.2035874E-4,1.7468741E-3,-3.6551742E-4,6.623083E-4,-2.4949532E-4,-8.918404E-4],"categories":[],"categories_nodes":[],"categories_segments":[],"categories_sizes":[],"default_left":[0,0,0,0,0,0,0,0,0,0,0,0,0,0,0],"id":65,"left_children":[1,3,5,7,9,11,13,-1,-1,-1,-1,-1,-1,-1,-1],"loss_changes":[7.632685E-2,9.591642E-2,2.869311E-2,1.00092895E-1,3.783519E-2,1.5582132E-2,9.088658E-3,0E0,0E0,0E0,0E0,0E0,0E0,0E0,0E0],"parents":[2147483647,0,0,1,1,2,2,3,3,4,4,5,5,6,6],"right_children":[2,4,6,8,10,12,14,-1,-1,-1,-1,-1,-1,-1,-1],"split_conditions":[5.256E4,5E0,6E1,1.4E1,3.504E4,1.0512E5,6E0,8.203526E-4,-3.2598843E-4,5.2035874E-4,1.7468741E-3,-3.6551742E-4,6.623083E-4,-2.4949532E-4,-8.918404E-4],"split_indices":[0,2,1,1,0,0,2,0,0,0,0,0,0,0,0],"split_type":[0,0,0,0,0,0,0,0,0,0,0,0,0,0,0],"sum_hessian":[7.2E1,5.4E1,1.8E1,4E1,1.4E1,4E0,1.4E1,9E0,3.1E1,1.1E1,3E0,2E0,2E0,4E0,1E1],"tree_param":{"num_deleted":"0","num_feature":"3","num_nodes":"15","size_leaf_vector":"1"}},{"base_weights":[1.1604857E-3,1.9856863E-2,-5.3021684E-2,-5.368003E-3,8.748104E-2,1.7688746E-2,-7.305705E-2,8.1296946E-4,-3.228305E-4,5.1558885E-4,1.7337725E-3,-3.6308062E-4,6.57893E-4,-2.474993E-4,-8.837328E-4],"categories":[],"categories_nodes":[],"categories_segments":[],"categories_sizes":[],"default_left":[0,0,0,0,0,0,0,0,0,0,0,0,0,0,0],"id":66,"left_children":[1,3,5,7,9,11,13,-1,-1,-1,-1,-1,-1,-1,-1],"loss_changes":[7.50026E-2,9.428919E-2,2.8209765E-2,9.826076E-2,3.7344515E-2,1.5375064E-2,8.911006E-3,0E0,0E0,0E0,0E0,0E0,0E0,0E0,0E0],"parents":[2147483647,0,0,1,1,2,2,3,3,4,4,5,5,6,6],"right_children":[2,4,6,8,10,12,14,-1,-1,-1,-1,-1,-1,-1,-1],"split_conditions":[5.256E4,5E0,6E1,1.4E1,3.504E4,1.0512E5,6E0,8.1296946E-4,-3.228305E-4,5.1558885E-4,1.7337725E-3,-3.6308062E-4,6.57893E-4,-2.474993E-4,-8.837328E-4],"split_indices":[0,2,1,1,0,0,2,0,0,0,0,0,0,0,0],"split_type":[0,0,0,0,0,0,0,0,0,0,0,0,0,0,0],"sum_hessian":[7.2E1,5.4E1,1.8E1,4E1,1.4E1,4E0,1.4E1,9E0,3.1E1,1.1E1,3E0,2E0,2E0,4E0,1E1],"tree_param":{"num_deleted":"0","num_feature":"3","num_nodes":"15","size_leaf_vector":"1"}},{"base_weights":[1.1749471E-3,1.9708099E-2,-5.253549E-2,-5.302376E-3,8.675619E-2,1.7570823E-2,-7.2401896E-2,8.056528E-4,-3.1970322E-4,5.108627E-4,1.7207691E-3,-3.6066005E-4,6.535071E-4,-2.4551922E-4,-8.756989E-4],"categories":[],"categories_nodes":[],"categories_segments":[],"categories_sizes":[],"default_left":[0,0,0,0,0,0,0,0,0,0,0,0,0,0,0],"id":67,"left_children":[1,3,5,7,9,11,13,-1,-1,-1,-1,-1,-1,-1,-1],"loss_changes":[7.370131E-2,9.268977E-2,2.7734615E-2,9.646217E-2,3.685998E-2,1.5170747E-2,8.736804E-3,0E0,0E0,0E0,0E0,0E0,0E0,0E0,0E0],"parents":[2147483647,0,0,1,1,2,2,3,3,4,4,5,5,6,6],"right_children":[2,4,6,8,10,12,14,-1,-1,-1,-1,-1,-1,-1,-1],"split_conditions":[5.256E4,5E0,6E1,1.4E1,3.504E4,1.0512E5,6E0,8.056528E-4,-3.1970322E-4,5.108627E-4,1.7207691E-3,-3.6066005E-4,6.535071E-4,-2.4551922E-4,-8.756989E-4],"split_indices":[0,2,1,1,0,0,2,0,0,0,0,0,0,0,0],"split_type":[0,0,0,0,0,0,0,0,0,0,0,0,0,0,0],"sum_hessian":[7.2E1,5.4E1,1.8E1,4E1,1.4E1,4E0,1.4E1,9E0,3.1E1,1.1E1,3E0,2E0,2E0,4E0,1E1],"tree_param":{"num_deleted":"0","num_feature":"3","num_nodes":"15","size_leaf_vector":"1"}},{"base_weights":[1.1890702E-3,1.9560417E-2,-5.2053727E-2,-5.237512E-3,8.60374E-2,1.745369E-2,-7.1752615E-2,7.984019E-4,-3.166062E-4,5.061797E-4,1.7078632E-3,-3.582556E-4,6.4915034E-4,-2.4355511E-4,-8.6773786E-4],"categories":[],"categories_nodes":[],"categories_segments":[],"categories_sizes":[],"default_left":[0,0,0,0,0,0,0,0,0,0,0,0,0,0,0],"id":68,"left_children":[1,3,5,7,9,11,13,-1,-1,-1,-1,-1,-1,-1,-1],"loss_changes":[7.242255E-2,9.111765E-2,2.7267512E-2,9.469651E-2,3.638152E-2,1.4969144E-2,8.565985E-3,0E0,0E0,0E0,0E0,0E0,0E0,0E0,0E0],"parents":[2147483647,0,0,1,1,2,2,3,3,4,4,5,5,6,6],"right_children":[2,4,6,8,10,12,14,-1,-1,-1,-1,-1,-1,-1,-1],"split_conditions":[5.256E4,5E0,6E1,1.4E1,3.504E4,1.0512E5,6E0,7.984019E-4,-3.166062E-4,5.061797E-4,1.7078632E-3,-3.582556E-4,6.4915034E-4,-2.4355511E-4,-8.6773786E-4],"split_indices":[0,2,1,1,0,0,2,0,0,0,0,0,0,0,0],"split_type":[0,0,0,0,0,0,0,0,0,0,0,0,0,0,0],"sum_hessian":[7.2E1,5.4E1,1.8E1,4E1,1.4E1,4E0,1.4E1,9E0,3.1E1,1.1E1,3E0,2E0,2E0,4E0,1E1],"tree_param":{"num_deleted":"0","num_feature":"3","num_nodes":"15","size_leaf_vector":"1"}},{"base_weights":[1.2028752E-3,1.9413838E-2,-5.157638E-2,-5.173376E-3,8.532463E-2,1.7337328E-2,-7.110919E-2,7.9121627E-4,-3.1353894E-4,5.015398E-4,1.6950542E-3,-3.5586726E-4,6.448227E-4,-2.4160677E-4,-8.598495E-4],"categories":[],"categories_nodes":[],"categories_segments":[],"categories_sizes":[],"default_left":[0,0,0,0,0,0,0,0,0,0,0,0,0,0,0],"id":69,"left_children":[1,3,5,7,9,11,13,-1,-1,-1,-1,-1,-1,-1,-1],"loss_changes":[7.1166046E-2,8.957237E-2,2.6808333E-2,9.296314E-2,3.5909027E-2,1.4770221E-2,8.398466E-3,0E0,0E0,0E0,0E0,0E0,0E0,0E0,0E0],"parents":[2147483647,0,0,1,1,2,2,3,3,4,4,5,5,6,6],"right_children":[2,4,6,8,10,12,14,-1,-1,-1,-1,-1,-1,-1,-1],"split_conditions":[5.256E4,5E0,6E1,1.4E1,3.504E4,1.0512E5,6E0,7.9121627E-4,-3.1353894E-4,5.015398E-4,1.6950542E-3,-3.5586726E-4,6.448227E-4,-2.4160677E-4,-8.598495E-4],"split_indices":[0,2,1,1,0,0,2,0,0,0,0,0,0,0,0],"split_type":[0,0,0,0,0,0,0,0,0,0,0,0,0,0,0],"sum_hessian":[7.2E1,5.4E1,1.8E1,4E1,1.4E1,4E0,1.4E1,9E0,3.1E1,1.1E1,3E0,2E0,2E0,4E0,1E1],"tree_param":{"num_deleted":"0","num_feature":"3","num_nodes":"15","size_leaf_vector":"1"}},{"base_weights":[1.216361E-3,1.9268336E-2,-5.1103376E-2,-5.10998E-3,8.4617846E-2,1.7221743E-2,-7.0471525E-2,7.8409543E-4,-3.1050143E-4,4.969425E-4,1.6823416E-3,-3.5349478E-4,6.405238E-4,-2.396739E-4,-8.5203256E-4],"categories":[],"categories_nodes":[],"categories_segments":[],"categories_sizes":[],"default_left":[0,0,0,0,0,0,0,0,0,0,0,0,0,0,0],"id":70,"left_children":[1,3,5,7,9,11,13,-1,-1,-1,-1,-1,-1,-1,-1],"loss_changes":[6.993132E-2,8.8053495E-2,2.6356932E-2,9.1261536E-2,3.5442464E-2,1.4573938E-2,8.234195E-3,0E0,0E0,0E0,0E0,0E0,0E0,0E0,0E0],"parents":[2147483647,0,0,1,1,2,2,3,3,4,4,5,5,6,6],"right_children":[2,4,6,8,10,12,14,-1,-1,-1,-1,-1,-1,-1,-1],"split_conditions":[5.256E4,5E0,6E1,1.4E1,3.504E4,1.0512E5,6E0,7.8409543E-4,-3.1050143E-4,4.969425E-4,1.6823416E-3,-3.5349478E-4,6.405238E-4,-2.396739E-4,-8.5203256E-4],"split_indices":[0,2,1,1,0,0,2,0,0,0,0,0,0,0,0],"split_type":[0,0,0,0,0,0,0,0,0,0,0,0,0,0,0],"sum_hessian":[7.2E1,5.4E1,1.8E1,4E1,1.4E1,4E0,1.4E1,9E0,3.1E1,1.1E1,3E0,2E0,2E0,4E0,1E1],"tree_param":{"num_deleted":"0","num_feature":"3","num_nodes":"15","size_leaf_vector":"1"}},{"base_weights":[1.2295181E-3,1.9123893E-2,-5.06347E-2,-5.0473227E-3,8.3916955E-2,1.7106932E-2,-6.98396E-2,7.770386E-4,-3.0749335E-4,4.923873E-4,1.669724E-3,-3.511382E-4,6.3625374E-4,-2.3775655E-4,-8.44287E-4],"categories":[],"categories_nodes":[],"categories_segments":[],"categories_sizes":[],"default_left":[0,0,0,0,0,0,0,0,0,0,0,0,0,0,0],"id":71,"left_children":[1,3,5,7,9,11,13,-1,-1,-1,-1,-1,-1,-1,-1],"loss_changes":[6.871801E-2,8.6560555E-2,2.5913186E-2,8.9591086E-2,3.498172E-2,1.4380272E-2,8.073129E-3,0E0,0E0,0E0,0E0,0E0,0E0,0E0,0E0],"parents":[2147483647,0,0,1,1,2,2,3,3,4,4,5,5,6,6],"right_children":[2,4,6,8,10,12,14,-1,-1,-1,-1,-1,-1,-1,-1],"split_conditions":[5.256E4,5E0,6E1,1.4E1,3.504E4,1.0512E5,6E0,7.770386E-4,-3.0749335E-4,4.923873E-4,1.669724E-3,-3.511382E-4,6.3625374E-4,-2.3775655E-4,-8.44287E-4],"split_indices":[0,2,1,1,0,0,2,0,0,0,0,0,0,0,0],"split_type":[0,0,0,0,0,0,0,0,0,0,0,0,0,0,0],"sum_hessian":[7.2E1,5.4E1,1.8E1,4E1,1.4E1,4E0,1.4E1,9E0,3.1E1,1.1E1,3E0,2E0,2E0,4E0,1E1],"tree_param":{"num_deleted":"0","num_feature":"3","num_nodes":"15","size_leaf_vector":"1"}},{"base_weights":[1.2423588E-3,1.8980503E-2,-5.017029E-2,-4.985396E-3,8.322193E-2,1.6992886E-2,-6.921333E-2,7.7004504E-4,-3.0451445E-4,4.8787368E-4,1.6572012E-3,-3.4879733E-4,6.320121E-4,-2.3585444E-4,-8.366115E-4],"categories":[],"categories_nodes":[],"categories_segments":[],"categories_sizes":[],"default_left":[0,0,0,0,0,0,0,0,0,0,0,0,0,0,0],"id":72,"left_children":[1,3,5,7,9,11,13,-1,-1,-1,-1,-1,-1,-1,-1],"loss_changes":[6.75257E-2,8.509309E-2,2.5476955E-2,8.7951206E-2,3.4526788E-2,1.4189176E-2,7.915176E-3,0E0,0E0,0E0,0E0,0E0,0E0,0E0,0E0],"parents":[2147483647,0,0,1,1,2,2,3,3,4,4,5,5,6,6],"right_children":[2,4,6,8,10,12,14,-1,-1,-1,-1,-1,-1,-1,-1],"split_conditions":[5.256E4,5E0,6E1,1.4E1,3.504E4,1.0512E5,6E0,7.7004504E-4,-3.0451445E-4,4.8787368E-4,1.6572012E-3,-3.4879733E-4,6.320121E-4,-2.3585444E-4,-8.366115E-4],"split_indices":[0,2,1,1,0,0,2,0,0,0,0,0,0,0,0],"split_type":[0,0,0,0,0,0,0,0,0,0,0,0,0,0,0],"sum_hessian":[7.2E1,5.4E1,1.8E1,4E1,1.4E1,4E0,1.4E1,9E0,3.1E1,1.1E1,3E0,2E0,2E0,4E0,1E1],"tree_param":{"num_deleted":"0","num_feature":"3","num_nodes":"15","size_leaf_vector":"1"}},{"base_weights":[1.2548901E-3,3.0393375E-2,-2.9537257E-2,-9.146778E-2,4.3451983E-2,-2.570592E-3,-8.325637E-4,-2.4511217E-4,-1.0561623E-3,2.1383981E-4,9.6483587E-4,-3.8239016E-4,7.8004686E-4],"categories":[],"categories_nodes":[],"categories_segments":[],"categories_sizes":[],"default_left":[0,0,0,0,0,0,0,0,0,0,0,0,0],"id":73,"left_children":[1,3,5,7,9,11,-1,-1,-1,-1,-1,-1,-1],"loss_changes":[6.6396005E-2,6.444526E-2,5.19365E-2,1.2005419E-3,3.889735E-2,7.483265E-2,0E0,0E0,0E0,0E0,0E0,0E0,0E0],"parents":[2147483647,0,0,1,1,2,2,3,3,4,4,5,5],"right_children":[2,4,6,8,10,12,-1,-1,-1,-1,-1,-1,-1],"split_conditions":[6E1,1E0,6E0,5.2142857E1,5E0,4E0,-8.325637E-4,-2.4511217E-4,-1.0561623E-3,2.1383981E-4,9.6483587E-4,-3.8239016E-4,7.8004686E-4],"split_indices":[1,2,2,0,2,2,0,0,0,0,0,0,0],"split_type":[0,0,0,0,0,0,0,0,0,0,0,0,0],"sum_hessian":[7.2E1,3.7E1,3.5E1,3E0,3.4E1,2.4E1,1.1E1,1E0,2E0,2.5E1,9E0,1.7E1,7E0],"tree_param":{"num_deleted":"0","num_feature":"3","num_nodes":"13","size_leaf_vector":"1"}},{"base_weights":[1.2347065E-3,1.8696193E-2,-4.9376685E-2,-4.8560654E-3,8.182596E-2,1.6408127E-2,-6.801318E-2,7.6119014E-4,-3.0009024E-4,4.7667106E-4,1.63846E-3,-3.4789753E-4,6.213663E-4,-2.3323332E-4,-8.214373E-4],"categories":[],"categories_nodes":[],"categories_segments":[],"categories_sizes":[],"default_left":[0,0,0,0,0,0,0,0,0,0,0,0,0,0,0],"id":74,"left_children":[1,3,5,7,9,11,13,-1,-1,-1,-1,-1,-1,-1,-1],"loss_changes":[6.543692E-2,8.217402E-2,2.4409931E-2,8.5791536E-2,3.421559E-2,1.3867728E-2,7.556513E-3,0E0,0E0,0E0,0E0,0E0,0E0,0E0,0E0],"parents":[2147483647,0,0,1,1,2,2,3,3,4,4,5,5,6,6],"right_children":[2,4,6,8,10,12,14,-1,-1,-1,-1,-1,-1,-1,-1],"split_conditions":[5.256E4,5E0,6E1,1.4E1,3.504E4,1.0512E5,6E0,7.6119014E-4,-3.0009024E-4,4.7667106E-4,1.63846E-3,-3.4789753E-4,6.213663E-4,-2.3323332E-4,-8.214373E-4],"split_indices":[0,2,1,1,0,0,2,0,0,0,0,0,0,0,0],"split_type":[0,0,0,0,0,0,0,0,0,0,0,0,0,0,0],"sum_hessian":[7.2E1,5.4E1,1.8E1,4E1,1.4E1,4E0,1.4E1,9E0,3.1E1,1.1E1,3E0,2E0,2E0,4E0,1E1],"tree_param":{"num_deleted":"0","num_feature":"3","num_nodes":"15","size_leaf_vector":"1"}},{"base_weights":[1.2469451E-3,1.8556066E-2,-4.8924033E-2,-4.796269E-3,8.114871E-2,1.6298741E-2,-6.7403354E-2,7.5433933E-4,-2.9718323E-4,4.723017E-4,1.6261714E-3,-3.4557807E-4,6.172238E-4,-2.3136746E-4,-8.1396964E-4],"categories":[],"categories_nodes":[],"categories_segments":[],"categories_sizes":[],"default_left":[0,0,0,0,0,0,0,0,0,0,0,0,0,0,0],"id":75,"left_children":[1,3,5,7,9,11,13,-1,-1,-1,-1,-1,-1,-1,-1],"loss_changes":[6.4302176E-2,8.078185E-2,2.3998767E-2,8.422133E-2,3.3768922E-2,1.3683437E-2,7.408485E-3,0E0,0E0,0E0,0E0,0E0,0E0,0E0,0E0],"parents":[2147483647,0,0,1,1,2,2,3,3,4,4,5,5,6,6],"right_children":[2,4,6,8,10,12,14,-1,-1,-1,-1,-1,-1,-1,-1],"split_conditions":[5.256E4,5E0,6E1,1.4E1,3.504E4,1.0512E5,6E0,7.5433933E-4,-2.9718323E-4,4.723017E-4,1.6261714E-3,-3.4557807E-4,6.172238E-4,-2.3136746E-4,-8.1396964E-4],"split_indices":[0,2,1,1,0,0,2,0,0,0,0,0,0,0,0],"split_type":[0,0,0,0,0,0,0,0,0,0,0,0,0,0,0],"sum_hessian":[7.2E1,5.4E1,1.8E1,4E1,1.4E1,4E0,1.4E1,9E0,3.1E1,1.1E1,3E0,2E0,2E0,4E0,1E1],"tree_param":{"num_deleted":"0","num_feature":"3","num_nodes":"15","size_leaf_vector":"1"}},{"base_weights":[1.2588853E-3,2.9730037E-2,-2.8828965E-2,-9.043047E-2,4.2613238E-2,-2.5331806E-3,-8.1209436E-2,-2.4090022E-4,-1.0451394E-3,2.1028711E-4,9.4471674E-4,-3.733589E-4,7.6089567E-4,-8.687671E-4,-3.5248714E-4],"categories":[],"categories_nodes":[],"categories_segments":[],"categories_sizes":[],"default_left":[0,0,0,0,0,0,0,0,0,0,0,0,0,0,0],"id":76,"left_children":[1,3,5,7,9,11,13,-1,-1,-1,-1,-1,-1,-1,-1],"loss_changes":[6.33915E-2,6.26795E-2,4.938016E-2,1.2194738E-3,3.7190273E-2,7.1247995E-2,6.336719E-5,0E0,0E0,0E0,0E0,0E0,0E0,0E0,0E0],"parents":[2147483647,0,0,1,1,2,2,3,3,4,4,5,5,6,6],"right_children":[2,4,6,8,10,12,14,-1,-1,-1,-1,-1,-1,-1,-1],"split_conditions":[6E1,1E0,6E0,5.2142857E1,5E0,4E0,9E2,-2.4090022E-4,-1.0451394E-3,2.1028711E-4,9.4471674E-4,-3.733589E-4,7.6089567E-4,-8.687671E-4,-3.5248714E-4],"split_indices":[1,2,2,0,2,2,1,0,0,0,0,0,0,0,0],"split_type":[0,0,0,0,0,0,0,0,0,0,0,0,0,0,0],"sum_hessian":[7.2E1,3.7E1,3.5E1,3E0,3.4E1,2.4E1,1.1E1,1E0,2E0,2.5E1,9E0,1.7E1,7E0,9E0,2E0],"tree_param":{"num_deleted":"0","num_feature":"3","num_nodes":"15","size_leaf_vector":"1"}},{"base_weights":[1.2330792E-3,1.8279005E-2,-4.817529E-2,-4.670769E-3,7.978979E-2,1.5728086E-2,-6.626473E-2,7.4565766E-4,-2.9286224E-4,4.6143617E-4,1.6078086E-3,-3.4467608E-4,6.0681085E-4,-2.2879819E-4,-7.9961075E-4],"categories":[],"categories_nodes":[],"categories_segments":[],"categories_sizes":[],"default_left":[0,0,0,0,0,0,0,0,0,0,0,0,0,0,0],"id":77,"left_children":[1,3,5,7,9,11,13,-1,-1,-1,-1,-1,-1,-1,-1],"loss_changes":[6.2362034E-2,7.80139E-2,2.3005765E-2,8.215194E-2,3.3456586E-2,1.3373766E-2,7.083729E-3,0E0,0E0,0E0,0E0,0E0,0E0,0E0,0E0],"parents":[2147483647,0,0,1,1,2,2,3,3,4,4,5,5,6,6],"right_children":[2,4,6,8,10,12,14,-1,-1,-1,-1,-1,-1,-1,-1],"split_conditions":[5.256E4,5E0,6E1,1.4E1,3.504E4,1.0512E5,6E0,7.4565766E-4,-2.9286224E-4,4.6143617E-4,1.6078086E-3,-3.4467608E-4,6.0681085E-4,-2.2879819E-4,-7.9961075E-4],"split_indices":[0,2,1,1,0,0,2,0,0,0,0,0,0,0,0],"split_type":[0,0,0,0,0,0,0,0,0,0,0,0,0,0,0],"sum_hessian":[7.2E1,5.4E1,1.8E1,4E1,1.4E1,4E0,1.4E1,9E0,3.1E1,1.1E1,3E0,2E0,2E0,4E0,1E1],"tree_param":{"num_deleted":"0","num_feature":"3","num_nodes":"15","size_leaf_vector":"1"}},{"base_weights":[1.2447953E-3,2.925473E-2,-2.8355826E-2,-8.9628026E-2,4.2005483E-2,-2.4941957E-3,-7.987124E-2,-2.3823141E-4,-1.0362193E-3,2.0752611E-4,9.306239E-4,-3.6717355E-4,7.4819685E-4,-8.550128E-4,-3.448065E-4],"categories":[],"categories_nodes":[],"categories_segments":[],"categories_sizes":[],"default_left":[0,0,0,0,0,0,0,0,0,0,0,0,0,0,0],"id":78,"left_children":[1,3,5,7,9,11,13,-1,-1,-1,-1,-1,-1,-1,-1],"loss_changes":[6.135468E-2,6.1366957E-2,4.7762595E-2,1.2148693E-3,3.6047414E-2,6.889531E-2,1.1847168E-4,0E0,0E0,0E0,0E0,0E0,0E0,0E0,0E0],"parents":[2147483647,0,0,1,1,2,2,3,3,4,4,5,5,6,6],"right_children":[2,4,6,8,10,12,14,-1,-1,-1,-1,-1,-1,-1,-1],"split_conditions":[6E1,1E0,6E0,5.2142857E1,5E0,4E0,9E2,-2.3823141E-4,-1.0362193E-3,2.0752611E-4,9.306239E-4,-3.6717355E-4,7.4819685E-4,-8.550128E-4,-3.448065E-4],"split_indices":[1,2,2,0,2,2,1,0,0,0,0,0,0,0,0],"split_type":[0,0,0,0,0,0,0,0,0,0,0,0,0,0,0],"sum_hessian":[7.2E1,3.7E1,3.5E1,3E0,3.4E1,2.4E1,1.1E1,1E0,2E0,2.5E1,9E0,1.7E1,7E0,9E0,2E0],"tree_param":{"num_deleted":"0","num_feature":"3","num_nodes":"15","size_leaf_vector":"1"}},{"base_weights":[1.2192628E-3,7.37079E-2,-1.0126138E-2,-1.1371715E-3,1.862598E-3,-3.2799218E-2,2.0196365E-2,-2.3800209E-4,2.1810159E-4,-2.0683066E-4,-2.3449033E-3,9.876771E-4,-4.4905124E-4],"categories":[],"categories_nodes":[],"categories_segments":[],"categories_sizes":[],"default_left":[0,0,0,0,0,0,0,0,0,0,0,0,0],"id":79,"left_children":[1,3,5,7,-1,9,11,-1,-1,-1,-1,-1,-1],"loss_changes":[6.0782503E-2,8.445136E-2,4.4662718E-2,4.15948E-3,0E0,8.556766E-2,1.4765829E-1,0E0,0E0,0E0,0E0,0E0,0E0],"parents":[2147483647,0,0,1,1,2,2,3,3,5,5,6,6],"right_children":[2,4,6,8,-1,10,12,-1,-1,-1,-1,-1,-1],"split_conditions":[1.4E1,3E0,5E0,2E0,1.862598E-3,4E0,6E0,-2.3800209E-4,2.1810159E-4,-2.0683066E-4,-2.3449033E-3,9.876771E-4,-4.4905124E-4],"split_indices":[1,2,2,2,0,2,2,0,0,0,0,0,0],"split_type":[0,0,0,0,0,0,0,0,0,0,0,0,0],"sum_hessian":[7.2E1,9E0,6.3E1,6E0,3E0,3.6E1,2.7E1,3E0,3E0,3.5E1,1E0,1.2E1,1.5E1],"tree_param":{"num_deleted":"0","num_feature":"3","num_nodes":"13","size_leaf_vector":"1"}},{"base_weights":[1.2047418E-3,2.8890125E-2,-2.8052183E-2,-8.889523E-2,4.1525878E-2,-2.589923E-3,-7.876088E-2,-2.3600608E-4,-1.0279324E-3,2.0549969E-4,9.191064E-4,-3.617525E-4,7.3300797E-4,-8.4327627E-4,-3.3951402E-4],"categories":[],"categories_nodes":[],"categories_segments":[],"categories_sizes":[],"default_left":[0,0,0,0,0,0,0,0,0,0,0,0,0,0,0],"id":80,"left_children":[1,3,5,7,9,11,13,-1,-1,-1,-1,-1,-1,-1,-1],"loss_changes":[5.993964E-2,6.02471E-2,4.62777E-2,1.203876E-3,3.510155E-2,6.6372044E-2,1.302734E-4,0E0,0E0,0E0,0E0,0E0,0E0,0E0,0E0],"parents":[2147483647,0,0,1,1,2,2,3,3,4,4,5,5,6,6],"right_children":[2,4,6,8,10,12,14,-1,-1,-1,-1,-1,-1,-1,-1],"split_conditions":[6E1,1E0,6E0,5.2142857E1,5E0,4E0,9E2,-2.3600608E-4,-1.0279324E-3,2.0549969E-4,9.191064E-4,-3.617525E-4,7.3300797E-4,-8.4327627E-4,-3.3951402E-4],"split_indices":[1,2,2,0,2,2,1,0,0,0,0,0,0,0,0],"split_type":[0,0,0,0,0,0,0,0,0,0,0,0,0,0,0],"sum_hessian":[7.2E1,3.7E1,3.5E1,3E0,3.4E1,2.4E1,1.1E1,1E0,2E0,2.5E1,9E0,1.7E1,7E0,9E0,2E0],"tree_param":{"num_deleted":"0","num_feature":"3","num_nodes":"15","size_leaf_vector":"1"}},{"base_weights":[1.1796694E-3,7.297015E-2,-1.0056025E-2,-1.3047755E-3,1.8470873E-3,-3.2400906E-2,1.983028E-2,-2.3775815E-4,2.1492458E-4,-2.0333118E-4,-2.3342061E-3,9.7107823E-4,-4.4197118E-4],"categories":[],"categories_nodes":[],"categories_segments":[],"categories_sizes":[],"default_left":[0,0,0,0,0,0,0,0,0,0,0,0,0],"id":81,"left_children":[1,3,5,7,-1,9,11,-1,-1,-1,-1,-1,-1],"loss_changes":[5.9616752E-2,8.323476E-2,4.3382097E-2,4.0969434E-3,0E0,8.501077E-2,1.4283253E-1,0E0,0E0,0E0,0E0,0E0,0E0],"parents":[2147483647,0,0,1,1,2,2,3,3,5,5,6,6],"right_children":[2,4,6,8,-1,10,12,-1,-1,-1,-1,-1,-1],"split_conditions":[1.4E1,3E0,5E0,2E0,1.8470873E-3,4E0,6E0,-2.3775815E-4,2.1492458E-4,-2.0333118E-4,-2.3342061E-3,9.7107823E-4,-4.4197118E-4],"split_indices":[1,2,2,2,0,2,2,0,0,0,0,0,0],"split_type":[0,0,0,0,0,0,0,0,0,0,0,0,0],"sum_hessian":[7.2E1,9E0,6.3E1,6E0,3E0,3.6E1,2.7E1,3E0,3E0,3.5E1,1E0,1.2E1,1.5E1],"tree_param":{"num_deleted":"0","num_feature":"3","num_nodes":"13","size_leaf_vector":"1"}},{"base_weights":[1.1653537E-3,7.242287E-2,-9.986842E-3,-1.2949918E-3,1.8332341E-3,-3.214547E-2,1.9650873E-2,-2.3597493E-4,2.1331258E-4,-2.0135424E-4,-2.3225353E-3,9.621145E-4,-4.378277E-4],"categories":[],"categories_nodes":[],"categories_segments":[],"categories_sizes":[],"default_left":[0,0,0,0,0,0,0,0,0,0,0,0,0],"id":82,"left_children":[1,3,5,7,-1,9,11,-1,-1,-1,-1,-1,-1],"loss_changes":[5.8734756E-2,8.199092E-2,4.2662475E-2,4.0357183E-3,0E0,8.4245816E-2,1.4019486E-1,0E0,0E0,0E0,0E0,0E0,0E0],"parents":[2147483647,0,0,1,1,2,2,3,3,5,5,6,6],"right_children":[2,4,6,8,-1,10,12,-1,-1,-1,-1,-1,-1],"split_conditions":[1.4E1,3E0,5E0,2E0,1.8332341E-3,4E0,6E0,-2.3597493E-4,2.1331258E-4,-2.0135424E-4,-2.3225353E-3,9.621145E-4,-4.378277E-4],"split_indices":[1,2,2,2,0,2,2,0,0,0,0,0,0],"split_type":[0,0,0,0,0,0,0,0,0,0,0,0,0],"sum_hessian":[7.2E1,9E0,6.3E1,6E0,3E0,3.6E1,2.7E1,3E0,3E0,3.5E1,1E0,1.2E1,1.5E1],"tree_param":{"num_deleted":"0","num_feature":"3","num_nodes":"13","size_leaf_vector":"1"}},{"base_weights":[1.151102E-3,2.846308E-2,-2.7710184E-2,-8.8018745E-2,4.096206E-2,-2.8152978E-3,-7.726535E-2,-2.3280263E-4,-1.0183814E-3,2.0345551E-4,9.046877E-4,-3.54514E-4,7.096785E-4,-8.277686E-4,-3.3138532E-4],"categories":[],"categories_nodes":[],"categories_segments":[],"categories_sizes":[],"default_left":[0,0,0,0,0,0,0,0,0,0,0,0,0,0,0],"id":83,"left_children":[1,3,5,7,9,11,13,-1,-1,-1,-1,-1,-1,-1,-1],"loss_changes":[5.8331612E-2,5.892978E-2,4.41946E-2,1.2077708E-3,3.3882298E-2,6.271577E-2,1.7536432E-4,0E0,0E0,0E0,0E0,0E0,0E0,0E0,0E0],"parents":[2147483647,0,0,1,1,2,2,3,3,4,4,5,5,6,6],"right_children":[2,4,6,8,10,12,14,-1,-1,-1,-1,-1,-1,-1,-1],"split_conditions":[6E1,1E0,6E0,5.2142857E1,5E0,4E0,9E2,-2.3280263E-4,-1.0183814E-3,2.0345551E-4,9.046877E-4,-3.54514E-4,7.096785E-4,-8.277686E-4,-3.3138532E-4],"split_indices":[1,2,2,0,2,2,1,0,0,0,0,0,0,0,0],"split_type":[0,0,0,0,0,0,0,0,0,0,0,0,0,0,0],"sum_hessian":[7.2E1,3.7E1,3.5E1,3E0,3.4E1,2.4E1,1.1E1,1E0,2E0,2.5E1,9E0,1.7E1,7E0,9E0,2E0],"tree_param":{"num_deleted":"0","num_feature":"3","num_nodes":"15","size_leaf_vector":"1"}},{"base_weights":[1.1266229E-3,7.169659E-2,-9.917537E-3,-1.4596751E-3,1.8179589E-3,-3.1755988E-2,1.9294614E-2,-2.3573115E-4,2.1018683E-4,5.2092746E-5,-9.2856726E-4,9.459324E-4,-4.3091437E-4],"categories":[],"categories_nodes":[],"categories_segments":[],"categories_sizes":[],"default_left":[0,0,0,0,0,0,0,0,0,0,0,0,0],"id":84,"left_children":[1,3,5,7,-1,9,11,-1,-1,-1,-1,-1,-1],"loss_changes":[5.760623E-2,8.08099E-2,4.14414E-2,3.974993E-3,0E0,8.4052086E-2,1.3560852E-1,0E0,0E0,0E0,0E0,0E0,0E0],"parents":[2147483647,0,0,1,1,2,2,3,3,5,5,6,6],"right_children":[2,4,6,8,-1,10,12,-1,-1,-1,-1,-1,-1],"split_conditions":[1.4E1,3E0,5E0,2E0,1.8179589E-3,2E0,6E0,-2.3573115E-4,2.1018683E-4,5.2092746E-5,-9.2856726E-4,9.459324E-4,-4.3091437E-4],"split_indices":[1,2,2,2,0,2,2,0,0,0,0,0,0],"split_type":[0,0,0,0,0,0,0,0,0,0,0,0,0],"sum_hessian":[7.2E1,9E0,6.3E1,6E0,3E0,3.6E1,2.7E1,3E0,3E0,2.3E1,1.3E1,1.2E1,1.5E1],"tree_param":{"num_deleted":"0","num_feature":"3","num_nodes":"13","size_leaf_vector":"1"}},{"base_weights":[1.1349643E-3,2.8134493E-2,-2.7396066E-2,-8.7490425E-2,4.0544927E-2,-2.8770708E-3,-7.61943E-2,-2.3189902E-4,-1.0119396E-3,2.0212795E-4,8.9353975E-4,-3.489336E-4,6.9519214E-4,-8.1644056E-4,-3.2630342E-4],"categories":[],"categories_nodes":[],"categories_segments":[],"categories_sizes":[],"default_left":[0,0,0,0,0,0,0,0,0,0,0,0,0,0,0],"id":85,"left_children":[1,3,5,7,9,11,13,-1,-1,-1,-1,-1,-1,-1,-1],"loss_changes":[5.700445E-2,5.8075592E-2,4.2854197E-2,1.1779014E-3,3.2927632E-2,6.0372267E-2,1.8488616E-4,0E0,0E0,0E0,0E0,0E0,0E0,0E0,0E0],"parents":[2147483647,0,0,1,1,2,2,3,3,4,4,5,5,6,6],"right_children":[2,4,6,8,10,12,14,-1,-1,-1,-1,-1,-1,-1,-1],"split_conditions":[6E1,1E0,6E0,5.2142857E1,5E0,4E0,9E2,-2.3189902E-4,-1.0119396E-3,2.0212795E-4,8.9353975E-4,-3.489336E-4,6.9519214E-4,-8.1644056E-4,-3.2630342E-4],"split_indices":[1,2,2,0,2,2,1,0,0,0,0,0,0,0,0],"split_type":[0,0,0,0,0,0,0,0,0,0,0,0,0,0,0],"sum_hessian":[7.2E1,3.7E1,3.5E1,3E0,3.4E1,2.4E1,1.1E1,1E0,2E0,2.5E1,9E0,1.7E1,7E0,9E0,2E0],"tree_param":{"num_deleted":"0","num_feature":"3","num_nodes":"15","size_leaf_vector":"1"}},{"base_weights":[1.110677E-3,7.0976965E-2,-9.823285E-3,-1.6219659E-3,1.8028085E-3,-3.132823E-2,1.89448E-2,-2.3547902E-4,2.0709462E-4,-1.937453E-4,-2.3083074E-3,9.3002093E-4,-4.2410797E-4],"categories":[],"categories_nodes":[],"categories_segments":[],"categories_sizes":[],"default_left":[0,0,0,0,0,0,0,0,0,0,0,0,0],"id":86,"left_children":[1,3,5,7,-1,9,11,-1,-1,-1,-1,-1,-1],"loss_changes":[5.6463044E-2,7.964586E-2,4.01875E-2,3.915127E-3,0E0,8.3765134E-2,1.3117152E-1,0E0,0E0,0E0,0E0,0E0,0E0],"parents":[2147483647,0,0,1,1,2,2,3,3,5,5,6,6],"right_children":[2,4,6,8,-1,10,12,-1,-1,-1,-1,-1,-1],"split_conditions":[1.4E1,3E0,5E0,2E0,1.8028085E-3,4E0,6E0,-2.3547902E-4,2.0709462E-4,-1.937453E-4,-2.3083074E-3,9.3002093E-4,-4.2410797E-4],"split_indices":[1,2,2,2,0,2,2,0,0,0,0,0,0],"split_type":[0,0,0,0,0,0,0,0,0,0,0,0,0],"sum_hessian":[7.2E1,9E0,6.3E1,6E0,3E0,3.6E1,2.7E1,3E0,3E0,3.5E1,1E0,1.2E1,1.5E1],"tree_param":{"num_deleted":"0","num_feature":"3","num_nodes":"13","size_leaf_vector":"1"}},{"base_weights":[1.0965356E-3,2.7783962E-2,-2.7103985E-2,-8.6781174E-2,4.0083293E-2,-2.9631066E-3,-7.5138815E-2,-2.2977083E-4,-1.0039017E-3,2.0014269E-4,8.825442E-4,-3.4380838E-4,6.809717E-4,-8.052756E-4,-3.213006E-4],"categories":[],"categories_nodes":[],"categories_segments":[],"categories_sizes":[],"default_left":[0,0,0,0,0,0,0,0,0,0,0,0,0,0,0],"id":87,"left_children":[1,3,5,7,9,11,13,-1,-1,-1,-1,-1,-1,-1,-1],"loss_changes":[5.5692803E-2,5.702331E-2,4.152306E-2,1.1665672E-3,3.206982E-2,5.815506E-2,1.938045E-4,0E0,0E0,0E0,0E0,0E0,0E0,0E0,0E0],"parents":[2147483647,0,0,1,1,2,2,3,3,4,4,5,5,6,6],"right_children":[2,4,6,8,10,12,14,-1,-1,-1,-1,-1,-1,-1,-1],"split_conditions":[6E1,1E0,6E0,5.2142857E1,5E0,4E0,9E2,-2.2977083E-4,-1.0039017E-3,2.0014269E-4,8.825442E-4,-3.4380838E-4,6.809717E-4,-8.052756E-4,-3.213006E-4],"split_indices":[1,2,2,0,2,2,1,0,0,0,0,0,0,0,0],"split_type":[0,0,0,0,0,0,0,0,0,0,0,0,0,0,0],"sum_hessian":[7.2E1,3.7E1,3.5E1,3E0,3.4E1,2.4E1,1.1E1,1E0,2E0,2.5E1,9E0,1.7E1,7E0,9E0,2E0],"tree_param":{"num_deleted":"0","num_feature":"3","num_nodes":"15","size_leaf_vector":"1"}},{"base_weights":[1.0726803E-3,7.02645E-2,-9.755303E-3,-1.7813529E-3,1.7877863E-3,-3.095069E-2,1.8601289E-2,-2.3521407E-4,2.040404E-4,-1.904506E-4,-2.2977667E-3,9.143749E-4,-4.17407E-4],"categories":[],"categories_nodes":[],"categories_segments":[],"categories_sizes":[],"default_left":[0,0,0,0,0,0,0,0,0,0,0,0,0],"id":88,"left_children":[1,3,5,7,-1,9,11,-1,-1,-1,-1,-1,-1],"loss_changes":[5.537763E-2,7.849841E-2,3.904158E-2,3.8561136E-3,0E0,8.320838E-2,1.2687893E-1,0E0,0E0,0E0,0E0,0E0,0E0],"parents":[2147483647,0,0,1,1,2,2,3,3,5,5,6,6],"right_children":[2,4,6,8,-1,10,12,-1,-1,-1,-1,-1,-1],"split_conditions":[1.4E1,3E0,5E0,2E0,1.7877863E-3,4E0,6E0,-2.3521407E-4,2.040404E-4,-1.904506E-4,-2.2977667E-3,9.143749E-4,-4.17407E-4],"split_indices":[1,2,2,2,0,2,2,0,0,0,0,0,0],"split_type":[0,0,0,0,0,0,0,0,0,0,0,0,0],"sum_hessian":[7.2E1,9E0,6.3E1,6E0,3E0,3.6E1,2.7E1,3E0,3E0,3.5E1,1E0,1.2E1,1.5E1],"tree_param":{"num_deleted":"0","num_feature":"3","num_nodes":"13","size_leaf_vector":"1"}},{"base_weights":[1.0587308E-3,6.9737524E-2,-9.688873E-3,-1.767993E-3,1.7743779E-3,-3.0708445E-2,1.8433021E-2,-2.3345008E-4,2.025102E-4,5.9270187E-5,-9.1318635E-4,9.059343E-4,-4.134938E-4],"categories":[],"categories_nodes":[],"categories_segments":[],"categories_sizes":[],"default_left":[0,0,0,0,0,0,0,0,0,0,0,0,0],"id":89,"left_children":[1,3,5,7,-1,9,11,-1,-1,-1,-1,-1,-1],"loss_changes":[5.455935E-2,7.7325344E-2,3.83971E-2,3.7984927E-3,0E0,8.2699105E-2,1.24535814E-1,0E0,0E0,0E0,0E0,0E0,0E0],"parents":[2147483647,0,0,1,1,2,2,3,3,5,5,6,6],"right_children":[2,4,6,8,-1,10,12,-1,-1,-1,-1,-1,-1],"split_conditions":[1.4E1,3E0,5E0,2E0,1.7743779E-3,2E0,6E0,-2.3345008E-4,2.025102E-4,5.9270187E-5,-9.1318635E-4,9.059343E-4,-4.134938E-4],"split_indices":[1,2,2,2,0,2,2,0,0,0,0,0,0],"split_type":[0,0,0,0,0,0,0,0,0,0,0,0,0],"sum_hessian":[7.2E1,9E0,6.3E1,6E0,3E0,3.6E1,2.7E1,3E0,3E0,2.3E1,1.3E1,1.2E1,1.5E1],"tree_param":{"num_deleted":"0","num_feature":"3","num_nodes":"13","size_leaf_vector":"1"}},{"base_weights":[1.0670705E-3,2.7399523E-2,-2.6757937E-2,-8.6123414E-2,3.9590728E-2,-3.1460095E-3,-7.371962E-2,-2.2796616E-4,-9.963347E-4,1.987894E-4,8.688231E-4,-3.366214E-4,6.5908534E-4,-7.9054973E-4,-3.1361918E-4],"categories":[],"categories_nodes":[],"categories_segments":[],"categories_sizes":[],"default_left":[0,0,0,0,0,0,0,0,0,0,0,0,0,0,0],"id":90,"left_children":[1,3,5,7,9,11,13,-1,-1,-1,-1,-1,-1,-1,-1],"loss_changes":[5.4220304E-2,5.6000985E-2,3.9686896E-2,1.1508875E-3,3.089993E-2,5.4900564E-2,2.3259968E-4,0E0,0E0,0E0,0E0,0E0,0E0,0E0,0E0],"parents":[2147483647,0,0,1,1,2,2,3,3,4,4,5,5,6,6],"right_children":[2,4,6,8,10,12,14,-1,-1,-1,-1,-1,-1,-1,-1],"split_conditions":[6E1,1E0,6E0,5.2142857E1,5E0,4E0,9E2,-2.2796616E-4,-9.963347E-4,1.987894E-4,8.688231E-4,-3.366214E-4,6.5908534E-4,-7.9054973E-4,-3.1361918E-4],"split_indices":[1,2,2,0,2,2,1,0,0,0,0,0,0,0,0],"split_type":[0,0,0,0,0,0,0,0,0,0,0,0,0,0,0],"sum_hessian":[7.2E1,3.7E1,3.5E1,3E0,3.4E1,2.4E1,1.1E1,1E0,2E0,2.5E1,9E0,1.7E1,7E0,9E0,2E0],"tree_param":{"num_deleted":"0","num_feature":"3","num_nodes":"15","size_leaf_vector":"1"}},{"base_weights":[1.0435459E-3,6.903558E-2,-9.596515E-3,-1.9251321E-3,1.7595793E-3,-3.029573E-2,1.8098751E-2,-2.331902E-4,1.995004E-4,-1.8455577E-4,-2.282706E-3,8.9068135E-4,-4.0695045E-4],"categories":[],"categories_nodes":[],"categories_segments":[],"categories_sizes":[],"default_left":[0,0,0,0,0,0,0,0,0,0,0,0,0],"id":91,"left_children":[1,3,5,7,-1,9,11,-1,-1,-1,-1,-1,-1],"loss_changes":[5.3473573E-2,7.621161E-2,3.7237614E-2,3.7411803E-3,0E0,8.251707E-2,1.2045631E-1,0E0,0E0,0E0,0E0,0E0,0E0],"parents":[2147483647,0,0,1,1,2,2,3,3,5,5,6,6],"right_children":[2,4,6,8,-1,10,12,-1,-1,-1,-1,-1,-1],