{"learner":{"attributes":{"scikit_learn":"{\"_estimator_type\": \"regressor\"}"},"feature_names":["freq","prediction_length","domain"],"feature_types":["float","int","float"],"gradient_booster":{"model":{"gbtree_model_param":{"num_parallel_tree":"1","num_trees":"100"},"iteration_indptr":[0,1,2,3,4,5,6,7,8,9,10,11,12,13,14,15,16,17,18,19,20,21,22,23,24,25,26,27,28,29,30,31,32,33,34,35,36,37,38,39,40,41,42,43,44,45,46,47,48,49,50,51,52,53,54,55,56,57,58,59,60,61,62,63,64,65,66,67,68,69,70,71,72,73,74,75,76,77,78,79,80,81,82,83,84,85,86,87,88,89,90,91,92,93,94,95,96,97,98,99,100],"tree_info":[0,0,0,0,0,0,0,0,0,0,0,0,0,0,0,0,0,0,0,0,0,0,0,0,0,0,0,0,0,0,0,0,0,0,0,0,0,0,0,0,0,0,0,0,0,0,0,0,0,0,0,0,0,0,0,0,0,0,0,0,0,0,0,0,0,0,0,0,0,0,0,0,0,0,0,0,0,0,0,0,0,0,0,0,0,0,0,0,0,0,0,0,0,0,0,0,0,0,0,0],"trees":[{"base_weights":[1.8779545E-8,-3.4779206E-1,2.6498446E-1,-3.8322075E-3,-3.9859936E-3,5.8681625E-1,-8.400393E-4,6.6629914E-4,-4.9734605E-4,1.2787306E-2,4.7733596E-1,-2.0162761E-1,2.1674983E-1,2.8506207E-1,9.202356E-3,1.817783E-2,-2.69387E-1,-2.0259805E-3,6.6986406E-1,6.296893E-3,-5.2119535E-4,-6.7976955E-4,1.383211E-3,-1.3787033E-3,-3.340864E-3,1.1887344E-2,-2.4525102E-3],"categories":[],"categories_nodes":[],"categories_segments":[],"categories_sizes":[],"default_left":[0,0,0,0,0,0,0,0,0,0,0,0,0,0,0,0,0,0,0,0,0,0,0,0,0,0,0],"id":0,"left_children":[1,3,5,-1,7,9,11,-1,-1,-1,13,15,17,19,-1,21,23,-1,25,-1,-1,-1,-1,-1,-1,-1,-1],"loss_changes":[6.8198023E0,3.8825154E-1,3.5936258E0,0E0,1.623613E-2,8.288846E-1,1.0922469E0,0E0,0E0,0E0,1.2705202E0,1.9851738E-1,2.4158633E0,1.6596466E0,0E0,5.0806325E-2,3.9030015E-2,0E0,3.1404946E0,0E0,0E0,0E0,0E0,0E0,0E0,0E0,0E0],"parents":[2147483647,0,0,1,1,2,2,4,4,5,5,6,6,10,10,11,11,12,12,13,13,15,15,16,16,18,18],"right_children":[2,4,6,-1,8,10,12,-1,-1,-1,14,16,18,20,-1,22,24,-1,26,-1,-1,-1,-1,-1,-1,-1,-1],"split_conditions":[3E0,5.256E4,6E1,-3.8322075E-3,6E1,1.2E1,7.2E2,6.6629914E-4,-4.9734605E-4,1.2787306E-2,6E0,4E0,5.256E4,4E0,9.202356E-3,3.504E4,6E0,-2.0259805E-3,3.1536E6,6.296893E-3,-5.2119535E-4,-6.7976955E-4,1.383211E-3,-1.3787033E-3,-3.340864E-3,1.1887344E-2,-2.4525102E-3],"split_indices":[2,0,1,0,1,1,1,0,0,0,2,2,0,2,0,0,2,0,0,0,0,0,0,0,0,0,0],"split_type":[0,0,0,0,0,0,0,0,0,0,0,0,0,0,0,0,0,0,0,0,0,0,0,0,0,0,0],"sum_hessian":[7.2E1,3.1E1,4.1E1,2.8E1,3E0,1.8E1,2.3E1,1E0,2E0,1E0,1.7E1,1.2E1,1.1E1,1.3E1,4E0,3E0,9E0,6E0,5E0,6E0,7E0,2E0,1E0,4E0,5E0,3E0,2E0],"tree_param":{"num_deleted":"0","num_feature":"3","num_nodes":"27","size_leaf_vector":"1"}},{"base_weights":[3.7665808E-4,-3.444286E-1,2.6307645E-1,-3.7952068E-3,-3.903903E-3,5.824094E-1,-6.9029006E-4,6.6296756E-4,-4.940304E-4,1.272337E-2,4.733947E-1,-1.9992027E-1,2.1519971E-1,2.8262398E-1,9.128737E-3,1.8171929E-2,-2.6716512E-1,-2.0086153E-3,6.647379E-1,6.2429192E-3,-5.1663496E-4,-6.752377E-4,1.3762951E-3,-1.3676735E-3,-3.313024E-3,1.1798188E-2,-2.4361603E-3],"categories":[],"categories_nodes":[],"categories_segments":[],"categories_sizes":[],"default_left":[0,0,0,0,0,0,0,0,0,0,0,0,0,0,0,0,0,0,0,0,0,0,0,0,0,0,0],"id":1,"left_children":[1,3,5,-1,7,9,11,-1,-1,-1,13,15,17,19,-1,21,23,-1,25,-1,-1,-1,-1,-1,-1,-1,-1],"loss_changes":[6.702971E0,3.8090944E-1,3.5380373E0,0E0,1.605154E-2,8.2671595E-1,1.075305E0,0E0,0E0,0E0,1.2511144E0,1.955074E-1,2.377945E0,1.6312679E0,0E0,5.0241265E-2,3.832221E-2,0E0,3.0946774E0,0E0,0E0,0E0,0E0,0E0,0E0,0E0,0E0],"parents":[2147483647,0,0,1,1,2,2,4,4,5,5,6,6,10,10,11,11,12,12,13,13,15,15,16,16,18,18],"right_children":[2,4,6,-1,8,10,12,-1,-1,-1,14,16,18,20,-1,22,24,-1,26,-1,-1,-1,-1,-1,-1,-1,-1],"split_conditions":[3E0,5.256E4,6E1,-3.7952068E-3,6E1,1.2E1,7.2E2,6.6296756E-4,-4.940304E-4,1.272337E-2,6E0,4E0,5.256E4,4E0,9.128737E-3,3.504E4,6E0,-2.0086153E-3,3.1536E6,6.2429192E-3,-5.1663496E-4,-6.752377E-4,1.3762951E-3,-1.3676735E-3,-3.313024E-3,1.1798188E-2,-2.4361603E-3],"split_indices":[2,0,1,0,1,1,1,0,0,0,2,2,0,2,0,0,2,0,0,0,0,0,0,0,0,0,0],"split_type":[0,0,0,0,0,0,0,0,0,0,0,0,0,0,0,0,0,0,0,0,0,0,0,0,0,0,0],"sum_hessian":[7.2E1,3.1E1,4.1E1,2.8E1,3E0,1.8E1,2.3E1,1E0,2E0,1E0,1.7E1,1.2E1,1.1E1,1.3E1,4E0,3E0,9E0,6E0,5E0,6E0,7E0,2E0,1E0,4E0,5E0,3E0,2E0],"tree_param":{"num_deleted":"0","num_feature":"3","num_nodes":"27","size_leaf_vector":"1"}},{"base_weights":[7.472202E-4,-3.4109765E-1,2.6118267E-1,-3.7585634E-3,-3.822647E-3,5.780368E-1,-5.428058E-4,6.5965264E-4,-4.907371E-4,1.2659754E-2,4.6948603E-1,-1.9822718E-1,2.1366051E-1,2.8020677E-1,9.055707E-3,1.8165492E-2,-2.6496154E-1,-1.9913984E-3,6.596508E-1,6.1894087E-3,-5.1211426E-4,-6.707359E-4,1.3694137E-3,-1.3567319E-3,-3.2854155E-3,1.1709702E-2,-2.4199192E-3],"categories":[],"categories_nodes":[],"categories_segments":[],"categories_sizes":[],"default_left":[0,0,0,0,0,0,0,0,0,0,0,0,0,0,0,0,0,0,0,0,0,0,0,0,0,0,0],"id":2,"left_children":[1,3,5,-1,7,9,11,-1,-1,-1,13,15,17,19,-1,21,23,-1,25,-1,-1,-1,-1,-1,-1,-1,-1],"loss_changes":[6.588171E0,3.7370706E-1,3.4833233E0,0E0,1.5869068E-2,8.24491E-1,1.0586249E0,0E0,0E0,0E0,1.2320049E0,1.9254392E-1,2.3406224E0,1.6033742E0,0E0,4.968254E-2,3.762722E-2,0E0,3.0495298E0,0E0,0E0,0E0,0E0,0E0,0E0,0E0,0E0],"parents":[2147483647,0,0,1,1,2,2,4,4,5,5,6,6,10,10,11,11,12,12,13,13,15,15,16,16,18,18],"right_children":[2,4,6,-1,8,10,12,-1,-1,-1,14,16,18,20,-1,22,24,-1,26,-1,-1,-1,-1,-1,-1,-1,-1],"split_conditions":[3E0,5.256E4,6E1,-3.7585634E-3,6E1,1.2E1,7.2E2,6.5965264E-4,-4.907371E-4,1.2659754E-2,6E0,4E0,5.256E4,4E0,9.055707E-3,3.504E4,6E0,-1.9913984E-3,3.1536E6,6.1894087E-3,-5.1211426E-4,-6.707359E-4,1.3694137E-3,-1.3567319E-3,-3.2854155E-3,1.1709702E-2,-2.4199192E-3],"split_indices":[2,0,1,0,1,1,1,0,0,0,2,2,0,2,0,0,2,0,0,0,0,0,0,0,0,0,0],"split_type":[0,0,0,0,0,0,0,0,0,0,0,0,0,0,0,0,0,0,0,0,0,0,0,0,0,0,0],"sum_hessian":[7.2E1,3.1E1,4.1E1,2.8E1,3E0,1.8E1,2.3E1,1E0,2E0,1E0,1.7E1,1.2E1,1.1E1,1.3E1,4E0,3E0,9E0,6E0,5E0,6E0,7E0,2E0,1E0,4E0,5E0,3E0,2E0],"tree_param":{"num_deleted":"0","num_feature":"3","num_nodes":"27","size_leaf_vector":"1"}},{"base_weights":[1.1117711E-3,-3.3779886E-1,2.593029E-1,-3.722274E-3,-3.7421957E-3,5.7369816E-1,-3.9759153E-4,6.563544E-4,-4.8746556E-4,1.25964545E-2,4.6560967E-1,-1.9654825E-1,2.121321E-1,2.7781025E-1,8.983261E-3,1.8158503E-2,-2.6277614E-1,-1.9743294E-3,6.5460265E-1,6.136357E-3,-5.076332E-4,-6.662643E-4,1.3625666E-3,-1.3458782E-3,-3.258037E-3,1.1621879E-2,-2.4037862E-3],"categories":[],"categories_nodes":[],"categories_segments":[],"categories_sizes":[],"default_left":[0,0,0,0,0,0,0,0,0,0,0,0,0,0,0,0,0,0,0,0,0,0,0,0,0,0,0],"id":3,"left_children":[1,3,5,-1,7,9,11,-1,-1,-1,13,15,17,19,-1,21,23,-1,25,-1,-1,-1,-1,-1,-1,-1,-1],"loss_changes":[6.475364E0,3.6664152E-1,3.4294698E0,0E0,1.5688688E-2,8.2221365E-1,1.0422024E0,0E0,0E0,0E0,1.2131863E0,1.896261E-1,2.3038855E0,1.5759573E0,0E0,4.913008E-2,3.6944747E-2,0E0,3.005041E0,0E0,0E0,0E0,0E0,0E0,0E0,0E0,0E0],"parents":[2147483647,0,0,1,1,2,2,4,4,5,5,6,6,10,10,11,11,12,12,13,13,15,15,16,16,18,18],"right_children":[2,4,6,-1,8,10,12,-1,-1,-1,14,16,18,20,-1,22,24,-1,26,-1,-1,-1,-1,-1,-1,-1,-1],"split_conditions":[3E0,5.256E4,6E1,-3.722274E-3,6E1,1.2E1,7.2E2,6.563544E-4,-4.8746556E-4,1.25964545E-2,6E0,4E0,5.256E4,4E0,8.983261E-3,3.504E4,6E0,-1.9743294E-3,3.1536E6,6.136357E-3,-5.076332E-4,-6.662643E-4,1.3625666E-3,-1.3458782E-3,-3.258037E-3,1.1621879E-2,-2.4037862E-3],"split_indices":[2,0,1,0,1,1,1,0,0,0,2,2,0,2,0,0,2,0,0,0,0,0,0,0,0,0,0],"split_type":[0,0,0,0,0,0,0,0,0,0,0,0,0,0,0,0,0,0,0,0,0,0,0,0,0,0,0],"sum_hessian":[7.2E1,3.1E1,4.1E1,2.8E1,3E0,1.8E1,2.3E1,1E0,2E0,1E0,1.7E1,1.2E1,1.1E1,1.3E1,4E0,3E0,9E0,6E0,5E0,6E0,7E0,2E0,1E0,4E0,5E0,3E0,2E0],"tree_param":{"num_deleted":"0","num_feature":"3","num_nodes":"27","size_leaf_vector":"1"}},{"base_weights":[1.470387E-3,-3.3453193E-1,2.5743714E-1,-3.686335E-3,-3.6625639E-3,5.693932E-1,-2.5461242E-4,6.530726E-4,-4.842159E-4,1.2533473E-2,4.6176535E-1,-1.9488336E-1,2.1061441E-1,2.754342E-1,8.9113945E-3,1.8150993E-2,-2.6060876E-1,-1.9574065E-3,6.4959294E-1,6.0837595E-3,-5.031912E-4,-6.618226E-4,1.3557539E-3,-1.3351112E-3,-3.2308868E-3,1.1534714E-2,-2.387761E-3],"categories":[],"categories_nodes":[],"categories_segments":[],"categories_sizes":[],"default_left":[0,0,0,0,0,0,0,0,0,0,0,0,0,0,0,0,0,0,0,0,0,0,0,0,0,0,0],"id":4,"left_children":[1,3,5,-1,7,9,11,-1,-1,-1,13,15,17,19,-1,21,23,-1,25,-1,-1,-1,-1,-1,-1,-1,-1],"loss_changes":[6.364517E0,3.5971117E-1,3.3764622E0,0E0,1.5510371E-2,8.198848E-1,1.0260335E0,0E0,0E0,0E0,1.1946542E0,1.867533E-1,2.2677255E0,1.5490093E0,0E0,4.8583813E-2,3.6274612E-2,0E0,2.961202E0,0E0,0E0,0E0,0E0,0E0,0E0,0E0,0E0],"parents":[2147483647,0,0,1,1,2,2,4,4,5,5,6,6,10,10,11,11,12,12,13,13,15,15,16,16,18,18],"right_children":[2,4,6,-1,8,10,12,-1,-1,-1,14,16,18,20,-1,22,24,-1,26,-1,-1,-1,-1,-1,-1,-1,-1],"split_conditions":[3E0,5.256E4,6E1,-3.686335E-3,6E1,1.2E1,7.2E2,6.530726E-4,-4.842159E-4,1.2533473E-2,6E0,4E0,5.256E4,4E0,8.9113945E-3,3.504E4,6E0,-1.9574065E-3,3.1536E6,6.0837595E-3,-5.031912E-4,-6.618226E-4,1.3557539E-3,-1.3351112E-3,-3.2308868E-3,1.1534714E-2,-2.387761E-3],"split_indices":[2,0,1,0,1,1,1,0,0,0,2,2,0,2,0,0,2,0,0,0,0,0,0,0,0,0,0],"split_type":[0,0,0,0,0,0,0,0,0,0,0,0,0,0,0,0,0,0,0,0,0,0,0,0,0,0,0],"sum_hessian":[7.2E1,3.1E1,4.1E1,2.8E1,3E0,1.8E1,2.3E1,1E0,2E0,1E0,1.7E1,1.2E1,1.1E1,1.3E1,4E0,3E0,9E0,6E0,5E0,6E0,7E0,2E0,1E0,4E0,5E0,3E0,2E0],"tree_param":{"num_deleted":"0","num_feature":"3","num_nodes":"27","size_leaf_vector":"1"}},{"base_weights":[1.8231419E-3,-3.3129656E-1,2.5558522E-1,-3.650743E-3,-3.5837218E-3,5.6512165E-1,-1.1383618E-4,6.4980716E-4,-4.809877E-4,1.2470805E-2,4.579528E-1,-1.9323239E-1,2.0910741E-1,2.7307844E-1,8.840105E-3,1.8142976E-2,-2.584593E-1,-1.9406285E-3,6.446215E-1,6.0316124E-3,-4.987884E-4,-6.574103E-4,1.348975E-3,-1.3244306E-3,-3.2039627E-3,1.14482045E-2,-2.3718425E-3],"categories":[],"categories_nodes":[],"categories_segments":[],"categories_sizes":[],"default_left":[0,0,0,0,0,0,0,0,0,0,0,0,0,0,0,0,0,0,0,0,0,0,0,0,0,0,0],"id":5,"left_children":[1,3,5,-1,7,9,11,-1,-1,-1,13,15,17,19,-1,21,23,-1,25,-1,-1,-1,-1,-1,-1,-1,-1],"loss_changes":[6.2555943E0,3.5291266E-1,3.324288E0,0E0,1.5334091E-2,8.1750584E-1,1.0101144E0,0E0,0E0,0E0,1.1764042E0,1.8392491E-1,2.2321332E0,1.5225222E0,0E0,4.804365E-2,3.561634E-2,0E0,2.918003E0,0E0,0E0,0E0,0E0,0E0,0E0,0E0,0E0],"parents":[2147483647,0,0,1,1,2,2,4,4,5,5,6,6,10,10,11,11,12,12,13,13,15,15,16,16,18,18],"right_children":[2,4,6,-1,8,10,12,-1,-1,-1,14,16,18,20,-1,22,24,-1,26,-1,-1,-1,-1,-1,-1,-1,-1],"split_conditions":[3E0,5.256E4,6E1,-3.650743E-3,6E1,1.2E1,7.2E2,6.4980716E-4,-4.809877E-4,1.2470805E-2,6E0,4E0,5.256E4,4E0,8.840105E-3,3.504E4,6E0,-1.9406285E-3,3.1536E6,6.0316124E-3,-4.987884E-4,-6.574103E-4,1.348975E-3,-1.3244306E-3,-3.2039627E-3,1.14482045E-2,-2.3718425E-3],"split_indices":[2,0,1,0,1,1,1,0,0,0,2,2,0,2,0,0,2,0,0,0,0,0,0,0,0,0,0],"split_type":[0,0,0,0,0,0,0,0,0,0,0,0,0,0,0,0,0,0,0,0,0,0,0,0,0,0,0],"sum_hessian":[7.2E1,3.1E1,4.1E1,2.8E1,3E0,1.8E1,2.3E1,1E0,2E0,1E0,1.7E1,1.2E1,1.1E1,1.3E1,4E0,3E0,9E0,6E0,5E0,6E0,7E0,2E0,1E0,4E0,5E0,3E0,2E0],"tree_param":{"num_deleted":"0","num_feature":"3","num_nodes":"27","size_leaf_vector":"1"}},{"base_weights":[2.170121E-3,-3.2809243E-1,2.5374705E-1,-3.6154946E-3,-3.5056695E-3,5.608833E-1,2.4762005E-5,6.4655807E-4,-4.77781E-4,1.2408452E-2,4.5417175E-1,-1.915952E-1,2.07611E-1,2.7074283E-1,8.769384E-3,1.8134452E-2,-2.5632754E-1,-1.9239949E-3,6.39688E-1,5.979913E-3,-4.9442414E-4,-6.530274E-4,1.3422301E-3,-1.3138351E-3,-3.1772628E-3,1.1362342E-2,-2.35603E-3],"categories":[],"categories_nodes":[],"categories_segments":[],"categories_sizes":[],"default_left":[0,0,0,0,0,0,0,0,0,0,0,0,0,0,0,0,0,0,0,0,0,0,0,0,0,0,0],"id":6,"left_children":[1,3,5,-1,7,9,11,-1,-1,-1,13,15,17,19,-1,21,23,-1,25,-1,-1,-1,-1,-1,-1,-1,-1],"loss_changes":[6.148563E0,3.4624338E-1,3.2729325E0,0E0,1.5159829E-2,8.1507874E-1,9.9444115E-1,0E0,0E0,0E0,1.1584322E0,1.8114015E-1,2.1970997E0,1.4964881E0,0E0,4.7509544E-2,3.4970045E-2,0E0,2.8754356E0,0E0,0E0,0E0,0E0,0E0,0E0,0E0,0E0],"parents":[2147483647,0,0,1,1,2,2,4,4,5,5,6,6,10,10,11,11,12,12,13,13,15,15,16,16,18,18],"right_children":[2,4,6,-1,8,10,12,-1,-1,-1,14,16,18,20,-1,22,24,-1,26,-1,-1,-1,-1,-1,-1,-1,-1],"split_conditions":[3E0,5.256E4,6E1,-3.6154946E-3,6E1,1.2E1,7.2E2,6.4655807E-4,-4.77781E-4,1.2408452E-2,6E0,4E0,5.256E4,4E0,8.769384E-3,3.504E4,6E0,-1.9239949E-3,3.1536E6,5.979913E-3,-4.9442414E-4,-6.530274E-4,1.3422301E-3,-1.3138351E-3,-3.1772628E-3,1.1362342E-2,-2.35603E-3],"split_indices":[2,0,1,0,1,1,1,0,0,0,2,2,0,2,0,0,2,0,0,0,0,0,0,0,0,0,0],"split_type":[0,0,0,0,0,0,0,0,0,0,0,0,0,0,0,0,0,0,0,0,0,0,0,0,0,0,0],"sum_hessian":[7.2E1,3.1E1,4.1E1,2.8E1,3E0,1.8E1,2.3E1,1E0,2E0,1E0,1.7E1,1.2E1,1.1E1,1.3E1,4E0,3E0,9E0,6E0,5E0,6E0,7E0,2E0,1E0,4E0,5E0,3E0,2E0],"tree_param":{"num_deleted":"0","num_feature":"3","num_nodes":"27","size_leaf_vector":"1"}},{"base_weights":[2.5113947E-3,-3.249192E-1,2.5192252E-1,-3.5805865E-3,-3.428407E-3,5.5667776E-1,1.6119827E-4,6.4332545E-4,-4.7459573E-4,1.2346409E-2,4.50422E-1,-1.899717E-1,2.0612508E-1,2.6842722E-1,8.699229E-3,1.8125407E-2,-2.5421336E-1,-1.9075036E-3,6.347922E-1,5.9286566E-3,-4.9009797E-4,-6.4867386E-4,1.3355189E-3,-1.3033248E-3,-3.1507856E-3,1.1277126E-2,-2.340323E-3],"categories":[],"categories_nodes":[],"categories_segments":[],"categories_sizes":[],"default_left":[0,0,0,0,0,0,0,0,0,0,0,0,0,0,0,0,0,0,0,0,0,0,0,0,0,0,0],"id":7,"left_children":[1,3,5,-1,7,9,11,-1,-1,-1,13,15,17,19,-1,21,23,-1,25,-1,-1,-1,-1,-1,-1,-1,-1],"loss_changes":[6.0433874E0,3.397014E-1,3.2223847E0,0E0,1.498757E-2,8.12603E-1,9.790102E-1,0E0,0E0,0E0,1.1407347E0,1.7839828E-1,2.1626165E0,1.4708991E0,0E0,4.6981428E-2,3.4335375E-2,0E0,2.833489E0,0E0,0E0,0E0,0E0,0E0,0E0,0E0,0E0],"parents":[2147483647,0,0,1,1,2,2,4,4,5,5,6,6,10,10,11,11,12,12,13,13,15,15,16,16,18,18],"right_children":[2,4,6,-1,8,10,12,-1,-1,-1,14,16,18,20,-1,22,24,-1,26,-1,-1,-1,-1,-1,-1,-1,-1],"split_conditions":[3E0,5.256E4,6E1,-3.5805865E-3,6E1,1.2E1,7.2E2,6.4332545E-4,-4.7459573E-4,1.2346409E-2,6E0,4E0,5.256E4,4E0,8.699229E-3,3.504E4,6E0,-1.9075036E-3,3.1536E6,5.9286566E-3,-4.9009797E-4,-6.4867386E-4,1.3355189E-3,-1.3033248E-3,-3.1507856E-3,1.1277126E-2,-2.340323E-3],"split_indices":[2,0,1,0,1,1,1,0,0,0,2,2,0,2,0,0,2,0,0,0,0,0,0,0,0,0,0],"split_type":[0,0,0,0,0,0,0,0,0,0,0,0,0,0,0,0,0,0,0,0,0,0,0,0,0,0,0],"sum_hessian":[7.2E1,3.1E1,4.1E1,2.8E1,3E0,1.8E1,2.3E1,1E0,2E0,1E0,1.7E1,1.2E1,1.1E1,1.3E1,4E0,3E0,9E0,6E0,5E0,6E0,7E0,2E0,1E0,4E0,5E0,3E0,2E0],"tree_param":{"num_deleted":"0","num_feature":"3","num_nodes":"27","size_leaf_vector":"1"}},{"base_weights":[2.847013E-3,-3.2177666E-1,2.5011155E-1,-3.5460156E-3,-3.3519492E-3,5.525049E-1,2.9549748E-4,6.401089E-4,-4.714319E-4,1.2284677E-2,4.467032E-1,-1.8836178E-1,2.046496E-1,2.6613143E-1,8.629634E-3,1.811587E-2,-2.5211668E-1,-1.8911533E-3,6.299338E-1,5.87784E-3,-4.8580984E-4,-6.443494E-4,1.3288414E-3,-1.2928983E-3,-3.124529E-3,1.1192547E-2,-2.324721E-3],"categories":[],"categories_nodes":[],"categories_segments":[],"categories_sizes":[],"default_left":[0,0,0,0,0,0,0,0,0,0,0,0,0,0,0,0,0,0,0,0,0,0,0,0,0,0,0],"id":8,"left_children":[1,3,5,-1,7,9,11,-1,-1,-1,13,15,17,19,-1,21,23,-1,25,-1,-1,-1,-1,-1,-1,-1,-1],"loss_changes":[5.9400377E0,3.3328366E-1,3.1726303E0,0E0,1.4817286E-2,8.1008196E-1,9.638175E-1,0E0,0E0,0E0,1.1233056E0,1.7569876E-1,2.128674E0,1.4457477E0,0E0,4.6459235E-2,3.371221E-2,0E0,2.792155E0,0E0,0E0,0E0,0E0,0E0,0E0,0E0,0E0],"parents":[2147483647,0,0,1,1,2,2,4,4,5,5,6,6,10,10,11,11,12,12,13,13,15,15,16,16,18,18],"right_children":[2,4,6,-1,8,10,12,-1,-1,-1,14,16,18,20,-1,22,24,-1,26,-1,-1,-1,-1,-1,-1,-1,-1],"split_conditions":[3E0,5.256E4,6E1,-3.5460156E-3,6E1,1.2E1,7.2E2,6.401089E-4,-4.714319E-4,1.2284677E-2,6E0,4E0,5.256E4,4E0,8.629634E-3,3.504E4,6E0,-1.8911533E-3,3.1536E6,5.87784E-3,-4.8580984E-4,-6.443494E-4,1.3288414E-3,-1.2928983E-3,-3.124529E-3,1.1192547E-2,-2.324721E-3],"split_indices":[2,0,1,0,1,1,1,0,0,0,2,2,0,2,0,0,2,0,0,0,0,0,0,0,0,0,0],"split_type":[0,0,0,0,0,0,0,0,0,0,0,0,0,0,0,0,0,0,0,0,0,0,0,0,0,0,0],"sum_hessian":[7.2E1,3.1E1,4.1E1,2.8E1,3E0,1.8E1,2.3E1,1E0,2E0,1E0,1.7E1,1.2E1,1.1E1,1.3E1,4E0,3E0,9E0,6E0,5E0,6E0,7E0,2E0,1E0,4E0,5E0,3E0,2E0],"tree_param":{"num_deleted":"0","num_feature":"3","num_nodes":"27","size_leaf_vector":"1"}},{"base_weights":[3.1770642E-3,-3.1866443E-1,2.48314E-1,-3.511778E-3,-3.2762662E-3,5.483644E-1,4.2768815E-4,6.369084E-4,-4.6828913E-4,1.2223253E-2,4.4301513E-1,-1.8676531E-1,2.0318447E-1,2.6385528E-1,8.560597E-3,1.8105827E-2,-2.5003725E-1,-1.8749436E-3,6.2511235E-1,5.8274576E-3,-4.8155876E-4,-6.400538E-4,1.3221973E-3,-1.2825552E-3,-3.0984913E-3,1.1108603E-2,-2.3092232E-3],"categories":[],"categories_nodes":[],"categories_segments":[],"categories_sizes":[],"default_left":[0,0,0,0,0,0,0,0,0,0,0,0,0,0,0,0,0,0,0,0,0,0,0,0,0,0,0],"id":9,"left_children":[1,3,5,-1,7,9,11,-1,-1,-1,13,15,17,19,-1,21,23,-1,25,-1,-1,-1,-1,-1,-1,-1,-1],"loss_changes":[5.8384814E0,3.2698798E-1,3.1236577E0,0E0,1.46489525E-2,8.0751514E-1,9.4885945E-1,0E0,0E0,0E0,1.1061425E0,1.7304087E-1,2.0952647E0,1.4210262E0,0E0,4.59429E-2,3.310007E-2,0E0,2.751425E0,0E0,0E0,0E0,0E0,0E0,0E0,0E0,0E0],"parents":[2147483647,0,0,1,1,2,2,4,4,5,5,6,6,10,10,11,11,12,12,13,13,15,15,16,16,18,18],"right_children":[2,4,6,-1,8,10,12,-1,-1,-1,14,16,18,20,-1,22,24,-1,26,-1,-1,-1,-1,-1,-1,-1,-1],"split_conditions":[3E0,5.256E4,6E1,-3.511778E-3,6E1,1.2E1,7.2E2,6.369084E-4,-4.6828913E-4,1.2223253E-2,6E0,4E0,5.256E4,4E0,8.560597E-3,3.504E4,6E0,-1.8749436E-3,3.1536E6,5.8274576E-3,-4.8155876E-4,-6.400538E-4,1.3221973E-3,-1.2825552E-3,-3.0984913E-3,1.1108603E-2,-2.3092232E-3],"split_indices":[2,0,1,0,1,1,1,0,0,0,2,2,0,2,0,0,2,0,0,0,0,0,0,0,0,0,0],"split_type":[0,0,0,0,0,0,0,0,0,0,0,0,0,0,0,0,0,0,0,0,0,0,0,0,0,0,0],"sum_hessian":[7.2E1,3.1E1,4.1E1,2.8E1,3E0,1.8E1,2.3E1,1E0,2E0,1E0,1.7E1,1.2E1,1.1E1,1.3E1,4E0,3E0,9E0,6E0,5E0,6E0,7E0,2E0,1E0,4E0,5E0,3E0,2E0],"tree_param":{"num_deleted":"0","num_feature":"3","num_nodes":"27","size_leaf_vector":"1"}},{"base_weights":[3.501628E-3,-3.1558225E-1,2.4652979E-1,-3.4778714E-3,-3.2013431E-3,5.44256E-1,5.5781007E-4,6.3372374E-4,-4.6516705E-4,1.2162137E-2,4.3935758E-1,-1.851822E-1,2.0172967E-1,2.6159856E-1,8.492113E-3,1.8095292E-2,-2.4797498E-1,-1.8588728E-3,6.2032783E-1,5.7775085E-3,-4.7734525E-4,-6.357869E-4,1.3155863E-3,-1.2722947E-3,-3.0726707E-3,1.1025289E-2,-2.2938284E-3],"categories":[],"categories_nodes":[],"categories_segments":[],"categories_sizes":[],"default_left":[0,0,0,0,0,0,0,0,0,0,0,0,0,0,0,0,0,0,0,0,0,0,0,0,0,0,0],"id":10,"left_children":[1,3,5,-1,7,9,11,-1,-1,-1,13,15,17,19,-1,21,23,-1,25,-1,-1,-1,-1,-1,-1,-1,-1],"loss_changes":[5.7386856E0,3.208127E-1,3.0754533E0,0E0,1.4482533E-2,8.049059E-1,9.3413264E-1,0E0,0E0,0E0,1.089241E0,1.7042387E-1,2.06238E0,1.3967278E0,0E0,4.5432337E-2,3.2499075E-2,0E0,2.7112894E0,0E0,0E0,0E0,0E0,0E0,0E0,0E0,0E0],"parents":[2147483647,0,0,1,1,2,2,4,4,5,5,6,6,10,10,11,11,12,12,13,13,15,15,16,16,18,18],"right_children":[2,4,6,-1,8,10,12,-1,-1,-1,14,16,18,20,-1,22,24,-1,26,-1,-1,-1,-1,-1,-1,-1,-1],"split_conditions":[3E0,5.256E4,6E1,-3.4778714E-3,6E1,1.2E1,7.2E2,6.3372374E-4,-4.6516705E-4,1.2162137E-2,6E0,4E0,5.256E4,4E0,8.492113E-3,3.504E4,6E0,-1.8588728E-3,3.1536E6,5.7775085E-3,-4.7734525E-4,-6.357869E-4,1.3155863E-3,-1.2722947E-3,-3.0726707E-3,1.1025289E-2,-2.2938284E-3],"split_indices":[2,0,1,0,1,1,1,0,0,0,2,2,0,2,0,0,2,0,0,0,0,0,0,0,0,0,0],"split_type":[0,0,0,0,0,0,0,0,0,0,0,0,0,0,0,0,0,0,0,0,0,0,0,0,0,0,0],"sum_hessian":[7.2E1,3.1E1,4.1E1,2.8E1,3E0,1.8E1,2.3E1,1E0,2E0,1E0,1.7E1,1.2E1,1.1E1,1.3E1,4E0,3E0,9E0,6E0,5E0,6E0,7E0,2E0,1E0,4E0,5E0,3E0,2E0],"tree_param":{"num_deleted":"0","num_feature":"3","num_nodes":"27","size_leaf_vector":"1"}},{"base_weights":[3.8207623E-3,-3.1252986E-1,2.4475883E-1,-3.444292E-3,-3.127195E-3,5.4017943E-1,6.8588305E-4,6.3055515E-4,-4.6206603E-4,1.2101327E-2,4.3573025E-1,-1.836123E-1,2.0028509E-1,2.5936115E-1,8.424176E-3,1.8084295E-2,-2.459297E-1,-1.8429395E-3,6.155798E-1,5.7279863E-3,-4.731682E-4,-6.3154823E-4,1.3090082E-3,-1.2621161E-3,-3.047065E-3,1.0942598E-2,-2.2785363E-3],"categories":[],"categories_nodes":[],"categories_segments":[],"categories_sizes":[],"default_left":[0,0,0,0,0,0,0,0,0,0,0,0,0,0,0,0,0,0,0,0,0,0,0,0,0,0,0],"id":11,"left_children":[1,3,5,-1,7,9,11,-1,-1,-1,13,15,17,19,-1,21,23,-1,25,-1,-1,-1,-1,-1,-1,-1,-1],"loss_changes":[5.6406207E0,3.1475472E-1,3.0280054E0,0E0,1.4318029E-2,8.022542E-1,9.196333E-1,0E0,0E0,0E0,1.0725973E0,1.6784713E-1,2.0300112E0,1.3728443E0,0E0,4.4927485E-2,3.190899E-2,0E0,2.6717398E0,0E0,0E0,0E0,0E0,0E0,0E0,0E0,0E0],"parents":[2147483647,0,0,1,1,2,2,4,4,5,5,6,6,10,10,11,11,12,12,13,13,15,15,16,16,18,18],"right_children":[2,4,6,-1,8,10,12,-1,-1,-1,14,16,18,20,-1,22,24,-1,26,-1,-1,-1,-1,-1,-1,-1,-1],"split_conditions":[3E0,5.256E4,6E1,-3.444292E-3,6E1,1.2E1,7.2E2,6.3055515E-4,-4.6206603E-4,1.2101327E-2,6E0,4E0,5.256E4,4E0,8.424176E-3,3.504E4,6E0,-1.8429395E-3,3.1536E6,5.7279863E-3,-4.731682E-4,-6.3154823E-4,1.3090082E-3,-1.2621161E-3,-3.047065E-3,1.0942598E-2,-2.2785363E-3],"split_indices":[2,0,1,0,1,1,1,0,0,0,2,2,0,2,0,0,2,0,0,0,0,0,0,0,0,0,0],"split_type":[0,0,0,0,0,0,0,0,0,0,0,0,0,0,0,0,0,0,0,0,0,0,0,0,0,0,0],"sum_hessian":[7.2E1,3.1E1,4.1E1,2.8E1,3E0,1.8E1,2.3E1,1E0,2E0,1E0,1.7E1,1.2E1,1.1E1,1.3E1,4E0,3E0,9E0,6E0,5E0,6E0,7E0,2E0,1E0,4E0,5E0,3E0,2E0],"tree_param":{"num_deleted":"0","num_feature":"3","num_nodes":"27","size_leaf_vector":"1"}},{"base_weights":[4.134526E-3,-3.095069E-1,2.4300098E-1,-3.4110365E-3,-3.0538067E-3,5.361345E-1,8.119096E-4,6.2740233E-4,-4.5898565E-4,1.204082E-2,4.3213287E-1,-1.8205553E-1,1.9885066E-1,2.5714284E-1,8.356783E-3,1.8072821E-2,-2.4390133E-1,-1.8271431E-3,6.10868E-1,5.678889E-3,-4.6902822E-4,-6.273378E-4,1.3024631E-3,-1.2520191E-3,-3.0216728E-3,1.086053E-2,-2.2633462E-3],"categories":[],"categories_nodes":[],"categories_segments":[],"categories_sizes":[],"default_left":[0,0,0,0,0,0,0,0,0,0,0,0,0,0,0,0,0,0,0,0,0,0,0,0,0,0,0],"id":12,"left_children":[1,3,5,-1,7,9,11,-1,-1,-1,13,15,17,19,-1,21,23,-1,25,-1,-1,-1,-1,-1,-1,-1,-1],"loss_changes":[5.544255E0,3.0881166E-1,2.9813015E0,0E0,1.41554065E-2,7.995615E-1,9.05358E-1,0E0,0E0,0E0,1.0562072E0,1.6531023E-1,1.9981511E0,1.3493698E0,0E0,4.4428278E-2,3.1329513E-2,0E0,2.6327682E0,0E0,0E0,0E0,0E0,0E0,0E0,0E0,0E0],"parents":[2147483647,0,0,1,1,2,2,4,4,5,5,6,6,10,10,11,11,12,12,13,13,15,15,16,16,18,18],"right_children":[2,4,6,-1,8,10,12,-1,-1,-1,14,16,18,20,-1,22,24,-1,26,-1,-1,-1,-1,-1,-1,-1,-1],"split_conditions":[3E0,5.256E4,6E1,-3.4110365E-3,6E1,1.2E1,7.2E2,6.2740233E-4,-4.5898565E-4,1.204082E-2,6E0,4E0,5.256E4,4E0,8.356783E-3,3.504E4,6E0,-1.8271431E-3,3.1536E6,5.678889E-3,-4.6902822E-4,-6.273378E-4,1.3024631E-3,-1.2520191E-3,-3.0216728E-3,1.086053E-2,-2.2633462E-3],"split_indices":[2,0,1,0,1,1,1,0,0,0,2,2,0,2,0,0,2,0,0,0,0,0,0,0,0,0,0],"split_type":[0,0,0,0,0,0,0,0,0,0,0,0,0,0,0,0,0,0,0,0,0,0,0,0,0,0,0],"sum_hessian":[7.2E1,3.1E1,4.1E1,2.8E1,3E0,1.8E1,2.3E1,1E0,2E0,1E0,1.7E1,1.2E1,1.1E1,1.3E1,4E0,3E0,9E0,6E0,5E0,6E0,7E0,2E0,1E0,4E0,5E0,3E0,2E0],"tree_param":{"num_deleted":"0","num_feature":"3","num_nodes":"27","size_leaf_vector":"1"}},{"base_weights":[4.442995E-3,-3.0651316E-1,2.4125618E-1,-3.378102E-3,-2.9811487E-3,5.321209E-1,9.359221E-4,6.2426535E-4,-4.5592556E-4,1.1980616E-2,4.2856523E-1,-1.8051182E-1,1.974263E-1,2.5494358E-1,8.289928E-3,1.806087E-2,-2.418897E-1,-1.811482E-3,6.061922E-1,5.6302133E-3,-4.6492423E-4,-6.231555E-4,1.2959507E-3,-1.242003E-3,-2.9964924E-3,1.0779075E-2,-2.2482572E-3],"categories":[],"categories_nodes":[],"categories_segments":[],"categories_sizes":[],"default_left":[0,0,0,0,0,0,0,0,0,0,0,0,0,0,0,0,0,0,0,0,0,0,0,0,0,0,0],"id":13,"left_children":[1,3,5,-1,7,9,11,-1,-1,-1,13,15,17,19,-1,21,23,-1,25,-1,-1,-1,-1,-1,-1,-1,-1],"loss_changes":[5.4495597E0,3.029821E-1,2.9353306E0,0E0,1.399464E-2,7.968297E-1,8.913034E-1,0E0,0E0,0E0,1.040066E0,1.6281235E-1,1.9667907E0,1.3262963E0,0E0,4.393467E-2,3.0760407E-2,0E0,2.594365E0,0E0,0E0,0E0,0E0,0E0,0E0,0E0,0E0],"parents":[2147483647,0,0,1,1,2,2,4,4,5,5,6,6,10,10,11,11,12,12,13,13,15,15,16,16,18,18],"right_children":[2,4,6,-1,8,10,12,-1,-1,-1,14,16,18,20,-1,22,24,-1,26,-1,-1,-1,-1,-1,-1,-1,-1],"split_conditions":[3E0,5.256E4,6E1,-3.378102E-3,6E1,1.2E1,7.2E2,6.2426535E-4,-4.5592556E-4,1.1980616E-2,6E0,4E0,5.256E4,4E0,8.289928E-3,3.504E4,6E0,-1.811482E-3,3.1536E6,5.6302133E-3,-4.6492423E-4,-6.231555E-4,1.2959507E-3,-1.242003E-3,-2.9964924E-3,1.0779075E-2,-2.2482572E-3],"split_indices":[2,0,1,0,1,1,1,0,0,0,2,2,0,2,0,0,2,0,0,0,0,0,0,0,0,0,0],"split_type":[0,0,0,0,0,0,0,0,0,0,0,0,0,0,0,0,0,0,0,0,0,0,0,0,0,0,0],"sum_hessian":[7.2E1,3.1E1,4.1E1,2.8E1,3E0,1.8E1,2.3E1,1E0,2E0,1E0,1.7E1,1.2E1,1.1E1,1.3E1,4E0,3E0,9E0,6E0,5E0,6E0,7E0,2E0,1E0,4E0,5E0,3E0,2E0],"tree_param":{"num_deleted":"0","num_feature":"3","num_nodes":"27","size_leaf_vector":"1"}},{"base_weights":[4.7462336E-3,-3.0354834E-1,2.3952432E-1,-3.3454858E-3,-2.9092506E-3,5.2813846E-1,1.0579725E-3,6.2114414E-4,-4.528861E-4,1.1920713E-2,4.250271E-1,-1.7898098E-1,1.96012E-1,2.527631E-1,8.223608E-3,1.8048473E-2,-2.3989466E-1,-1.7959548E-3,6.0155207E-1,5.5819545E-3,-4.6085622E-4,-6.190011E-4,1.289471E-3,-1.2320671E-3,-2.9715216E-3,1.0698233E-2,-2.233269E-3],"categories":[],"categories_nodes":[],"categories_segments":[],"categories_sizes":[],"default_left":[0,0,0,0,0,0,0,0,0,0,0,0,0,0,0,0,0,0,0,0,0,0,0,0,0,0,0],"id":14,"left_children":[1,3,5,-1,7,9,11,-1,-1,-1,13,15,17,19,-1,21,23,-1,25,-1,-1,-1,-1,-1,-1,-1,-1],"loss_changes":[5.356506E0,2.9726315E-1,2.8900805E0,0E0,1.3835723E-2,7.940588E-1,8.77466E-1,0E0,0E0,0E0,1.0241711E0,1.60353E-1,1.9359225E0,1.303618E0,0E0,4.3446593E-2,3.0201435E-2,0E0,2.5565228E0,0E0,0E0,0E0,0E0,0E0,0E0,0E0,0E0],"parents":[2147483647,0,0,1,1,2,2,4,4,5,5,6,6,10,10,11,11,12,12,13,13,15,15,16,16,18,18],"right_children":[2,4,6,-1,8,10,12,-1,-1,-1,14,16,18,20,-1,22,24,-1,26,-1,-1,-1,-1,-1,-1,-1,-1],"split_conditions":[3E0,5.256E4,6E1,-3.3454858E-3,6E1,1.2E1,7.2E2,6.2114414E-4,-4.528861E-4,1.1920713E-2,6E0,4E0,5.256E4,4E0,8.223608E-3,3.504E4,6E0,-1.7959548E-3,3.1536E6,5.5819545E-3,-4.6085622E-4,-6.190011E-4,1.289471E-3,-1.2320671E-3,-2.9715216E-3,1.0698233E-2,-2.233269E-3],"split_indices":[2,0,1,0,1,1,1,0,0,0,2,2,0,2,0,0,2,0,0,0,0,0,0,0,0,0,0],"split_type":[0,0,0,0,0,0,0,0,0,0,0,0,0,0,0,0,0,0,0,0,0,0,0,0,0,0,0],"sum_hessian":[7.2E1,3.1E1,4.1E1,2.8E1,3E0,1.8E1,2.3E1,1E0,2E0,1E0,1.7E1,1.2E1,1.1E1,1.3E1,4E0,3E0,9E0,6E0,5E0,6E0,7E0,2E0,1E0,4E0,5E0,3E0,2E0],"tree_param":{"num_deleted":"0","num_feature":"3","num_nodes":"27","size_leaf_vector":"1"}},{"base_weights":[5.0443085E-3,-3.0061212E-1,2.378053E-1,-3.3131847E-3,-2.8380975E-3,5.241868E-1,1.1780584E-3,6.1803847E-4,-4.4986693E-4,1.1861109E-2,4.2151818E-1,-1.7746294E-1,1.9460763E-1,2.5060123E-1,8.1578195E-3,1.8035598E-2,-2.3791605E-1,-1.780561E-3,5.969474E-1,5.5341087E-3,-4.5682365E-4,-6.148745E-4,1.2830236E-3,-1.2222105E-3,-2.9467589E-3,1.0617997E-2,-2.2183803E-3],"categories":[],"categories_nodes":[],"categories_segments":[],"categories_sizes":[],"default_left":[0,0,0,0,0,0,0,0,0,0,0,0,0,0,0,0,0,0,0,0,0,0,0,0,0,0,0],"id":15,"left_children":[1,3,5,-1,7,9,11,-1,-1,-1,13,15,17,19,-1,21,23,-1,25,-1,-1,-1,-1,-1,-1,-1,-1],"loss_changes":[5.2650647E0,2.9165316E-1,2.8455403E0,0E0,1.367862E-2,7.912512E-1,8.638425E-1,0E0,0E0,0E0,1.0085187E0,1.5793142E-1,1.9055393E0,1.2813265E0,0E0,4.296398E-2,2.9652715E-2,0E0,2.519233E0,0E0,0E0,0E0,0E0,0E0,0E0,0E0,0E0],"parents":[2147483647,0,0,1,1,2,2,4,4,5,5,6,6,10,10,11,11,12,12,13,13,15,15,16,16,18,18],"right_children":[2,4,6,-1,8,10,12,-1,-1,-1,14,16,18,20,-1,22,24,-1,26,-1,-1,-1,-1,-1,-1,-1,-1],"split_conditions":[3E0,5.256E4,6E1,-3.3131847E-3,6E1,1.2E1,7.2E2,6.1803847E-4,-4.4986693E-4,1.1861109E-2,6E0,4E0,5.256E4,4E0,8.1578195E-3,3.504E4,6E0,-1.780561E-3,3.1536E6,5.5341087E-3,-4.5682365E-4,-6.148745E-4,1.2830236E-3,-1.2222105E-3,-2.9467589E-3,1.0617997E-2,-2.2183803E-3],"split_indices":[2,0,1,0,1,1,1,0,0,0,2,2,0,2,0,0,2,0,0,0,0,0,0,0,0,0,0],"split_type":[0,0,0,0,0,0,0,0,0,0,0,0,0,0,0,0,0,0,0,0,0,0,0,0,0,0,0],"sum_hessian":[7.2E1,3.1E1,4.1E1,2.8E1,3E0,1.8E1,2.3E1,1E0,2E0,1E0,1.7E1,1.2E1,1.1E1,1.3E1,4E0,3E0,9E0,6E0,5E0,6E0,7E0,2E0,1E0,4E0,5E0,3E0,2E0],"tree_param":{"num_deleted":"0","num_feature":"3","num_nodes":"27","size_leaf_vector":"1"}},{"base_weights":[5.3372816E-3,-2.9770428E-1,2.3609902E-1,-3.2811954E-3,-2.7676597E-3,5.202658E-1,1.2961999E-3,6.149483E-4,-4.4686763E-4,1.1801804E-2,4.1803828E-1,-1.7595762E-1,1.9321315E-1,2.4845788E-1,8.092558E-3,1.8022276E-2,-2.3595381E-1,-1.765299E-3,5.9237784E-1,5.4866737E-3,-4.5282659E-4,-6.107752E-4,1.2766083E-3,-1.212433E-3,-2.9222027E-3,1.0538361E-2,-2.2035912E-3],"categories":[],"categories_nodes":[],"categories_segments":[],"categories_sizes":[],"default_left":[0,0,0,0,0,0,0,0,0,0,0,0,0,0,0,0,0,0,0,0,0,0,0,0,0,0,0],"id":16,"left_children":[1,3,5,-1,7,9,11,-1,-1,-1,13,15,17,19,-1,21,23,-1,25,-1,-1,-1,-1,-1,-1,-1,-1],"loss_changes":[5.1752067E0,2.8615022E-1,2.801699E0,0E0,1.35233095E-2,7.884064E-1,8.504296E-1,0E0,0E0,0E0,9.931047E-1,1.5554711E-1,1.875633E0,1.2594167E0,0E0,4.248676E-2,2.911377E-2,0E0,2.4824872E0,0E0,0E0,0E0,0E0,0E0,0E0,0E0,0E0],"parents":[2147483647,0,0,1,1,2,2,4,4,5,5,6,6,10,10,11,11,12,12,13,13,15,15,16,16,18,18],"right_children":[2,4,6,-1,8,10,12,-1,-1,-1,14,16,18,20,-1,22,24,-1,26,-1,-1,-1,-1,-1,-1,-1,-1],"split_conditions":[3E0,5.256E4,6E1,-3.2811954E-3,6E1,1.2E1,7.2E2,6.149483E-4,-4.4686763E-4,1.1801804E-2,6E0,4E0,5.256E4,4E0,8.092558E-3,3.504E4,6E0,-1.765299E-3,3.1536E6,5.4866737E-3,-4.5282659E-4,-6.107752E-4,1.2766083E-3,-1.212433E-3,-2.9222027E-3,1.0538361E-2,-2.2035912E-3],"split_indices":[2,0,1,0,1,1,1,0,0,0,2,2,0,2,0,0,2,0,0,0,0,0,0,0,0,0,0],"split_type":[0,0,0,0,0,0,0,0,0,0,0,0,0,0,0,0,0,0,0,0,0,0,0,0,0,0,0],"sum_hessian":[7.2E1,3.1E1,4.1E1,2.8E1,3E0,1.8E1,2.3E1,1E0,2E0,1E0,1.7E1,1.2E1,1.1E1,1.3E1,4E0,3E0,9E0,6E0,5E0,6E0,7E0,2E0,1E0,4E0,5E0,3E0,2E0],"tree_param":{"num_deleted":"0","num_feature":"3","num_nodes":"27","size_leaf_vector":"1"}},{"base_weights":[5.6252237E-3,-2.948245E-1,2.3440538E-1,-3.2495146E-3,-2.697967E-3,5.163751E-1,1.4124289E-3,6.118736E-4,-4.438886E-4,1.1742796E-2,4.1458714E-1,-1.7446488E-1,1.9182849E-1,2.4633287E-1,8.027817E-3,1.8008508E-2,-2.3400776E-1,-1.7501677E-3,5.8784324E-1,5.439645E-3,-4.4886442E-4,-6.0670346E-4,1.2702253E-3,-1.2027336E-3,-2.8978512E-3,1.0459324E-2,-2.1889007E-3],"categories":[],"categories_nodes":[],"categories_segments":[],"categories_sizes":[],"default_left":[0,0,0,0,0,0,0,0,0,0,0,0,0,0,0,0,0,0,0,0,0,0,0,0,0,0,0],"id":17,"left_children":[1,3,5,-1,7,9,11,-1,-1,-1,13,15,17,19,-1,21,23,-1,25,-1,-1,-1,-1,-1,-1,-1,-1],"loss_changes":[5.0869055E0,2.8075147E-1,2.7585433E0,0E0,1.3369783E-2,7.855272E-1,8.372241E-1,0E0,0E0,0E0,9.779258E-1,1.5319961E-1,1.8461958E0,1.2378819E0,0E0,4.2014897E-2,2.85846E-2,0E0,2.4462793E0,0E0,0E0,0E0,0E0,0E0,0E0,0E0,0E0],"parents":[2147483647,0,0,1,1,2,2,4,4,5,5,6,6,10,10,11,11,12,12,13,13,15,15,16,16,18,18],"right_children":[2,4,6,-1,8,10,12,-1,-1,-1,14,16,18,20,-1,22,24,-1,26,-1,-1,-1,-1,-1,-1,-1,-1],"split_conditions":[3E0,5.256E4,6E1,-3.2495146E-3,6E1,1.2E1,7.2E2,6.118736E-4,-4.438886E-4,1.1742796E-2,6E0,4E0,5.256E4,4E0,8.027817E-3,3.504E4,6E0,-1.7501677E-3,3.1536E6,5.439645E-3,-4.4886442E-4,-6.0670346E-4,1.2702253E-3,-1.2027336E-3,-2.8978512E-3,1.0459324E-2,-2.1889007E-3],"split_indices":[2,0,1,0,1,1,1,0,0,0,2,2,0,2,0,0,2,0,0,0,0,0,0,0,0,0,0],"split_type":[0,0,0,0,0,0,0,0,0,0,0,0,0,0,0,0,0,0,0,0,0,0,0,0,0,0,0],"sum_hessian":[7.2E1,3.1E1,4.1E1,2.8E1,3E0,1.8E1,2.3E1,1E0,2E0,1E0,1.7E1,1.2E1,1.1E1,1.3E1,4E0,3E0,9E0,6E0,5E0,6E0,7E0,2E0,1E0,4E0,5E0,3E0,2E0],"tree_param":{"num_deleted":"0","num_feature":"3","num_nodes":"27","size_leaf_vector":"1"}},{"base_weights":[5.9081973E-3,-2.9197258E-1,2.327243E-1,-3.21814E-3,-2.6290044E-3,5.1251465E-1,1.526773E-3,6.0881407E-4,-4.409294E-4,1.16840815E-2,4.1116455E-1,-1.7298461E-1,1.9045354E-1,2.4422602E-1,7.963595E-3,1.7994307E-2,-2.3207772E-1,-1.7351663E-3,5.8334315E-1,5.39302E-3,-4.449367E-4,-6.0265866E-4,1.2638741E-3,-1.1931115E-3,-2.8737022E-3,1.0380878E-2,-2.174308E-3],"categories":[],"categories_nodes":[],"categories_segments":[],"categories_sizes":[],"default_left":[0,0,0,0,0,0,0,0,0,0,0,0,0,0,0,0,0,0,0,0,0,0,0,0,0,0,0],"id":18,"left_children":[1,3,5,-1,7,9,11,-1,-1,-1,13,15,17,19,-1,21,23,-1,25,-1,-1,-1,-1,-1,-1,-1,-1],"loss_changes":[5.0001326E0,2.7545595E-1,2.7160642E0,0E0,1.3218007E-2,7.826147E-1,8.2422245E-1,0E0,0E0,0E0,9.629779E-1,1.5088812E-1,1.8172208E0,1.2167149E0,0E0,4.1548304E-2,2.8065026E-2,0E0,2.4105985E0,0E0,0E0,0E0,0E0,0E0,0E0,0E0,0E0],"parents":[2147483647,0,0,1,1,2,2,4,4,5,5,6,6,10,10,11,11,12,12,13,13,15,15,16,16,18,18],"right_children":[2,4,6,-1,8,10,12,-1,-1,-1,14,16,18,20,-1,22,24,-1,26,-1,-1,-1,-1,-1,-1,-1,-1],"split_conditions":[3E0,5.256E4,6E1,-3.21814E-3,6E1,1.2E1,7.2E2,6.0881407E-4,-4.409294E-4,1.16840815E-2,6E0,4E0,5.256E4,4E0,7.963595E-3,3.504E4,6E0,-1.7351663E-3,3.1536E6,5.39302E-3,-4.449367E-4,-6.0265866E-4,1.2638741E-3,-1.1931115E-3,-2.8737022E-3,1.0380878E-2,-2.174308E-3],"split_indices":[2,0,1,0,1,1,1,0,0,0,2,2,0,2,0,0,2,0,0,0,0,0,0,0,0,0,0],"split_type":[0,0,0,0,0,0,0,0,0,0,0,0,0,0,0,0,0,0,0,0,0,0,0,0,0,0,0],"sum_hessian":[7.2E1,3.1E1,4.1E1,2.8E1,3E0,1.8E1,2.3E1,1E0,2E0,1E0,1.7E1,1.2E1,1.1E1,1.3E1,4E0,3E0,9E0,6E0,5E0,6E0,7E0,2E0,1E0,4E0,5E0,3E0,2E0],"tree_param":{"num_deleted":"0","num_feature":"3","num_nodes":"27","size_leaf_vector":"1"}},{"base_weights":[6.186262E-3,-2.8914815E-1,2.3105568E-1,-3.1870683E-3,-2.5607273E-3,5.08684E-1,1.6392507E-3,6.0577004E-4,-4.3798971E-4,1.16256615E-2,4.0777022E-1,-1.7151675E-1,1.8908831E-1,2.4213721E-1,7.899886E-3,1.7979674E-2,-2.3016365E-1,-1.7202935E-3,5.7887757E-1,5.346793E-3,-4.410434E-4,-5.9864094E-4,1.2575549E-3,-1.1835666E-3,-2.849755E-3,1.0303022E-2,-2.1598125E-3],"categories":[],"categories_nodes":[],"categories_segments":[],"categories_sizes":[],"default_left":[0,0,0,0,0,0,0,0,0,0,0,0,0,0,0,0,0,0,0,0,0,0,0,0,0,0,0],"id":19,"left_children":[1,3,5,-1,7,9,11,-1,-1,-1,13,15,17,19,-1,21,23,-1,25,-1,-1,-1,-1,-1,-1,-1,-1],"loss_changes":[4.9148617E0,2.7026057E-1,2.674251E0,0E0,1.3067968E-2,7.796693E-1,8.114221E-1,0E0,0E0,0E0,9.482577E-1,1.4861217E-1,1.7887014E0,1.1959099E0,0E0,4.108694E-2,2.755475E-2,0E0,2.3754392E0,0E0,0E0,0E0,0E0,0E0,0E0,0E0,0E0],"parents":[2147483647,0,0,1,1,2,2,4,4,5,5,6,6,10,10,11,11,12,12,13,13,15,15,16,16,18,18],"right_children":[2,4,6,-1,8,10,12,-1,-1,-1,14,16,18,20,-1,22,24,-1,26,-1,-1,-1,-1,-1,-1,-1,-1],"split_conditions":[3E0,5.256E4,6E1,-3.1870683E-3,6E1,1.2E1,7.2E2,6.0577004E-4,-4.3798971E-4,1.16256615E-2,6E0,4E0,5.256E4,4E0,7.899886E-3,3.504E4,6E0,-1.7202935E-3,3.1536E6,5.346793E-3,-4.410434E-4,-5.9864094E-4,1.2575549E-3,-1.1835666E-3,-2.849755E-3,1.0303022E-2,-2.1598125E-3],"split_indices":[2,0,1,0,1,1,1,0,0,0,2,2,0,2,0,0,2,0,0,0,0,0,0,0,0,0,0],"split_type":[0,0,0,0,0,0,0,0,0,0,0,0,0,0,0,0,0,0,0,0,0,0,0,0,0,0,0],"sum_hessian":[7.2E1,3.1E1,4.1E1,2.8E1,3E0,1.8E1,2.3E1,1E0,2E0,1E0,1.7E1,1.2E1,1.1E1,1.3E1,4E0,3E0,9E0,6E0,5E0,6E0,7E0,2E0,1E0,4E0,5E0,3E0,2E0],"tree_param":{"num_deleted":"0","num_feature":"3","num_nodes":"27","size_leaf_vector":"1"}},{"base_weights":[6.459474E-3,-2.8635103E-1,2.293994E-1,-3.1562964E-3,-2.4931803E-3,5.0488305E-1,1.7498893E-3,6.027412E-4,-4.350699E-4,1.1567533E-2,4.0440392E-1,-1.7006114E-1,1.8773268E-1,2.4006623E-1,7.836686E-3,1.7964624E-2,-2.2826533E-1,-1.705548E-3,5.7444596E-1,5.300964E-3,-4.3718453E-4,-5.946498E-4,1.2512672E-3,-1.1740981E-3,-2.8260069E-3,1.022575E-2,-2.1454135E-3],"categories":[],"categories_nodes":[],"categories_segments":[],"categories_sizes":[],"default_left":[0,0,0,0,0,0,0,0,0,0,0,0,0,0,0,0,0,0,0,0,0,0,0,0,0,0,0],"id":20,"left_children":[1,3,5,-1,7,9,11,-1,-1,-1,13,15,17,19,-1,21,23,-1,25,-1,-1,-1,-1,-1,-1,-1,-1],"loss_changes":[4.831067E0,2.651639E-1,2.6330922E0,0E0,1.291965E-2,7.766919E-1,7.9881954E-1,0E0,0E0,0E0,9.3376255E-1,1.4637125E-1,1.760629E0,1.1754607E0,0E0,4.0630735E-2,2.7053654E-2,0E0,2.3407936E0,0E0,0E0,0E0,0E0,0E0,0E0,0E0,0E0],"parents":[2147483647,0,0,1,1,2,2,4,4,5,5,6,6,10,10,11,11,12,12,13,13,15,15,16,16,18,18],"right_children":[2,4,6,-1,8,10,12,-1,-1,-1,14,16,18,20,-1,22,24,-1,26,-1,-1,-1,-1,-1,-1,-1,-1],"split_conditions":[3E0,5.256E4,6E1,-3.1562964E-3,6E1,1.2E1,7.2E2,6.027412E-4,-4.350699E-4,1.1567533E-2,6E0,4E0,5.256E4,4E0,7.836686E-3,3.504E4,6E0,-1.705548E-3,3.1536E6,5.300964E-3,-4.3718453E-4,-5.946498E-4,1.2512672E-3,-1.1740981E-3,-2.8260069E-3,1.022575E-2,-2.1454135E-3],"split_indices":[2,0,1,0,1,1,1,0,0,0,2,2,0,2,0,0,2,0,0,0,0,0,0,0,0,0,0],"split_type":[0,0,0,0,0,0,0,0,0,0,0,0,0,0,0,0,0,0,0,0,0,0,0,0,0,0,0],"sum_hessian":[7.2E1,3.1E1,4.1E1,2.8E1,3E0,1.8E1,2.3E1,1E0,2E0,1E0,1.7E1,1.2E1,1.1E1,1.3E1,4E0,3E0,9E0,6E0,5E0,6E0,7E0,2E0,1E0,4E0,5E0,3E0,2E0],"tree_param":{"num_deleted":"0","num_feature":"3","num_nodes":"27","size_leaf_vector":"1"}},{"base_weights":[6.7279027E-3,-2.835809E-1,2.2775538E-1,-3.125822E-3,-2.4263337E-3,5.0111145E-1,1.8586889E-3,5.997276E-4,-4.3216953E-4,1.1509695E-2,4.0106547E-1,-1.6861773E-1,1.8638657E-1,2.38013E-1,7.773993E-3,1.7949142E-2,-2.2638269E-1,-1.6909292E-3,5.700482E-1,5.2555273E-3,-4.3335903E-4,-5.906853E-4,1.2450108E-3,-1.1647054E-3,-2.802457E-3,1.0149057E-2,-2.1311108E-3],"categories":[],"categories_nodes":[],"categories_segments":[],"categories_sizes":[],"default_left":[0,0,0,0,0,0,0,0,0,0,0,0,0,0,0,0,0,0,0,0,0,0,0,0,0,0,0],"id":21,"left_children":[1,3,5,-1,7,9,11,-1,-1,-1,13,15,17,19,-1,21,23,-1,25,-1,-1,-1,-1,-1,-1,-1,-1],"loss_changes":[4.748721E0,2.6016474E-1,2.5925784E0,0E0,1.2773032E-2,7.7368355E-1,7.864117E-1,0E0,0E0,0E0,9.1948795E-1,1.441648E-1,1.7329974E0,1.1553612E0,0E0,4.0179625E-2,2.6561677E-2,0E0,2.306653E0,0E0,0E0,0E0,0E0,0E0,0E0,0E0,0E0],"parents":[2147483647,0,0,1,1,2,2,4,4,5,5,6,6,10,10,11,11,12,12,13,13,15,15,16,16,18,18],"right_children":[2,4,6,-1,8,10,12,-1,-1,-1,14,16,18,20,-1,22,24,-1,26,-1,-1,-1,-1,-1,-1,-1,-1],"split_conditions":[3E0,5.256E4,6E1,-3.125822E-3,6E1,1.2E1,7.2E2,5.997276E-4,-4.3216953E-4,1.1509695E-2,6E0,4E0,5.256E4,4E0,7.773993E-3,3.504E4,6E0,-1.6909292E-3,3.1536E6,5.2555273E-3,-4.3335903E-4,-5.906853E-4,1.2450108E-3,-1.1647054E-3,-2.802457E-3,1.0149057E-2,-2.1311108E-3],"split_indices":[2,0,1,0,1,1,1,0,0,0,2,2,0,2,0,0,2,0,0,0,0,0,0,0,0,0,0],"split_type":[0,0,0,0,0,0,0,0,0,0,0,0,0,0,0,0,0,0,0,0,0,0,0,0,0,0,0],"sum_hessian":[7.2E1,3.1E1,4.1E1,2.8E1,3E0,1.8E1,2.3E1,1E0,2E0,1E0,1.7E1,1.2E1,1.1E1,1.3E1,4E0,3E0,9E0,6E0,5E0,6E0,7E0,2E0,1E0,4E0,5E0,3E0,2E0],"tree_param":{"num_deleted":"0","num_feature":"3","num_nodes":"27","size_leaf_vector":"1"}},{"base_weights":[6.991611E-3,-2.8083757E-1,2.2612356E-1,-3.0956417E-3,-2.3601726E-3,4.9736908E-1,1.965693E-3,5.9672893E-4,-4.2928825E-4,1.1452147E-2,3.9775464E-1,-1.6718636E-1,1.8504995E-1,2.3597734E-1,7.711801E-3,1.7933227E-2,-2.2451557E-1,-1.6764356E-3,5.656841E-1,5.21048E-3,-4.295669E-4,-5.867474E-4,1.2387857E-3,-1.1553875E-3,-2.7791031E-3,1.0072938E-2,-2.1169034E-3],"categories":[],"categories_nodes":[],"categories_segments":[],"categories_sizes":[],"default_left":[0,0,0,0,0,0,0,0,0,0,0,0,0,0,0,0,0,0,0,0,0,0,0,0,0,0,0],"id":22,"left_children":[1,3,5,-1,7,9,11,-1,-1,-1,13,15,17,19,-1,21,23,-1,25,-1,-1,-1,-1,-1,-1,-1,-1],"loss_changes":[4.667801E0,2.5526023E-1,2.5526984E0,0E0,1.26280775E-2,7.706466E-1,7.7419573E-1,0E0,0E0,0E0,9.054308E-1,1.4199215E-1,1.7057993E0,1.1356053E0,0E0,3.9733574E-2,2.6078463E-2,0E0,2.2730117E0,0E0,0E0,0E0,0E0,0E0,0E0,0E0,0E0],"parents":[2147483647,0,0,1,1,2,2,4,4,5,5,6,6,10,10,11,11,12,12,13,13,15,15,16,16,18,18],"right_children":[2,4,6,-1,8,10,12,-1,-1,-1,14,16,18,20,-1,22,24,-1,26,-1,-1,-1,-1,-1,-1,-1,-1],"split_conditions":[3E0,5.256E4,6E1,-3.0956417E-3,6E1,1.2E1,7.2E2,5.9672893E-4,-4.2928825E-4,1.1452147E-2,6E0,4E0,5.256E4,4E0,7.711801E-3,3.504E4,6E0,-1.6764356E-3,3.1536E6,5.21048E-3,-4.295669E-4,-5.867474E-4,1.2387857E-3,-1.1553875E-3,-2.7791031E-3,1.0072938E-2,-2.1169034E-3],"split_indices":[2,0,1,0,1,1,1,0,0,0,2,2,0,2,0,0,2,0,0,0,0,0,0,0,0,0,0],"split_type":[0,0,0,0,0,0,0,0,0,0,0,0,0,0,0,0,0,0,0,0,0,0,0,0,0,0,0],"sum_hessian":[7.2E1,3.1E1,4.1E1,2.8E1,3E0,1.8E1,2.3E1,1E0,2E0,1E0,1.7E1,1.2E1,1.1E1,1.3E1,4E0,3E0,9E0,6E0,5E0,6E0,7E0,2E0,1E0,4E0,5E0,3E0,2E0],"tree_param":{"num_deleted":"0","num_feature":"3","num_nodes":"27","size_leaf_vector":"1"}},{"base_weights":[7.2506545E-3,-2.7812067E-1,2.2450379E-1,-3.0657526E-3,-2.2947118E-3,4.9365565E-1,2.0709087E-3,5.937454E-4,-4.264264E-4,1.1394885E-2,3.9447114E-1,-1.65767E-1,1.8372273E-1,2.3395906E-1,7.650106E-3,1.791691E-2,-2.2266386E-1,-1.6620661E-3,5.613532E-1,5.1658186E-3,-4.2580816E-4,-5.8283575E-4,1.2325918E-3,-1.1461445E-3,-2.7559442E-3,9.997391E-3,-2.1027906E-3],"categories":[],"categories_nodes":[],"categories_segments":[],"categories_sizes":[],"default_left":[0,0,0,0,0,0,0,0,0,0,0,0,0,0,0,0,0,0,0,0,0,0,0,0,0,0,0],"id":23,"left_children":[1,3,5,-1,7,9,11,-1,-1,-1,13,15,17,19,-1,21,23,-1,25,-1,-1,-1,-1,-1,-1,-1,-1],"loss_changes":[4.5882797E0,2.504487E-1,2.5134435E0,0E0,1.24847945E-2,7.67581E-1,7.6216865E-1,0E0,0E0,0E0,8.91588E-1,1.3985297E-1,1.6790284E0,1.1161873E0,0E0,3.9292518E-2,2.560407E-2,0E0,2.2398605E0,0E0,0E0,0E0,0E0,0E0,0E0,0E0,0E0],"parents":[2147483647,0,0,1,1,2,2,4,4,5,5,6,6,10,10,11,11,12,12,13,13,15,15,16,16,18,18],"right_children":[2,4,6,-1,8,10,12,-1,-1,-1,14,16,18,20,-1,22,24,-1,26,-1,-1,-1,-1,-1,-1,-1,-1],"split_conditions":[3E0,5.256E4,6E1,-3.0657526E-3,6E1,1.2E1,7.2E2,5.937454E-4,-4.264264E-4,1.1394885E-2,6E0,4E0,5.256E4,4E0,7.650106E-3,3.504E4,6E0,-1.6620661E-3,3.1536E6,5.1658186E-3,-4.2580816E-4,-5.8283575E-4,1.2325918E-3,-1.1461445E-3,-2.7559442E-3,9.997391E-3,-2.1027906E-3],"split_indices":[2,0,1,0,1,1,1,0,0,0,2,2,0,2,0,0,2,0,0,0,0,0,0,0,0,0,0],"split_type":[0,0,0,0,0,0,0,0,0,0,0,0,0,0,0,0,0,0,0,0,0,0,0,0,0,0,0],"sum_hessian":[7.2E1,3.1E1,4.1E1,2.8E1,3E0,1.8E1,2.3E1,1E0,2E0,1E0,1.7E1,1.2E1,1.1E1,1.3E1,4E0,3E0,9E0,6E0,5E0,6E0,7E0,2E0,1E0,4E0,5E0,3E0,2E0],"tree_param":{"num_deleted":"0","num_feature":"3","num_nodes":"27","size_leaf_vector":"1"}},{"base_weights":[7.5050993E-3,-2.7543002E-1,2.2289602E-1,-3.036152E-3,-2.2299364E-3,4.8997095E-1,2.1743774E-3,5.907768E-4,-4.2358367E-4,1.1337912E-2,3.9121476E-1,-1.6435951E-1,1.824049E-1,2.3195805E-1,7.588906E-3,1.7900176E-2,-2.2082745E-1,-1.6478196E-3,5.570554E-1,5.1215407E-3,-4.2208226E-4,-5.7895033E-4,1.226429E-3,-1.1369754E-3,-2.7329777E-3,9.92241E-3,-2.0887721E-3],"categories":[],"categories_nodes":[],"categories_segments":[],"categories_sizes":[],"default_left":[0,0,0,0,0,0,0,0,0,0,0,0,0,0,0,0,0,0,0,0,0,0,0,0,0,0,0],"id":24,"left_children":[1,3,5,-1,7,9,11,-1,-1,-1,13,15,17,19,-1,21,23,-1,25,-1,-1,-1,-1,-1,-1,-1,-1],"loss_changes":[4.5101333E0,2.4572921E-1,2.474802E0,0E0,1.2343149E-2,7.6448727E-1,7.503277E-1,0E0,0E0,0E0,8.779564E-1,1.3774663E-1,1.6526775E0,1.0971014E0,0E0,3.8856406E-2,2.513814E-2,0E0,2.2071939E0,0E0,0E0,0E0,0E0,0E0,0E0,0E0,0E0],"parents":[2147483647,0,0,1,1,2,2,4,4,5,5,6,6,10,10,11,11,12,12,13,13,15,15,16,16,18,18],"right_children":[2,4,6,-1,8,10,12,-1,-1,-1,14,16,18,20,-1,22,24,-1,26,-1,-1,-1,-1,-1,-1,-1,-1],"split_conditions":[3E0,5.256E4,6E1,-3.036152E-3,6E1,1.2E1,7.2E2,5.907768E-4,-4.2358367E-4,1.1337912E-2,6E0,4E0,5.256E4,4E0,7.588906E-3,3.504E4,6E0,-1.6478196E-3,3.1536E6,5.1215407E-3,-4.2208226E-4,-5.7895033E-4,1.226429E-3,-1.1369754E-3,-2.7329777E-3,9.92241E-3,-2.0887721E-3],"split_indices":[2,0,1,0,1,1,1,0,0,0,2,2,0,2,0,0,2,0,0,0,0,0,0,0,0,0,0],"split_type":[0,0,0,0,0,0,0,0,0,0,0,0,0,0,0,0,0,0,0,0,0,0,0,0,0,0,0],"sum_hessian":[7.2E1,3.1E1,4.1E1,2.8E1,3E0,1.8E1,2.3E1,1E0,2E0,1E0,1.7E1,1.2E1,1.1E1,1.3E1,4E0,3E0,9E0,6E0,5E0,6E0,7E0,2E0,1E0,4E0,5E0,3E0,2E0],"tree_param":{"num_deleted":"0","num_feature":"3","num_nodes":"27","size_leaf_vector":"1"}},{"base_weights":[7.7549876E-3,-2.727654E-1,2.2130015E-1,-3.0068376E-3,-2.1658316E-3,4.8631474E-1,2.2761177E-3,5.8782275E-4,-4.207596E-4,1.1281222E-2,3.879853E-1,-1.6296381E-1,1.8109636E-1,2.2997415E-1,7.5281947E-3,1.788304E-2,-2.1900617E-1,-1.6336954E-3,5.527905E-1,5.077642E-3,-4.1838925E-4,-5.7509076E-4,1.2202968E-3,-1.1278797E-3,-2.710203E-3,9.847993E-3,-2.0748468E-3],"categories":[],"categories_nodes":[],"categories_segments":[],"categories_sizes":[],"default_left":[0,0,0,0,0,0,0,0,0,0,0,0,0,0,0,0,0,0,0,0,0,0,0,0,0,0,0],"id":25,"left_children":[1,3,5,-1,7,9,11,-1,-1,-1,13,15,17,19,-1,21,23,-1,25,-1,-1,-1,-1,-1,-1,-1,-1],"loss_changes":[4.4333386E0,2.4109912E-1,2.4367647E0,0E0,1.2203109E-2,7.613678E-1,7.3867E-1,0E0,0E0,0E0,8.645327E-1,1.3567257E-1,1.6267407E0,1.078342E0,0E0,3.842516E-2,2.4680644E-2,0E0,2.1750045E0,0E0,0E0,0E0,0E0,0E0,0E0,0E0,0E0],"parents":[2147483647,0,0,1,1,2,2,4,4,5,5,6,6,10,10,11,11,12,12,13,13,15,15,16,16,18,18],"right_children":[2,4,6,-1,8,10,12,-1,-1,-1,14,16,18,20,-1,22,24,-1,26,-1,-1,-1,-1,-1,-1,-1,-1],"split_conditions":[3E0,5.256E4,6E1,-3.0068376E-3,6E1,1.2E1,7.2E2,5.8782275E-4,-4.207596E-4,1.1281222E-2,6E0,4E0,5.256E4,4E0,7.5281947E-3,3.504E4,6E0,-1.6336954E-3,3.1536E6,5.077642E-3,-4.1838925E-4,-5.7509076E-4,1.2202968E-3,-1.1278797E-3,-2.710203E-3,9.847993E-3,-2.0748468E-3],"split_indices":[2,0,1,0,1,1,1,0,0,0,2,2,0,2,0,0,2,0,0,0,0,0,0,0,0,0,0],"split_type":[0,0,0,0,0,0,0,0,0,0,0,0,0,0,0,0,0,0,0,0,0,0,0,0,0,0,0],"sum_hessian":[7.2E1,3.1E1,4.1E1,2.8E1,3E0,1.8E1,2.3E1,1E0,2E0,1E0,1.7E1,1.2E1,1.1E1,1.3E1,4E0,3E0,9E0,6E0,5E0,6E0,7E0,2E0,1E0,4E0,5E0,3E0,2E0],"tree_param":{"num_deleted":"0","num_feature":"3","num_nodes":"27","size_leaf_vector":"1"}},{"base_weights":[8.000388E-3,-2.701265E-1,2.1971609E-1,-2.977806E-3,-2.1024123E-3,4.8268676E-1,2.3761329E-3,5.848837E-4,-4.179546E-4,1.1224816E-2,3.8478252E-1,-1.6157977E-1,1.7979702E-1,2.280072E-1,7.467969E-3,1.7865501E-2,-2.171999E-1,-1.6196923E-3,5.485582E-1,5.0341194E-3,-4.1472854E-4,-5.7125697E-4,1.2141955E-3,-1.1188565E-3,-2.6876181E-3,9.774134E-3,-2.0610145E-3],"categories":[],"categories_nodes":[],"categories_segments":[],"categories_sizes":[],"default_left":[0,0,0,0,0,0,0,0,0,0,0,0,0,0,0,0,0,0,0,0,0,0,0,0,0,0,0],"id":26,"left_children":[1,3,5,-1,7,9,11,-1,-1,-1,13,15,17,19,-1,21,23,-1,25,-1,-1,-1,-1,-1,-1,-1,-1],"loss_changes":[4.35787E0,2.36557E-1,2.3993227E0,0E0,1.206468E-2,7.582221E-1,7.2719246E-1,0E0,0E0,0E0,8.5131335E-1,1.3363042E-1,1.601211E0,1.0599031E0,0E0,3.7998743E-2,2.4231404E-2,0E0,2.1432848E0,0E0,0E0,0E0,0E0,0E0,0E0,0E0,0E0],"parents":[2147483647,0,0,1,1,2,2,4,4,5,5,6,6,10,10,11,11,12,12,13,13,15,15,16,16,18,18],"right_children":[2,4,6,-1,8,10,12,-1,-1,-1,14,16,18,20,-1,22,24,-1,26,-1,-1,-1,-1,-1,-1,-1,-1],"split_conditions":[3E0,5.256E4,6E1,-2.977806E-3,6E1,1.2E1,7.2E2,5.848837E-4,-4.179546E-4,1.1224816E-2,6E0,4E0,5.256E4,4E0,7.467969E-3,3.504E4,6E0,-1.6196923E-3,3.1536E6,5.0341194E-3,-4.1472854E-4,-5.7125697E-4,1.2141955E-3,-1.1188565E-3,-2.6876181E-3,9.774134E-3,-2.0610145E-3],"split_indices":[2,0,1,0,1,1,1,0,0,0,2,2,0,2,0,0,2,0,0,0,0,0,0,0,0,0,0],"split_type":[0,0,0,0,0,0,0,0,0,0,0,0,0,0,0,0,0,0,0,0,0,0,0,0,0,0,0],"sum_hessian":[7.2E1,3.1E1,4.1E1,2.8E1,3E0,1.8E1,2.3E1,1E0,2E0,1E0,1.7E1,1.2E1,1.1E1,1.3E1,4E0,3E0,9E0,6E0,5E0,6E0,7E0,2E0,1E0,4E0,5E0,3E0,2E0],"tree_param":{"num_deleted":"0","num_feature":"3","num_nodes":"27","size_leaf_vector":"1"}},{"base_weights":[8.241359E-3,-2.6751304E-1,2.1814373E-1,-2.9490548E-3,-2.0396635E-3,4.7908685E-1,2.4744447E-3,5.8195915E-4,-4.151683E-4,1.1168692E-2,3.816062E-1,-1.6020733E-1,1.7850684E-1,2.2605707E-1,7.408225E-3,1.7847575E-2,-2.1540856E-1,-1.6058092E-3,5.443581E-1,4.9909693E-3,-4.1109967E-4,-5.674486E-4,1.2081244E-3,-1.1099058E-3,-2.6652212E-3,9.700827E-3,-2.0472745E-3],"categories":[],"categories_nodes":[],"categories_segments":[],"categories_sizes":[],"default_left":[0,0,0,0,0,0,0,0,0,0,0,0,0,0,0,0,0,0,0,0,0,0,0,0,0,0,0],"id":27,"left_children":[1,3,5,-1,7,9,11,-1,-1,-1,13,15,17,19,-1,21,23,-1,25,-1,-1,-1,-1,-1,-1,-1,-1],"loss_changes":[4.283706E0,2.321012E-1,2.3624659E0,0E0,1.1927831E-2,7.5505257E-1,7.158925E-1,0E0,0E0,0E0,8.3829594E-1,1.3161954E-1,1.5760818E0,1.0417795E0,0E0,3.757709E-2,2.379033E-2,0E0,2.1120276E0,0E0,0E0,0E0,0E0,0E0,0E0,0E0,0E0],"parents":[2147483647,0,0,1,1,2,2,4,4,5,5,6,6,10,10,11,11,12,12,13,13,15,15,16,16,18,18],"right_children":[2,4,6,-1,8,10,12,-1,-1,-1,14,16,18,20,-1,22,24,-1,26,-1,-1,-1,-1,-1,-1,-1,-1],"split_conditions":[3E0,5.256E4,6E1,-2.9490548E-3,6E1,1.2E1,7.2E2,5.8195915E-4,-4.151683E-4,1.1168692E-2,6E0,4E0,5.256E4,4E0,7.408225E-3,3.504E4,6E0,-1.6058092E-3,3.1536E6,4.9909693E-3,-4.1109967E-4,-5.674486E-4,1.2081244E-3,-1.1099058E-3,-2.6652212E-3,9.700827E-3,-2.0472745E-3],"split_indices":[2,0,1,0,1,1,1,0,0,0,2,2,0,2,0,0,2,0,0,0,0,0,0,0,0,0,0],"split_type":[0,0,0,0,0,0,0,0,0,0,0,0,0,0,0,0,0,0,0,0,0,0,0,0,0,0,0],"sum_hessian":[7.2E1,3.1E1,4.1E1,2.8E1,3E0,1.8E1,2.3E1,1E0,2E0,1E0,1.7E1,1.2E1,1.1E1,1.3E1,4E0,3E0,9E0,6E0,5E0,6E0,7E0,2E0,1E0,4E0,5E0,3E0,2E0],"tree_param":{"num_deleted":"0","num_feature":"3","num_nodes":"27","size_leaf_vector":"1"}},{"base_weights":[8.477954E-3,-2.6492485E-1,2.16583E-1,-2.920581E-3,-1.9775853E-3,4.7551474E-1,2.5710836E-3,5.790493E-4,-4.1240067E-4,1.1112848E-2,3.7845612E-1,-1.5884638E-1,1.7722574E-1,2.2412361E-1,7.3489593E-3,1.7829262E-2,-2.13632E-1,-1.5920451E-3,5.401901E-1,4.948189E-3,-4.075026E-4,-5.636657E-4,1.2020838E-3,-1.1010267E-3,-2.643011E-3,9.6280705E-3,-2.0336262E-3],"categories":[],"categories_nodes":[],"categories_segments":[],"categories_sizes":[],"default_left":[0,0,0,0,0,0,0,0,0,0,0,0,0,0,0,0,0,0,0,0,0,0,0,0,0,0,0],"id":28,"left_children":[1,3,5,-1,7,9,11,-1,-1,-1,13,15,17,19,-1,21,23,-1,25,-1,-1,-1,-1,-1,-1,-1,-1],"loss_changes":[4.2108226E0,2.2773027E-1,2.3261857E0,0E0,1.1792547E-2,7.5185966E-1,7.0476717E-1,0E0,0E0,0E0,8.2547736E-1,1.296396E-1,1.551347E0,1.0239657E0,0E0,3.716015E-2,2.3357123E-2,0E0,2.081227E0,0E0,0E0,0E0,0E0,0E0,0E0,0E0,0E0],"parents":[2147483647,0,0,1,1,2,2,4,4,5,5,6,6,10,10,11,11,12,12,13,13,15,15,16,16,18,18],"right_children":[2,4,6,-1,8,10,12,-1,-1,-1,14,16,18,20,-1,22,24,-1,26,-1,-1,-1,-1,-1,-1,-1,-1],"split_conditions":[3E0,5.256E4,6E1,-2.920581E-3,6E1,1.2E1,7.2E2,5.790493E-4,-4.1240067E-4,1.1112848E-2,6E0,4E0,5.256E4,4E0,7.3489593E-3,3.504E4,6E0,-1.5920451E-3,3.1536E6,4.948189E-3,-4.075026E-4,-5.636657E-4,1.2020838E-3,-1.1010267E-3,-2.643011E-3,9.6280705E-3,-2.0336262E-3],"split_indices":[2,0,1,0,1,1,1,0,0,0,2,2,0,2,0,0,2,0,0,0,0,0,0,0,0,0,0],"split_type":[0,0,0,0,0,0,0,0,0,0,0,0,0,0,0,0,0,0,0,0,0,0,0,0,0,0,0],"sum_hessian":[7.2E1,3.1E1,4.1E1,2.8E1,3E0,1.8E1,2.3E1,1E0,2E0,1E0,1.7E1,1.2E1,1.1E1,1.3E1,4E0,3E0,9E0,6E0,5E0,6E0,7E0,2E0,1E0,4E0,5E0,3E0,2E0],"tree_param":{"num_deleted":"0","num_feature":"3","num_nodes":"27","size_leaf_vector":"1"}},{"base_weights":[8.710225E-3,-2.6236168E-1,2.1503381E-1,-2.8923824E-3,-1.9161478E-3,4.7197026E-1,2.6660599E-3,5.76154E-4,-4.096513E-4,1.1057284E-2,3.7533212E-1,-1.5749681E-1,1.7595367E-1,2.2220671E-1,7.2901677E-3,1.7810576E-2,-2.1187009E-1,-1.5783991E-3,5.360539E-1,4.905776E-3,-4.0393684E-4,-5.599078E-4,1.1960733E-3,-1.0922186E-3,-2.620986E-3,9.5558595E-3,-2.0200685E-3],"categories":[],"categories_nodes":[],"categories_segments":[],"categories_sizes":[],"default_left":[0,0,0,0,0,0,0,0,0,0,0,0,0,0,0,0,0,0,0,0,0,0,0,0,0,0,0],"id":29,"left_children":[1,3,5,-1,7,9,11,-1,-1,-1,13,15,17,19,-1,21,23,-1,25,-1,-1,-1,-1,-1,-1,-1,-1],"loss_changes":[4.139199E0,2.2344208E-1,2.2904723E0,0E0,1.1658808E-2,7.486434E-1,6.938139E-1,0E0,0E0,0E0,8.128536E-1,1.2768999E-1,1.5270003E0,1.0064566E0,0E0,3.674786E-2,2.2931784E-2,0E0,2.0508761E0,0E0,0E0,0E0,0E0,0E0,0E0,0E0,0E0],"parents":[2147483647,0,0,1,1,2,2,4,4,5,5,6,6,10,10,11,11,12,12,13,13,15,15,16,16,18,18],"right_children":[2,4,6,-1,8,10,12,-1,-1,-1,14,16,18,20,-1,22,24,-1,26,-1,-1,-1,-1,-1,-1,-1,-1],"split_conditions":[3E0,5.256E4,6E1,-2.8923824E-3,6E1,1.2E1,7.2E2,5.76154E-4,-4.096513E-4,1.1057284E-2,6E0,4E0,5.256E4,4E0,7.2901677E-3,3.504E4,6E0,-1.5783991E-3,3.1536E6,4.905776E-3,-4.0393684E-4,-5.599078E-4,1.1960733E-3,-1.0922186E-3,-2.620986E-3,9.5558595E-3,-2.0200685E-3],"split_indices":[2,0,1,0,1,1,1,0,0,0,2,2,0,2,0,0,2,0,0,0,0,0,0,0,0,0,0],"split_type":[0,0,0,0,0,0,0,0,0,0,0,0,0,0,0,0,0,0,0,0,0,0,0,0,0,0,0],"sum_hessian":[7.2E1,3.1E1,4.1E1,2.8E1,3E0,1.8E1,2.3E1,1E0,2E0,1E0,1.7E1,1.2E1,1.1E1,1.3E1,4E0,3E0,9E0,6E0,5E0,6E0,7E0,2E0,1E0,4E0,5E0,3E0,2E0],"tree_param":{"num_deleted":"0","num_feature":"3","num_nodes":"27","size_leaf_vector":"1"}},{"base_weights":[8.938236E-3,-2.5982326E-1,2.1349607E-1,-2.864456E-3,-1.855351E-3,4.6845314E-1,2.7594082E-3,5.732733E-4,-4.0692018E-4,1.1001997E-2,3.722339E-1,-1.5615854E-1,1.7469057E-1,2.203062E-1,7.2318465E-3,1.7791517E-2,-2.1012272E-1,-1.56487E-3,5.3194934E-1,4.863727E-3,-4.0040235E-4,-5.56175E-4,1.1900929E-3,-1.0834809E-3,-2.5991446E-3,9.4841905E-3,-2.0066015E-3],"categories":[],"categories_nodes":[],"categories_segments":[],"categories_sizes":[],"default_left":[0,0,0,0,0,0,0,0,0,0,0,0,0,0,0,0,0,0,0,0,0,0,0,0,0,0,0],"id":30,"left_children":[1,3,5,-1,7,9,11,-1,-1,-1,13,15,17,19,-1,21,23,-1,25,-1,-1,-1,-1,-1,-1,-1,-1],"loss_changes":[4.068812E0,2.1923542E-1,2.2553167E0,0E0,1.1526598E-2,7.454052E-1,6.830302E-1,0E0,0E0,0E0,8.0042243E-1,1.257703E-1,1.5030363E0,9.892468E-1,0E0,3.634019E-2,2.2514135E-2,0E0,2.020968E0,0E0,0E0,0E0,0E0,0E0,0E0,0E0,0E0],"parents":[2147483647,0,0,1,1,2,2,4,4,5,5,6,6,10,10,11,11,12,12,13,13,15,15,16,16,18,18],"right_children":[2,4,6,-1,8,10,12,-1,-1,-1,14,16,18,20,-1,22,24,-1,26,-1,-1,-1,-1,-1,-1,-1,-1],"split_conditions":[3E0,5.256E4,6E1,-2.864456E-3,6E1,1.2E1,7.2E2,5.732733E-4,-4.0692018E-4,1.1001997E-2,6E0,4E0,5.256E4,4E0,7.2318465E-3,3.504E4,6E0,-1.56487E-3,3.1536E6,4.863727E-3,-4.0040235E-4,-5.56175E-4,1.1900929E-3,-1.0834809E-3,-2.5991446E-3,9.4841905E-3,-2.0066015E-3],"split_indices":[2,0,1,0,1,1,1,0,0,0,2,2,0,2,0,0,2,0,0,0,0,0,0,0,0,0,0],"split_type":[0,0,0,0,0,0,0,0,0,0,0,0,0,0,0,0,0,0,0,0,0,0,0,0,0,0,0],"sum_hessian":[7.2E1,3.1E1,4.1E1,2.8E1,3E0,1.8E1,2.3E1,1E0,2E0,1E0,1.7E1,1.2E1,1.1E1,1.3E1,4E0,3E0,9E0,6E0,5E0,6E0,7E0,2E0,1E0,4E0,5E0,3E0,2E0],"tree_param":{"num_deleted":"0","num_feature":"3","num_nodes":"27","size_leaf_vector":"1"}},{"base_weights":[9.162053E-3,-2.5730935E-1,2.1196973E-1,-2.8367992E-3,-1.79521E-3,4.649632E-1,2.8511633E-3,5.704069E-4,-4.0420739E-4,1.0946987E-2,3.691613E-1,-1.5483147E-1,1.734364E-1,2.1842195E-1,7.1739918E-3,1.7772086E-2,-2.0838973E-1,-1.5514569E-3,5.2787614E-1,4.822037E-3,-3.9689863E-4,-5.524672E-4,1.1841425E-3,-1.074813E-3,-2.5774848E-3,9.41306E-3,-1.9932243E-3],"categories":[],"categories_nodes":[],"categories_segments":[],"categories_sizes":[],"default_left":[0,0,0,0,0,0,0,0,0,0,0,0,0,0,0,0,0,0,0,0,0,0,0,0,0,0,0],"id":31,"left_children":[1,3,5,-1,7,9,11,-1,-1,-1,13,15,17,19,-1,21,23,-1,25,-1,-1,-1,-1,-1,-1,-1,-1],"loss_changes":[3.9996405E0,2.1510887E-1,2.2207103E0,0E0,1.1395898E-2,7.4214745E-1,6.7241335E-1,0E0,0E0,0E0,7.8818107E-1,1.2388003E-1,1.4794484E0,9.7233146E-1,0E0,3.5937082E-2,2.2104025E-2,0E0,1.991497E0,0E0,0E0,0E0,0E0,0E0,0E0,0E0,0E0],"parents":[2147483647,0,0,1,1,2,2,4,4,5,5,6,6,10,10,11,11,12,12,13,13,15,15,16,16,18,18],"right_children":[2,4,6,-1,8,10,12,-1,-1,-1,14,16,18,20,-1,22,24,-1,26,-1,-1,-1,-1,-1,-1,-1,-1],"split_conditions":[3E0,5.256E4,6E1,-2.8367992E-3,6E1,1.2E1,7.2E2,5.704069E-4,-4.0420739E-4,1.0946987E-2,6E0,4E0,5.256E4,4E0,7.1739918E-3,3.504E4,6E0,-1.5514569E-3,3.1536E6,4.822037E-3,-3.9689863E-4,-5.524672E-4,1.1841425E-3,-1.074813E-3,-2.5774848E-3,9.41306E-3,-1.9932243E-3],"split_indices":[2,0,1,0,1,1,1,0,0,0,2,2,0,2,0,0,2,0,0,0,0,0,0,0,0,0,0],"split_type":[0,0,0,0,0,0,0,0,0,0,0,0,0,0,0,0,0,0,0,0,0,0,0,0,0,0,0],"sum_hessian":[7.2E1,3.1E1,4.1E1,2.8E1,3E0,1.8E1,2.3E1,1E0,2E0,1E0,1.7E1,1.2E1,1.1E1,1.3E1,4E0,3E0,9E0,6E0,5E0,6E0,7E0,2E0,1E0,4E0,5E0,3E0,2E0],"tree_param":{"num_deleted":"0","num_feature":"3","num_nodes":"27","size_leaf_vector":"1"}},{"base_weights":[9.3817115E-3,-2.5481972E-1,2.1045466E-1,-2.8094095E-3,-1.7357245E-3,4.6150023E-1,2.941303E-3,5.6755485E-4,-4.0151287E-4,1.0892252E-2,3.661141E-1,-1.5351552E-1,1.7219108E-1,2.1655385E-1,7.1165995E-3,1.7752282E-2,-2.0667107E-1,-1.5381587E-3,5.23834E-1,4.1292068E-3,-1.1408874E-3,-5.4878404E-4,1.1782217E-3,-1.0662146E-3,-2.5560057E-3,9.342462E-3,-1.979936E-3],"categories":[],"categories_nodes":[],"categories_segments":[],"categories_sizes":[],"default_left":[0,0,0,0,0,0,0,0,0,0,0,0,0,0,0,0,0,0,0,0,0,0,0,0,0,0,0],"id":32,"left_children":[1,3,5,-1,7,9,11,-1,-1,-1,13,15,17,19,-1,21,23,-1,25,-1,-1,-1,-1,-1,-1,-1,-1],"loss_changes":[3.9316623E0,2.1106029E-1,2.1866453E0,0E0,1.1266696E-2,7.3886824E-1,6.619608E-1,0E0,0E0,0E0,7.761259E-1,1.22018784E-1,1.4562305E0,9.56091E-1,0E0,3.5538472E-2,2.1701247E-2,0E0,1.9624562E0,0E0,0E0,0E0,0E0,0E0,0E0,0E0,0E0],"parents":[2147483647,0,0,1,1,2,2,4,4,5,5,6,6,10,10,11,11,12,12,13,13,15,15,16,16,18,18],"right_children":[2,4,6,-1,8,10,12,-1,-1,-1,14,16,18,20,-1,22,24,-1,26,-1,-1,-1,-1,-1,-1,-1,-1],"split_conditions":[3E0,5.256E4,6E1,-2.8094095E-3,6E1,1.2E1,7.2E2,5.6755485E-4,-4.0151287E-4,1.0892252E-2,6E0,4E0,5.256E4,5E0,7.1165995E-3,3.504E4,6E0,-1.5381587E-3,3.1536E6,4.1292068E-3,-1.1408874E-3,-5.4878404E-4,1.1782217E-3,-1.0662146E-3,-2.5560057E-3,9.342462E-3,-1.979936E-3],"split_indices":[2,0,1,0,1,1,1,0,0,0,2,2,0,2,0,0,2,0,0,0,0,0,0,0,0,0,0],"split_type":[0,0,0,0,0,0,0,0,0,0,0,0,0,0,0,0,0,0,0,0,0,0,0,0,0,0,0],"sum_hessian":[7.2E1,3.1E1,4.1E1,2.8E1,3E0,1.8E1,2.3E1,1E0,2E0,1E0,1.7E1,1.2E1,1.1E1,1.3E1,4E0,3E0,9E0,6E0,5E0,8E0,5E0,2E0,1E0,4E0,5E0,3E0,2E0],"tree_param":{"num_deleted":"0","num_feature":"3","num_nodes":"27","size_leaf_vector":"1"}},{"base_weights":[9.578091E-3,-2.5235412E-1,2.0891744E-1,-2.7822843E-3,-1.6768649E-3,4.5799032E-1,3.0298617E-3,5.6471705E-4,-3.9883624E-4,1.0837791E-2,3.630143E-1,-1.5221058E-1,1.7095453E-1,2.1460174E-1,7.0596663E-3,1.7732121E-2,-2.049666E-1,-1.5249745E-3,5.198227E-1,4.7453125E-3,-3.966182E-4,-5.4512545E-4,1.1723307E-3,-1.057685E-3,-2.534706E-3,9.272394E-3,-1.9667365E-3],"categories":[],"categories_nodes":[],"categories_segments":[],"categories_sizes":[],"default_left":[0,0,0,0,0,0,0,0,0,0,0,0,0,0,0,0,0,0,0,0,0,0,0,0,0,0,0],"id":33,"left_children":[1,3,5,-1,7,9,11,-1,-1,-1,13,15,17,19,-1,21,23,-1,25,-1,-1,-1,-1,-1,-1,-1,-1],"loss_changes":[3.8642993E0,2.0708871E-1,2.1524143E0,0E0,1.113897E-2,7.3583627E-1,6.5166986E-1,0E0,0E0,0E0,7.646704E-1,1.2018603E-1,1.4333769E0,9.4408923E-1,0E0,3.5144325E-2,2.13058E-2,0E0,1.9338388E0,0E0,0E0,0E0,0E0,0E0,0E0,0E0,0E0],"parents":[2147483647,0,0,1,1,2,2,4,4,5,5,6,6,10,10,11,11,12,12,13,13,15,15,16,16,18,18],"right_children":[2,4,6,-1,8,10,12,-1,-1,-1,14,16,18,20,-1,22,24,-1,26,-1,-1,-1,-1,-1,-1,-1,-1],"split_conditions":[3E0,5.256E4,6E1,-2.7822843E-3,6E1,1.2E1,7.2E2,5.6471705E-4,-3.9883624E-4,1.0837791E-2,6E0,4E0,5.256E4,4E0,7.0596663E-3,3.504E4,6E0,-1.5249745E-3,3.1536E6,4.7453125E-3,-3.966182E-4,-5.4512545E-4,1.1723307E-3,-1.057685E-3,-2.534706E-3,9.272394E-3,-1.9667365E-3],"split_indices":[2,0,1,0,1,1,1,0,0,0,2,2,0,2,0,0,2,0,0,0,0,0,0,0,0,0,0],"split_type":[0,0,0,0,0,0,0,0,0,0,0,0,0,0,0,0,0,0,0,0,0,0,0,0,0,0,0],"sum_hessian":[7.2E1,3.1E1,4.1E1,2.8E1,3E0,1.8E1,2.3E1,1E0,2E0,1E0,1.7E1,1.2E1,1.1E1,1.3E1,4E0,3E0,9E0,6E0,5E0,6E0,7E0,2E0,1E0,4E0,5E0,3E0,2E0],"tree_param":{"num_deleted":"0","num_feature":"3","num_nodes":"27","size_leaf_vector":"1"}},{"base_weights":[9.7897835E-3,-2.4991234E-1,2.0742498E-1,-2.7554207E-3,-1.6186312E-3,4.5458126E-1,3.1168852E-3,5.6189357E-4,-3.9617746E-4,1.0783602E-2,3.60018E-1,-1.5091655E-1,1.697267E-1,2.1276633E-1,7.003189E-3,1.7711617E-2,-2.0327616E-1,-1.5119032E-3,5.1584214E-1,4.7046384E-3,-3.9314787E-4,-5.414912E-4,1.1664692E-3,-1.0492235E-3,-2.513583E-3,9.20285E-3,-1.9536247E-3],"categories":[],"categories_nodes":[],"categories_segments":[],"categories_sizes":[],"default_left":[0,0,0,0,0,0,0,0,0,0,0,0,0,0,0,0,0,0,0,0,0,0,0,0,0,0,0],"id":34,"left_children":[1,3,5,-1,7,9,11,-1,-1,-1,13,15,17,19,-1,21,23,-1,25,-1,-1,-1,-1,-1,-1,-1,-1],"loss_changes":[3.7986565E0,2.0319259E-1,2.1194162E0,0E0,1.1012706E-2,7.3251605E-1,6.4153814E-1,0E0,0E0,0E0,7.529733E-1,1.1838132E-1,1.4108824E0,9.2794573E-1,0E0,3.475458E-2,2.0917505E-2,0E0,1.9056392E0,0E0,0E0,0E0,0E0,0E0,0E0,0E0,0E0],"parents":[2147483647,0,0,1,1,2,2,4,4,5,5,6,6,10,10,11,11,12,12,13,13,15,15,16,16,18,18],"right_children":[2,4,6,-1,8,10,12,-1,-1,-1,14,16,18,20,-1,22,24,-1,26,-1,-1,-1,-1,-1,-1,-1,-1],"split_conditions":[3E0,5.256E4,6E1,-2.7554207E-3,6E1,1.2E1,7.2E2,5.6189357E-4,-3.9617746E-4,1.0783602E-2,6E0,4E0,5.256E4,4E0,7.003189E-3,3.504E4,6E0,-1.5119032E-3,3.1536E6,4.7046384E-3,-3.9314787E-4,-5.414912E-4,1.1664692E-3,-1.0492235E-3,-2.513583E-3,9.20285E-3,-1.9536247E-3],"split_indices":[2,0,1,0,1,1,1,0,0,0,2,2,0,2,0,0,2,0,0,0,0,0,0,0,0,0,0],"split_type":[0,0,0,0,0,0,0,0,0,0,0,0,0,0,0,0,0,0,0,0,0,0,0,0,0,0,0],"sum_hessian":[7.2E1,3.1E1,4.1E1,2.8E1,3E0,1.8E1,2.3E1,1E0,2E0,1E0,1.7E1,1.2E1,1.1E1,1.3E1,4E0,3E0,9E0,6E0,5E0,6E0,7E0,2E0,1E0,4E0,5E0,3E0,2E0],"tree_param":{"num_deleted":"0","num_feature":"3","num_nodes":"27","size_leaf_vector":"1"}},{"base_weights":[9.997482E-3,-2.4749415E-1,2.0594354E-1,-2.7288166E-3,-1.5610084E-3,4.5119852E-1,3.2023757E-3,5.590841E-4,-3.935362E-4,1.07296845E-2,3.5704637E-1,-1.4963336E-1,1.6850758E-1,2.1094663E-1,6.947164E-3,1.7690755E-2,-2.0159969E-1,-1.4989441E-3,5.1189196E-1,4.0312577E-3,-1.1247986E-3,-5.378811E-4,1.1606368E-3,-1.0408298E-3,-2.4926364E-3,9.13383E-3,-1.9406006E-3],"categories":[],"categories_nodes":[],"categories_segments":[],"categories_sizes":[],"default_left":[0,0,0,0,0,0,0,0,0,0,0,0,0,0,0,0,0,0,0,0,0,0,0,0,0,0,0],"id":35,"left_children":[1,3,5,-1,7,9,11,-1,-1,-1,13,15,17,19,-1,21,23,-1,25,-1,-1,-1,-1,-1,-1,-1,-1],"loss_changes":[3.734146E0,1.9937027E-1,2.0869327E0,0E0,1.0887876E-2,7.291784E-1,6.3156337E-1,0E0,0E0,0E0,7.4145484E-1,1.166043E-1,1.388741E0,9.1552514E-1,0E0,3.4369193E-2,2.0536214E-2,0E0,1.8778515E0,0E0,0E0,0E0,0E0,0E0,0E0,0E0,0E0],"parents":[2147483647,0,0,1,1,2,2,4,4,5,5,6,6,10,10,11,11,12,12,13,13,15,15,16,16,18,18],"right_children":[2,4,6,-1,8,10,12,-1,-1,-1,14,16,18,20,-1,22,24,-1,26,-1,-1,-1,-1,-1,-1,-1,-1],"split_conditions":[3E0,5.256E4,6E1,-2.7288166E-3,6E1,1.2E1,7.2E2,5.590841E-4,-3.935362E-4,1.07296845E-2,6E0,4E0,5.256E4,5E0,6.947164E-3,3.504E4,6E0,-1.4989441E-3,3.1536E6,4.0312577E-3,-1.1247986E-3,-5.378811E-4,1.1606368E-3,-1.0408298E-3,-2.4926364E-3,9.13383E-3,-1.9406006E-3],"split_indices":[2,0,1,0,1,1,1,0,0,0,2,2,0,2,0,0,2,0,0,0,0,0,0,0,0,0,0],"split_type":[0,0,0,0,0,0,0,0,0,0,0,0,0,0,0,0,0,0,0,0,0,0,0,0,0,0,0],"sum_hessian":[7.2E1,3.1E1,4.1E1,2.8E1,3E0,1.8E1,2.3E1,1E0,2E0,1E0,1.7E1,1.2E1,1.1E1,1.3E1,4E0,3E0,9E0,6E0,5E0,8E0,5E0,2E0,1E0,4E0,5E0,3E0,2E0],"tree_param":{"num_deleted":"0","num_feature":"3","num_nodes":"27","size_leaf_vector":"1"}},{"base_weights":[1.0182492E-2,-2.4509929E-1,2.0444046E-1,-2.7024695E-3,-1.5040264E-3,4.4776988E-1,3.2863312E-3,5.5628864E-4,-3.9091276E-4,1.0676036E-2,3.5402337E-1,-1.4836094E-1,1.6729702E-1,2.0904478E-1,6.891587E-3,1.7669536E-2,-1.9993705E-1,-1.4860961E-3,5.0797194E-1,4.6297596E-3,-3.927559E-4,-5.3429534E-4,1.1548337E-3,-1.0325032E-3,-2.4718647E-3,9.065326E-3,-1.9276632E-3],"categories":[],"categories_nodes":[],"categories_segments":[],"categories_sizes":[],"default_left":[0,0,0,0,0,0,0,0,0,0,0,0,0,0,0,0,0,0,0,0,0,0,0,0,0,0,0],"id":36,"left_children":[1,3,5,-1,7,9,11,-1,-1,-1,13,15,17,19,-1,21,23,-1,25,-1,-1,-1,-1,-1,-1,-1,-1],"loss_changes":[3.6702166E0,1.9562078E-1,2.0542908E0,0E0,1.0764478E-2,7.2608113E-1,6.217429E-1,0E0,0E0,0E0,7.305088E-1,1.14854425E-1,1.366947E0,9.009716E-1,0E0,3.3988114E-2,2.0161808E-2,0E0,1.8504692E0,0E0,0E0,0E0,0E0,0E0,0E0,0E0,0E0],"parents":[2147483647,0,0,1,1,2,2,4,4,5,5,6,6,10,10,11,11,12,12,13,13,15,15,16,16,18,18],"right_children":[2,4,6,-1,8,10,12,-1,-1,-1,14,16,18,20,-1,22,24,-1,26,-1,-1,-1,-1,-1,-1,-1,-1],"split_conditions":[3E0,5.256E4,6E1,-2.7024695E-3,6E1,1.2E1,7.2E2,5.5628864E-4,-3.9091276E-4,1.0676036E-2,6E0,4E0,5.256E4,4E0,6.891587E-3,3.504E4,6E0,-1.4860961E-3,3.1536E6,4.6297596E-3,-3.927559E-4,-5.3429534E-4,1.1548337E-3,-1.0325032E-3,-2.4718647E-3,9.065326E-3,-1.9276632E-3],"split_indices":[2,0,1,0,1,1,1,0,0,0,2,2,0,2,0,0,2,0,0,0,0,0,0,0,0,0,0],"split_type":[0,0,0,0,0,0,0,0,0,0,0,0,0,0,0,0,0,0,0,0,0,0,0,0,0,0,0],"sum_hessian":[7.2E1,3.1E1,4.1E1,2.8E1,3E0,1.8E1,2.3E1,1E0,2E0,1E0,1.7E1,1.2E1,1.1E1,1.3E1,4E0,3E0,9E0,6E0,5E0,6E0,7E0,2E0,1E0,4E0,5E0,3E0,2E0],"tree_param":{"num_deleted":"0","num_feature":"3","num_nodes":"27","size_leaf_vector":"1"}},{"base_weights":[1.0382521E-2,-2.427276E-1,2.0298111E-1,-2.6763766E-3,-1.4476553E-3,4.4443977E-1,3.3687893E-3,5.535072E-4,-3.8830686E-4,1.0622656E-2,3.5110137E-1,-1.4709915E-1,1.66095E-1,2.0725699E-1,6.8364535E-3,1.7647974E-2,-1.982881E-1,-1.4733581E-3,5.040818E-1,3.9654328E-3,-1.1121524E-3,-5.307333E-4,1.1490595E-3,-1.024243E-3,-2.4512657E-3,8.997336E-3,-1.914812E-3],"categories":[],"categories_nodes":[],"categories_segments":[],"categories_sizes":[],"default_left":[0,0,0,0,0,0,0,0,0,0,0,0,0,0,0,0,0,0,0,0,0,0,0,0,0,0,0],"id":37,"left_children":[1,3,5,-1,7,9,11,-1,-1,-1,13,15,17,19,-1,21,23,-1,25,-1,-1,-1,-1,-1,-1,-1,-1],"loss_changes":[3.6079206E0,1.9194221E-1,2.0228238E0,0E0,1.06424885E-2,7.22708E-1,6.120743E-1,0E0,0E0,0E0,7.193322E-1,1.13131374E-1,1.3454949E0,8.880555E-1,0E0,3.361129E-2,1.9794255E-2,0E0,1.8234867E0,0E0,0E0,0E0,0E0,0E0,0E0,0E0,0E0],"parents":[2147483647,0,0,1,1,2,2,4,4,5,5,6,6,10,10,11,11,12,12,13,13,15,15,16,16,18,18],"right_children":[2,4,6,-1,8,10,12,-1,-1,-1,14,16,18,20,-1,22,24,-1,26,-1,-1,-1,-1,-1,-1,-1,-1],"split_conditions":[3E0,5.256E4,6E1,-2.6763766E-3,6E1,1.2E1,7.2E2,5.535072E-4,-3.8830686E-4,1.0622656E-2,6E0,4E0,5.256E4,5E0,6.8364535E-3,3.504E4,6E0,-1.4733581E-3,3.1536E6,3.9654328E-3,-1.1121524E-3,-5.307333E-4,1.1490595E-3,-1.024243E-3,-2.4512657E-3,8.997336E-3,-1.914812E-3],"split_indices":[2,0,1,0,1,1,1,0,0,0,2,2,0,2,0,0,2,0,0,0,0,0,0,0,0,0,0],"split_type":[0,0,0,0,0,0,0,0,0,0,0,0,0,0,0,0,0,0,0,0,0,0,0,0,0,0,0],"sum_hessian":[7.2E1,3.1E1,4.1E1,2.8E1,3E0,1.8E1,2.3E1,1E0,2E0,1E0,1.7E1,1.2E1,1.1E1,1.3E1,4E0,3E0,9E0,6E0,5E0,8E0,5E0,2E0,1E0,4E0,5E0,3E0,2E0],"tree_param":{"num_deleted":"0","num_feature":"3","num_nodes":"27","size_leaf_vector":"1"}},{"base_weights":[1.0560244E-2,-2.403788E-1,2.0150046E-1,-2.6505357E-3,-1.3918653E-3,4.4106445E-1,3.4497771E-3,5.5073976E-4,-3.8571804E-4,1.0569543E-2,3.4812868E-1,-1.4584795E-1,1.649015E-1,2.0538822E-1,6.7817615E-3,1.762607E-2,-1.9665276E-1,-1.4607294E-3,5.0022143E-1,4.5560864E-3,-3.9228203E-4,-5.271952E-4,1.1433142E-3,-1.016049E-3,-2.4308385E-3,8.929856E-3,-1.9020466E-3],"categories":[],"categories_nodes":[],"categories_segments":[],"categories_sizes":[],"default_left":[0,0,0,0,0,0,0,0,0,0,0,0,0,0,0,0,0,0,0,0,0,0,0,0,0,0,0],"id":38,"left_children":[1,3,5,-1,7,9,11,-1,-1,-1,13,15,17,19,-1,21,23,-1,25,-1,-1,-1,-1,-1,-1,-1,-1],"loss_changes":[3.5461843E0,1.8833375E-1,1.9912026E0,0E0,1.0521889E-2,7.1956944E-1,6.025555E-1,0E0,0E0,0E0,7.087109E-1,1.1143473E-1,1.3243799E0,8.7478507E-1,0E0,3.3238683E-2,1.943323E-2,0E0,1.7968978E0,0E0,0E0,0E0,0E0,0E0,0E0,0E0,0E0],"parents":[2147483647,0,0,1,1,2,2,4,4,5,5,6,6,10,10,11,11,12,12,13,13,15,15,16,16,18,18],"right_children":[2,4,6,-1,8,10,12,-1,-1,-1,14,16,18,20,-1,22,24,-1,26,-1,-1,-1,-1,-1,-1,-1,-1],"split_conditions":[3E0,5.256E4,6E1,-2.6505357E-3,6E1,1.2E1,7.2E2,5.5073976E-4,-3.8571804E-4,1.0569543E-2,6E0,4E0,5.256E4,4E0,6.7817615E-3,3.504E4,6E0,-1.4607294E-3,3.1536E6,4.5560864E-3,-3.9228203E-4,-5.271952E-4,1.1433142E-3,-1.016049E-3,-2.4308385E-3,8.929856E-3,-1.9020466E-3],"split_indices":[2,0,1,0,1,1,1,0,0,0,2,2,0,2,0,0,2,0,0,0,0,0,0,0,0,0,0],"split_type":[0,0,0,0,0,0,0,0,0,0,0,0,0,0,0,0,0,0,0,0,0,0,0,0,0,0,0],"sum_hessian":[7.2E1,3.1E1,4.1E1,2.8E1,3E0,1.8E1,2.3E1,1E0,2E0,1E0,1.7E1,1.2E1,1.1E1,1.3E1,4E0,3E0,9E0,6E0,5E0,6E0,7E0,2E0,1E0,4E0,5E0,3E0,2E0],"tree_param":{"num_deleted":"0","num_feature":"3","num_nodes":"27","size_leaf_vector":"1"}},{"base_weights":[1.0752798E-2,-2.3805268E-1,2.0006286E-1,-2.6249443E-3,-1.3367012E-3,4.3778616E-1,3.5292797E-3,5.47986E-4,-3.831467E-4,1.0516695E-2,3.4525546E-1,-1.4460723E-1,1.637164E-1,2.0363176E-1,6.7275073E-3,1.7603837E-2,-1.9503094E-1,-1.4482088E-3,4.963905E-1,3.9006819E-3,-1.0996156E-3,-5.2368053E-4,1.1375975E-3,-1.0079208E-3,-2.4105816E-3,8.862882E-3,-1.8893663E-3],"categories":[],"categories_nodes":[],"categories_segments":[],"categories_sizes":[],"default_left":[0,0,0,0,0,0,0,0,0,0,0,0,0,0,0,0,0,0,0,0,0,0,0,0,0,0,0],"id":39,"left_children":[1,3,5,-1,7,9,11,-1,-1,-1,13,15,17,19,-1,21,23,-1,25,-1,-1,-1,-1,-1,-1,-1,-1],"loss_changes":[3.4860263E0,1.8479335E-1,1.9607205E0,0E0,1.0402668E-2,7.161634E-1,5.9318405E-1,0E0,0E0,0E0,6.9786644E-1,1.0976398E-1,1.303596E0,8.614057E-1,0E0,3.2870226E-2,1.9078791E-2,0E0,1.7706972E0,0E0,0E0,0E0,0E0,0E0,0E0,0E0,0E0],"parents":[2147483647,0,0,1,1,2,2,4,4,5,5,6,6,10,10,11,11,12,12,13,13,15,15,16,16,18,18],"right_children":[2,4,6,-1,8,10,12,-1,-1,-1,14,16,18,20,-1,22,24,-1,26,-1,-1,-1,-1,-1,-1,-1,-1],"split_conditions":[3E0,5.256E4,6E1,-2.6249443E-3,6E1,1.2E1,7.2E2,5.47986E-4,-3.831467E-4,1.0516695E-2,6E0,4E0,5.256E4,5E0,6.7275073E-3,3.504E4,6E0,-1.4482088E-3,3.1536E6,3.9006819E-3,-1.0996156E-3,-5.2368053E-4,1.1375975E-3,-1.0079208E-3,-2.4105816E-3,8.862882E-3,-1.8893663E-3],"split_indices":[2,0,1,0,1,1,1,0,0,0,2,2,0,2,0,0,2,0,0,0,0,0,0,0,0,0,0],"split_type":[0,0,0,0,0,0,0,0,0,0,0,0,0,0,0,0,0,0,0,0,0,0,0,0,0,0,0],"sum_hessian":[7.2E1,3.1E1,4.1E1,2.8E1,3E0,1.8E1,2.3E1,1E0,2E0,1E0,1.7E1,1.2E1,1.1E1,1.3E1,4E0,3E0,9E0,6E0,5E0,8E0,5E0,2E0,1E0,4E0,5E0,3E0,2E0],"tree_param":{"num_deleted":"0","num_feature":"3","num_nodes":"27","size_leaf_vector":"1"}},{"base_weights":[1.0923438E-2,-2.3574902E-1,1.9860427E-1,-2.5996E-3,-1.2821332E-3,4.3446332E-1,3.6073625E-3,5.45246E-4,-3.8059245E-4,1.0464111E-2,3.4233224E-1,-1.433769E-1,1.6253969E-1,2.0179549E-1,6.6736876E-3,1.7581277E-2,-1.9342248E-1,-1.4357956E-3,4.9258888E-1,4.4836E-3,-3.9172912E-4,-5.201893E-4,1.1319094E-3,-9.998576E-4,-2.3904932E-3,8.796411E-3,-1.8767705E-3],"categories":[],"categories_nodes":[],"categories_segments":[],"categories_sizes":[],"default_left":[0,0,0,0,0,0,0,0,0,0,0,0,0,0,0,0,0,0,0,0,0,0,0,0,0,0,0],"id":40,"left_children":[1,3,5,-1,7,9,11,-1,-1,-1,13,15,17,19,-1,21,23,-1,25,-1,-1,-1,-1,-1,-1,-1,-1],"loss_changes":[3.4264064E0,1.8132019E-1,1.9300876E0,0E0,1.02848075E-2,7.129886E-1,5.839577E-1,0E0,0E0,0E0,6.8756056E-1,1.081188E-1,1.2831386E0,8.493632E-1,0E0,3.2505885E-2,1.87307E-2,0E0,1.7448791E0,0E0,0E0,0E0,0E0,0E0,0E0,0E0,0E0],"parents":[2147483647,0,0,1,1,2,2,4,4,5,5,6,6,10,10,11,11,12,12,13,13,15,15,16,16,18,18],"right_children":[2,4,6,-1,8,10,12,-1,-1,-1,14,16,18,20,-1,22,24,-1,26,-1,-1,-1,-1,-1,-1,-1,-1],"split_conditions":[3E0,5.256E4,6E1,-2.5996E-3,6E1,1.2E1,7.2E2,5.45246E-4,-3.8059245E-4,1.0464111E-2,6E0,4E0,5.256E4,4E0,6.6736876E-3,3.504E4,6E0,-1.4357956E-3,3.1536E6,4.4836E-3,-3.9172912E-4,-5.201893E-4,1.1319094E-3,-9.998576E-4,-2.3904932E-3,8.796411E-3,-1.8767705E-3],"split_indices":[2,0,1,0,1,1,1,0,0,0,2,2,0,2,0,0,2,0,0,0,0,0,0,0,0,0,0],"split_type":[0,0,0,0,0,0,0,0,0,0,0,0,0,0,0,0,0,0,0,0,0,0,0,0,0,0,0],"sum_hessian":[7.2E1,3.1E1,4.1E1,2.8E1,3E0,1.8E1,2.3E1,1E0,2E0,1E0,1.7E1,1.2E1,1.1E1,1.3E1,4E0,3E0,9E0,6E0,5E0,6E0,7E0,2E0,1E0,4E0,5E0,3E0,2E0],"tree_param":{"num_deleted":"0","num_feature":"3","num_nodes":"27","size_leaf_vector":"1"}},{"base_weights":[1.1108726E-2,-2.3346762E-1,1.9718812E-1,-2.5745004E-3,-1.2281612E-3,4.3123606E-1,3.6840092E-3,5.425197E-4,-3.7805527E-4,1.04117915E-2,3.3950704E-1,-1.4215687E-1,1.6137129E-1,2.0006981E-1,6.6202977E-3,1.7558388E-2,-1.9182728E-1,-1.4234887E-3,4.8881626E-1,3.836989E-3,-1.087188E-3,-5.1672145E-4,1.12625E-3,-9.918585E-4,-2.3705724E-3,8.730438E-3,-1.8642588E-3],"categories":[],"categories_nodes":[],"categories_segments":[],"categories_sizes":[],"default_left":[0,0,0,0,0,0,0,0,0,0,0,0,0,0,0,0,0,0,0,0,0,0,0,0,0,0,0],"id":41,"left_children":[1,3,5,-1,7,9,11,-1,-1,-1,13,15,17,19,-1,21,23,-1,25,-1,-1,-1,-1,-1,-1,-1,-1],"loss_changes":[3.3683124E0,1.7791319E-1,1.900559E0,0E0,1.01682935E-2,7.09553E-1,5.7487404E-1,0E0,0E0,0E0,6.770377E-1,1.0649878E-1,1.2630022E0,8.355514E-1,0E0,3.214563E-2,1.8388957E-2,0E0,1.7194376E0,0E0,0E0,0E0,0E0,0E0,0E0,0E0,0E0],"parents":[2147483647,0,0,1,1,2,2,4,4,5,5,6,6,10,10,11,11,12,12,13,13,15,15,16,16,18,18],"right_children":[2,4,6,-1,8,10,12,-1,-1,-1,14,16,18,20,-1,22,24,-1,26,-1,-1,-1,-1,-1,-1,-1,-1],"split_conditions":[3E0,5.256E4,6E1,-2.5745004E-3,6E1,1.2E1,7.2E2,5.425197E-4,-3.7805527E-4,1.04117915E-2,6E0,4E0,5.256E4,5E0,6.6202977E-3,3.504E4,6E0,-1.4234887E-3,3.1536E6,3.836989E-3,-1.087188E-3,-5.1672145E-4,1.12625E-3,-9.918585E-4,-2.3705724E-3,8.730438E-3,-1.8642588E-3],"split_indices":[2,0,1,0,1,1,1,0,0,0,2,2,0,2,0,0,2,0,0,0,0,0,0,0,0,0,0],"split_type":[0,0,0,0,0,0,0,0,0,0,0,0,0,0,0,0,0,0,0,0,0,0,0,0,0,0,0],"sum_hessian":[7.2E1,3.1E1,4.1E1,2.8E1,3E0,1.8E1,2.3E1,1E0,2E0,1E0,1.7E1,1.2E1,1.1E1,1.3E1,4E0,3E0,9E0,6E0,5E0,8E0,5E0,2E0,1E0,4E0,5E0,3E0,2E0],"tree_param":{"num_deleted":"0","num_feature":"3","num_nodes":"27","size_leaf_vector":"1"}},{"base_weights":[1.1272458E-2,-2.3120826E-1,1.9575128E-1,-2.5496432E-3,-1.1747554E-3,4.2796484E-1,3.7592463E-3,5.398071E-4,-3.755348E-4,1.0359732E-2,3.3663252E-1,-1.4094706E-1,1.6021113E-1,1.9826552E-1,6.5673357E-3,1.7535187E-2,-1.9024524E-1,-1.4112875E-3,4.850725E-1,4.412281E-3,-3.910991E-4,-5.132767E-4,1.1206189E-3,-9.839236E-4,-2.3508177E-3,8.664959E-3,-1.8518303E-3],"categories":[],"categories_nodes":[],"categories_segments":[],"categories_sizes":[],"default_left":[0,0,0,0,0,0,0,0,0,0,0,0,0,0,0,0,0,0,0,0,0,0,0,0,0,0,0],"id":42,"left_children":[1,3,5,-1,7,9,11,-1,-1,-1,13,15,17,19,-1,21,23,-1,25,-1,-1,-1,-1,-1,-1,-1,-1],"loss_changes":[3.3107362E0,1.7457056E-1,1.8708837E0,0E0,1.0053105E-2,7.0634365E-1,5.659311E-1,0E0,0E0,0E0,6.670382E-1,1.0490355E-1,1.2431818E0,8.246833E-1,0E0,3.1789396E-2,1.8053412E-2,0E0,1.6943678E0,0E0,0E0,0E0,0E0,0E0,0E0,0E0,0E0],"parents":[2147483647,0,0,1,1,2,2,4,4,5,5,6,6,10,10,11,11,12,12,13,13,15,15,16,16,18,18],"right_children":[2,4,6,-1,8,10,12,-1,-1,-1,14,16,18,20,-1,22,24,-1,26,-1,-1,-1,-1,-1,-1,-1,-1],"split_conditions":[3E0,5.256E4,6E1,-2.5496432E-3,6E1,1.2E1,7.2E2,5.398071E-4,-3.755348E-4,1.0359732E-2,6E0,4E0,5.256E4,4E0,6.5673357E-3,3.504E4,6E0,-1.4112875E-3,3.1536E6,4.412281E-3,-3.910991E-4,-5.132767E-4,1.1206189E-3,-9.839236E-4,-2.3508177E-3,8.664959E-3,-1.8518303E-3],"split_indices":[2,0,1,0,1,1,1,0,0,0,2,2,0,2,0,0,2,0,0,0,0,0,0,0,0,0,0],"split_type":[0,0,0,0,0,0,0,0,0,0,0,0,0,0,0,0,0,0,0,0,0,0,0,0,0,0,0],"sum_hessian":[7.2E1,3.1E1,4.1E1,2.8E1,3E0,1.8E1,2.3E1,1E0,2E0,1E0,1.7E1,1.2E1,1.1E1,1.3E1,4E0,3E0,9E0,6E0,5E0,6E0,7E0,2E0,1E0,4E0,5E0,3E0,2E0],"tree_param":{"num_deleted":"0","num_feature":"3","num_nodes":"27","size_leaf_vector":"1"}},{"base_weights":[1.1450653E-2,-2.2897072E-1,1.943562E-1,-2.5250257E-3,-1.1219457E-3,4.2478773E-1,3.8330692E-3,5.3710816E-4,-3.730314E-4,1.0307934E-2,3.3385444E-1,-1.397474E-1,1.5905915E-1,1.9657011E-1,6.514797E-3,1.7511658E-2,-1.8867628E-1,-1.3991907E-3,4.8135722E-1,4.3744612E-3,-3.8767676E-4,-5.0985505E-4,1.1150157E-3,-9.760524E-4,-2.3312275E-3,8.599972E-3,-1.8394848E-3],"categories":[],"categories_nodes":[],"categories_segments":[],"categories_sizes":[],"default_left":[0,0,0,0,0,0,0,0,0,0,0,0,0,0,0,0,0,0,0,0,0,0,0,0,0,0,0],"id":43,"left_children":[1,3,5,-1,7,9,11,-1,-1,-1,13,15,17,19,-1,21,23,-1,25,-1,-1,-1,-1,-1,-1,-1,-1],"loss_changes":[3.2546334E0,1.7129135E-1,1.8422785E0,0E0,9.939242E-3,7.028806E-1,5.571265E-1,0E0,0E0,0E0,6.5682817E-1,1.0333267E-1,1.2236724E0,8.1058E-1,0E0,3.1437133E-2,1.7723888E-2,0E0,1.6696634E0,0E0,0E0,0E0,0E0,0E0,0E0,0E0,0E0],"parents":[2147483647,0,0,1,1,2,2,4,4,5,5,6,6,10,10,11,11,12,12,13,13,15,15,16,16,18,18],"right_children":[2,4,6,-1,8,10,12,-1,-1,-1,14,16,18,20,-1,22,24,-1,26,-1,-1,-1,-1,-1,-1,-1,-1],"split_conditions":[3E0,5.256E4,6E1,-2.5250257E-3,6E1,1.2E1,7.2E2,5.3710816E-4,-3.730314E-4,1.0307934E-2,6E0,4E0,5.256E4,4E0,6.514797E-3,3.504E4,6E0,-1.3991907E-3,3.1536E6,4.3744612E-3,-3.8767676E-4,-5.0985505E-4,1.1150157E-3,-9.760524E-4,-2.3312275E-3,8.599972E-3,-1.8394848E-3],"split_indices":[2,0,1,0,1,1,1,0,0,0,2,2,0,2,0,0,2,0,0,0,0,0,0,0,0,0,0],"split_type":[0,0,0,0,0,0,0,0,0,0,0,0,0,0,0,0,0,0,0,0,0,0,0,0,0,0,0],"sum_hessian":[7.2E1,3.1E1,4.1E1,2.8E1,3E0,1.8E1,2.3E1,1E0,2E0,1E0,1.7E1,1.2E1,1.1E1,1.3E1,4E0,3E0,9E0,6E0,5E0,6E0,7E0,2E0,1E0,4E0,5E0,3E0,2E0],"tree_param":{"num_deleted":"0","num_feature":"3","num_nodes":"27","size_leaf_vector":"1"}},{"base_weights":[1.1625294E-2,-2.2675478E-1,1.9297142E-1,-2.5006463E-3,-1.0697171E-3,4.216351E-1,3.9055373E-3,5.344227E-4,-3.7054467E-4,1.0256394E-2,3.3109933E-1,-1.3855779E-1,1.5791535E-1,1.9488919E-1,6.462679E-3,1.7487831E-2,-1.8712026E-1,-1.3871976E-3,4.7767043E-1,3.746035E-3,-1.0716382E-3,-5.06456E-4,1.1094406E-3,-9.682442E-4,-2.3118008E-3,8.535473E-3,-1.8272216E-3],"categories":[],"categories_nodes":[],"categories_segments":[],"categories_sizes":[],"default_left":[0,0,0,0,0,0,0,0,0,0,0,0,0,0,0,0,0,0,0,0,0,0,0,0,0,0,0],"id":44,"left_children":[1,3,5,-1,7,9,11,-1,-1,-1,13,15,17,19,-1,21,23,-1,25,-1,-1,-1,-1,-1,-1,-1,-1],"loss_changes":[3.1994963E0,1.6807425E-1,1.8141184E0,0E0,9.826676E-3,6.994071E-1,5.484584E-1,0E0,0E0,0E0,6.4677405E-1,1.0178582E-1,1.2044694E0,8.0010945E-1,0E0,3.1088805E-2,1.7400324E-2,0E0,1.6453197E0,0E0,0E0,0E0,0E0,0E0,0E0,0E0,0E0],"parents":[2147483647,0,0,1,1,2,2,4,4,5,5,6,6,10,10,11,11,12,12,13,13,15,15,16,16,18,18],"right_children":[2,4,6,-1,8,10,12,-1,-1,-1,14,16,18,20,-1,22,24,-1,26,-1,-1,-1,-1,-1,-1,-1,-1],"split_conditions":[3E0,5.256E4,6E1,-2.5006463E-3,6E1,1.2E1,7.2E2,5.344227E-4,-3.7054467E-4,1.0256394E-2,6E0,4E0,5.256E4,5E0,6.462679E-3,3.504E4,6E0,-1.3871976E-3,3.1536E6,3.746035E-3,-1.0716382E-3,-5.06456E-4,1.1094406E-3,-9.682442E-4,-2.3118008E-3,8.535473E-3,-1.8272216E-3],"split_indices":[2,0,1,0,1,1,1,0,0,0,2,2,0,2,0,0,2,0,0,0,0,0,0,0,0,0,0],"split_type":[0,0,0,0,0,0,0,0,0,0,0,0,0,0,0,0,0,0,0,0,0,0,0,0,0,0,0],"sum_hessian":[7.2E1,3.1E1,4.1E1,2.8E1,3E0,1.8E1,2.3E1,1E0,2E0,1E0,1.7E1,1.2E1,1.1E1,1.3E1,4E0,3E0,9E0,6E0,5E0,8E0,5E0,2E0,1E0,4E0,5E0,3E0,2E0],"tree_param":{"num_deleted":"0","num_feature":"3","num_nodes":"27","size_leaf_vector":"1"}},{"base_weights":[1.1778913E-2,-2.2456026E-1,1.9156641E-1,-2.476502E-3,-1.0180399E-3,4.1843945E-1,3.976647E-3,5.317506E-4,-3.6807428E-4,1.02051115E-2,3.2829595E-1,-1.3737814E-1,1.5677962E-1,1.9313131E-1,6.410977E-3,1.7463706E-2,-1.8557708E-1,-1.3753072E-3,4.7401178E-1,4.304857E-3,-3.8695204E-4,-5.0307956E-4,1.1038935E-3,-9.604984E-4,-2.2925357E-3,8.471456E-3,-1.8150402E-3],"categories":[],"categories_nodes":[],"categories_segments":[],"categories_sizes":[],"default_left":[0,0,0,0,0,0,0,0,0,0,0,0,0,0,0,0,0,0,0,0,0,0,0,0,0,0,0],"id":45,"left_children":[1,3,5,-1,7,9,11,-1,-1,-1,13,15,17,19,-1,21,23,-1,25,-1,-1,-1,-1,-1,-1,-1,-1],"loss_changes":[3.1448483E0,1.6491854E-1,1.7858163E0,0E0,9.715389E-3,6.9615436E-1,5.399245E-1,0E0,0E0,0E0,6.3721895E-1,1.0026263E-1,1.1855676E0,7.8700835E-1,0E0,3.0744366E-2,1.7082572E-2,0E0,1.6213313E0,0E0,0E0,0E0,0E0,0E0,0E0,0E0,0E0],"parents":[2147483647,0,0,1,1,2,2,4,4,5,5,6,6,10,10,11,11,12,12,13,13,15,15,16,16,18,18],"right_children":[2,4,6,-1,8,10,12,-1,-1,-1,14,16,18,20,-1,22,24,-1,26,-1,-1,-1,-1,-1,-1,-1,-1],"split_conditions":[3E0,5.256E4,6E1,-2.476502E-3,6E1,1.2E1,7.2E2,5.317506E-4,-3.6807428E-4,1.02051115E-2,6E0,4E0,5.256E4,4E0,6.410977E-3,3.504E4,6E0,-1.3753072E-3,3.1536E6,4.304857E-3,-3.8695204E-4,-5.0307956E-4,1.1038935E-3,-9.604984E-4,-2.2925357E-3,8.471456E-3,-1.8150402E-3],"split_indices":[2,0,1,0,1,1,1,0,0,0,2,2,0,2,0,0,2,0,0,0,0,0,0,0,0,0,0],"split_type":[0,0,0,0,0,0,0,0,0,0,0,0,0,0,0,0,0,0,0,0,0,0,0,0,0,0,0],"sum_hessian":[7.2E1,3.1E1,4.1E1,2.8E1,3E0,1.8E1,2.3E1,1E0,2E0,1E0,1.7E1,1.2E1,1.1E1,1.3E1,4E0,3E0,9E0,6E0,5E0,6E0,7E0,2E0,1E0,4E0,5E0,3E0,2E0],"tree_param":{"num_deleted":"0","num_feature":"3","num_nodes":"27","size_leaf_vector":"1"}},{"base_weights":[1.1946744E-2,-2.2238693E-1,1.9020224E-1,-2.452591E-3,-9.669438E-4,4.1533577E-1,4.0464127E-3,5.290919E-4,-3.6562054E-4,1.0154086E-2,3.255868E-1,-1.3620839E-1,1.5565191E-1,1.9147985E-1,6.359689E-3,1.7439269E-2,-1.8404661E-1,-1.363519E-3,4.7038102E-1,3.6848974E-3,-1.0594833E-3,-4.997258E-4,1.0983741E-3,-9.5281465E-4,-2.2734313E-3,8.407921E-3,-1.8029399E-3],"categories":[],"categories_nodes":[],"categories_segments":[],"categories_sizes":[],"default_left":[0,0,0,0,0,0,0,0,0,0,0,0,0,0,0,0,0,0,0,0,0,0,0,0,0,0,0],"id":46,"left_children":[1,3,5,-1,7,9,11,-1,-1,-1,13,15,17,19,-1,21,23,-1,25,-1,-1,-1,-1,-1,-1,-1,-1],"loss_changes":[3.0916004E0,1.618222E-1,1.758536E0,0E0,9.605378E-3,6.9265914E-1,5.315227E-1,0E0,0E0,0E0,6.2746394E-1,9.876263E-2,1.1669626E0,7.761092E-1,0E0,3.0403782E-2,1.6770631E-2,0E0,1.5976927E0,0E0,0E0,0E0,0E0,0E0,0E0,0E0,0E0],"parents":[2147483647,0,0,1,1,2,2,4,4,5,5,6,6,10,10,11,11,12,12,13,13,15,15,16,16,18,18],"right_children":[2,4,6,-1,8,10,12,-1,-1,-1,14,16,18,20,-1,22,24,-1,26,-1,-1,-1,-1,-1,-1,-1,-1],"split_conditions":[3E0,5.256E4,6E1,-2.452591E-3,6E1,1.2E1,7.2E2,5.290919E-4,-3.6562054E-4,1.0154086E-2,6E0,4E0,5.256E4,5E0,6.359689E-3,3.504E4,6E0,-1.363519E-3,3.1536E6,3.6848974E-3,-1.0594833E-3,-4.997258E-4,1.0983741E-3,-9.5281465E-4,-2.2734313E-3,8.407921E-3,-1.8029399E-3],"split_indices":[2,0,1,0,1,1,1,0,0,0,2,2,0,2,0,0,2,0,0,0,0,0,0,0,0,0,0],"split_type":[0,0,0,0,0,0,0,0,0,0,0,0,0,0,0,0,0,0,0,0,0,0,0,0,0,0,0],"sum_hessian":[7.2E1,3.1E1,4.1E1,2.8E1,3E0,1.8E1,2.3E1,1E0,2E0,1E0,1.7E1,1.2E1,1.1E1,1.3E1,4E0,3E0,9E0,6E0,5E0,8E0,5E0,2E0,1E0,4E0,5E0,3E0,2E0],"tree_param":{"num_deleted":"0","num_feature":"3","num_nodes":"27","size_leaf_vector":"1"}},{"base_weights":[1.2093898E-2,-2.2023459E-1,1.8881813E-1,-2.428911E-3,-9.1641396E-4,4.1218975E-1,4.1148476E-3,5.264464E-4,-3.6318312E-4,1.0103316E-2,3.228301E-1,-1.3504843E-1,1.5453216E-1,1.8975258E-1,6.3088117E-3,1.7414533E-2,-1.8252878E-1,-1.3518317E-3,4.66778E-1,4.236373E-3,-3.861567E-4,-4.9639435E-4,1.0928821E-3,-9.4519224E-4,-2.2544859E-3,8.34486E-3,-1.7909202E-3],"categories":[],"categories_nodes":[],"categories_segments":[],"categories_sizes":[],"default_left":[0,0,0,0,0,0,0,0,0,0,0,0,0,0,0,0,0,0,0,0,0,0,0,0,0,0,0],"id":47,"left_children":[1,3,5,-1,7,9,11,-1,-1,-1,13,15,17,19,-1,21,23,-1,25,-1,-1,-1,-1,-1,-1,-1,-1],"loss_changes":[3.0388238E0,1.5878475E-1,1.7311176E0,0E0,9.496616E-3,6.893797E-1,5.2325094E-1,0E0,0E0,0E0,6.181928E-1,9.728557E-2,1.1486495E0,7.6412505E-1,0E0,3.0066984E-2,1.6464323E-2,0E0,1.5743995E0,0E0,0E0,0E0,0E0,0E0,0E0,0E0,0E0],"parents":[2147483647,0,0,1,1,2,2,4,4,5,5,6,6,10,10,11,11,12,12,13,13,15,15,16,16,18,18],"right_children":[2,4,6,-1,8,10,12,-1,-1,-1,14,16,18,20,-1,22,24,-1,26,-1,-1,-1,-1,-1,-1,-1,-1],"split_conditions":[3E0,5.256E4,6E1,-2.428911E-3,6E1,1.2E1,7.2E2,5.264464E-4,-3.6318312E-4,1.0103316E-2,6E0,4E0,5.256E4,4E0,6.3088117E-3,3.504E4,6E0,-1.3518317E-3,3.1536E6,4.236373E-3,-3.861567E-4,-4.9639435E-4,1.0928821E-3,-9.4519224E-4,-2.2544859E-3,8.34486E-3,-1.7909202E-3],"split_indices":[2,0,1,0,1,1,1,0,0,0,2,2,0,2,0,0,2,0,0,0,0,0,0,0,0,0,0],"split_type":[0,0,0,0,0,0,0,0,0,0,0,0,0,0,0,0,0,0,0,0,0,0,0,0,0,0,0],"sum_hessian":[7.2E1,3.1E1,4.1E1,2.8E1,3E0,1.8E1,2.3E1,1E0,2E0,1E0,1.7E1,1.2E1,1.1E1,1.3E1,4E0,3E0,9E0,6E0,5E0,6E0,7E0,2E0,1E0,4E0,5E0,3E0,2E0],"tree_param":{"num_deleted":"0","num_feature":"3","num_nodes":"27","size_leaf_vector":"1"}},{"base_weights":[1.2255097E-2,-2.1810304E-1,1.8747427E-1,-2.405459E-3,-8.6643547E-4,4.091343E-1,4.181991E-3,5.2381423E-4,-3.6076197E-4,1.0052798E-2,3.201662E-1,-1.338982E-1,1.5342036E-1,1.8813008E-1,6.2583415E-3,1.7389499E-2,-1.8102345E-1,-1.3402445E-3,4.632026E-1,3.6247587E-3,-1.0474361E-3,-4.9308507E-4,1.0874176E-3,-9.376307E-4,-2.2356985E-3,8.282274E-3,-1.7789807E-3],"categories":[],"categories_nodes":[],"categories_segments":[],"categories_sizes":[],"default_left":[0,0,0,0,0,0,0,0,0,0,0,0,0,0,0,0,0,0,0,0,0,0,0,0,0,0,0],"id":48,"left_children":[1,3,5,-1,7,9,11,-1,-1,-1,13,15,17,19,-1,21,23,-1,25,-1,-1,-1,-1,-1,-1,-1,-1],"loss_changes":[2.9873996E0,1.5580487E-1,1.7046891E0,0E0,9.3891015E-3,6.85864E-1,5.151074E-1,0E0,0E0,0E0,6.087277E-1,9.583105E-2,1.130624E0,7.528252E-1,0E0,2.9733948E-2,1.6163528E-2,0E0,1.5514461E0,0E0,0E0,0E0,0E0,0E0,0E0,0E0,0E0],"parents":[2147483647,0,0,1,1,2,2,4,4,5,5,6,6,10,10,11,11,12,12,13,13,15,15,16,16,18,18],"right_children":[2,4,6,-1,8,10,12,-1,-1,-1,14,16,18,20,-1,22,24,-1,26,-1,-1,-1,-1,-1,-1,-1,-1],"split_conditions":[3E0,5.256E4,6E1,-2.405459E-3,6E1,1.2E1,7.2E2,5.2381423E-4,-3.6076197E-4,1.0052798E-2,6E0,4E0,5.256E4,5E0,6.2583415E-3,3.504E4,6E0,-1.3402445E-3,3.1536E6,3.6247587E-3,-1.0474361E-3,-4.9308507E-4,1.0874176E-3,-9.376307E-4,-2.2356985E-3,8.282274E-3,-1.7789807E-3],"split_indices":[2,0,1,0,1,1,1,0,0,0,2,2,0,2,0,0,2,0,0,0,0,0,0,0,0,0,0],"split_type":[0,0,0,0,0,0,0,0,0,0,0,0,0,0,0,0,0,0,0,0,0,0,0,0,0,0,0],"sum_hessian":[7.2E1,3.1E1,4.1E1,2.8E1,3E0,1.8E1,2.3E1,1E0,2E0,1E0,1.7E1,1.2E1,1.1E1,1.3E1,4E0,3E0,9E0,6E0,5E0,8E0,5E0,2E0,1E0,4E0,5E0,3E0,2E0],"tree_param":{"num_deleted":"0","num_feature":"3","num_nodes":"27","size_leaf_vector":"1"}},{"base_weights":[1.23959705E-2,-2.1599208E-1,1.8611076E-1,-2.382234E-3,-8.169934E-4,4.0603706E-1,4.247837E-3,5.2119524E-4,-3.5835672E-4,1.0002534E-2,3.174554E-1,-1.3275759E-1,1.5231639E-1,1.8643287E-1,6.208274E-3,1.7364196E-2,-1.7953055E-1,-1.3287567E-3,4.596544E-1,4.1689924E-3,-3.85293E-4,-4.897977E-4,1.0819804E-3,-9.3012967E-4,-2.2170676E-3,8.220157E-3,-1.7671208E-3],"categories":[],"categories_nodes":[],"categories_segments":[],"categories_sizes":[],"default_left":[0,0,0,0,0,0,0,0,0,0,0,0,0,0,0,0,0,0,0,0,0,0,0,0,0,0,0],"id":49,"left_children":[1,3,5,-1,7,9,11,-1,-1,-1,13,15,17,19,-1,21,23,-1,25,-1,-1,-1,-1,-1,-1,-1,-1],"loss_changes":[2.9364285E0,1.5288138E-1,1.6781256E0,0E0,9.282806E-3,6.8256116E-1,5.0708985E-1,0E0,0E0,0E0,5.997319E-1,9.439874E-2,1.1128813E0,7.4190986E-1,0E0,2.9404627E-2,1.5868217E-2,0E0,1.5288277E0,0E0,0E0,0E0,0E0,0E0,0E0,0E0,0E0],"parents":[2147483647,0,0,1,1,2,2,4,4,5,5,6,6,10,10,11,11,12,12,13,13,15,15,16,16,18,18],"right_children":[2,4,6,-1,8,10,12,-1,-1,-1,14,16,18,20,-1,22,24,-1,26,-1,-1,-1,-1,-1,-1,-1,-1],"split_conditions":[3E0,5.256E4,6E1,-2.382234E-3,6E1,1.2E1,7.2E2,5.2119524E-4,-3.5835672E-4,1.0002534E-2,6E0,4E0,5.256E4,4E0,6.208274E-3,3.504E4,6E0,-1.3287567E-3,3.1536E6,4.1689924E-3,-3.85293E-4,-4.897977E-4,1.0819804E-3,-9.3012967E-4,-2.2170676E-3,8.220157E-3,-1.7671208E-3],"split_indices":[2,0,1,0,1,1,1,0,0,0,2,2,0,2,0,0,2,0,0,0,0,0,0,0,0,0,0],"split_type":[0,0,0,0,0,0,0,0,0,0,0,0,0,0,0,0,0,0,0,0,0,0,0,0,0,0,0],"sum_hessian":[7.2E1,3.1E1,4.1E1,2.8E1,3E0,1.8E1,2.3E1,1E0,2E0,1E0,1.7E1,1.2E1,1.1E1,1.3E1,4E0,3E0,9E0,6E0,5E0,6E0,7E0,2E0,1E0,4E0,5E0,3E0,2E0],"tree_param":{"num_deleted":"0","num_feature":"3","num_nodes":"27","size_leaf_vector":"1"}},{"base_weights":[1.2550704E-2,-2.139015E-1,1.8478689E-1,-2.359233E-3,-7.681176E-4,4.0302905E-1,4.3124035E-3,5.185893E-4,-3.5596776E-4,9.952522E-3,3.1483597E-1,-1.3162656E-1,1.5122025E-1,1.848388E-1,6.158608E-3,1.7338581E-2,-1.7804997E-1,-1.3173672E-3,4.5613337E-1,3.5656013E-3,-1.0354968E-3,-4.8653255E-4,1.0765705E-3,-9.226886E-4,-2.1985923E-3,8.158505E-3,-1.7553399E-3],"categories":[],"categories_nodes":[],"categories_segments":[],"categories_sizes":[],"default_left":[0,0,0,0,0,0,0,0,0,0,0,0,0,0,0,0,0,0,0,0,0,0,0,0,0,0,0],"id":50,"left_children":[1,3,5,-1,7,9,11,-1,-1,-1,13,15,17,19,-1,21,23,-1,25,-1,-1,-1,-1,-1,-1,-1,-1],"loss_changes":[2.8867645E0,1.5001345E-1,1.6525218E0,0E0,9.1777295E-3,6.7902875E-1,4.9919662E-1,0E0,0E0,0E0,5.905479E-1,9.298819E-2,1.095417E0,7.3023605E-1,0E0,2.9078992E-2,1.55783E-2,0E0,1.5065392E0,0E0,0E0,0E0,0E0,0E0,0E0,0E0,0E0],"parents":[2147483647,0,0,1,1,2,2,4,4,5,5,6,6,10,10,11,11,12,12,13,13,15,15,16,16,18,18],"right_children":[2,4,6,-1,8,10,12,-1,-1,-1,14,16,18,20,-1,22,24,-1,26,-1,-1,-1,-1,-1,-1,-1,-1],"split_conditions":[3E0,5.256E4,6E1,-2.359233E-3,6E1,1.2E1,7.2E2,5.185893E-4,-3.5596776E-4,9.952522E-3,6E0,4E0,5.256E4,5E0,6.158608E-3,3.504E4,6E0,-1.3173672E-3,3.1536E6,3.5656013E-3,-1.0354968E-3,-4.8653255E-4,1.0765705E-3,-9.226886E-4,-2.1985923E-3,8.158505E-3,-1.7553399E-3],"split_indices":[2,0,1,0,1,1,1,0,0,0,2,2,0,2,0,0,2,0,0,0,0,0,0,0,0,0,0],"split_type":[0,0,0,0,0,0,0,0,0,0,0,0,0,0,0,0,0,0,0,0,0,0,0,0,0,0,0],"sum_hessian":[7.2E1,3.1E1,4.1E1,2.8E1,3E0,1.8E1,2.3E1,1E0,2E0,1E0,1.7E1,1.2E1,1.1E1,1.3E1,4E0,3E0,9E0,6E0,5E0,8E0,5E0,2E0,1E0,4E0,5E0,3E0,2E0],"tree_param":{"num_deleted":"0","num_feature":"3","num_nodes":"27","size_leaf_vector":"1"}},{"base_weights":[1.2685469E-2,-2.1183112E-1,1.834437E-1,-2.336454E-3,-7.1977824E-4,3.999799E-1,4.375732E-3,5.159965E-4,-3.5359472E-4,9.902759E-3,3.1217033E-1,-1.30505E-1,1.5013188E-1,1.8317114E-1,6.1093397E-3,1.7312713E-2,-1.7658159E-1,-1.3060754E-3,4.5263922E-1,4.1026957E-3,-3.8436387E-4,-4.8328887E-4,1.0711876E-3,-9.1530714E-4,-2.1802706E-3,8.097317E-3,-1.7436377E-3],"categories":[],"categories_nodes":[],"categories_segments":[],"categories_sizes":[],"default_left":[0,0,0,0,0,0,0,0,0,0,0,0,0,0,0,0,0,0,0,0,0,0,0,0,0,0,0],"id":51,"left_children":[1,3,5,-1,7,9,11,-1,-1,-1,13,15,17,19,-1,21,23,-1,25,-1,-1,-1,-1,-1,-1,-1,-1],"loss_changes":[2.837537E0,1.4719951E-1,1.6267867E0,0E0,9.073853E-3,6.757045E-1,4.914257E-1,0E0,0E0,0E0,5.8181906E-1,9.1599256E-2,1.078227E0,7.2034335E-1,0E0,2.875698E-2,1.5293568E-2,0E0,1.4845761E0,0E0,0E0,0E0,0E0,0E0,0E0,0E0,0E0],"parents":[2147483647,0,0,1,1,2,2,4,4,5,5,6,6,10,10,11,11,12,12,13,13,15,15,16,16,18,18],"right_children":[2,4,6,-1,8,10,12,-1,-1,-1,14,16,18,20,-1,22,24,-1,26,-1,-1,-1,-1,-1,-1,-1,-1],"split_conditions":[3E0,5.256E4,6E1,-2.336454E-3,6E1,1.2E1,7.2E2,5.159965E-4,-3.5359472E-4,9.902759E-3,6E0,4E0,5.256E4,4E0,6.1093397E-3,3.504E4,6E0,-1.3060754E-3,3.1536E6,4.1026957E-3,-3.8436387E-4,-4.8328887E-4,1.0711876E-3,-9.1530714E-4,-2.1802706E-3,8.097317E-3,-1.7436377E-3],"split_indices":[2,0,1,0,1,1,1,0,0,0,2,2,0,2,0,0,2,0,0,0,0,0,0,0,0,0,0],"split_type":[0,0,0,0,0,0,0,0,0,0,0,0,0,0,0,0,0,0,0,0,0,0,0,0,0,0,0],"sum_hessian":[7.2E1,3.1E1,4.1E1,2.8E1,3E0,1.8E1,2.3E1,1E0,2E0,1E0,1.7E1,1.2E1,1.1E1,1.3E1,4E0,3E0,9E0,6E0,5E0,6E0,7E0,2E0,1E0,4E0,5E0,3E0,2E0],"tree_param":{"num_deleted":"0","num_feature":"3","num_nodes":"27","size_leaf_vector":"1"}},{"base_weights":[1.2833906E-2,-2.0978077E-1,1.8213952E-1,-2.3138954E-3,-6.719902E-4,3.9701852E-1,4.437817E-3,5.1341654E-4,-3.5123754E-4,9.853246E-3,3.095946E-1,-1.2939285E-1,1.4905122E-1,1.8160503E-1,6.0604643E-3,1.7286547E-2,-1.7512533E-1,-1.2948803E-3,4.4917184E-1,3.50741E-3,-1.0236644E-3,-4.80067E-4,1.0658315E-3,-9.079847E-4,-2.1621014E-3,8.036587E-3,-1.7320135E-3],"categories":[],"categories_nodes":[],"categories_segments":[],"categories_sizes":[],"default_left":[0,0,0,0,0,0,0,0,0,0,0,0,0,0,0,0,0,0,0,0,0,0,0,0,0,0,0],"id":52,"left_children":[1,3,5,-1,7,9,11,-1,-1,-1,13,15,17,19,-1,21,23,-1,25,-1,-1,-1,-1,-1,-1,-1,-1],"loss_changes":[2.789573E0,1.4443922E-1,1.6019815E0,0E0,8.971159E-3,6.721573E-1,4.837752E-1,0E0,0E0,0E0,5.729084E-1,9.023146E-2,1.0613068E0,7.083212E-1,0E0,2.8438566E-2,1.5013993E-2,0E0,1.4629338E0,0E0,0E0,0E0,0E0,0E0,0E0,0E0,0E0],"parents":[2147483647,0,0,1,1,2,2,4,4,5,5,6,6,10,10,11,11,12,12,13,13,15,15,16,16,18,18],"right_children":[2,4,6,-1,8,10,12,-1,-1,-1,14,16,18,20,-1,22,24,-1,26,-1,-1,-1,-1,-1,-1,-1,-1],"split_conditions":[3E0,5.256E4,6E1,-2.3138954E-3,6E1,1.2E1,7.2E2,5.1341654E-4,-3.5123754E-4,9.853246E-3,6E0,4E0,5.256E4,5E0,6.0604643E-3,3.504E4,6E0,-1.2948803E-3,3.1536E6,3.50741E-3,-1.0236644E-3,-4.80067E-4,1.0658315E-3,-9.079847E-4,-2.1621014E-3,8.036587E-3,-1.7320135E-3],"split_indices":[2,0,1,0,1,1,1,0,0,0,2,2,0,2,0,0,2,0,0,0,0,0,0,0,0,0,0],"split_type":[0,0,0,0,0,0,0,0,0,0,0,0,0,0,0,0,0,0,0,0,0,0,0,0,0,0,0],"sum_hessian":[7.2E1,3.1E1,4.1E1,2.8E1,3E0,1.8E1,2.3E1,1E0,2E0,1E0,1.7E1,1.2E1,1.1E1,1.3E1,4E0,3E0,9E0,6E0,5E0,8E0,5E0,2E0,1E0,4E0,5E0,3E0,2E0],"tree_param":{"num_deleted":"0","num_feature":"3","num_nodes":"27","size_leaf_vector":"1"}},{"base_weights":[1.2962695E-2,-2.0775022E-1,1.8081628E-1,-2.2915544E-3,-6.2472373E-4,3.9401662E-1,4.498659E-3,5.1084935E-4,-3.488959E-4,9.80398E-3,3.069733E-1,-1.2829003E-1,1.4797819E-1,1.7996638E-1,6.0119806E-3,1.7260112E-2,-1.7368108E-1,-1.2837814E-3,4.4573087E-1,4.037466E-3,-3.8337123E-4,-4.7686664E-4,1.0605023E-3,-9.007207E-4,-2.1440838E-3,7.976312E-3,-1.7204668E-3],"categories":[],"categories_nodes":[],"categories_segments":[],"categories_sizes":[],"default_left":[0,0,0,0,0,0,0,0,0,0,0,0,0,0,0,0,0,0,0,0,0,0,0,0,0,0,0],"id":53,"left_children":[1,3,5,-1,7,9,11,-1,-1,-1,13,15,17,19,-1,21,23,-1,25,-1,-1,-1,-1,-1,-1,-1,-1],"loss_changes":[2.7420285E0,1.4173102E-1,1.5770484E0,0E0,8.86963E-3,6.6881466E-1,4.7624308E-1,0E0,0E0,0E0,5.644392E-1,8.888453E-2,1.0446521E0,6.994066E-1,0E0,2.8123708E-2,1.4739484E-2,0E0,1.4416069E0,0E0,0E0,0E0,0E0,0E0,0E0,0E0,0E0],"parents":[2147483647,0,0,1,1,2,2,4,4,5,5,6,6,10,10,11,11,12,12,13,13,15,15,16,16,18,18],"right_children":[2,4,6,-1,8,10,12,-1,-1,-1,14,16,18,20,-1,22,24,-1,26,-1,-1,-1,-1,-1,-1,-1,-1],"split_conditions":[3E0,5.256E4,6E1,-2.2915544E-3,6E1,1.2E1,7.2E2,5.1084935E-4,-3.488959E-4,9.80398E-3,6E0,4E0,5.256E4,4E0,6.0119806E-3,3.504E4,6E0,-1.2837814E-3,3.1536E6,4.037466E-3,-3.8337123E-4,-4.7686664E-4,1.0605023E-3,-9.007207E-4,-2.1440838E-3,7.976312E-3,-1.7204668E-3],"split_indices":[2,0,1,0,1,1,1,0,0,0,2,2,0,2,0,0,2,0,0,0,0,0,0,0,0,0,0],"split_type":[0,0,0,0,0,0,0,0,0,0,0,0,0,0,0,0,0,0,0,0,0,0,0,0,0,0,0],"sum_hessian":[7.2E1,3.1E1,4.1E1,2.8E1,3E0,1.8E1,2.3E1,1E0,2E0,1E0,1.7E1,1.2E1,1.1E1,1.3E1,4E0,3E0,9E0,6E0,5E0,6E0,7E0,2E0,1E0,4E0,5E0,3E0,2E0],"tree_param":{"num_deleted":"0","num_feature":"3","num_nodes":"27","size_leaf_vector":"1"}},{"base_weights":[1.310501E-2,-2.0573924E-1,1.7953147E-1,-2.269429E-3,-5.779788E-4,3.911012E-1,4.5582876E-3,5.0829496E-4,-3.4656972E-4,9.7549595E-3,3.0444062E-1,-1.2719645E-1,1.4691272E-1,1.7842774E-1,5.963885E-3,1.7233409E-2,-1.7224875E-1,-1.2727774E-3,4.4231617E-1,3.4582433E-3,-1.0240511E-3,-4.7368775E-4,1.0551998E-3,-8.93515E-4,-2.1262167E-3,7.91649E-3,-1.708997E-3],"categories":[],"categories_nodes":[],"categories_segments":[],"categories_sizes":[],"default_left":[0,0,0,0,0,0,0,0,0,0,0,0,0,0,0,0,0,0,0,0,0,0,0,0,0,0,0],"id":54,"left_children":[1,3,5,-1,7,9,11,-1,-1,-1,13,15,17,19,-1,21,23,-1,25,-1,-1,-1,-1,-1,-1,-1,-1],"loss_changes":[2.6957045E0,1.3907409E-1,1.5530168E0,0E0,8.769257E-3,6.652553E-1,4.688277E-1,0E0,0E0,0E0,5.557933E-1,8.7558076E-2,1.0282587E0,6.935606E-1,0E0,2.7812373E-2,1.4469951E-2,0E0,1.4205911E0,0E0,0E0,0E0,0E0,0E0,0E0,0E0,0E0],"parents":[2147483647,0,0,1,1,2,2,4,4,5,5,6,6,10,10,11,11,12,12,13,13,15,15,16,16,18,18],"right_children":[2,4,6,-1,8,10,12,-1,-1,-1,14,16,18,20,-1,22,24,-1,26,-1,-1,-1,-1,-1,-1,-1,-1],"split_conditions":[3E0,5.256E4,6E1,-2.269429E-3,6E1,1.2E1,7.2E2,5.0829496E-4,-3.4656972E-4,9.7549595E-3,6E0,4E0,5.256E4,8.76E3,5.963885E-3,3.504E4,6E0,-1.2727774E-3,3.1536E6,3.4582433E-3,-1.0240511E-3,-4.7368775E-4,1.0551998E-3,-8.93515E-4,-2.1262167E-3,7.91649E-3,-1.708997E-3],"split_indices":[2,0,1,0,1,1,1,0,0,0,2,2,0,0,0,0,2,0,0,0,0,0,0,0,0,0,0],"split_type":[0,0,0,0,0,0,0,0,0,0,0,0,0,0,0,0,0,0,0,0,0,0,0,0,0,0,0],"sum_hessian":[7.2E1,3.1E1,4.1E1,2.8E1,3E0,1.8E1,2.3E1,1E0,2E0,1E0,1.7E1,1.2E1,1.1E1,1.3E1,4E0,3E0,9E0,6E0,5E0,8E0,5E0,2E0,1E0,4E0,5E0,3E0,2E0],"tree_param":{"num_deleted":"0","num_feature":"3","num_nodes":"27","size_leaf_vector":"1"}},{"base_weights":[1.3227951E-2,-2.0374773E-1,1.7822781E-1,-2.2475175E-3,-5.317852E-4,3.881456E-1,4.616726E-3,5.0575344E-4,-3.4425943E-4,9.706184E-3,3.0186275E-1,-1.2611204E-1,1.4585483E-1,1.7681731E-1,5.9161745E-3,1.7206453E-2,-1.7082824E-1,-1.261868E-3,4.389276E-1,3.9860234E-3,-3.9346772E-4,-4.705299E-4,1.0499238E-3,-8.8636694E-4,-2.108498E-3,7.857116E-3,-1.6976037E-3],"categories":[],"categories_nodes":[],"categories_segments":[],"categories_sizes":[],"default_left":[0,0,0,0,0,0,0,0,0,0,0,0,0,0,0,0,0,0,0,0,0,0,0,0,0,0,0],"id":55,"left_children":[1,3,5,-1,7,9,11,-1,-1,-1,13,15,17,19,-1,21,23,-1,25,-1,-1,-1,-1,-1,-1,-1,-1],"loss_changes":[2.6497834E0,1.3646758E-1,1.5288585E0,0E0,8.670037E-3,6.618974E-1,4.6152723E-1,0E0,0E0,0E0,5.475769E-1,8.6251915E-2,1.0121228E0,6.8687123E-1,0E0,2.750451E-2,1.4205307E-2,0E0,1.3998826E0,0E0,0E0,0E0,0E0,0E0,0E0,0E0,0E0],"parents":[2147483647,0,0,1,1,2,2,4,4,5,5,6,6,10,10,11,11,12,12,13,13,15,15,16,16,18,18],"right_children":[2,4,6,-1,8,10,12,-1,-1,-1,14,16,18,20,-1,22,24,-1,26,-1,-1,-1,-1,-1,-1,-1,-1],"split_conditions":[3E0,5.256E4,6E1,-2.2475175E-3,6E1,1.2E1,7.2E2,5.0575344E-4,-3.4425943E-4,9.706184E-3,6E0,4E0,5.256E4,4E0,5.9161745E-3,3.504E4,6E0,-1.261868E-3,3.1536E6,3.9860234E-3,-3.9346772E-4,-4.705299E-4,1.0499238E-3,-8.8636694E-4,-2.108498E-3,7.857116E-3,-1.6976037E-3],"split_indices":[2,0,1,0,1,1,1,0,0,0,2,2,0,2,0,0,2,0,0,0,0,0,0,0,0,0,0],"split_type":[0,0,0,0,0,0,0,0,0,0,0,0,0,0,0,0,0,0,0,0,0,0,0,0,0,0,0],"sum_hessian":[7.2E1,3.1E1,4.1E1,2.8E1,3E0,1.8E1,2.3E1,1E0,2E0,1E0,1.7E1,1.2E1,1.1E1,1.3E1,4E0,3E0,9E0,6E0,5E0,6E0,7E0,2E0,1E0,4E0,5E0,3E0,2E0],"tree_param":{"num_deleted":"0","num_feature":"3","num_nodes":"27","size_leaf_vector":"1"}},{"base_weights":[1.3364319E-2,-2.0177545E-1,1.7696214E-1,-2.2258172E-3,-4.8608333E-4,3.8527545E-1,4.6739927E-3,5.032247E-4,-3.4196425E-4,9.657654E-3,2.9937238E-1,-1.2503673E-1,1.4480445E-1,1.7530575E-1,5.8688447E-3,1.7179228E-2,-1.6941944E-1,-1.2510521E-3,4.3556497E-1,3.411536E-3,-1.0268366E-3,-4.6739308E-4,1.0446742E-3,-8.792759E-4,-2.0909272E-3,7.798189E-3,-1.6862864E-3],"categories":[],"categories_nodes":[],"categories_segments":[],"categories_sizes":[],"default_left":[0,0,0,0,0,0,0,0,0,0,0,0,0,0,0,0,0,0,0,0,0,0,0,0,0,0,0],"id":56,"left_children":[1,3,5,-1,7,9,11,-1,-1,-1,13,15,17,19,-1,21,23,-1,25,-1,-1,-1,-1,-1,-1,-1,-1],"loss_changes":[2.6050434E0,1.3391042E-1,1.5055758E0,0E0,8.571944E-3,6.5832806E-1,4.5433995E-1,0E0,0E0,0E0,5.3918755E-1,8.496557E-2,9.9624026E-1,6.8048626E-1,0E0,2.720007E-2,1.394549E-2,0E0,1.3794762E0,0E0,0E0,0E0,0E0,0E0,0E0,0E0,0E0],"parents":[2147483647,0,0,1,1,2,2,4,4,5,5,6,6,10,10,11,11,12,12,13,13,15,15,16,16,18,18],"right_children":[2,4,6,-1,8,10,12,-1,-1,-1,14,16,18,20,-1,22,24,-1,26,-1,-1,-1,-1,-1,-1,-1,-1],"split_conditions":[3E0,5.256E4,6E1,-2.2258172E-3,6E1,1.2E1,7.2E2,5.032247E-4,-3.4196425E-4,9.657654E-3,6E0,4E0,5.256E4,8.76E3,5.8688447E-3,3.504E4,6E0,-1.2510521E-3,3.1536E6,3.411536E-3,-1.0268366E-3,-4.6739308E-4,1.0446742E-3,-8.792759E-4,-2.0909272E-3,7.798189E-3,-1.6862864E-3],"split_indices":[2,0,1,0,1,1,1,0,0,0,2,2,0,0,0,0,2,0,0,0,0,0,0,0,0,0,0],"split_type":[0,0,0,0,0,0,0,0,0,0,0,0,0,0,0,0,0,0,0,0,0,0,0,0,0,0,0],"sum_hessian":[7.2E1,3.1E1,4.1E1,2.8E1,3E0,1.8E1,2.3E1,1E0,2E0,1E0,1.7E1,1.2E1,1.1E1,1.3E1,4E0,3E0,9E0,6E0,5E0,8E0,5E0,2E0,1E0,4E0,5E0,3E0,2E0],"tree_param":{"num_deleted":"0","num_feature":"3","num_nodes":"27","size_leaf_vector":"1"}},{"base_weights":[1.3481559E-2,-1.9982222E-1,1.7567773E-1,-2.2043267E-3,-4.409179E-4,3.823654E-1,4.730083E-3,5.007085E-4,-3.396846E-4,9.609366E-3,2.9683718E-1,-1.2397043E-1,1.4376146E-1,1.7372303E-1,5.8218944E-3,1.7151766E-2,-1.6802226E-1,-1.2403289E-3,4.3222797E-1,3.9352975E-3,-4.0323214E-4,-4.6427696E-4,1.0394508E-3,-8.722416E-4,-2.0735029E-3,7.7397022E-3,-1.6750445E-3],"categories":[],"categories_nodes":[],"categories_segments":[],"categories_sizes":[],"default_left":[0,0,0,0,0,0,0,0,0,0,0,0,0,0,0,0,0,0,0,0,0,0,0,0,0,0,0],"id":57,"left_children":[1,3,5,-1,7,9,11,-1,-1,-1,13,15,17,19,-1,21,23,-1,25,-1,-1,-1,-1,-1,-1,-1,-1],"loss_changes":[2.5606894E0,1.3140166E-1,1.4821677E0,0E0,8.474971E-3,6.549573E-1,4.4726396E-1,0E0,0E0,0E0,5.312165E-1,8.369887E-2,9.8060685E-1,6.745516E-1,0E0,2.689902E-2,1.3690382E-2,0E0,1.3593673E0,0E0,0E0,0E0,0E0,0E0,0E0,0E0,0E0],"parents":[2147483647,0,0,1,1,2,2,4,4,5,5,6,6,10,10,11,11,12,12,13,13,15,15,16,16,18,18],"right_children":[2,4,6,-1,8,10,12,-1,-1,-1,14,16,18,20,-1,22,24,-1,26,-1,-1,-1,-1,-1,-1,-1,-1],"split_conditions":[3E0,5.256E4,6E1,-2.2043267E-3,6E1,1.2E1,7.2E2,5.007085E-4,-3.396846E-4,9.609366E-3,6E0,4E0,5.256E4,4E0,5.8218944E-3,3.504E4,6E0,-1.2403289E-3,3.1536E6,3.9352975E-3,-4.0323214E-4,-4.6427696E-4,1.0394508E-3,-8.722416E-4,-2.0735029E-3,7.7397022E-3,-1.6750445E-3],"split_indices":[2,0,1,0,1,1,1,0,0,0,2,2,0,2,0,0,2,0,0,0,0,0,0,0,0,0,0],"split_type":[0,0,0,0,0,0,0,0,0,0,0,0,0,0,0,0,0,0,0,0,0,0,0,0,0,0,0],"sum_hessian":[7.2E1,3.1E1,4.1E1,2.8E1,3E0,1.8E1,2.3E1,1E0,2E0,1E0,1.7E1,1.2E1,1.1E1,1.3E1,4E0,3E0,9E0,6E0,5E0,6E0,7E0,2E0,1E0,4E0,5E0,3E0,2E0],"tree_param":{"num_deleted":"0","num_feature":"3","num_nodes":"27","size_leaf_vector":"1"}},{"base_weights":[1.3612139E-2,-1.9788784E-1,1.7443089E-1,-2.1830434E-3,-3.9624423E-4,3.7953982E-1,4.785025E-3,4.9820513E-4,-3.3741997E-4,9.561319E-3,2.9438847E-1,-1.2291307E-1,1.4272588E-1,1.722381E-1,5.7753185E-3,1.7124034E-2,-1.666366E-1,-1.2296974E-3,4.2891645E-1,3.3655134E-3,-1.0293814E-3,-4.611819E-4,1.0342535E-3,-8.652636E-4,