{"learner":{"attributes":{"scikit_learn":"{\"_estimator_type\": \"regressor\"}"},"feature_names":["trend","seasonal_strength","entropy","hurst","stability","lumpiness"],"feature_types":["float","float","float","float","float","float"],"gradient_booster":{"model":{"gbtree_model_param":{"num_parallel_tree":"1","num_trees":"200"},"iteration_indptr":[0,1,2,3,4,5,6,7,8,9,10,11,12,13,14,15,16,17,18,19,20,21,22,23,24,25,26,27,28,29,30,31,32,33,34,35,36,37,38,39,40,41,42,43,44,45,46,47,48,49,50,51,52,53,54,55,56,57,58,59,60,61,62,63,64,65,66,67,68,69,70,71,72,73,74,75,76,77,78,79,80,81,82,83,84,85,86,87,88,89,90,91,92,93,94,95,96,97,98,99,100,101,102,103,104,105,106,107,108,109,110,111,112,113,114,115,116,117,118,119,120,121,122,123,124,125,126,127,128,129,130,131,132,133,134,135,136,137,138,139,140,141,142,143,144,145,146,147,148,149,150,151,152,153,154,155,156,157,158,159,160,161,162,163,164,165,166,167,168,169,170,171,172,173,174,175,176,177,178,179,180,181,182,183,184,185,186,187,188,189,190,191,192,193,194,195,196,197,198,199,200],"tree_info":[0,0,0,0,0,0,0,0,0,0,0,0,0,0,0,0,0,0,0,0,0,0,0,0,0,0,0,0,0,0,0,0,0,0,0,0,0,0,0,0,0,0,0,0,0,0,0,0,0,0,0,0,0,0,0,0,0,0,0,0,0,0,0,0,0,0,0,0,0,0,0,0,0,0,0,0,0,0,0,0,0,0,0,0,0,0,0,0,0,0,0,0,0,0,0,0,0,0,0,0,0,0,0,0,0,0,0,0,0,0,0,0,0,0,0,0,0,0,0,0,0,0,0,0,0,0,0,0,0,0,0,0,0,0,0,0,0,0,0,0,0,0,0,0,0,0,0,0,0,0,0,0,0,0,0,0,0,0,0,0,0,0,0,0,0,0,0,0,0,0,0,0,0,0,0,0,0,0,0,0,0,0,0,0,0,0,0,0,0,0,0,0,0,0,0,0,0,0,0,0],"trees":[{"base_weights":[6.2258274E-9,-4.680482E-2,2.995509E-1,1.6860628E-1,-7.621682E-2,2.7711809E-2,4.120945E-1,-8.9614425E-4,2.18297E-3,-1.3062912E-3,-6.3164065E-5,-8.5439143E-4,9.390851E-4,1.5025843E-3,4.8677726E-3],"categories":[],"categories_nodes":[],"categories_segments":[],"categories_sizes":[],"default_left":[0,0,0,0,0,0,0,0,0,0,0,0,0,0,0],"id":0,"left_children":[1,3,5,7,9,11,13,-1,-1,-1,-1,-1,-1,-1,-1],"loss_changes":[1.0375115E0,4.1833362E-1,2.9451764E-1,1.2221195E-1,2.1597108E-1,3.798434E-2,6.3740134E-2,0E0,0E0,0E0,0E0,0E0,0E0,0E0,0E0],"parents":[2147483647,0,0,1,1,2,2,3,3,4,4,5,5,6,6],"right_children":[2,4,6,8,10,12,14,-1,-1,-1,-1,-1,-1,-1,-1],"split_conditions":[1.1327423E0,2.6132414E-1,3.1365713E-1,9.7679144E-1,2.056581E-1,5.7087415E-1,1.6904539E-1,-8.9614425E-4,2.18297E-3,-1.3062912E-3,-6.3164065E-5,-8.5439143E-4,9.390851E-4,1.5025843E-3,4.8677726E-3],"split_indices":[5,2,1,0,5,2,4,0,0,0,0,0,0,0,0],"split_type":[0,0,0,0,0,0,0,0,0,0,0,0,0,0,0],"sum_hessian":[7.2E1,6.3E1,9E0,7E0,5.6E1,3E0,6E0,1E0,6E0,3.1E1,2.5E1,1E0,2E0,2E0,4E0],"tree_param":{"num_deleted":"0","num_feature":"6","num_nodes":"15","size_leaf_vector":"1"}},{"base_weights":[8.730111E-5,-4.633806E-2,2.972009E-1,1.6708106E-1,-7.547867E-2,2.7455863E-2,4.0888363E-1,-8.9166354E-4,2.1642589E-3,-1.2936365E-3,-6.25567E-5,-8.501195E-4,9.328245E-4,1.4925671E-3,4.8288302E-3],"categories":[],"categories_nodes":[],"categories_segments":[],"categories_sizes":[],"default_left":[0,0,0,0,0,0,0,0,0,0,0,0,0,0,0],"id":1,"left_children":[1,3,5,7,9,11,13,-1,-1,-1,-1,-1,-1,-1,-1],"loss_changes":[1.0207049E0,4.1063756E-1,2.900324E-1,1.20453745E-1,2.1180528E-1,3.7543613E-2,6.2412024E-2,0E0,0E0,0E0,0E0,0E0,0E0,0E0,0E0],"parents":[2147483647,0,0,1,1,2,2,3,3,4,4,5,5,6,6],"right_children":[2,4,6,8,10,12,14,-1,-1,-1,-1,-1,-1,-1,-1],"split_conditions":[1.1327423E0,2.6132414E-1,3.1365713E-1,9.7679144E-1,2.056581E-1,5.7087415E-1,1.6904539E-1,-8.9166354E-4,2.1642589E-3,-1.2936365E-3,-6.25567E-5,-8.501195E-4,9.328245E-4,1.4925671E-3,4.8288302E-3],"split_indices":[5,2,1,0,5,2,4,0,0,0,0,0,0,0,0],"split_type":[0,0,0,0,0,0,0,0,0,0,0,0,0,0,0],"sum_hessian":[7.2E1,6.3E1,9E0,7E0,5.6E1,3E0,6E0,1E0,6E0,3.1E1,2.5E1,1E0,2E0,2E0,4E0],"tree_param":{"num_deleted":"0","num_feature":"6","num_nodes":"15","size_leaf_vector":"1"}},{"base_weights":[1.730079E-4,-4.587599E-2,2.9486927E-1,1.6556934E-1,-7.474768E-2,2.720198E-2,4.0569782E-1,-8.872052E-4,2.145708E-3,-1.2811045E-3,-6.195518E-5,-8.4586884E-4,9.2660566E-4,1.4826168E-3,4.7901995E-3],"categories":[],"categories_nodes":[],"categories_segments":[],"categories_sizes":[],"default_left":[0,0,0,0,0,0,0,0,0,0,0,0,0,0,0],"id":2,"left_children":[1,3,5,7,9,11,13,-1,-1,-1,-1,-1,-1,-1,-1],"loss_changes":[1.0041715E0,4.0308213E-1,2.856161E-1,1.1872147E-1,2.0771992E-1,3.710803E-2,6.111002E-2,0E0,0E0,0E0,0E0,0E0,0E0,0E0,0E0],"parents":[2147483647,0,0,1,1,2,2,3,3,4,4,5,5,6,6],"right_children":[2,4,6,8,10,12,14,-1,-1,-1,-1,-1,-1,-1,-1],"split_conditions":[1.1327423E0,2.6132414E-1,3.1365713E-1,9.7679144E-1,2.056581E-1,5.7087415E-1,1.6904539E-1,-8.872052E-4,2.145708E-3,-1.2811045E-3,-6.195518E-5,-8.4586884E-4,9.2660566E-4,1.4826168E-3,4.7901995E-3],"split_indices":[5,2,1,0,5,2,4,0,0,0,0,0,0,0,0],"split_type":[0,0,0,0,0,0,0,0,0,0,0,0,0,0,0],"sum_hessian":[7.2E1,6.3E1,9E0,7E0,5.6E1,3E0,6E0,1E0,6E0,3.1E1,2.5E1,1E0,2E0,2E0,4E0],"tree_param":{"num_deleted":"0","num_feature":"6","num_nodes":"15","size_leaf_vector":"1"}},{"base_weights":[2.5715108E-4,-4.5418553E-2,2.9255593E-1,1.6407095E-1,-7.402377E-2,2.6950147E-2,4.0253696E-1,-8.8276924E-4,2.1273163E-3,-1.2686938E-3,-6.1359446E-5,-8.416395E-4,9.204283E-4,1.4727325E-3,4.751878E-3],"categories":[],"categories_nodes":[],"categories_segments":[],"categories_sizes":[],"default_left":[0,0,0,0,0,0,0,0,0,0,0,0,0,0,0],"id":3,"left_children":[1,3,5,7,9,11,13,-1,-1,-1,-1,-1,-1,-1,-1],"loss_changes":[9.8790693E-1,3.9566463E-1,2.8126764E-1,1.1701465E-1,2.0371327E-1,3.667755E-2,5.983329E-2,0E0,0E0,0E0,0E0,0E0,0E0,0E0,0E0],"parents":[2147483647,0,0,1,1,2,2,3,3,4,4,5,5,6,6],"right_children":[2,4,6,8,10,12,14,-1,-1,-1,-1,-1,-1,-1,-1],"split_conditions":[1.1327423E0,2.6132414E-1,3.1365713E-1,9.7679144E-1,2.056581E-1,5.7087415E-1,1.6904539E-1,-8.8276924E-4,2.1273163E-3,-1.2686938E-3,-6.1359446E-5,-8.416395E-4,9.204283E-4,1.4727325E-3,4.751878E-3],"split_indices":[5,2,1,0,5,2,4,0,0,0,0,0,0,0,0],"split_type":[0,0,0,0,0,0,0,0,0,0,0,0,0,0,0],"sum_hessian":[7.2E1,6.3E1,9E0,7E0,5.6E1,3E0,6E0,1E0,6E0,3.1E1,2.5E1,1E0,2E0,2E0,4E0],"tree_param":{"num_deleted":"0","num_feature":"6","num_nodes":"15","size_leaf_vector":"1"}},{"base_weights":[3.397619E-4,-4.4965696E-2,2.9026073E-1,1.6258581E-1,-7.330686E-2,2.670034E-2,3.9940083E-1,-8.7835535E-4,2.1090822E-3,-1.2564033E-3,-6.076939E-5,-8.374314E-4,9.142921E-4,1.4629145E-3,4.713863E-3],"categories":[],"categories_nodes":[],"categories_segments":[],"categories_sizes":[],"default_left":[0,0,0,0,0,0,0,0,0,0,0,0,0,0,0],"id":4,"left_children":[1,3,5,7,9,11,13,-1,-1,-1,-1,-1,-1,-1,-1],"loss_changes":[9.7190696E-1,3.883827E-1,2.7698582E-1,1.1533293E-1,1.9978389E-1,3.62521E-2,5.858171E-2,0E0,0E0,0E0,0E0,0E0,0E0,0E0,0E0],"parents":[2147483647,0,0,1,1,2,2,3,3,4,4,5,5,6,6],"right_children":[2,4,6,8,10,12,14,-1,-1,-1,-1,-1,-1,-1,-1],"split_conditions":[1.1327423E0,2.6132414E-1,3.1365713E-1,9.7679144E-1,2.056581E-1,5.7087415E-1,1.6904539E-1,-8.7835535E-4,2.1090822E-3,-1.2564033E-3,-6.076939E-5,-8.374314E-4,9.142921E-4,1.4629145E-3,4.713863E-3],"split_indices":[5,2,1,0,5,2,4,0,0,0,0,0,0,0,0],"split_type":[0,0,0,0,0,0,0,0,0,0,0,0,0,0,0],"sum_hessian":[7.2E1,6.3E1,9E0,7E0,5.6E1,3E0,6E0,1E0,6E0,3.1E1,2.5E1,1E0,2E0,2E0,4E0],"tree_param":{"num_deleted":"0","num_feature":"6","num_nodes":"15","size_leaf_vector":"1"}},{"base_weights":[4.2084543E-4,-4.451739E-2,2.8798348E-1,1.6111378E-1,-7.25969E-2,2.6452553E-2,3.9628923E-1,-8.739636E-4,2.0910043E-3,-1.2442318E-3,-6.0185117E-5,-8.3324424E-4,9.0819685E-4,1.4531617E-3,4.676152E-3],"categories":[],"categories_nodes":[],"categories_segments":[],"categories_sizes":[],"default_left":[0,0,0,0,0,0,0,0,0,0,0,0,0,0,0],"id":5,"left_children":[1,3,5,7,9,11,13,-1,-1,-1,-1,-1,-1,-1,-1],"loss_changes":[9.5616704E-1,3.8123384E-1,2.7277005E-1,1.1367597E-1,1.9593027E-1,3.583162E-2,5.735421E-2,0E0,0E0,0E0,0E0,0E0,0E0,0E0,0E0],"parents":[2147483647,0,0,1,1,2,2,3,3,4,4,5,5,6,6],"right_children":[2,4,6,8,10,12,14,-1,-1,-1,-1,-1,-1,-1,-1],"split_conditions":[1.1327423E0,2.6132414E-1,3.1365713E-1,9.7679144E-1,2.056581E-1,5.7087415E-1,1.6904539E-1,-8.739636E-4,2.0910043E-3,-1.2442318E-3,-6.0185117E-5,-8.3324424E-4,9.0819685E-4,1.4531617E-3,4.676152E-3],"split_indices":[5,2,1,0,5,2,4,0,0,0,0,0,0,0,0],"split_type":[0,0,0,0,0,0,0,0,0,0,0,0,0,0,0],"sum_hessian":[7.2E1,6.3E1,9E0,7E0,5.6E1,3E0,6E0,1E0,6E0,3.1E1,2.5E1,1E0,2E0,2E0,4E0],"tree_param":{"num_deleted":"0","num_feature":"6","num_nodes":"15","size_leaf_vector":"1"}},{"base_weights":[5.0043047E-4,-4.407358E-2,2.8572407E-1,1.5965478E-1,-7.189382E-2,2.6206765E-2,3.9320195E-1,-8.6959376E-4,2.0730814E-3,-1.2321783E-3,-5.9606402E-5,-8.29078E-4,9.021422E-4,1.4434739E-3,4.6387427E-3],"categories":[],"categories_nodes":[],"categories_segments":[],"categories_sizes":[],"default_left":[0,0,0,0,0,0,0,0,0,0,0,0,0,0,0],"id":6,"left_children":[1,3,5,7,9,11,13,-1,-1,-1,-1,-1,-1,-1,-1],"loss_changes":[9.406829E-1,3.742155E-1,2.6861906E-1,1.1204338E-1,1.9215104E-1,3.5416048E-2,5.6150913E-2,0E0,0E0,0E0,0E0,0E0,0E0,0E0,0E0],"parents":[2147483647,0,0,1,1,2,2,3,3,4,4,5,5,6,6],"right_children":[2,4,6,8,10,12,14,-1,-1,-1,-1,-1,-1,-1,-1],"split_conditions":[1.1327423E0,2.6132414E-1,3.1365713E-1,9.7679144E-1,2.056581E-1,5.7087415E-1,1.6904539E-1,-8.6959376E-4,2.0730814E-3,-1.2321783E-3,-5.9606402E-5,-8.29078E-4,9.021422E-4,1.4434739E-3,4.6387427E-3],"split_indices":[5,2,1,0,5,2,4,0,0,0,0,0,0,0,0],"split_type":[0,0,0,0,0,0,0,0,0,0,0,0,0,0,0],"sum_hessian":[7.2E1,6.3E1,9E0,7E0,5.6E1,3E0,6E0,1E0,6E0,3.1E1,2.5E1,1E0,2E0,2E0,4E0],"tree_param":{"num_deleted":"0","num_feature":"6","num_nodes":"15","size_leaf_vector":"1"}},{"base_weights":[5.785336E-4,-4.363423E-2,2.8348234E-1,1.5820867E-1,-7.119754E-2,2.596296E-2,3.901388E-1,-8.652458E-4,2.055312E-3,-1.9265288E-4,-1.3690022E-3,-8.2493265E-4,8.961279E-4,1.4338506E-3,4.6016327E-3],"categories":[],"categories_nodes":[],"categories_segments":[],"categories_sizes":[],"default_left":[0,0,0,0,0,0,0,0,0,0,0,0,0,0,0],"id":7,"left_children":[1,3,5,7,9,11,13,-1,-1,-1,-1,-1,-1,-1,-1],"loss_changes":[9.254505E-1,3.6732548E-1,2.645319E-1,1.10434696E-1,1.9185159E-1,3.5005335E-2,5.49711E-2,0E0,0E0,0E0,0E0,0E0,0E0,0E0,0E0],"parents":[2147483647,0,0,1,1,2,2,3,3,4,4,5,5,6,6],"right_children":[2,4,6,8,10,12,14,-1,-1,-1,-1,-1,-1,-1,-1],"split_conditions":[1.1327423E0,2.6132414E-1,3.1365713E-1,9.7679144E-1,8.159345E-1,5.7087415E-1,1.6904539E-1,-8.652458E-4,2.055312E-3,-1.9265288E-4,-1.3690022E-3,-8.2493265E-4,8.961279E-4,1.4338506E-3,4.6016327E-3],"split_indices":[5,2,1,0,3,2,4,0,0,0,0,0,0,0,0],"split_type":[0,0,0,0,0,0,0,0,0,0,0,0,0,0,0],"sum_hessian":[7.2E1,6.3E1,9E0,7E0,5.6E1,3E0,6E0,1E0,6E0,3.2E1,2.4E1,1E0,2E0,2E0,4E0],"tree_param":{"num_deleted":"0","num_feature":"6","num_nodes":"15","size_leaf_vector":"1"}},{"base_weights":[6.5131293E-4,-4.320369E-2,2.812582E-1,1.5677534E-1,-7.0512965E-2,2.5721129E-2,3.8709965E-1,-8.6091954E-4,2.0376951E-3,-1.2132288E-3,-5.265642E-5,-8.20808E-4,8.901537E-4,1.4242918E-3,4.56482E-3],"categories":[],"categories_nodes":[],"categories_segments":[],"categories_sizes":[],"default_left":[0,0,0,0,0,0,0,0,0,0,0,0,0,0,0],"id":8,"left_children":[1,3,5,7,9,11,13,-1,-1,-1,-1,-1,-1,-1,-1],"loss_changes":[9.104905E-1,3.6057675E-1,2.6050746E-1,1.08849734E-1,1.8832815E-1,3.4599423E-2,5.381441E-2,0E0,0E0,0E0,0E0,0E0,0E0,0E0,0E0],"parents":[2147483647,0,0,1,1,2,2,3,3,4,4,5,5,6,6],"right_children":[2,4,6,8,10,12,14,-1,-1,-1,-1,-1,-1,-1,-1],"split_conditions":[1.1327423E0,2.6132414E-1,3.1365713E-1,9.7679144E-1,2.056581E-1,5.7087415E-1,1.6904539E-1,-8.6091954E-4,2.0376951E-3,-1.2132288E-3,-5.265642E-5,-8.20808E-4,8.901537E-4,1.4242918E-3,4.56482E-3],"split_indices":[5,2,1,0,5,2,4,0,0,0,0,0,0,0,0],"split_type":[0,0,0,0,0,0,0,0,0,0,0,0,0,0,0],"sum_hessian":[7.2E1,6.3E1,9E0,7E0,5.6E1,3E0,6E0,1E0,6E0,3.1E1,2.5E1,1E0,2E0,2E0,4E0],"tree_param":{"num_deleted":"0","num_feature":"6","num_nodes":"15","size_leaf_vector":"1"}},{"base_weights":[7.265709E-4,-4.2773046E-2,2.7905145E-1,1.5535468E-1,-6.9830045E-2,2.5481254E-2,3.8408422E-1,-8.5661496E-4,2.0202291E-3,-1.8429538E-4,-1.348855E-3,-8.16704E-4,8.8421936E-4,1.4147963E-3,4.5283013E-3],"categories":[],"categories_nodes":[],"categories_segments":[],"categories_sizes":[],"default_left":[0,0,0,0,0,0,0,0,0,0,0,0,0,0,0],"id":9,"left_children":[1,3,5,7,9,11,13,-1,-1,-1,-1,-1,-1,-1,-1],"loss_changes":[8.957488E-1,3.539359E-1,2.565449E-1,1.07288E-1,1.8811548E-1,3.4198254E-2,5.2680135E-2,0E0,0E0,0E0,0E0,0E0,0E0,0E0,0E0],"parents":[2147483647,0,0,1,1,2,2,3,3,4,4,5,5,6,6],"right_children":[2,4,6,8,10,12,14,-1,-1,-1,-1,-1,-1,-1,-1],"split_conditions":[1.1327423E0,2.6132414E-1,3.1365713E-1,9.7679144E-1,8.159345E-1,5.7087415E-1,1.6904539E-1,-8.5661496E-4,2.0202291E-3,-1.8429538E-4,-1.348855E-3,-8.16704E-4,8.8421936E-4,1.4147963E-3,4.5283013E-3],"split_indices":[5,2,1,0,3,2,4,0,0,0,0,0,0,0,0],"split_type":[0,0,0,0,0,0,0,0,0,0,0,0,0,0,0],"sum_hessian":[7.2E1,6.3E1,9E0,7E0,5.6E1,3E0,6E0,1E0,6E0,3.2E1,2.4E1,1E0,2E0,2E0,4E0],"tree_param":{"num_deleted":"0","num_feature":"6","num_nodes":"15","size_leaf_vector":"1"}},{"base_weights":[7.9657964E-4,-4.235109E-2,2.76862E-1,1.539466E-1,-6.9158636E-2,2.524332E-2,3.810924E-1,-8.523319E-4,2.002913E-3,-1.1945954E-3,-4.5898894E-5,-8.126205E-4,8.7832456E-4,1.4053644E-3,4.4920747E-3],"categories":[],"categories_nodes":[],"categories_segments":[],"categories_sizes":[],"default_left":[0,0,0,0,0,0,0,0,0,0,0,0,0,0,0],"id":10,"left_children":[1,3,5,7,9,11,13,-1,-1,-1,-1,-1,-1,-1,-1],"loss_changes":[8.812707E-1,3.4743136E-1,2.5264317E-1,1.0574922E-1,1.8458009E-1,3.3801768E-2,5.156827E-2,0E0,0E0,0E0,0E0,0E0,0E0,0E0,0E0],"parents":[2147483647,0,0,1,1,2,2,3,3,4,4,5,5,6,6],"right_children":[2,4,6,8,10,12,14,-1,-1,-1,-1,-1,-1,-1,-1],"split_conditions":[1.1327423E0,2.6132414E-1,3.1365713E-1,9.7679144E-1,2.056581E-1,5.7087415E-1,1.6904539E-1,-8.523319E-4,2.002913E-3,-1.1945954E-3,-4.5898894E-5,-8.126205E-4,8.7832456E-4,1.4053644E-3,4.4920747E-3],"split_indices":[5,2,1,0,5,2,4,0,0,0,0,0,0,0,0],"split_type":[0,0,0,0,0,0,0,0,0,0,0,0,0,0,0],"sum_hessian":[7.2E1,6.3E1,9E0,7E0,5.6E1,3E0,6E0,1E0,6E0,3.1E1,2.5E1,1E0,2E0,2E0,4E0],"tree_param":{"num_deleted":"0","num_feature":"6","num_nodes":"15","size_leaf_vector":"1"}},{"base_weights":[8.690695E-4,-4.1928984E-2,2.746897E-1,1.5255095E-1,-6.8488814E-2,2.5007315E-2,3.7812397E-1,-8.480703E-4,1.9857453E-3,-1.7614565E-4,-1.3290327E-3,-8.085574E-4,8.7246916E-4,1.3959954E-3,4.4561382E-3],"categories":[],"categories_nodes":[],"categories_segments":[],"categories_sizes":[],"default_left":[0,0,0,0,0,0,0,0,0,0,0,0,0,0,0],"id":11,"left_children":[1,3,5,7,9,11,13,-1,-1,-1,-1,-1,-1,-1,-1],"loss_changes":[8.6700374E-1,3.4103072E-1,2.4880129E-1,1.0423301E-1,1.8445009E-1,3.3409912E-2,5.047834E-2,0E0,0E0,0E0,0E0,0E0,0E0,0E0,0E0],"parents":[2147483647,0,0,1,1,2,2,3,3,4,4,5,5,6,6],"right_children":[2,4,6,8,10,12,14,-1,-1,-1,-1,-1,-1,-1,-1],"split_conditions":[1.1327423E0,2.6132414E-1,3.1365713E-1,9.7679144E-1,8.159345E-1,5.7087415E-1,1.6904539E-1,-8.480703E-4,1.9857453E-3,-1.7614565E-4,-1.3290327E-3,-8.085574E-4,8.7246916E-4,1.3959954E-3,4.4561382E-3],"split_indices":[5,2,1,0,3,2,4,0,0,0,0,0,0,0,0],"split_type":[0,0,0,0,0,0,0,0,0,0,0,0,0,0,0],"sum_hessian":[7.2E1,6.3E1,9E0,7E0,5.6E1,3E0,6E0,1E0,6E0,3.2E1,2.4E1,1E0,2E0,2E0,4E0],"tree_param":{"num_deleted":"0","num_feature":"6","num_nodes":"15","size_leaf_vector":"1"}},{"base_weights":[9.36386E-4,-4.1515436E-2,2.725344E-1,1.5116765E-1,-6.783033E-2,2.4773221E-2,3.7517875E-1,-8.4382994E-4,1.9687244E-3,-1.7443758E-4,-1.3162739E-3,-8.045146E-4,8.666527E-4,1.3866888E-3,4.420489E-3],"categories":[],"categories_nodes":[],"categories_segments":[],"categories_sizes":[],"default_left":[0,0,0,0,0,0,0,0,0,0,0,0,0,0,0],"id":12,"left_children":[1,3,5,7,9,11,13,-1,-1,-1,-1,-1,-1,-1,-1],"loss_changes":[8.5299206E-1,3.3476162E-1,2.4501842E-1,1.0273905E-1,1.8093133E-1,3.302264E-2,4.9409807E-2,0E0,0E0,0E0,0E0,0E0,0E0,0E0,0E0],"parents":[2147483647,0,0,1,1,2,2,3,3,4,4,5,5,6,6],"right_children":[2,4,6,8,10,12,14,-1,-1,-1,-1,-1,-1,-1,-1],"split_conditions":[1.1327423E0,2.6132414E-1,3.1365713E-1,9.7679144E-1,8.159345E-1,5.7087415E-1,1.6904539E-1,-8.4382994E-4,1.9687244E-3,-1.7443758E-4,-1.3162739E-3,-8.045146E-4,8.666527E-4,1.3866888E-3,4.420489E-3],"split_indices":[5,2,1,0,3,2,4,0,0,0,0,0,0,0,0],"split_type":[0,0,0,0,0,0,0,0,0,0,0,0,0,0,0],"sum_hessian":[7.2E1,6.3E1,9E0,7E0,5.6E1,3E0,6E0,1E0,6E0,3.2E1,2.4E1,1E0,2E0,2E0,4E0],"tree_param":{"num_deleted":"0","num_feature":"6","num_nodes":"15","size_leaf_vector":"1"}},{"base_weights":[1.002414E-3,-4.1105997E-2,2.70396E-1,1.4979659E-1,-6.717818E-2,2.4541024E-2,3.7225655E-1,-8.396108E-4,1.9518497E-3,-1.169587E-3,-3.3260727E-5,-8.0049207E-4,8.60875E-4,1.3774441E-3,4.3851254E-3],"categories":[],"categories_nodes":[],"categories_segments":[],"categories_sizes":[],"default_left":[0,0,0,0,0,0,0,0,0,0,0,0,0,0,0],"id":13,"left_children":[1,3,5,7,9,11,13,-1,-1,-1,-1,-1,-1,-1,-1],"loss_changes":[8.392076E-1,3.286069E-1,2.4129367E-1,1.0126704E-1,1.807907E-1,3.263988E-2,4.8362136E-2,0E0,0E0,0E0,0E0,0E0,0E0,0E0,0E0],"parents":[2147483647,0,0,1,1,2,2,3,3,4,4,5,5,6,6],"right_children":[2,4,6,8,10,12,14,-1,-1,-1,-1,-1,-1,-1,-1],"split_conditions":[1.1327423E0,2.6132414E-1,3.1365713E-1,9.7679144E-1,2.056581E-1,5.7087415E-1,1.6904539E-1,-8.396108E-4,1.9518497E-3,-1.169587E-3,-3.3260727E-5,-8.0049207E-4,8.60875E-4,1.3774441E-3,4.3851254E-3],"split_indices":[5,2,1,0,5,2,4,0,0,0,0,0,0,0,0],"split_type":[0,0,0,0,0,0,0,0,0,0,0,0,0,0,0],"sum_hessian":[7.2E1,6.3E1,9E0,7E0,5.6E1,3E0,6E0,1E0,6E0,3.1E1,2.5E1,1E0,2E0,2E0,4E0],"tree_param":{"num_deleted":"0","num_feature":"6","num_nodes":"15","size_leaf_vector":"1"}},{"base_weights":[1.0709179E-3,-4.069635E-2,2.6827434E-1,1.4843765E-1,-6.65275E-2,2.4310712E-2,3.6935723E-1,-8.354128E-4,1.9351197E-3,-1.6656973E-4,-1.296955E-3,-7.9648965E-4,8.551359E-4,1.3682611E-3,4.3500443E-3],"categories":[],"categories_nodes":[],"categories_segments":[],"categories_sizes":[],"default_left":[0,0,0,0,0,0,0,0,0,0,0,0,0,0,0],"id":14,"left_children":[1,3,5,7,9,11,13,-1,-1,-1,-1,-1,-1,-1,-1],"loss_changes":[8.256238E-1,3.2255033E-1,2.3762614E-1,9.9816576E-2,1.7740232E-1,3.2261595E-2,4.7335207E-2,0E0,0E0,0E0,0E0,0E0,0E0,0E0,0E0],"parents":[2147483647,0,0,1,1,2,2,3,3,4,4,5,5,6,6],"right_children":[2,4,6,8,10,12,14,-1,-1,-1,-1,-1,-1,-1,-1],"split_conditions":[1.1327423E0,2.6132414E-1,3.1365713E-1,9.7679144E-1,8.159345E-1,5.7087415E-1,1.6904539E-1,-8.354128E-4,1.9351197E-3,-1.6656973E-4,-1.296955E-3,-7.9648965E-4,8.551359E-4,1.3682611E-3,4.3500443E-3],"split_indices":[5,2,1,0,3,2,4,0,0,0,0,0,0,0,0],"split_type":[0,0,0,0,0,0,0,0,0,0,0,0,0,0,0],"sum_hessian":[7.2E1,6.3E1,9E0,7E0,5.6E1,3E0,6E0,1E0,6E0,3.2E1,2.4E1,1E0,2E0,2E0,4E0],"tree_param":{"num_deleted":"0","num_feature":"6","num_nodes":"15","size_leaf_vector":"1"}},{"base_weights":[1.1343583E-3,-4.0295076E-2,2.661693E-1,1.4709073E-1,-6.5887906E-2,2.408227E-2,3.6648056E-1,-8.312357E-4,1.918533E-3,-1.1516975E-3,-2.6991716E-5,-7.9250714E-4,8.49435E-4,1.3591395E-3,4.315244E-3],"categories":[],"categories_nodes":[],"categories_segments":[],"categories_sizes":[],"default_left":[0,0,0,0,0,0,0,0,0,0,0,0,0,0,0],"id":15,"left_children":[1,3,5,7,9,11,13,-1,-1,-1,-1,-1,-1,-1,-1],"loss_changes":[8.1228334E-1,3.1661844E-1,2.3401487E-1,9.838739E-2,1.7719044E-1,3.1887725E-2,4.6328425E-2,0E0,0E0,0E0,0E0,0E0,0E0,0E0,0E0],"parents":[2147483647,0,0,1,1,2,2,3,3,4,4,5,5,6,6],"right_children":[2,4,6,8,10,12,14,-1,-1,-1,-1,-1,-1,-1,-1],"split_conditions":[1.1327423E0,2.6132414E-1,3.1365713E-1,9.7679144E-1,2.056581E-1,5.7087415E-1,1.6904539E-1,-8.312357E-4,1.918533E-3,-1.1516975E-3,-2.6991716E-5,-7.9250714E-4,8.49435E-4,1.3591395E-3,4.315244E-3],"split_indices":[5,2,1,0,5,2,4,0,0,0,0,0,0,0,0],"split_type":[0,0,0,0,0,0,0,0,0,0,0,0,0,0,0],"sum_hessian":[7.2E1,6.3E1,9E0,7E0,5.6E1,3E0,6E0,1E0,6E0,3.1E1,2.5E1,1E0,2E0,2E0,4E0],"tree_param":{"num_deleted":"0","num_feature":"6","num_nodes":"15","size_leaf_vector":"1"}},{"base_weights":[1.2002713E-3,-3.9893553E-2,2.6408073E-1,1.4575575E-1,-6.524971E-2,2.3855675E-2,3.6362636E-1,-8.270795E-4,1.9020883E-3,-1.5889893E-4,-1.2779468E-3,-7.885446E-4,8.43772E-4,1.3500785E-3,4.2807222E-3],"categories":[],"categories_nodes":[],"categories_segments":[],"categories_sizes":[],"default_left":[0,0,0,0,0,0,0,0,0,0,0,0,0,0,0],"id":16,"left_children":[1,3,5,7,9,11,13,-1,-1,-1,-1,-1,-1,-1,-1],"loss_changes":[7.991369E-1,3.107811E-1,2.3045903E-1,9.697911E-2,1.7394024E-1,3.151822E-2,4.5341432E-2,0E0,0E0,0E0,0E0,0E0,0E0,0E0,0E0],"parents":[2147483647,0,0,1,1,2,2,3,3,4,4,5,5,6,6],"right_children":[2,4,6,8,10,12,14,-1,-1,-1,-1,-1,-1,-1,-1],"split_conditions":[1.1327423E0,2.6132414E-1,3.1365713E-1,9.7679144E-1,8.159345E-1,5.7087415E-1,1.6904539E-1,-8.270795E-4,1.9020883E-3,-1.5889893E-4,-1.2779468E-3,-7.885446E-4,8.43772E-4,1.3500785E-3,4.2807222E-3],"split_indices":[5,2,1,0,3,2,4,0,0,0,0,0,0,0,0],"split_type":[0,0,0,0,0,0,0,0,0,0,0,0,0,0,0],"sum_hessian":[7.2E1,6.3E1,9E0,7E0,5.6E1,3E0,6E0,1E0,6E0,3.2E1,2.4E1,1E0,2E0,2E0,4E0],"tree_param":{"num_deleted":"0","num_feature":"6","num_nodes":"15","size_leaf_vector":"1"}},{"base_weights":[1.2612093E-3,-3.9500266E-2,2.6200852E-1,1.4443257E-1,-6.462242E-2,2.363092E-2,3.607945E-1,-8.2294416E-4,1.885785E-3,-1.1341053E-3,-2.0900246E-5,-7.846019E-4,8.3814684E-4,1.3410781E-3,4.246476E-3],"categories":[],"categories_nodes":[],"categories_segments":[],"categories_sizes":[],"default_left":[0,0,0,0,0,0,0,0,0,0,0,0,0,0,0],"id":17,"left_children":[1,3,5,7,9,11,13,-1,-1,-1,-1,-1,-1,-1,-1],"loss_changes":[7.862259E-1,3.0506402E-1,2.2695774E-1,9.5591545E-2,1.7366071E-1,3.1153029E-2,4.437399E-2,0E0,0E0,0E0,0E0,0E0,0E0,0E0,0E0],"parents":[2147483647,0,0,1,1,2,2,3,3,4,4,5,5,6,6],"right_children":[2,4,6,8,10,12,14,-1,-1,-1,-1,-1,-1,-1,-1],"split_conditions":[1.1327423E0,2.6132414E-1,3.1365713E-1,9.7679144E-1,2.056581E-1,5.7087415E-1,1.6904539E-1,-8.2294416E-4,1.885785E-3,-1.1341053E-3,-2.0900246E-5,-7.846019E-4,8.3814684E-4,1.3410781E-3,4.246476E-3],"split_indices":[5,2,1,0,5,2,4,0,0,0,0,0,0,0,0],"split_type":[0,0,0,0,0,0,0,0,0,0,0,0,0,0,0],"sum_hessian":[7.2E1,6.3E1,9E0,7E0,5.6E1,3E0,6E0,1E0,6E0,3.1E1,2.5E1,1E0,2E0,2E0,4E0],"tree_param":{"num_deleted":"0","num_feature":"6","num_nodes":"15","size_leaf_vector":"1"}},{"base_weights":[1.3246172E-3,-3.9106693E-2,2.5995255E-1,1.4312112E-1,-6.399645E-2,2.3408E-2,3.5798478E-1,-8.1882946E-4,1.8696211E-3,-1.5142058E-4,-1.2592438E-3,-7.806789E-4,8.3255925E-4,1.3321375E-3,4.2125047E-3],"categories":[],"categories_nodes":[],"categories_segments":[],"categories_sizes":[],"default_left":[0,0,0,0,0,0,0,0,0,0,0,0,0,0,0],"id":18,"left_children":[1,3,5,7,9,11,13,-1,-1,-1,-1,-1,-1,-1,-1],"loss_changes":[7.735025E-1,2.9943797E-1,2.235102E-1,9.4224244E-2,1.7054395E-1,3.0792102E-2,4.342562E-2,0E0,0E0,0E0,0E0,0E0,0E0,0E0,0E0],"parents":[2147483647,0,0,1,1,2,2,3,3,4,4,5,5,6,6],"right_children":[2,4,6,8,10,12,14,-1,-1,-1,-1,-1,-1,-1,-1],"split_conditions":[1.1327423E0,2.6132414E-1,3.1365713E-1,9.7679144E-1,8.159345E-1,5.7087415E-1,1.6904539E-1,-8.1882946E-4,1.8696211E-3,-1.5142058E-4,-1.2592438E-3,-7.806789E-4,8.3255925E-4,1.3321375E-3,4.2125047E-3],"split_indices":[5,2,1,0,3,2,4,0,0,0,0,0,0,0,0],"split_type":[0,0,0,0,0,0,0,0,0,0,0,0,0,0,0],"sum_hessian":[7.2E1,6.3E1,9E0,7E0,5.6E1,3E0,6E0,1E0,6E0,3.2E1,2.4E1,1E0,2E0,2E0,4E0],"tree_param":{"num_deleted":"0","num_feature":"6","num_nodes":"15","size_leaf_vector":"1"}},{"base_weights":[1.3831059E-3,-3.8721252E-2,2.579127E-1,1.4182127E-1,-6.338123E-2,2.3186889E-2,3.5519704E-1,-8.1473525E-4,1.8535958E-3,-1.1168049E-3,-1.4982412E-5,-7.7677553E-4,8.2700886E-4,1.3232566E-3,4.1788043E-3],"categories":[],"categories_nodes":[],"categories_segments":[],"categories_sizes":[],"default_left":[0,0,0,0,0,0,0,0,0,0,0,0,0,0,0],"id":19,"left_children":[1,3,5,7,9,11,13,-1,-1,-1,-1,-1,-1,-1,-1],"loss_changes":[7.610073E-1,2.9392797E-1,2.2011554E-1,9.2876956E-2,1.7020015E-1,3.0435387E-2,4.2496145E-2,0E0,0E0,0E0,0E0,0E0,0E0,0E0,0E0],"parents":[2147483647,0,0,1,1,2,2,3,3,4,4,5,5,6,6],"right_children":[2,4,6,8,10,12,14,-1,-1,-1,-1,-1,-1,-1,-1],"split_conditions":[1.1327423E0,2.6132414E-1,3.1365713E-1,9.7679144E-1,2.056581E-1,5.7087415E-1,1.6904539E-1,-8.1473525E-4,1.8535958E-3,-1.1168049E-3,-1.4982412E-5,-7.7677553E-4,8.2700886E-4,1.3232566E-3,4.1788043E-3],"split_indices":[5,2,1,0,5,2,4,0,0,0,0,0,0,0,0],"split_type":[0,0,0,0,0,0,0,0,0,0,0,0,0,0,0],"sum_hessian":[7.2E1,6.3E1,9E0,7E0,5.6E1,3E0,6E0,1E0,6E0,3.1E1,2.5E1,1E0,2E0,2E0,4E0],"tree_param":{"num_deleted":"0","num_feature":"6","num_nodes":"15","size_leaf_vector":"1"}},{"base_weights":[1.4440628E-3,-3.833549E-2,2.558888E-1,1.4053291E-1,-6.2767275E-2,2.2967577E-2,3.524311E-1,-8.106616E-4,1.837708E-3,-1.4413089E-4,-1.240841E-3,-7.728916E-4,8.214954E-4,1.3144349E-3,4.145374E-3],"categories":[],"categories_nodes":[],"categories_segments":[],"categories_sizes":[],"default_left":[0,0,0,0,0,0,0,0,0,0,0,0,0,0,0],"id":20,"left_children":[1,3,5,7,9,11,13,-1,-1,-1,-1,-1,-1,-1,-1],"loss_changes":[7.486935E-1,2.8850564E-1,2.1677303E-1,9.15494E-2,1.6721232E-1,3.0082833E-2,4.158485E-2,0E0,0E0,0E0,0E0,0E0,0E0,0E0,0E0],"parents":[2147483647,0,0,1,1,2,2,3,3,4,4,5,5,6,6],"right_children":[2,4,6,8,10,12,14,-1,-1,-1,-1,-1,-1,-1,-1],"split_conditions":[1.1327423E0,2.6132414E-1,3.1365713E-1,9.7679144E-1,8.159345E-1,5.7087415E-1,1.6904539E-1,-8.106616E-4,1.837708E-3,-1.4413089E-4,-1.240841E-3,-7.728916E-4,8.214954E-4,1.3144349E-3,4.145374E-3],"split_indices":[5,2,1,0,3,2,4,0,0,0,0,0,0,0,0],"split_type":[0,0,0,0,0,0,0,0,0,0,0,0,0,0,0],"sum_hessian":[7.2E1,6.3E1,9E0,7E0,5.6E1,3E0,6E0,1E0,6E0,3.2E1,2.4E1,1E0,2E0,2E0,4E0],"tree_param":{"num_deleted":"0","num_feature":"6","num_nodes":"15","size_leaf_vector":"1"}},{"base_weights":[1.5001716E-3,-3.795773E-2,2.5388074E-1,1.3925597E-1,-6.2163904E-2,2.275005E-2,3.4968674E-1,-8.0660824E-4,1.8219562E-3,-1.0997915E-3,-9.234495E-6,-7.6902716E-4,8.160188E-4,1.3056721E-3,4.112211E-3],"categories":[],"categories_nodes":[],"categories_segments":[],"categories_sizes":[],"default_left":[0,0,0,0,0,0,0,0,0,0,0,0,0,0,0],"id":21,"left_children":[1,3,5,7,9,11,13,-1,-1,-1,-1,-1,-1,-1,-1],"loss_changes":[7.366005E-1,2.8319526E-1,2.1348172E-1,9.024127E-2,1.6680741E-1,2.9734395E-2,4.0691674E-2,0E0,0E0,0E0,0E0,0E0,0E0,0E0,0E0],"parents":[2147483647,0,0,1,1,2,2,3,3,4,4,5,5,6,6],"right_children":[2,4,6,8,10,12,14,-1,-1,-1,-1,-1,-1,-1,-1],"split_conditions":[1.1327423E0,2.6132414E-1,3.1365713E-1,9.7679144E-1,2.056581E-1,5.7087415E-1,1.6904539E-1,-8.0660824E-4,1.8219562E-3,-1.0997915E-3,-9.234495E-6,-7.6902716E-4,8.160188E-4,1.3056721E-3,4.112211E-3],"split_indices":[5,2,1,0,5,2,4,0,0,0,0,0,0,0,0],"split_type":[0,0,0,0,0,0,0,0,0,0,0,0,0,0,0],"sum_hessian":[7.2E1,6.3E1,9E0,7E0,5.6E1,3E0,6E0,1E0,6E0,3.1E1,2.5E1,1E0,2E0,2E0,4E0],"tree_param":{"num_deleted":"0","num_feature":"6","num_nodes":"15","size_leaf_vector":"1"}},{"base_weights":[1.5587504E-3,-3.7579615E-2,2.5188842E-1,1.3799033E-1,-6.156172E-2,2.25343E-2,3.4696385E-1,-8.025752E-4,1.8063395E-3,-1.3702572E-4,-1.2227332E-3,-7.6518196E-4,8.105787E-4,1.2969677E-3,4.079313E-3],"categories":[],"categories_nodes":[],"categories_segments":[],"categories_sizes":[],"default_left":[0,0,0,0,0,0,0,0,0,0,0,0,0,0,0],"id":22,"left_children":[1,3,5,7,9,11,13,-1,-1,-1,-1,-1,-1,-1,-1],"loss_changes":[7.246829E-1,2.7796924E-1,2.102409E-1,8.895226E-2,1.6394407E-1,2.9390024E-2,3.981626E-2,0E0,0E0,0E0,0E0,0E0,0E0,0E0,0E0],"parents":[2147483647,0,0,1,1,2,2,3,3,4,4,5,5,6,6],"right_children":[2,4,6,8,10,12,14,-1,-1,-1,-1,-1,-1,-1,-1],"split_conditions":[1.1327423E0,2.6132414E-1,3.1365713E-1,9.7679144E-1,8.159345E-1,5.7087415E-1,1.6904539E-1,-8.025752E-4,1.8063395E-3,-1.3702572E-4,-1.2227332E-3,-7.6518196E-4,8.105787E-4,1.2969677E-3,4.079313E-3],"split_indices":[5,2,1,0,3,2,4,0,0,0,0,0,0,0,0],"split_type":[0,0,0,0,0,0,0,0,0,0,0,0,0,0,0],"sum_hessian":[7.2E1,6.3E1,9E0,7E0,5.6E1,3E0,6E0,1E0,6E0,3.2E1,2.4E1,1E0,2E0,2E0,4E0],"tree_param":{"num_deleted":"0","num_feature":"6","num_nodes":"15","size_leaf_vector":"1"}},{"base_weights":[1.6125562E-3,-3.720938E-2,2.499117E-1,1.3673589E-1,-6.0969956E-2,2.2320304E-2,3.4426227E-1,-7.985623E-4,1.7908564E-3,-1.0830598E-3,-3.6522918E-6,-7.613561E-4,8.0517476E-4,1.2883211E-3,4.0466785E-3],"categories":[],"categories_nodes":[],"categories_segments":[],"categories_sizes":[],"default_left":[0,0,0,0,0,0,0,0,0,0,0,0,0,0,0],"id":23,"left_children":[1,3,5,7,9,11,13,-1,-1,-1,-1,-1,-1,-1,-1],"loss_changes":[7.1297914E-1,2.7285132E-1,2.0704973E-1,8.768211E-2,1.634813E-1,2.9049674E-2,3.8958132E-2,0E0,0E0,0E0,0E0,0E0,0E0,0E0,0E0],"parents":[2147483647,0,0,1,1,2,2,3,3,4,4,5,5,6,6],"right_children":[2,4,6,8,10,12,14,-1,-1,-1,-1,-1,-1,-1,-1],"split_conditions":[1.1327423E0,2.6132414E-1,3.1365713E-1,9.7679144E-1,2.056581E-1,5.7087415E-1,1.6904539E-1,-7.985623E-4,1.7908564E-3,-1.0830598E-3,-3.6522918E-6,-7.613561E-4,8.0517476E-4,1.2883211E-3,4.0466785E-3],"split_indices":[5,2,1,0,5,2,4,0,0,0,0,0,0,0,0],"split_type":[0,0,0,0,0,0,0,0,0,0,0,0,0,0,0],"sum_hessian":[7.2E1,6.3E1,9E0,7E0,5.6E1,3E0,6E0,1E0,6E0,3.1E1,2.5E1,1E0,2E0,2E0,4E0],"tree_param":{"num_deleted":"0","num_feature":"6","num_nodes":"15","size_leaf_vector":"1"}},{"base_weights":[1.6688197E-3,-3.6838762E-2,2.4795046E-1,1.3549256E-1,-6.0379323E-2,2.210806E-2,3.415818E-1,-7.9456944E-4,1.7755063E-3,-1.3010096E-4,-1.2049152E-3,-7.575493E-4,7.99807E-4,1.2797324E-3,4.0143053E-3],"categories":[],"categories_nodes":[],"categories_segments":[],"categories_sizes":[],"default_left":[0,0,0,0,0,0,0,0,0,0,0,0,0,0,0],"id":24,"left_children":[1,3,5,7,9,11,13,-1,-1,-1,-1,-1,-1,-1,-1],"loss_changes":[7.014451E-1,2.678146E-1,2.0390749E-1,8.6430535E-2,1.6073811E-1,2.8713292E-2,3.811711E-2,0E0,0E0,0E0,0E0,0E0,0E0,0E0,0E0],"parents":[2147483647,0,0,1,1,2,2,3,3,4,4,5,5,6,6],"right_children":[2,4,6,8,10,12,14,-1,-1,-1,-1,-1,-1,-1,-1],"split_conditions":[1.1327423E0,2.6132414E-1,3.1365713E-1,9.7679144E-1,8.159345E-1,5.7087415E-1,1.6904539E-1,-7.9456944E-4,1.7755063E-3,-1.3010096E-4,-1.2049152E-3,-7.575493E-4,7.99807E-4,1.2797324E-3,4.0143053E-3],"split_indices":[5,2,1,0,3,2,4,0,0,0,0,0,0,0,0],"split_type":[0,0,0,0,0,0,0,0,0,0,0,0,0,0,0],"sum_hessian":[7.2E1,6.3E1,9E0,7E0,5.6E1,3E0,6E0,1E0,6E0,3.2E1,2.4E1,1E0,2E0,2E0,4E0],"tree_param":{"num_deleted":"0","num_feature":"6","num_nodes":"15","size_leaf_vector":"1"}},{"base_weights":[1.7203792E-3,-3.6475908E-2,2.4600458E-1,1.3426027E-1,-5.9798952E-2,2.1897536E-2,3.3892223E-1,-7.905966E-4,1.7602877E-3,-1.0666051E-3,1.7676617E-6,-7.5376156E-4,7.9447485E-4,1.2712007E-3,3.982191E-3],"categories":[],"categories_nodes":[],"categories_segments":[],"categories_sizes":[],"default_left":[0,0,0,0,0,0,0,0,0,0,0,0,0,0,0],"id":25,"left_children":[1,3,5,7,9,11,13,-1,-1,-1,-1,-1,-1,-1,-1],"loss_changes":[6.9011796E-1,2.6288217E-1,2.0081353E-1,8.5197225E-2,1.602205E-1,2.8380832E-2,3.729278E-2,0E0,0E0,0E0,0E0,0E0,0E0,0E0,0E0],"parents":[2147483647,0,0,1,1,2,2,3,3,4,4,5,5,6,6],"right_children":[2,4,6,8,10,12,14,-1,-1,-1,-1,-1,-1,-1,-1],"split_conditions":[1.1327423E0,2.6132414E-1,3.1365713E-1,9.7679144E-1,2.056581E-1,5.7087415E-1,1.6904539E-1,-7.905966E-4,1.7602877E-3,-1.0666051E-3,1.7676617E-6,-7.5376156E-4,7.9447485E-4,1.2712007E-3,3.982191E-3],"split_indices":[5,2,1,0,5,2,4,0,0,0,0,0,0,0,0],"split_type":[0,0,0,0,0,0,0,0,0,0,0,0,0,0,0],"sum_hessian":[7.2E1,6.3E1,9E0,7E0,5.6E1,3E0,6E0,1E0,6E0,3.1E1,2.5E1,1E0,2E0,2E0,4E0],"tree_param":{"num_deleted":"0","num_feature":"6","num_nodes":"15","size_leaf_vector":"1"}},{"base_weights":[1.7743967E-3,-3.6112633E-2,2.4407396E-1,1.3303888E-1,-5.9219643E-2,2.168874E-2,3.362835E-1,-7.866436E-4,1.7451997E-3,-1.2335273E-4,-1.1873823E-3,-7.499928E-4,7.8917836E-4,1.2627261E-3,3.9503337E-3],"categories":[],"categories_nodes":[],"categories_segments":[],"categories_sizes":[],"default_left":[0,0,0,0,0,0,0,0,0,0,0,0,0,0,0],"id":26,"left_children":[1,3,5,7,9,11,13,-1,-1,-1,-1,-1,-1,-1,-1],"loss_changes":[6.7895496E-1,2.5802797E-1,1.977669E-1,8.398193E-2,1.5759332E-1,2.8052256E-2,3.6484838E-2,0E0,0E0,0E0,0E0,0E0,0E0,0E0,0E0],"parents":[2147483647,0,0,1,1,2,2,3,3,4,4,5,5,6,6],"right_children":[2,4,6,8,10,12,14,-1,-1,-1,-1,-1,-1,-1,-1],"split_conditions":[1.1327423E0,2.6132414E-1,3.1365713E-1,9.7679144E-1,8.159345E-1,5.7087415E-1,1.6904539E-1,-7.866436E-4,1.7451997E-3,-1.2335273E-4,-1.1873823E-3,-7.499928E-4,7.8917836E-4,1.2627261E-3,3.9503337E-3],"split_indices":[5,2,1,0,3,2,4,0,0,0,0,0,0,0,0],"split_type":[0,0,0,0,0,0,0,0,0,0,0,0,0,0,0],"sum_hessian":[7.2E1,6.3E1,9E0,7E0,5.6E1,3E0,6E0,1E0,6E0,3.2E1,2.4E1,1E0,2E0,2E0,4E0],"tree_param":{"num_deleted":"0","num_feature":"6","num_nodes":"15","size_leaf_vector":"1"}},{"base_weights":[1.8237774E-3,-3.5757013E-2,2.4215844E-1,1.3182831E-1,-5.865044E-2,2.1481656E-2,3.336654E-1,-7.827104E-4,1.7302409E-3,-1.0504222E-3,7.029124E-6,-7.462428E-4,7.8391726E-4,1.254308E-3,3.9187307E-3],"categories":[],"categories_nodes":[],"categories_segments":[],"categories_sizes":[],"default_left":[0,0,0,0,0,0,0,0,0,0,0,0,0,0,0],"id":27,"left_children":[1,3,5,7,9,11,13,-1,-1,-1,-1,-1,-1,-1,-1],"loss_changes":[6.6799235E-1,2.532744E-1,1.9476694E-1,8.27844E-2,1.5702376E-1,2.772751E-2,3.569305E-2,0E0,0E0,0E0,0E0,0E0,0E0,0E0,0E0],"parents":[2147483647,0,0,1,1,2,2,3,3,4,4,5,5,6,6],"right_children":[2,4,6,8,10,12,14,-1,-1,-1,-1,-1,-1,-1,-1],"split_conditions":[1.1327423E0,2.6132414E-1,3.1365713E-1,9.7679144E-1,2.056581E-1,5.7087415E-1,1.6904539E-1,-7.827104E-4,1.7302409E-3,-1.0504222E-3,7.029124E-6,-7.462428E-4,7.8391726E-4,1.254308E-3,3.9187307E-3],"split_indices":[5,2,1,0,5,2,4,0,0,0,0,0,0,0,0],"split_type":[0,0,0,0,0,0,0,0,0,0,0,0,0,0,0],"sum_hessian":[7.2E1,6.3E1,9E0,7E0,5.6E1,3E0,6E0,1E0,6E0,3.1E1,2.5E1,1E0,2E0,2E0,4E0],"tree_param":{"num_deleted":"0","num_feature":"6","num_nodes":"15","size_leaf_vector":"1"}},{"base_weights":[1.8756075E-3,-3.5400935E-2,2.4025793E-1,1.3062848E-1,-5.808224E-2,2.1276258E-2,3.3106774E-1,-7.787968E-4,1.7154102E-3,-1.1677727E-4,-1.170129E-3,-7.425116E-4,7.7869114E-4,1.2459459E-3,3.887381E-3],"categories":[],"categories_nodes":[],"categories_segments":[],"categories_sizes":[],"default_left":[0,0,0,0,0,0,0,0,0,0,0,0,0,0,0],"id":28,"left_children":[1,3,5,7,9,11,13,-1,-1,-1,-1,-1,-1,-1,-1],"loss_changes":[6.5718836E-1,2.4859607E-1,1.9181305E-1,8.160436E-2,1.5450855E-1,2.7406553E-2,3.4916937E-2,0E0,0E0,0E0,0E0,0E0,0E0,0E0,0E0],"parents":[2147483647,0,0,1,1,2,2,3,3,4,4,5,5,6,6],"right_children":[2,4,6,8,10,12,14,-1,-1,-1,-1,-1,-1,-1,-1],"split_conditions":[1.1327423E0,2.6132414E-1,3.1365713E-1,9.7679144E-1,8.159345E-1,5.7087415E-1,1.6904539E-1,-7.787968E-4,1.7154102E-3,-1.1677727E-4,-1.170129E-3,-7.425116E-4,7.7869114E-4,1.2459459E-3,3.887381E-3],"split_indices":[5,2,1,0,3,2,4,0,0,0,0,0,0,0,0],"split_type":[0,0,0,0,0,0,0,0,0,0,0,0,0,0,0],"sum_hessian":[7.2E1,6.3E1,9E0,7E0,5.6E1,3E0,6E0,1E0,6E0,3.2E1,2.4E1,1E0,2E0,2E0,4E0],"tree_param":{"num_deleted":"0","num_feature":"6","num_nodes":"15","size_leaf_vector":"1"}},{"base_weights":[1.922867E-3,-3.50524E-2,2.383723E-1,1.2943926E-1,-5.7523996E-2,2.1072533E-2,3.284904E-1,-7.749028E-4,1.7007065E-3,-1.0345064E-3,1.2135717E-5,-7.3879905E-4,7.7349984E-4,1.2376396E-3,3.8562817E-3],"categories":[],"categories_nodes":[],"categories_segments":[],"categories_sizes":[],"default_left":[0,0,0,0,0,0,0,0,0,0,0,0,0,0,0],"id":29,"left_children":[1,3,5,7,9,11,13,-1,-1,-1,-1,-1,-1,-1,-1],"loss_changes":[6.4657855E-1,2.4401484E-1,1.8890429E-1,8.0441535E-2,1.5388985E-1,2.7089331E-2,3.415644E-2,0E0,0E0,0E0,0E0,0E0,0E0,0E0,0E0],"parents":[2147483647,0,0,1,1,2,2,3,3,4,4,5,5,6,6],"right_children":[2,4,6,8,10,12,14,-1,-1,-1,-1,-1,-1,-1,-1],"split_conditions":[1.1327423E0,2.6132414E-1,3.1365713E-1,9.7679144E-1,2.056581E-1,5.7087415E-1,1.6904539E-1,-7.749028E-4,1.7007065E-3,-1.0345064E-3,1.2135717E-5,-7.3879905E-4,7.7349984E-4,1.2376396E-3,3.8562817E-3],"split_indices":[5,2,1,0,5,2,4,0,0,0,0,0,0,0,0],"split_type":[0,0,0,0,0,0,0,0,0,0,0,0,0,0,0],"sum_hessian":[7.2E1,6.3E1,9E0,7E0,5.6E1,3E0,6E0,1E0,6E0,3.1E1,2.5E1,1E0,2E0,2E0,4E0],"tree_param":{"num_deleted":"0","num_feature":"6","num_nodes":"15","size_leaf_vector":"1"}},{"base_weights":[1.9725785E-3,-3.4703378E-2,2.3650144E-1,1.282606E-1,-5.6966685E-2,2.0870488E-2,3.2593322E-1,-7.710283E-4,1.6861293E-3,-1.1037066E-4,-1.153151E-3,-7.35105E-4,7.683432E-4,1.2293886E-3,3.8254317E-3],"categories":[],"categories_nodes":[],"categories_segments":[],"categories_sizes":[],"default_left":[0,0,0,0,0,0,0,0,0,0,0,0,0,0,0],"id":30,"left_children":[1,3,5,7,9,11,13,-1,-1,-1,-1,-1,-1,-1,-1],"loss_changes":[6.36122E-1,2.3950607E-1,1.8604016E-1,7.929568E-2,1.5148276E-1,2.6775818E-2,3.3411086E-2,0E0,0E0,0E0,0E0,0E0,0E0,0E0,0E0],"parents":[2147483647,0,0,1,1,2,2,3,3,4,4,5,5,6,6],"right_children":[2,4,6,8,10,12,14,-1,-1,-1,-1,-1,-1,-1,-1],"split_conditions":[1.1327423E0,2.6132414E-1,3.1365713E-1,9.7679144E-1,8.159345E-1,5.7087415E-1,1.6904539E-1,-7.710283E-4,1.6861293E-3,-1.1037066E-4,-1.153151E-3,-7.35105E-4,7.683432E-4,1.2293886E-3,3.8254317E-3],"split_indices":[5,2,1,0,3,2,4,0,0,0,0,0,0,0,0],"split_type":[0,0,0,0,0,0,0,0,0,0,0,0,0,0,0],"sum_hessian":[7.2E1,6.3E1,9E0,7E0,5.6E1,3E0,6E0,1E0,6E0,3.2E1,2.4E1,1E0,2E0,2E0,4E0],"tree_param":{"num_deleted":"0","num_feature":"6","num_nodes":"15","size_leaf_vector":"1"}},{"base_weights":[2.0177811E-3,-3.4361787E-2,2.3464525E-1,1.2709239E-1,-5.6419183E-2,2.0670097E-2,3.23396E-1,-7.6717313E-4,1.6716768E-3,-1.0188532E-3,1.7091053E-5,-7.314295E-4,7.63221E-4,1.2211928E-3,3.7948282E-3],"categories":[],"categories_nodes":[],"categories_segments":[],"categories_sizes":[],"default_left":[0,0,0,0,0,0,0,0,0,0,0,0,0,0,0],"id":31,"left_children":[1,3,5,7,9,11,13,-1,-1,-1,-1,-1,-1,-1,-1],"loss_changes":[6.258536E-1,2.3509099E-1,1.8321991E-1,7.8166515E-2,1.5081765E-1,2.6465958E-2,3.268063E-2,0E0,0E0,0E0,0E0,0E0,0E0,0E0,0E0],"parents":[2147483647,0,0,1,1,2,2,3,3,4,4,5,5,6,6],"right_children":[2,4,6,8,10,12,14,-1,-1,-1,-1,-1,-1,-1,-1],"split_conditions":[1.1327423E0,2.6132414E-1,3.1365713E-1,9.7679144E-1,2.056581E-1,5.7087415E-1,1.6904539E-1,-7.6717313E-4,1.6716768E-3,-1.0188532E-3,1.7091053E-5,-7.314295E-4,7.63221E-4,1.2211928E-3,3.7948282E-3],"split_indices":[5,2,1,0,5,2,4,0,0,0,0,0,0,0,0],"split_type":[0,0,0,0,0,0,0,0,0,0,0,0,0,0,0],"sum_hessian":[7.2E1,6.3E1,9E0,7E0,5.6E1,3E0,6E0,1E0,6E0,3.1E1,2.5E1,1E0,2E0,2E0,4E0],"tree_param":{"num_deleted":"0","num_feature":"6","num_nodes":"15","size_leaf_vector":"1"}},{"base_weights":[2.0654215E-3,-3.4019686E-2,2.3280358E-1,1.2593453E-1,-5.5872567E-2,2.047135E-2,3.2087862E-1,-7.633373E-4,1.6573481E-3,-1.0412945E-4,-1.1364436E-3,-7.277724E-4,7.581329E-4,1.2130516E-3,3.7644696E-3],"categories":[],"categories_nodes":[],"categories_segments":[],"categories_sizes":[],"default_left":[0,0,0,0,0,0,0,0,0,0,0,0,0,0,0],"id":32,"left_children":[1,3,5,7,9,11,13,-1,-1,-1,-1,-1,-1,-1,-1],"loss_changes":[6.157333E-1,2.307457E-1,1.8044287E-1,7.705383E-2,1.4851478E-1,2.6159717E-2,3.196478E-2,0E0,0E0,0E0,0E0,0E0,0E0,0E0,0E0],"parents":[2147483647,0,0,1,1,2,2,3,3,4,4,5,5,6,6],"right_children":[2,4,6,8,10,12,14,-1,-1,-1,-1,-1,-1,-1,-1],"split_conditions":[1.1327423E0,2.6132414E-1,3.1365713E-1,9.7679144E-1,8.159345E-1,5.7087415E-1,1.6904539E-1,-7.633373E-4,1.6573481E-3,-1.0412945E-4,-1.1364436E-3,-7.277724E-4,7.581329E-4,1.2130516E-3,3.7644696E-3],"split_indices":[5,2,1,0,3,2,4,0,0,0,0,0,0,0,0],"split_type":[0,0,0,0,0,0,0,0,0,0,0,0,0,0,0],"sum_hessian":[7.2E1,6.3E1,9E0,7E0,5.6E1,3E0,6E0,1E0,6E0,3.2E1,2.4E1,1E0,2E0,2E0,4E0],"tree_param":{"num_deleted":"0","num_feature":"6","num_nodes":"15","size_leaf_vector":"1"}},{"base_weights":[2.108619E-3,-3.3684906E-2,2.3097633E-1,1.2478694E-1,-5.5335607E-2,2.0274222E-2,3.1838092E-1,-7.5952057E-4,1.6431423E-3,-1.0034579E-3,2.1898408E-5,-7.241335E-4,7.5307867E-4,1.2049647E-3,3.7343537E-3],"categories":[],"categories_nodes":[],"categories_segments":[],"categories_sizes":[],"default_left":[0,0,0,0,0,0,0,0,0,0,0,0,0,0,0],"id":33,"left_children":[1,3,5,7,9,11,13,-1,-1,-1,-1,-1,-1,-1,-1],"loss_changes":[6.057951E-1,2.2649083E-1,1.7770839E-1,7.595736E-2,1.4780596E-1,2.5857035E-2,3.126335E-2,0E0,0E0,0E0,0E0,0E0,0E0,0E0,0E0],"parents":[2147483647,0,0,1,1,2,2,3,3,4,4,5,5,6,6],"right_children":[2,4,6,8,10,12,14,-1,-1,-1,-1,-1,-1,-1,-1],"split_conditions":[1.1327423E0,2.6132414E-1,3.1365713E-1,9.7679144E-1,2.056581E-1,5.7087415E-1,1.6904539E-1,-7.5952057E-4,1.6431423E-3,-1.0034579E-3,2.1898408E-5,-7.241335E-4,7.5307867E-4,1.2049647E-3,3.7343537E-3],"split_indices":[5,2,1,0,5,2,4,0,0,0,0,0,0,0,0],"split_type":[0,0,0,0,0,0,0,0,0,0,0,0,0,0,0],"sum_hessian":[7.2E1,6.3E1,9E0,7E0,5.6E1,3E0,6E0,1E0,6E0,3.1E1,2.5E1,1E0,2E0,2E0,4E0],"tree_param":{"num_deleted":"0","num_feature":"6","num_nodes":"15","size_leaf_vector":"1"}},{"base_weights":[2.1542471E-3,-3.3349592E-2,2.291634E-1,1.2364952E-1,-5.4799475E-2,2.0078719E-2,3.159027E-1,-7.557229E-4,1.6290583E-3,-9.804995E-5,-1.120002E-3,-7.205129E-4,7.4805814E-4,1.1969316E-3,3.704479E-3],"categories":[],"categories_nodes":[],"categories_segments":[],"categories_sizes":[],"default_left":[0,0,0,0,0,0,0,0,0,0,0,0,0,0,0],"id":34,"left_children":[1,3,5,7,9,11,13,-1,-1,-1,-1,-1,-1,-1,-1],"loss_changes":[5.960003E-1,2.2230312E-1,1.7501569E-1,7.487687E-2,1.4560369E-1,2.5557885E-2,3.057599E-2,0E0,0E0,0E0,0E0,0E0,0E0,0E0,0E0],"parents":[2147483647,0,0,1,1,2,2,3,3,4,4,5,5,6,6],"right_children":[2,4,6,8,10,12,14,-1,-1,-1,-1,-1,-1,-1,-1],"split_conditions":[1.1327423E0,2.6132414E-1,3.1365713E-1,9.7679144E-1,8.159345E-1,5.7087415E-1,1.6904539E-1,-7.557229E-4,1.6290583E-3,-9.804995E-5,-1.120002E-3,-7.205129E-4,7.4805814E-4,1.1969316E-3,3.704479E-3],"split_indices":[5,2,1,0,3,2,4,0,0,0,0,0,0,0,0],"split_type":[0,0,0,0,0,0,0,0,0,0,0,0,0,0,0],"sum_hessian":[7.2E1,6.3E1,9E0,7E0,5.6E1,3E0,6E0,1E0,6E0,3.2E1,2.4E1,1E0,2E0,2E0,4E0],"tree_param":{"num_deleted":"0","num_feature":"6","num_nodes":"15","size_leaf_vector":"1"}},{"base_weights":[2.195502E-3,-3.3021484E-2,2.2736464E-1,1.2252219E-1,-5.427285E-2,1.9884814E-2,3.134439E-1,-7.519443E-4,1.6150948E-3,-9.88316E-4,2.656113E-5,-7.169103E-4,7.43071E-4,1.1889521E-3,3.674843E-3],"categories":[],"categories_nodes":[],"categories_segments":[],"categories_sizes":[],"default_left":[0,0,0,0,0,0,0,0,0,0,0,0,0,0,0],"id":35,"left_children":[1,3,5,7,9,11,13,-1,-1,-1,-1,-1,-1,-1,-1],"loss_changes":[5.8638173E-1,2.1820264E-1,1.7236423E-1,7.3812105E-2,1.4485349E-1,2.5262222E-2,2.9902399E-2,0E0,0E0,0E0,0E0,0E0,0E0,0E0,0E0],"parents":[2147483647,0,0,1,1,2,2,3,3,4,4,5,5,6,6],"right_children":[2,4,6,8,10,12,14,-1,-1,-1,-1,-1,-1,-1,-1],"split_conditions":[1.1327423E0,2.6132414E-1,3.1365713E-1,9.7679144E-1,2.056581E-1,5.7087415E-1,1.6904539E-1,-7.519443E-4,1.6150948E-3,-9.88316E-4,2.656113E-5,-7.169103E-4,7.43071E-4,1.1889521E-3,3.674843E-3],"split_indices":[5,2,1,0,5,2,4,0,0,0,0,0,0,0,0],"split_type":[0,0,0,0,0,0,0,0,0,0,0,0,0,0,0],"sum_hessian":[7.2E1,6.3E1,9E0,7E0,5.6E1,3E0,6E0,1E0,6E0,3.1E1,2.5E1,1E0,2E0,2E0,4E0],"tree_param":{"num_deleted":"0","num_feature":"6","num_nodes":"15","size_leaf_vector":"1"}},{"base_weights":[2.2391859E-3,-3.2692805E-2,2.2558E-1,1.2140486E-1,-5.3746987E-2,1.969251E-2,3.1100428E-1,-7.481846E-4,1.6012511E-3,-9.212851E-5,-1.1038217E-3,-7.1332575E-4,7.381173E-4,1.1810258E-3,3.6454445E-3],"categories":[],"categories_nodes":[],"categories_segments":[],"categories_sizes":[],"default_left":[0,0,0,0,0,0,0,0,0,0,0,0,0,0,0],"id":36,"left_children":[1,3,5,7,9,11,13,-1,-1,-1,-1,-1,-1,-1,-1],"loss_changes":[5.7690173E-1,2.1416679E-1,1.6975349E-1,7.276285E-2,1.427484E-1,2.4970008E-2,2.9242277E-2,0E0,0E0,0E0,0E0,0E0,0E0,0E0,0E0],"parents":[2147483647,0,0,1,1,2,2,3,3,4,4,5,5,6,6],"right_children":[2,4,6,8,10,12,14,-1,-1,-1,-1,-1,-1,-1,-1],"split_conditions":[1.1327423E0,2.6132414E-1,3.1365713E-1,9.7679144E-1,8.159345E-1,5.7087415E-1,1.6904539E-1,-7.481846E-4,1.6012511E-3,-9.212851E-5,-1.1038217E-3,-7.1332575E-4,7.381173E-4,1.1810258E-3,3.6454445E-3],"split_indices":[5,2,1,0,3,2,4,0,0,0,0,0,0,0,0],"split_type":[0,0,0,0,0,0,0,0,0,0,0,0,0,0,0],"sum_hessian":[7.2E1,6.3E1,9E0,7E0,5.6E1,3E0,6E0,1E0,6E0,3.2E1,2.4E1,1E0,2E0,2E0,4E0],"tree_param":{"num_deleted":"0","num_feature":"6","num_nodes":"15","size_leaf_vector":"1"}},{"base_weights":[2.2785524E-3,-3.2371234E-2,2.2380932E-1,1.2029745E-1,-5.3230498E-2,-2.363663E-2,2.886254E-1,-7.444437E-4,1.587526E-3,-9.73423E-4,3.108278E-5,3.552097E-4,-7.0975913E-4,1.6080562E-3,3.7624373E-3],"categories":[],"categories_nodes":[],"categories_segments":[],"categories_sizes":[],"default_left":[0,0,0,0,0,0,0,0,0,0,0,0,0,0,0],"id":37,"left_children":[1,3,5,7,9,11,13,-1,-1,-1,-1,-1,-1,-1,-1],"loss_changes":[5.6759244E-1,2.1021512E-1,1.6720688E-1,7.172887E-2,1.4195925E-1,1.092257E-2,2.9092789E-2,0E0,0E0,0E0,0E0,0E0,0E0,0E0,0E0],"parents":[2147483647,0,0,1,1,2,2,3,3,4,4,5,5,6,6],"right_children":[2,4,6,8,10,12,14,-1,-1,-1,-1,-1,-1,-1,-1],"split_conditions":[1.1327423E0,2.6132414E-1,2.1135433E-1,9.7679144E-1,2.056581E-1,6.256742E-1,5.357909E-1,-7.444437E-4,1.587526E-3,-9.73423E-4,3.108278E-5,3.552097E-4,-7.0975913E-4,1.6080562E-3,3.7624373E-3],"split_indices":[5,2,1,0,5,0,1,0,0,0,0,0,0,0,0],"split_type":[0,0,0,0,0,0,0,0,0,0,0,0,0,0,0],"sum_hessian":[7.2E1,6.3E1,9E0,7E0,5.6E1,2E0,7E0,1E0,6E0,3.1E1,2.5E1,1E0,1E0,4E0,3E0],"tree_param":{"num_deleted":"0","num_feature":"6","num_nodes":"15","size_leaf_vector":"1"}},{"base_weights":[2.3231169E-3,-3.2049075E-2,2.2207284E-1,1.1919984E-1,-5.2714728E-2,1.9188408E-2,3.062821E-1,-7.407214E-4,1.5739186E-3,-8.636182E-5,-1.0878983E-3,-7.062103E-4,7.2665233E-4,1.1624318E-3,3.5904902E-3],"categories":[],"categories_nodes":[],"categories_segments":[],"categories_sizes":[],"default_left":[0,0,0,0,0,0,0,0,0,0,0,0,0,0,0],"id":38,"left_children":[1,3,5,7,9,11,13,-1,-1,-1,-1,-1,-1,-1,-1],"loss_changes":[5.585066E-1,2.0632568E-1,1.6497043E-1,7.070994E-2,1.3994785E-1,2.4342591E-2,2.8457344E-2,0E0,0E0,0E0,0E0,0E0,0E0,0E0,0E0],"parents":[2147483647,0,0,1,1,2,2,3,3,4,4,5,5,6,6],"right_children":[2,4,6,8,10,12,14,-1,-1,-1,-1,-1,-1,-1,-1],"split_conditions":[1.1327423E0,2.6132414E-1,3.1365713E-1,9.7679144E-1,8.159345E-1,5.7087415E-1,1.6904539E-1,-7.407214E-4,1.5739186E-3,-8.636182E-5,-1.0878983E-3,-7.062103E-4,7.2665233E-4,1.1624318E-3,3.5904902E-3],"split_indices":[5,2,1,0,3,2,4,0,0,0,0,0,0,0,0],"split_type":[0,0,0,0,0,0,0,0,0,0,0,0,0,0,0],"sum_hessian":[7.2E1,6.3E1,9E0,7E0,5.6E1,3E0,6E0,1E0,6E0,3.2E1,2.4E1,1E0,2E0,2E0,4E0],"tree_param":{"num_deleted":"0","num_feature":"6","num_nodes":"15","size_leaf_vector":"1"}},{"base_weights":[2.3606063E-3,-3.1733908E-2,2.2032943E-1,1.18112E-1,-5.2208178E-2,-2.3525259E-2,2.8423378E-1,-7.3701784E-4,1.5604278E-3,-9.587746E-4,3.546644E-5,3.4980042E-4,-7.026793E-4,1.5819079E-3,3.7072904E-3],"categories":[],"categories_nodes":[],"categories_segments":[],"categories_sizes":[],"default_left":[0,0,0,0,0,0,0,0,0,0,0,0,0,0,0],"id":39,"left_children":[1,3,5,7,9,11,13,-1,-1,-1,-1,-1,-1,-1,-1],"loss_changes":[5.4949445E-1,2.0251745E-1,1.6252038E-1,6.9705814E-2,1.3912213E-1,1.0662058E-2,2.8571129E-2,0E0,0E0,0E0,0E0,0E0,0E0,0E0,0E0],"parents":[2147483647,0,0,1,1,2,2,3,3,4,4,5,5,6,6],"right_children":[2,4,6,8,10,12,14,-1,-1,-1,-1,-1,-1,-1,-1],"split_conditions":[1.1327423E0,2.6132414E-1,2.1135433E-1,9.7679144E-1,2.056581E-1,6.256742E-1,5.357909E-1,-7.3701784E-4,1.5604278E-3,-9.587746E-4,3.546644E-5,3.4980042E-4,-7.026793E-4,1.5819079E-3,3.7072904E-3],"split_indices":[5,2,1,0,5,0,1,0,0,0,0,0,0,0,0],"split_type":[0,0,0,0,0,0,0,0,0,0,0,0,0,0,0],"sum_hessian":[7.2E1,6.3E1,9E0,7E0,5.6E1,2E0,7E0,1E0,6E0,3.1E1,2.5E1,1E0,1E0,4E0,3E0],"tree_param":{"num_deleted":"0","num_feature":"6","num_nodes":"15","size_leaf_vector":"1"}},{"base_weights":[2.403252E-3,-3.141813E-2,2.1861978E-1,1.1703381E-1,-5.1702294E-2,1.8694386E-2,3.0163145E-1,-7.3333277E-4,1.5470529E-3,-8.07464E-5,-1.072227E-3,-6.991659E-4,7.1536907E-4,1.1441362E-3,3.5363587E-3],"categories":[],"categories_nodes":[],"categories_segments":[],"categories_sizes":[],"default_left":[0,0,0,0,0,0,0,0,0,0,0,0,0,0,0],"id":40,"left_children":[1,3,5,7,9,11,13,-1,-1,-1,-1,-1,-1,-1,-1],"loss_changes":[5.4069877E-1,1.9876921E-1,1.603226E-1,6.871631E-2,1.3720109E-1,2.3731327E-2,2.7692318E-2,0E0,0E0,0E0,0E0,0E0,0E0,0E0,0E0],"parents":[2147483647,0,0,1,1,2,2,3,3,4,4,5,5,6,6],"right_children":[2,4,6,8,10,12,14,-1,-1,-1,-1,-1,-1,-1,-1],"split_conditions":[1.1327423E0,2.6132414E-1,3.1365713E-1,9.7679144E-1,8.159345E-1,5.7087415E-1,1.6904539E-1,-7.3333277E-4,1.5470529E-3,-8.07464E-5,-1.072227E-3,-6.991659E-4,7.1536907E-4,1.1441362E-3,3.5363587E-3],"split_indices":[5,2,1,0,3,2,4,0,0,0,0,0,0,0,0],"split_type":[0,0,0,0,0,0,0,0,0,0,0,0,0,0,0],"sum_hessian":[7.2E1,6.3E1,9E0,7E0,5.6E1,3E0,6E0,1E0,6E0,3.2E1,2.4E1,1E0,2E0,2E0,4E0],"tree_param":{"num_deleted":"0","num_feature":"6","num_nodes":"15","size_leaf_vector":"1"}},{"base_weights":[2.438913E-3,-3.1109247E-2,2.1690324E-1,1.15965195E-1,-5.1205497E-2,-2.3413032E-2,2.7990896E-1,-7.296661E-4,1.5337925E-3,-9.4436656E-4,3.971527E-5,3.444746E-4,-6.956701E-4,1.5561725E-3,3.6529629E-3],"categories":[],"categories_nodes":[],"categories_segments":[],"categories_sizes":[],"default_left":[0,0,0,0,0,0,0,0,0,0,0,0,0,0,0],"id":41,"left_children":[1,3,5,7,9,11,13,-1,-1,-1,-1,-1,-1,-1,-1],"loss_changes":[5.3197414E-1,1.9509932E-1,1.579665E-1,6.774119E-2,1.3634099E-1,1.0407882E-2,2.8057098E-2,0E0,0E0,0E0,0E0,0E0,0E0,0E0,0E0],"parents":[2147483647,0,0,1,1,2,2,3,3,4,4,5,5,6,6],"right_children":[2,4,6,8,10,12,14,-1,-1,-1,-1,-1,-1,-1,-1],"split_conditions":[1.1327423E0,2.6132414E-1,2.1135433E-1,9.7679144E-1,2.056581E-1,6.256742E-1,5.357909E-1,-7.296661E-4,1.5337925E-3,-9.4436656E-4,3.971527E-5,3.444746E-4,-6.956701E-4,1.5561725E-3,3.6529629E-3],"split_indices":[5,2,1,0,5,0,1,0,0,0,0,0,0,0,0],"split_type":[0,0,0,0,0,0,0,0,0,0,0,0,0,0,0],"sum_hessian":[7.2E1,6.3E1,9E0,7E0,5.6E1,2E0,7E0,1E0,6E0,3.1E1,2.5E1,1E0,1E0,4E0,3E0],"tree_param":{"num_deleted":"0","num_feature":"6","num_nodes":"15","size_leaf_vector":"1"}},{"base_weights":[2.4796927E-3,-3.0799728E-2,2.1522E-1,1.1490604E-1,-5.0709315E-2,1.8210247E-2,2.970513E-1,-7.260178E-4,1.5206456E-3,-7.527897E-5,-1.0568041E-3,-6.921917E-4,7.042644E-4,1.1261342E-3,3.4830375E-3],"categories":[],"categories_nodes":[],"categories_segments":[],"categories_sizes":[],"default_left":[0,0,0,0,0,0,0,0,0,0,0,0,0,0,0],"id":42,"left_children":[1,3,5,7,9,11,13,-1,-1,-1,-1,-1,-1,-1,-1],"loss_changes":[5.234595E-1,1.9148704E-1,1.5580624E-1,6.678027E-2,1.3450709E-1,2.3135787E-2,2.6946604E-2,0E0,0E0,0E0,0E0,0E0,0E0,0E0,0E0],"parents":[2147483647,0,0,1,1,2,2,3,3,4,4,5,5,6,6],"right_children":[2,4,6,8,10,12,14,-1,-1,-1,-1,-1,-1,-1,-1],"split_conditions":[1.1327423E0,2.6132414E-1,3.1365713E-1,9.7679144E-1,8.159345E-1,5.7087415E-1,1.6904539E-1,-7.260178E-4,1.5206456E-3,-7.527897E-5,-1.0568041E-3,-6.921917E-4,7.042644E-4,1.1261342E-3,3.4830375E-3],"split_indices":[5,2,1,0,3,2,4,0,0,0,0,0,0,0,0],"split_type":[0,0,0,0,0,0,0,0,0,0,0,0,0,0,0],"sum_hessian":[7.2E1,6.3E1,9E0,7E0,5.6E1,3E0,6E0,1E0,6E0,3.2E1,2.4E1,1E0,2E0,2E0,4E0],"tree_param":{"num_deleted":"0","num_feature":"6","num_nodes":"15","size_leaf_vector":"1"}},{"base_weights":[2.5135786E-3,-3.0497001E-2,2.1352994E-1,1.1385632E-1,-5.0222084E-2,-2.3299992E-2,2.756499E-1,-7.223877E-4,1.5076116E-3,-9.301946E-4,4.3832333E-5,3.392309E-4,-6.8873074E-4,1.5308441E-3,3.599443E-3],"categories":[],"categories_nodes":[],"categories_segments":[],"categories_sizes":[],"default_left":[0,0,0,0,0,0,0,0,0,0,0,0,0,0,0],"id":43,"left_children":[1,3,5,7,9,11,13,-1,-1,-1,-1,-1,-1,-1,-1],"loss_changes":[5.1501346E-1,1.8795049E-1,1.5354136E-1,6.583326E-2,1.3361467E-1,1.0159885E-2,2.7550876E-2,0E0,0E0,0E0,0E0,0E0,0E0,0E0,0E0],"parents":[2147483647,0,0,1,1,2,2,3,3,4,4,5,5,6,6],"right_children":[2,4,6,8,10,12,14,-1,-1,-1,-1,-1,-1,-1,-1],"split_conditions":[1.1327423E0,2.6132414E-1,2.1135433E-1,9.7679144E-1,2.056581E-1,6.256742E-1,5.357909E-1,-7.223877E-4,1.5076116E-3,-9.301946E-4,4.3832333E-5,3.392309E-4,-6.8873074E-4,1.5308441E-3,3.599443E-3],"split_indices":[5,2,1,0,5,0,1,0,0,0,0,0,0,0,0],"split_type":[0,0,0,0,0,0,0,0,0,0,0,0,0,0,0],"sum_hessian":[7.2E1,6.3E1,9E0,7E0,5.6E1,2E0,7E0,1E0,6E0,3.1E1,2.5E1,1E0,1E0,4E0,3E0],"tree_param":{"num_deleted":"0","num_feature":"6","num_nodes":"15","size_leaf_vector":"1"}},{"base_weights":[2.552544E-3,-3.0193616E-2,2.1187271E-1,1.1281592E-1,-4.9735416E-2,1.7735824E-2,2.9254055E-1,-7.1877573E-4,1.4946893E-3,-6.995638E-5,-1.041625E-3,-6.852871E-4,6.933357E-4,1.1084209E-3,3.430515E-3],"categories":[],"categories_nodes":[],"categories_segments":[],"categories_sizes":[],"default_left":[0,0,0,0,0,0,0,0,0,0,0,0,0,0,0],"id":44,"left_children":[1,3,5,7,9,11,13,-1,-1,-1,-1,-1,-1,-1,-1],"loss_changes":[5.0677073E-1,1.8446943E-1,1.5141755E-1,6.490005E-2,1.3186485E-1,2.2555565E-2,2.6219845E-2,0E0,0E0,0E0,0E0,0E0,0E0,0E0,0E0],"parents":[2147483647,0,0,1,1,2,2,3,3,4,4,5,5,6,6],"right_children":[2,4,6,8,10,12,14,-1,-1,-1,-1,-1,-1,-1,-1],"split_conditions":[1.1327423E0,2.6132414E-1,3.1365713E-1,9.7679144E-1,8.159345E-1,5.7087415E-1,1.6904539E-1,-7.1877573E-4,1.4946893E-3,-6.995638E-5,-1.041625E-3,-6.852871E-4,6.933357E-4,1.1084209E-3,3.430515E-3],"split_indices":[5,2,1,0,3,2,4,0,0,0,0,0,0,0,0],"split_type":[0,0,0,0,0,0,0,0,0,0,0,0,0,0,0],"sum_hessian":[7.2E1,6.3E1,9E0,7E0,5.6E1,3E0,6E0,1E0,6E0,3.2E1,2.4E1,1E0,2E0,2E0,4E0],"tree_param":{"num_deleted":"0","num_feature":"6","num_nodes":"15","size_leaf_vector":"1"}},{"base_weights":[2.5847107E-3,-2.9896922E-2,2.1020868E-1,1.11784756E-1,-4.925756E-2,-2.3186171E-2,2.7145568E-1,-7.151819E-4,1.4818776E-3,-9.1625465E-4,4.7820697E-5,3.3406809E-4,-6.8186066E-4,1.5059159E-3,3.5467183E-3],"categories":[],"categories_nodes":[],"categories_segments":[],"categories_sizes":[],"default_left":[0,0,0,0,0,0,0,0,0,0,0,0,0,0,0],"id":45,"left_children":[1,3,5,7,9,11,13,-1,-1,-1,-1,-1,-1,-1,-1],"loss_changes":[4.9859414E-1,1.8106131E-1,1.4924133E-1,6.398036E-2,1.3094229E-1,9.917914E-3,2.7052104E-2,0E0,0E0,0E0,0E0,0E0,0E0,0E0,0E0],"parents":[2147483647,0,0,1,1,2,2,3,3,4,4,5,5,6,6],"right_children":[2,4,6,8,10,12,14,-1,-1,-1,-1,-1,-1,-1,-1],"split_conditions":[1.1327423E0,2.6132414E-1,2.1135433E-1,9.7679144E-1,2.056581E-1,6.256742E-1,5.357909E-1,-7.151819E-4,1.4818776E-3,-9.1625465E-4,4.7820697E-5,3.3406809E-4,-6.8186066E-4,1.5059159E-3,3.5467183E-3],"split_indices":[5,2,1,0,5,0,1,0,0,0,0,0,0,0,0],"split_type":[0,0,0,0,0,0,0,0,0,0,0,0,0,0,0],"sum_hessian":[7.2E1,6.3E1,9E0,7E0,5.6E1,2E0,7E0,1E0,6E0,3.1E1,2.5E1,1E0,1E0,4E0,3E0],"tree_param":{"num_deleted":"0","num_feature":"6","num_nodes":"15","size_leaf_vector":"1"}},{"base_weights":[2.62192E-3,-2.9599544E-2,2.085771E-1,1.1076273E-1,-4.878022E-2,1.727096E-2,2.8809816E-1,-7.11606E-4,1.4691758E-3,-6.4775224E-5,-1.0266857E-3,-6.784513E-4,6.825804E-4,1.0909921E-3,3.378779E-3],"categories":[],"categories_nodes":[],"categories_segments":[],"categories_sizes":[],"default_left":[0,0,0,0,0,0,0,0,0,0,0,0,0,0,0],"id":46,"left_children":[1,3,5,7,9,11,13,-1,-1,-1,-1,-1,-1,-1,-1],"loss_changes":[4.906147E-1,1.7770663E-1,1.471529E-1,6.307404E-2,1.2927344E-1,2.1990262E-2,2.5511444E-2,0E0,0E0,0E0,0E0,0E0,0E0,0E0,0E0],"parents":[2147483647,0,0,1,1,2,2,3,3,4,4,5,5,6,6],"right_children":[2,4,6,8,10,12,14,-1,-1,-1,-1,-1,-1,-1,-1],"split_conditions":[1.1327423E0,2.6132414E-1,3.1365713E-1,9.7679144E-1,8.159345E-1,5.7087415E-1,1.6904539E-1,-7.11606E-4,1.4691758E-3,-6.4775224E-5,-1.0266857E-3,-6.784513E-4,6.825804E-4,1.0909921E-3,3.378779E-3],"split_indices":[5,2,1,0,3,2,4,0,0,0,0,0,0,0,0],"split_type":[0,0,0,0,0,0,0,0,0,0,0,0,0,0,0],"sum_hessian":[7.2E1,6.3E1,9E0,7E0,5.6E1,3E0,6E0,1E0,6E0,3.2E1,2.4E1,1E0,2E0,2E0,4E0],"tree_param":{"num_deleted":"0","num_feature":"6","num_nodes":"15","size_leaf_vector":"1"}},{"base_weights":[2.652416E-3,-2.930876E-2,2.0693871E-1,1.0974981E-1,-4.8311565E-2,-2.3071617E-2,2.6732525E-1,-7.0804794E-4,1.4565829E-3,-9.0254255E-4,5.16834E-5,3.2898484E-4,-6.750591E-4,1.481382E-3,3.4947773E-3],"categories":[],"categories_nodes":[],"categories_segments":[],"categories_sizes":[],"default_left":[0,0,0,0,0,0,0,0,0,0,0,0,0,0,0],"id":47,"left_children":[1,3,5,7,9,11,13,-1,-1,-1,-1,-1,-1,-1,-1],"loss_changes":[4.8269895E-1,1.7442235E-1,1.4506292E-1,6.218084E-2,1.2832265E-1,9.681818E-3,2.6561081E-2,0E0,0E0,0E0,0E0,0E0,0E0,0E0,0E0],"parents":[2147483647,0,0,1,1,2,2,3,3,4,4,5,5,6,6],"right_children":[2,4,6,8,10,12,14,-1,-1,-1,-1,-1,-1,-1,-1],"split_conditions":[1.1327423E0,2.6132414E-1,2.1135433E-1,9.7679144E-1,2.056581E-1,6.256742E-1,5.357909E-1,-7.0804794E-4,1.4565829E-3,-9.0254255E-4,5.16834E-5,3.2898484E-4,-6.750591E-4,1.481382E-3,3.4947773E-3],"split_indices":[5,2,1,0,5,0,1,0,0,0,0,0,0,0,0],"split_type":[0,0,0,0,0,0,0,0,0,0,0,0,0,0,0],"sum_hessian":[7.2E1,6.3E1,9E0,7E0,5.6E1,2E0,7E0,1E0,6E0,3.1E1,2.5E1,1E0,1E0,4E0,3E0],"tree_param":{"num_deleted":"0","num_feature":"6","num_nodes":"15","size_leaf_vector":"1"}},{"base_weights":[2.6879206E-3,-2.9017268E-2,2.0533234E-1,1.0874587E-1,-4.784337E-2,1.6815446E-2,2.837231E-1,-7.0450775E-4,1.4440978E-3,5.4781878E-5,-8.967203E-4,-6.716838E-4,6.719952E-4,1.0738429E-3,3.3278172E-3],"categories":[],"categories_nodes":[],"categories_segments":[],"categories_sizes":[],"default_left":[0,0,0,0,0,0,0,0,0,0,0,0,0,0,0],"id":48,"left_children":[1,3,5,7,9,11,13,-1,-1,-1,-1,-1,-1,-1,-1],"loss_changes":[4.7497433E-1,1.7118955E-1,1.4300889E-1,6.1300613E-2,1.276223E-1,2.1439472E-2,2.4821162E-2,0E0,0E0,0E0,0E0,0E0,0E0,0E0,0E0],"parents":[2147483647,0,0,1,1,2,2,3,3,4,4,5,5,6,6],"right_children":[2,4,6,8,10,12,14,-1,-1,-1,-1,-1,-1,-1,-1],"split_conditions":[1.1327423E0,2.6132414E-1,3.1365713E-1,9.7679144E-1,2.357044E-1,5.7087415E-1,1.6904539E-1,-7.0450775E-4,1.4440978E-3,5.4781878E-5,-8.967203E-4,-6.716838E-4,6.719952E-4,1.0738429E-3,3.3278172E-3],"split_indices":[5,2,1,0,1,2,4,0,0,0,0,0,0,0,0],"split_type":[0,0,0,0,0,0,0,0,0,0,0,0,0,0,0],"sum_hessian":[7.2E1,6.3E1,9E0,7E0,5.6E1,3E0,6E0,1E0,6E0,2.5E1,3.1E1,1E0,2E0,2E0,4E0],"tree_param":{"num_deleted":"0","num_feature":"6","num_nodes":"15","size_leaf_vector":"1"}},{"base_weights":[2.7199427E-3,-2.8728692E-2,2.0371921E-1,1.0775086E-1,-4.7379706E-2,-2.2956362E-2,2.6325765E-1,-7.009852E-4,1.43172E-3,-5.5938664E-5,-1.0064183E-3,3.2398E-4,-6.683254E-4,1.4572359E-3,3.4436078E-3],"categories":[],"categories_nodes":[],"categories_segments":[],"categories_sizes":[],"default_left":[0,0,0,0,0,0,0,0,0,0,0,0,0,0,0],"id":49,"left_children":[1,3,5,7,9,11,13,-1,-1,-1,-1,-1,-1,-1,-1],"loss_changes":[4.6729672E-1,1.6801605E-1,1.4100254E-1,6.0433157E-2,1.2629637E-1,9.4514545E-3,2.6077569E-2,0E0,0E0,0E0,0E0,0E0,0E0,0E0,0E0],"parents":[2147483647,0,0,1,1,2,2,3,3,4,4,5,5,6,6],"right_children":[2,4,6,8,10,12,14,-1,-1,-1,-1,-1,-1,-1,-1],"split_conditions":[1.1327423E0,2.6132414E-1,2.1135433E-1,9.7679144E-1,8.159345E-1,6.256742E-1,5.357909E-1,-7.009852E-4,1.43172E-3,-5.5938664E-5,-1.0064183E-3,3.2398E-4,-6.683254E-4,1.4572359E-3,3.4436078E-3],"split_indices":[5,2,1,0,3,0,1,0,0,0,0,0,0,0,0],"split_type":[0,0,0,0,0,0,0,0,0,0,0,0,0,0,0],"sum_hessian":[7.2E1,6.3E1,9E0,7E0,5.6E1,2E0,7E0,1E0,6E0,3.2E1,2.4E1,1E0,1E0,4E0,3E0],"tree_param":{"num_deleted":"0","num_feature":"6","num_nodes":"15","size_leaf_vector":"1"}},{"base_weights":[2.7506202E-3,-2.8446585E-2,2.0213766E-1,1.0676469E-1,-4.6924543E-2,1.6369153E-2,2.794143E-1,-6.974803E-4,1.419448E-3,-8.8457455E-4,5.997687E-5,-6.6498376E-4,6.6157785E-4,1.0569689E-3,3.2776184E-3],"categories":[],"categories_nodes":[],"categories_segments":[],"categories_sizes":[],"default_left":[0,0,0,0,0,0,0,0,0,0,0,0,0,0,0],"id":50,"left_children":[1,3,5,7,9,11,13,-1,-1,-1,-1,-1,-1,-1,-1],"loss_changes":[4.5983338E-1,1.649093E-1,1.3898191E-1,5.9578262E-2,1.2581739E-1,2.0902831E-2,2.4148285E-2,0E0,0E0,0E0,0E0,0E0,0E0,0E0,0E0],"parents":[2147483647,0,0,1,1,2,2,3,3,4,4,5,5,6,6],"right_children":[2,4,6,8,10,12,14,-1,-1,-1,-1,-1,-1,-1,-1],"split_conditions":[1.1327423E0,2.6132414E-1,3.1365713E-1,9.7679144E-1,2.056581E-1,5.7087415E-1,1.6904539E-1,-6.974803E-4,1.419448E-3,-8.8457455E-4,5.997687E-5,-6.6498376E-4,6.6157785E-4,1.0569689E-3,3.2776184E-3],"split_indices":[5,2,1,0,5,2,4,0,0,0,0,0,0,0,0],"split_type":[0,0,0,0,0,0,0,0,0,0,0,0,0,0,0],"sum_hessian":[7.2E1,6.3E1,9E0,7E0,5.6E1,3E0,6E0,1E0,6E0,3.1E1,2.5E1,1E0,2E0,2E0,4E0],"tree_param":{"num_deleted":"0","num_feature":"6","num_nodes":"15","size_leaf_vector":"1"}},{"base_weights":[2.7810389E-3,-2.8163722E-2,2.005494E-1,1.0578728E-1,-4.646976E-2,-2.2840446E-2,2.5925192E-1,-6.939929E-4,1.4072811E-3,6.2227016E-5,-8.783021E-4,3.190522E-4,-6.616589E-4,1.4334717E-3,3.3931988E-3],"categories":[],"categories_nodes":[],"categories_segments":[],"categories_sizes":[],"default_left":[0,0,0,0,0,0,0,0,0,0,0,0,0,0,0],"id":51,"left_children":[1,3,5,7,9,11,13,-1,-1,-1,-1,-1,-1,-1,-1],"loss_changes":[4.524005E-1,1.6185111E-1,1.3705686E-1,5.8735766E-2,1.2477141E-1,9.226677E-3,2.5601506E-2,0E0,0E0,0E0,0E0,0E0,0E0,0E0,0E0],"parents":[2147483647,0,0,1,1,2,2,3,3,4,4,5,5,6,6],"right_children":[2,4,6,8,10,12,14,-1,-1,-1,-1,-1,-1,-1,-1],"split_conditions":[1.1327423E0,2.6132414E-1,2.1135433E-1,9.7679144E-1,2.357044E-1,6.256742E-1,5.357909E-1,-6.939929E-4,1.4072811E-3,6.2227016E-5,-8.783021E-4,3.190522E-4,-6.616589E-4,1.4334717E-3,3.3931988E-3],"split_indices":[5,2,1,0,1,0,1,0,0,0,0,0,0,0,0],"split_type":[0,0,0,0,0,0,0,0,0,0,0,0,0,0,0],"sum_hessian":[7.2E1,6.3E1,9E0,7E0,5.6E1,2E0,7E0,1E0,6E0,2.5E1,3.1E1,1E0,1E0,4E0,3E0],"tree_param":{"num_deleted":"0","num_feature":"6","num_nodes":"15","size_leaf_vector":"1"}},{"base_weights":[2.8132463E-3,-2.788369E-2,1.9899231E-1,1.0481855E-1,-4.601938E-2,1.593189E-2,2.751708E-1,-6.905229E-4,1.3952187E-3,-8.716115E-4,6.386623E-5,-6.583506E-4,6.5132556E-4,1.040366E-3,3.2281715E-3],"categories":[],"categories_nodes":[],"categories_segments":[],"categories_sizes":[],"default_left":[0,0,0,0,0,0,0,0,0,0,0,0,0,0,0],"id":52,"left_children":[1,3,5,7,9,11,13,-1,-1,-1,-1,-1,-1,-1,-1],"loss_changes":[4.4516167E-1,1.5884906E-1,1.3506866E-1,5.7905465E-2,1.23453E-1,2.037996E-2,2.3492634E-2,0E0,0E0,0E0,0E0,0E0,0E0,0E0,0E0],"parents":[2147483647,0,0,1,1,2,2,3,3,4,4,5,5,6,6],"right_children":[2,4,6,8,10,12,14,-1,-1,-1,-1,-1,-1,-1,-1],"split_conditions":[1.1327423E0,2.6132414E-1,3.1365713E-1,9.7679144E-1,2.056581E-1,5.7087415E-1,1.6904539E-1,-6.905229E-4,1.3952187E-3,-8.716115E-4,6.386623E-5,-6.583506E-4,6.5132556E-4,1.040366E-3,3.2281715E-3],"split_indices":[5,2,1,0,5,2,4,0,0,0,0,0,0,0,0],"split_type":[0,0,0,0,0,0,0,0,0,0,0,0,0,0,0],"sum_hessian":[7.2E1,6.3E1,9E0,7E0,5.6E1,3E0,6E0,1E0,6E0,3.1E1,2.5E1,1E0,2E0,2E0,4E0],"tree_param":{"num_deleted":"0","num_feature":"6","num_nodes":"15","size_leaf_vector":"1"}},{"base_weights":[2.8420787E-3,-2.7606465E-2,1.9742854E-1,1.03858456E-1,-4.5573357E-2,-2.2723908E-2,2.5530714E-1,-6.870703E-4,1.3832595E-3,-4.3240376E-5,-9.819953E-4,3.142002E-4,-6.5505883E-4,1.4100835E-3,3.3435386E-3],"categories":[],"categories_nodes":[],"categories_segments":[],"categories_sizes":[],"default_left":[0,0,0,0,0,0,0,0,0,0,0,0,0,0,0],"id":53,"left_children":[1,3,5,7,9,11,13,-1,-1,-1,-1,-1,-1,-1,-1],"loss_changes":[4.3796614E-1,1.5590219E-1,1.3322273E-1,5.7087183E-2,1.2331062E-1,9.00735E-3,2.5132835E-2,0E0,0E0,0E0,0E0,0E0,0E0,0E0,0E0],"parents":[2147483647,0,0,1,1,2,2,3,3,4,4,5,5,6,6],"right_children":[2,4,6,8,10,12,14,-1,-1,-1,-1,-1,-1,-1,-1],"split_conditions":[1.1327423E0,2.6132414E-1,2.1135433E-1,9.7679144E-1,8.159345E-1,6.256742E-1,5.357909E-1,-6.870703E-4,1.3832595E-3,-4.3240376E-5,-9.819953E-4,3.142002E-4,-6.5505883E-4,1.4100835E-3,3.3435386E-3],"split_indices":[5,2,1,0,3,0,1,0,0,0,0,0,0,0,0],"split_type":[0,0,0,0,0,0,0,0,0,0,0,0,0,0,0],"sum_hessian":[7.2E1,6.3E1,9E0,7E0,5.6E1,2E0,7E0,1E0,6E0,3.2E1,2.4E1,1E0,1E0,4E0,3E0],"tree_param":{"num_deleted":"0","num_feature":"6","num_nodes":"15","size_leaf_vector":"1"}},{"base_weights":[2.8696035E-3,-2.7335534E-2,1.9589552E-1,1.02906905E-1,-4.5135606E-2,1.55035E-2,2.7099162E-1,-6.8363495E-4,1.3714031E-3,6.935607E-5,-8.603298E-4,-6.5178354E-4,6.412357E-4,1.0240296E-3,3.1794645E-3],"categories":[],"categories_nodes":[],"categories_segments":[],"categories_sizes":[],"default_left":[0,0,0,0,0,0,0,0,0,0,0,0,0,0,0],"id":54,"left_children":[1,3,5,7,9,11,13,-1,-1,-1,-1,-1,-1,-1,-1],"loss_changes":[4.3097228E-1,1.5301754E-1,1.3126603E-1,5.6280762E-2,1.2198251E-1,1.98705E-2,2.2853732E-2,0E0,0E0,0E0,0E0,0E0,0E0,0E0,0E0],"parents":[2147483647,0,0,1,1,2,2,3,3,4,4,5,5,6,6],"right_children":[2,4,6,8,10,12,14,-1,-1,-1,-1,-1,-1,-1,-1],"split_conditions":[1.1327423E0,2.6132414E-1,3.1365713E-1,9.7679144E-1,2.357044E-1,5.7087415E-1,1.6904539E-1,-6.8363495E-4,1.3714031E-3,6.935607E-5,-8.603298E-4,-6.5178354E-4,6.412357E-4,1.0240296E-3,3.1794645E-3],"split_indices":[5,2,1,0,1,2,4,0,0,0,0,0,0,0,0],"split_type":[0,0,0,0,0,0,0,0,0,0,0,0,0,0,0],"sum_hessian":[7.2E1,6.3E1,9E0,7E0,5.6E1,3E0,6E0,1E0,6E0,2.5E1,3.1E1,1E0,2E0,2E0,4E0],"tree_param":{"num_deleted":"0","num_feature":"6","num_nodes":"15","size_leaf_vector":"1"}},{"base_weights":[2.8969331E-3,-2.7063789E-2,1.9435586E-1,1.01963796E-1,-4.4698123E-2,-2.2606775E-2,2.5142238E-1,-6.8021676E-4,1.3596482E-3,-8.543746E-4,7.161768E-5,3.0942305E-4,-6.4852467E-4,1.3870652E-3,3.2946158E-3],"categories":[],"categories_nodes":[],"categories_segments":[],"categories_sizes":[],"default_left":[0,0,0,0,0,0,0,0,0,0,0,0,0,0,0],"id":55,"left_children":[1,3,5,7,9,11,13,-1,-1,-1,-1,-1,-1,-1,-1],"loss_changes":[4.240061E-1,1.5017776E-1,1.2949684E-1,5.5485986E-2,1.21037945E-1,8.793338E-3,2.4671614E-2,0E0,0E0,0E0,0E0,0E0,0E0,0E0,0E0],"parents":[2147483647,0,0,1,1,2,2,3,3,4,4,5,5,6,6],"right_children":[2,4,6,8,10,12,14,-1,-1,-1,-1,-1,-1,-1,-1],"split_conditions":[1.1327423E0,2.6132414E-1,2.1135433E-1,9.7679144E-1,2.056581E-1,6.256742E-1,5.357909E-1,-6.8021676E-4,1.3596482E-3,-8.543746E-4,7.161768E-5,3.0942305E-4,-6.4852467E-4,1.3870652E-3,3.2946158E-3],"split_indices":[5,2,1,0,5,0,1,0,0,0,0,0,0,0,0],"split_type":[0,0,0,0,0,0,0,0,0,0,0,0,0,0,0],"sum_hessian":[7.2E1,6.3E1,9E0,7E0,5.6E1,2E0,7E0,1E0,6E0,3.1E1,2.5E1,1E0,1E0,4E0,3E0],"tree_param":{"num_deleted":"0","num_feature":"6","num_nodes":"15","size_leaf_vector":"1"}},{"base_weights":[2.9260362E-3,-2.6794767E-2,1.9284657E-1,1.010291E-1,-4.4264875E-2,-2.2493744E-2,2.4949336E-1,-6.7681563E-4,1.3479941E-3,-3.5191926E-5,-9.6278574E-4,3.0787586E-4,-6.4528204E-4,1.3759687E-3,3.2699062E-3],"categories":[],"categories_nodes":[],"categories_segments":[],"categories_sizes":[],"default_left":[0,0,0,0,0,0,0,0,0,0,0,0,0,0,0],"id":56,"left_children":[1,3,5,7,9,11,13,-1,-1,-1,-1,-1,-1,-1,-1],"loss_changes":[4.1722238E-1,1.4739022E-1,1.275954E-1,5.470273E-2,1.2046321E-1,8.705623E-3,2.4380475E-2,0E0,0E0,0E0,0E0,0E0,0E0,0E0,0E0],"parents":[2147483647,0,0,1,1,2,2,3,3,4,4,5,5,6,6],"right_children":[2,4,6,8,10,12,14,-1,-1,-1,-1,-1,-1,-1,-1],"split_conditions":[1.1327423E0,2.6132414E-1,2.1135433E-1,9.7679144E-1,8.159345E-1,6.256742E-1,5.357909E-1,-6.7681563E-4,1.3479941E-3,-3.5191926E-5,-9.6278574E-4,3.0787586E-4,-6.4528204E-4,1.3759687E-3,3.2699062E-3],"split_indices":[5,2,1,0,3,0,1,0,0,0,0,0,0,0,0],"split_type":[0,0,0,0,0,0,0,0,0,0,0,0,0,0,0],"sum_hessian":[7.2E1,6.3E1,9E0,7E0,5.6E1,2E0,7E0,1E0,6E0,3.2E1,2.4E1,1E0,1E0,4E0,3E0],"tree_param":{"num_deleted":"0","num_feature":"6","num_nodes":"15","size_leaf_vector":"1"}},{"base_weights":[2.9513196E-3,-2.6531924E-2,1.9134894E-1,1.0010271E-1,-4.3839734E-2,1.4824193E-2,2.6488468E-1,2.0723145E-3,2.985455E-4,7.617923E-5,-8.427908E-4,-6.4205565E-4,6.2569295E-4,9.987825E-4,3.1091159E-3],"categories":[],"categories_nodes":[],"categories_segments":[],"categories_sizes":[],"default_left":[0,0,0,0,0,0,0,0,0,0,0,0,0,0,0],"id":57,"left_children":[1,3,5,7,9,11,13,-1,-1,-1,-1,-1,-1,-1,-1],"loss_changes":[4.1056067E-1,1.4466164E-1,1.2588206E-1,5.401797E-2,1.1925414E-1,1.9110434E-2,2.2109866E-2,0E0,0E0,0E0,0E0,0E0,0E0,0E0,0E0],"parents":[2147483647,0,0,1,1,2,2,3,3,4,4,5,5,6,6],"right_children":[2,4,6,8,10,12,14,-1,-1,-1,-1,-1,-1,-1,-1],"split_conditions":[1.1327423E0,2.6132414E-1,3.1365713E-1,2.6354143E-1,2.357044E-1,5.7087415E-1,1.6904539E-1,2.0723145E-3,2.985455E-4,7.617923E-5,-8.427908E-4,-6.4205565E-4,6.2569295E-4,9.987825E-4,3.1091159E-3],"split_indices":[5,2,1,1,1,2,4,0,0,0,0,0,0,0,0],"split_type":[0,0,0,0,0,0,0,0,0,0,0,0,0,0,0],"sum_hessian":[7.2E1,6.3E1,9E0,7E0,5.6E1,3E0,6E0,2E0,5E0,2.5E1,3.1E1,1E0,2E0,2E0,4E0],"tree_param":{"num_deleted":"0","num_feature":"6","num_nodes":"15","size_leaf_vector":"1"}},{"base_weights":[2.999833E-3,-2.6241535E-2,1.8984461E-1,9.939803E-2,-4.341478E-2,-2.2375828E-2,2.456967E-1,-6.749243E-4,1.3288129E-3,-8.375547E-4,7.905097E-5,3.0320793E-4,-6.388453E-4,1.3534961E-3,3.2220636E-3],"categories":[],"categories_nodes":[],"categories_segments":[],"categories_sizes":[],"default_left":[0,0,0,0,0,0,0,0,0,0,0,0,0,0,0],"id":58,"left_children":[1,3,5,7,9,11,13,-1,-1,-1,-1,-1,-1,-1,-1],"loss_changes":[4.0382436E-1,1.4240423E-1,1.2402722E-1,5.3672798E-2,1.1866801E-1,8.499136E-3,2.393046E-2,0E0,0E0,0E0,0E0,0E0,0E0,0E0,0E0],"parents":[2147483647,0,0,1,1,2,2,3,3,4,4,5,5,6,6],"right_children":[2,4,6,8,10,12,14,-1,-1,-1,-1,-1,-1,-1,-1],"split_conditions":[1.1327423E0,2.6132414E-1,2.1135433E-1,9.7679144E-1,2.056581E-1,6.256742E-1,5.357909E-1,-6.749243E-4,1.3288129E-3,-8.375547E-4,7.905097E-5,3.0320793E-4,-6.388453E-4,1.3534961E-3,3.2220636E-3],"split_indices":[5,2,1,0,5,0,1,0,0,0,0,0,0,0,0],"split_type":[0,0,0,0,0,0,0,0,0,0,0,0,0,0,0],"sum_hessian":[7.2E1,6.3E1,9E0,7E0,5.6E1,2E0,7E0,1E0,6E0,3.1E1,2.5E1,1E0,1E0,4E0,3E0],"tree_param":{"num_deleted":"0","num_feature":"6","num_nodes":"15","size_leaf_vector":"1"}},{"base_weights":[3.0264785E-3,-2.5980758E-2,1.8837014E-1,9.8485775E-2,-4.299394E-2,1.4417391E-2,2.608617E-1,2.0496403E-3,2.8832356E-4,-2.74568E-5,-9.440189E-4,-6.356511E-4,6.159993E-4,9.831005E-4,3.062203E-3],"categories":[],"categories_nodes":[],"categories_segments":[],"categories_sizes":[],"default_left":[0,0,0,0,0,0,0,0,0,0,0,0,0,0,0],"id":59,"left_children":[1,3,5,7,9,11,13,-1,-1,-1,-1,-1,-1,-1,-1],"loss_changes":[3.9736444E-1,1.397589E-1,1.2234011E-1,5.3422995E-2,1.1767838E-1,1.8633258E-2,2.1507323E-2,0E0,0E0,0E0,0E0,0E0,0E0,0E0,0E0],"parents":[2147483647,0,0,1,1,2,2,3,3,4,4,5,5,6,6],"right_children":[2,4,6,8,10,12,14,-1,-1,-1,-1,-1,-1,-1,-1],"split_conditions":[1.1327423E0,2.6132414E-1,3.1365713E-1,2.6354143E-1,8.159345E-1,5.7087415E-1,1.6904539E-1,2.0496403E-3,2.8832356E-4,-2.74568E-5,-9.440189E-4,-6.356511E-4,6.159993E-4,9.831005E-4,3.062203E-3],"split_indices":[5,2,1,1,3,2,4,0,0,0,0,0,0,0,0],"split_type":[0,0,0,0,0,0,0,0,0,0,0,0,0,0,0],"sum_hessian":[7.2E1,6.3E1,9E0,7E0,5.6E1,3E0,6E0,2E0,5E0,3.2E1,2.4E1,1E0,2E0,2E0,4E0],"tree_param":{"num_deleted":"0","num_feature":"6","num_nodes":"15","size_leaf_vector":"1"}},{"base_weights":[3.0700814E-3,-2.5699597E-2,1.8688901E-1,9.7793154E-2,-4.258104E-2,-2.2257403E-2,2.4195778E-1,2.035976E-3,2.8592077E-4,8.270648E-5,-8.2567375E-4,2.9861182E-4,-6.3247286E-4,1.3313794E-3,3.1749313E-3],"categories":[],"categories_nodes":[],"categories_segments":[],"categories_sizes":[],"default_left":[0,0,0,0,0,0,0,0,0,0,0,0,0,0,0],"id":60,"left_children":[1,3,5,7,9,11,13,-1,-1,-1,-1,-1,-1,-1,-1],"loss_changes":[3.90857E-1,1.3758725E-1,1.2055972E-1,5.2752964E-2,1.1658514E-1,8.297643E-3,2.3487628E-2,0E0,0E0,0E0,0E0,0E0,0E0,0E0,0E0],"parents":[2147483647,0,0,1,1,2,2,3,3,4,4,5,5,6,6],"right_children":[2,4,6,8,10,12,14,-1,-1,-1,-1,-1,-1,-1,-1],"split_conditions":[1.1327423E0,2.6132414E-1,2.1135433E-1,2.6354143E-1,2.357044E-1,6.256742E-1,5.357909E-1,2.035976E-3,2.8592077E-4,8.270648E-5,-8.2567375E-4,2.9861182E-4,-6.3247286E-4,1.3313794E-3,3.1749313E-3],"split_indices":[5,2,1,1,1,0,1,0,0,0,0,0,0,0,0],"split_type":[0,0,0,0,0,0,0,0,0,0,0,0,0,0,0],"sum_hessian":[7.2E1,6.3E1,9E0,7E0,5.6E1,2E0,7E0,2E0,5E0,2.5E1,3.1E1,1E0,1E0,4E0,3E0],"tree_param":{"num_deleted":"0","num_feature":"6","num_nodes":"15","size_leaf_vector":"1"}},{"base_weights":[3.118166E-3,-2.541793E-2,1.8543735E-1,9.710546E-2,-4.2168263E-2,1.4018916E-2,2.568997E-1,-6.7442097E-4,1.3024684E-3,-8.2114036E-4,8.6176195E-5,-6.2931044E-4,6.0645916E-4,9.6767064E-4,3.0159934E-3],"categories":[],"categories_nodes":[],"categories_segments":[],"categories_sizes":[],"default_left":[0,0,0,0,0,0,0,0,0,0,0,0,0,0,0],"id":61,"left_children":[1,3,5,7,9,11,13,-1,-1,-1,-1,-1,-1,-1,-1],"loss_changes":[3.845089E-1,1.3544248E-1,1.1889818E-1,5.241078E-2,1.1634247E-1,1.8168295E-2,2.0920217E-2,0E0,0E0,0E0,0E0,0E0,0E0,0E0,0E0],"parents":[2147483647,0,0,1,1,2,2,3,3,4,4,5,5,6,6],"right_children":[2,4,6,8,10,12,14,-1,-1,-1,-1,-1,-1,-1,-1],"split_conditions":[1.1327423E0,2.6132414E-1,3.1365713E-1,9.7679144E-1,2.056581E-1,5.7087415E-1,1.6904539E-1,-6.7442097E-4,1.3024684E-3,-8.2114036E-4,8.6176195E-5,-6.2931044E-4,6.0645916E-4,9.6767064E-4,3.0159934E-3],"split_indices":[5,2,1,0,5,2,4,0,0,0,0,0,0,0,0],"split_type":[0,0,0,0,0,0,0,0,0,0,0,0,0,0,0],"sum_hessian":[7.2E1,6.3E1,9E0,7E0,5.6E1,3E0,6E0,1E0,6E0,3.1E1,2.5E1,1E0,2E0,2E0,4E0],"tree_param":{"num_deleted":"0","num_feature":"6","num_nodes":"15","size_leaf_vector":"1"}},{"base_weights":[3.139778E-3,-2.516542E-2,1.8397906E-1,9.62129E-2,-4.1759476E-2,-2.2138497E-2,2.3827577E-1,2.0137194E-3,2.759789E-4,-2.0025052E-5,-9.256829E-4,2.9408647E-4,-6.261639E-4,1.3096126E-3,3.1284993E-3],"categories":[],"categories_nodes":[],"categories_segments":[],"categories_sizes":[],"default_left":[0,0,0,0,0,0,0,0,0,0,0,0,0,0,0],"id":62,"left_children":[1,3,5,7,9,11,13,-1,-1,-1,-1,-1,-1,-1,-1],"loss_changes":[3.782944E-1,1.3292393E-1,1.1719012E-1,5.2166477E-2,1.149549E-1,8.101024E-3,2.3051888E-2,0E0,0E0,0E0,0E0,0E0,0E0,0E0,0E0],"parents":[2147483647,0,0,1,1,2,2,3,3,4,4,5,5,6,6],"right_children":[2,4,6,8,10,12,14,-1,-1,-1,-1,-1,-1,-1,-1],"split_conditions":[1.1327423E0,2.6132414E-1,2.1135433E-1,2.6354143E-1,8.159345E-1,6.256742E-1,5.357909E-1,2.0137194E-3,2.759789E-4,-2.0025052E-5,-9.256829E-4,2.9408647E-4,-6.261639E-4,1.3096126E-3,3.1284993E-3],"split_indices":[5,2,1,1,3,0,1,0,0,0,0,0,0,0,0],"split_type":[0,0,0,0,0,0,0,0,0,0,0,0,0,0,0],"sum_hessian":[7.2E1,6.3E1,9E0,7E0,5.6E1,2E0,7E0,2E0,5E0,3.2E1,2.4E1,1E0,1E0,4E0,3E0],"tree_param":{"num_deleted":"0","num_feature":"6","num_nodes":"15","size_leaf_vector":"1"}},{"base_weights":[3.1830429E-3,-2.489276E-2,1.8254988E-1,9.553699E-2,-4.1358467E-2,1.3628636E-2,2.5299776E-1,2.0002946E-3,2.7367912E-4,-8.0902927E-4,8.902347E-5,-6.230331E-4,5.9707055E-4,9.5248874E-4,2.9704752E-3],"categories":[],"categories_nodes":[],"categories_segments":[],"categories_sizes":[],"default_left":[0,0,0,0,0,0,0,0,0,0,0,0,0,0,0],"id":63,"left_children":[1,3,5,7,9,11,13,-1,-1,-1,-1,-1,-1,-1,-1],"loss_changes":[3.7216258E-1,1.3086075E-1,1.1555341E-1,5.1510863E-2,1.1400982E-1,1.7715244E-2,2.0348161E-2,0E0,0E0,0E0,0E0,0E0,0E0,0E0,0E0],"parents":[2147483647,0,0,1,1,2,2,3,3,4,4,5,5,6,6],"right_children":[2,4,6,8,10,12,14,-1,-1,-1,-1,-1,-1,-1,-1],"split_conditions":[1.1327423E0,2.6132414E-1,3.1365713E-1,2.6354143E-1,2.056581E-1,5.7087415E-1,1.6904539E-1,2.0002946E-3,2.7367912E-4,-8.0902927E-4,8.902347E-5,-6.230331E-4,5.9707055E-4,9.5248874E-4,2.9704752E-3],"split_indices":[5,2,1,1,5,2,4,0,0,0,0,0,0,0,0],"split_type":[0,0,0,0,0,0,0,0,0,0,0,0,0,0,0],"sum_hessian":[7.2E1,6.3E1,9E0,7E0,5.6E1,3E0,6E0,2E0,5E0,3.1E1,2.5E1,1E0,2E0,2E0,4E0],"tree_param":{"num_deleted":"0","num_feature":"6","num_nodes":"15","size_leaf_vector":"1"}},{"base_weights":[3.2258846E-3,-2.461955E-2,1.8111408E-1,9.4865866E-2,-4.095751E-2,-2.2019148E-2,2.3464978E-1,-6.737971E-4,1.2766948E-3,9.2927134E-5,-8.05059E-4,2.8963073E-4,-6.1991793E-4,1.2881907E-3,3.082757E-3],"categories":[],"categories_nodes":[],"categories_segments":[],"categories_sizes":[],"default_left":[0,0,0,0,0,0,0,0,0,0,0,0,0,0,0],"id":64,"left_children":[1,3,5,7,9,11,13,-1,-1,-1,-1,-1,-1,-1,-1],"loss_changes":[3.6605528E-1,1.2882294E-1,1.1391559E-1,5.1180266E-2,1.1402509E-1,7.909156E-3,2.262327E-2,0E0,0E0,0E0,0E0,0E0,0E0,0E0,0E0],"parents":[2147483647,0,0,1,1,2,2,3,3,4,4,5,5,6,6],"right_children":[2,4,6,8,10,12,14,-1,-1,-1,-1,-1,-1,-1,-1],"split_conditions":[1.1327423E0,2.6132414E-1,2.1135433E-1,9.7679144E-1,2.357044E-1,6.256742E-1,5.357909E-1,-6.737971E-4,1.2766948E-3,9.2927134E-5,-8.05059E-4,2.8963073E-4,-6.1991793E-4,1.2881907E-3,3.082757E-3],"split_indices":[5,2,1,0,1,0,1,0,0,0,0,0,0,0,0],"split_type":[0,0,0,0,0,0,0,0,0,0,0,0,0,0,0],"sum_hessian":[7.2E1,6.3E1,9E0,7E0,5.6E1,2E0,7E0,1E0,6E0,2.5E1,3.1E1,1E0,1E0,4E0,3E0],"tree_param":{"num_deleted":"0","num_feature":"6","num_nodes":"15","size_leaf_vector":"1"}},{"base_weights":[3.247484E-3,-2.4375057E-2,1.79707E-1,9.399256E-2,-4.0560424E-2,1.3246387E-2,2.4915493E-1,1.978448E-3,2.640102E-4,-1.288705E-5,-9.0776675E-4,-6.168184E-4,5.878307E-4,9.3755085E-4,2.9256386E-3],"categories":[],"categories_nodes":[],"categories_segments":[],"categories_sizes":[],"default_left":[0,0,0,0,0,0,0,0,0,0,0,0,0,0,0],"id":65,"left_children":[1,3,5,7,9,11,13,-1,-1,-1,-1,-1,-1,-1,-1],"loss_changes":[3.6020136E-1,1.2642507E-1,1.1230305E-1,5.0932966E-2,1.122915E-1,1.727378E-2,1.9790828E-2,0E0,0E0,0E0,0E0,0E0,0E0,0E0,0E0],"parents":[2147483647,0,0,1,1,2,2,3,3,4,4,5,5,6,6],"right_children":[2,4,6,8,10,12,14,-1,-1,-1,-1,-1,-1,-1,-1],"split_conditions":[1.1327423E0,2.6132414E-1,3.1365713E-1,2.6354143E-1,8.159345E-1,5.7087415E-1,1.6904539E-1,1.978448E-3,2.640102E-4,-1.288705E-5,-9.0776675E-4,-6.168184E-4,5.878307E-4,9.3755085E-4,2.9256386E-3],"split_indices":[5,2,1,1,3,2,4,0,0,0,0,0,0,0,0],"split_type":[0,0,0,0,0,0,0,0,0,0,0,0,0,0,0],"sum_hessian":[7.2E1,6.3E1,9E0,7E0,5.6E1,3E0,6E0,2E0,5E0,3.2E1,2.4E1,1E0,2E0,2E0,4E0],"tree_param":{"num_deleted":"0","num_feature":"6","num_nodes":"15","size_leaf_vector":"1"}},{"base_weights":[3.2856388E-3,-2.4110654E-2,1.7829336E-1,9.333294E-2,-4.017097E-2,-2.1899382E-2,2.3107897E-1,1.9652583E-3,2.6181006E-4,-7.932815E-4,9.567512E-5,2.8524353E-4,-6.1373424E-4,1.267108E-3,3.0376941E-3],"categories":[],"categories_nodes":[],"categories_segments":[],"categories_sizes":[],"default_left":[0,0,0,0,0,0,0,0,0,0,0,0,0,0,0],"id":66,"left_children":[1,3,5,7,9,11,13,-1,-1,-1,-1,-1,-1,-1,-1],"loss_changes":[3.5430187E-1,1.244649E-1,1.1073342E-1,5.0291568E-2,1.11773245E-1,7.721924E-3,2.2201687E-2,0E0,0E0,0E0,0E0,0E0,0E0,0E0,0E0],"parents":[2147483647,0,0,1,1,2,2,3,3,4,4,5,5,6,6],"right_children":[2,4,6,8,10,12,14,-1,-1,-1,-1,-1,-1,-1,-1],"split_conditions":[1.1327423E0,2.6132414E-1,2.1135433E-1,2.6354143E-1,2.056581E-1,6.256742E-1,5.357909E-1,1.9652583E-3,2.6181006E-4,-7.932815E-4,9.567512E-5,2.8524353E-4,-6.1373424E-4,1.267108E-3,3.0376941E-3],"split_indices":[5,2,1,1,5,0,1,0,0,0,0,0,0,0,0],"split_type":[0,0,0,0,0,0,0,0,0,0,0,0,0,0,0],"sum_hessian":[7.2E1,6.3E1,9E0,7E0,5.6E1,2E0,7E0,2E0,5E0,3.1E1,2.5E1,1E0,1E0,4E0,3E0],"tree_param":{"num_deleted":"0","num_feature":"6","num_nodes":"15","size_leaf_vector":"1"}},{"base_weights":[3.3282016E-3,-2.3845654E-2,1.7690806E-1,9.2677996E-2,-3.9781503E-2,1.2872029E-2,2.4537034E-1,-6.730572E-4,1.251479E-3,9.877773E-5,-7.888649E-4,-6.106656E-4,5.787374E-4,9.228531E-4,2.881473E-3],"categories":[],"categories_nodes":[],"categories_segments":[],"categories_sizes":[],"default_left":[0,0,0,0,0,0,0,0,0,0,0,0,0,0,0],"id":67,"left_children":[1,3,5,7,9,11,13,-1,-1,-1,-1,-1,-1,-1,-1],"loss_changes":[3.4854737E-1,1.225287E-1,1.0914439E-1,4.998043E-2,1.1146898E-1,1.6843604E-2,1.924783E-2,0E0,0E0,0E0,0E0,0E0,0E0,0E0,0E0],"parents":[2147483647,0,0,1,1,2,2,3,3,4,4,5,5,6,6],"right_children":[2,4,6,8,10,12,14,-1,-1,-1,-1,-1,-1,-1,-1],"split_conditions":[1.1327423E0,2.6132414E-1,3.1365713E-1,9.7679144E-1,2.357044E-1,5.7087415E-1,1.6904539E-1,-6.730572E-4,1.251479E-3,9.877773E-5,-7.888649E-4,-6.106656E-4,5.787374E-4,9.228531E-4,2.881473E-3],"split_indices":[5,2,1,0,1,2,4,0,0,0,0,0,0,0,0],"split_type":[0,0,0,0,0,0,0,0,0,0,0,0,0,0,0],"sum_hessian":[7.2E1,6.3E1,9E0,7E0,5.6E1,3E0,6E0,1E0,6E0,2.5E1,3.1E1,1E0,2E0,2E0,4E0],"tree_param":{"num_deleted":"0","num_feature":"6","num_nodes":"15","size_leaf_vector":"1"}},{"base_weights":[3.3450676E-3,-2.3608942E-2,1.7551622E-1,9.182351E-2,-3.9395794E-2,-2.177924E-2,2.2756249E-1,1.9438134E-3,2.5240675E-4,-6.0334824E-6,-8.902599E-4,2.8092368E-4,-6.0761225E-4,1.2463593E-3,2.9933006E-3],"categories":[],"categories_nodes":[],"categories_segments":[],"categories_sizes":[],"default_left":[0,0,0,0,0,0,0,0,0,0,0,0,0,0,0],"id":68,"left_children":[1,3,5,7,9,11,13,-1,-1,-1,-1,-1,-1,-1,-1],"loss_changes":[3.429151E-1,1.20245636E-1,1.0764107E-1,4.9722403E-2,1.0968707E-1,7.53921E-3,2.1787018E-2,0E0,0E0,0E0,0E0,0E0,0E0,0E0,0E0],"parents":[2147483647,0,0,1,1,2,2,3,3,4,4,5,5,6,6],"right_children":[2,4,6,8,10,12,14,-1,-1,-1,-1,-1,-1,-1,-1],"split_conditions":[1.1327423E0,2.6132414E-1,2.1135433E-1,2.6354143E-1,8.159345E-1,6.256742E-1,5.357909E-1,1.9438134E-3,2.5240675E-4,-6.0334824E-6,-8.902599E-4,2.8092368E-4,-6.0761225E-4,1.2463593E-3,2.9933006E-3],"split_indices":[5,2,1,1,3,0,1,0,0,0,0,0,0,0,0],"split_type":[0,0,0,0,0,0,0,0,0,0,0,0,0,0,0],"sum_hessian":[7.2E1,6.3E1,9E0,7E0,5.6E1,2E0,7E0,2E0,5E0,3.2E1,2.4E1,1E0,1E0,4E0,3E0],"tree_param":{"num_deleted":"0","num_feature":"6","num_nodes":"15","size_leaf_vector":"1"}},{"base_weights":[3.383024E-3,-2.3352543E-2,1.7415234E-1,9.11798E-2,-3.9017566E-2,1.2505412E-2,2.4164312E-1,1.9308544E-3,2.5030345E-4,-7.77911E-4,1.02043836E-4,-6.045742E-4,5.6978833E-4,9.0839167E-4,2.8379688E-3],"categories":[],"categories_nodes":[],"categories_segments":[],"categories_sizes":[],"default_left":[0,0,0,0,0,0,0,0,0,0,0,0,0,0,0],"id":69,"left_children":[1,3,5,7,9,11,13,-1,-1,-1,-1,-1,-1,-1,-1],"loss_changes":[3.373568E-1,1.1838332E-1,1.0607493E-1,4.9095035E-2,1.0957882E-1,1.642442E-2,1.8718809E-2,0E0,0E0,0E0,0E0,0E0,0E0,0E0,0E0],"parents":[2147483647,0,0,1,1,2,2,3,3,4,4,5,5,6,6],"right_children":[2,4,6,8,10,12,14,-1,-1,-1,-1,-1,-1,-1,-1],"split_conditions":[1.1327423E0,2.6132414E-1,3.1365713E-1,2.6354143E-1,2.056581E-1,5.7087415E-1,1.6904539E-1,1.9308544E-3,2.5030345E-4,-7.77911E-4,1.02043836E-4,-6.045742E-4,5.6978833E-4,9.0839167E-4,2.8379688E-3],"split_indices":[5,2,1,1,5,2,4,0,0,0,0,0,0,0,0],"split_type":[0,0,0,0,0,0,0,0,0,0,0,0,0,0,0],"sum_hessian":[7.2E1,6.3E1,9E0,7E0,5.6E1,3E0,6E0,2E0,5E0,3.1E1,2.5E1,1E0,2E0,2E0,4E0],"tree_param":{"num_deleted":"0","num_feature":"6","num_nodes":"15","size_leaf_vector":"1"}},{"base_weights":[3.4206593E-3,-2.3095496E-2,1.7278199E-1,9.054065E-2,-3.8639244E-2,-2.1658748E-2,2.2409952E-1,-6.722055E-4,1.2268089E-3,1.0436368E-4,-7.7305705E-4,2.7667015E-4,-6.015514E-4,1.2259393E-3,2.949566E-3],"categories":[],"categories_nodes":[],"categories_segments":[],"categories_sizes":[],"default_left":[0,0,0,0,0,0,0,0,0,0,0,0,0,0,0],"id":70,"left_children":[1,3,5,7,9,11,13,-1,-1,-1,-1,-1,-1,-1,-1],"loss_changes":[3.318197E-1,1.16543636E-1,1.04635864E-1,4.881055E-2,1.0896886E-1,7.360904E-3,2.1379262E-2,0E0,0E0,0E0,0E0,0E0,0E0,0E0,0E0],"parents":[2147483647,0,0,1,1,2,2,3,3,4,4,5,5,6,6],"right_children":[2,4,6,8,10,12,14,-1,-1,-1,-1,-1,-1,-1,-1],"split_conditions":[1.1327423E0,2.6132414E-1,2.1135433E-1,9.7679144E-1,2.357044E-1,6.256742E-1,5.357909E-1,-6.722055E-4,1.2268089E-3,1.0436368E-4,-7.7305705E-4,2.7667015E-4,-6.015514E-4,1.2259393E-3,2.949566E-3],"split_indices":[5,2,1,0,1,0,1,0,0,0,0,0,0,0,0],"split_type":[0,0,0,0,0,0,0,0,0,0,0,0,0,0,0],"sum_hessian":[7.2E1,6.3E1,9E0,7E0,5.6E1,2E0,7E0,1E0,6E0,2.5E1,3.1E1,1E0,1E0,4E0,3E0],"tree_param":{"num_deleted":"0","num_feature":"6","num_nodes":"15","size_leaf_vector":"1"}},{"base_weights":[3.4376364E-3,-2.2866325E-2,1.7143923E-1,8.970456E-2,-3.8264584E-2,-2.1550462E-2,2.2238046E-1,1.9098032E-3,2.4115913E-4,1.4883217E-3,-4.777414E-4,2.7528673E-4,-5.985437E-4,1.2161317E-3,2.9274444E-3],"categories":[],"categories_nodes":[],"categories_segments":[],"categories_sizes":[],"default_left":[0,0,0,0,0,0,0,0,0,0,0,0,0,0,0],"id":71,"left_children":[1,3,5,7,9,11,13,-1,-1,-1,-1,-1,-1,-1,-1],"loss_changes":[3.2651502E-1,1.1436983E-1,1.0310373E-1,4.853467E-2,1.0852515E-1,7.2874785E-3,2.1121532E-2,0E0,0E0,0E0,0E0,0E0,0E0,0E0,0E0],"parents":[2147483647,0,0,1,1,2,2,3,3,4,4,5,5,6,6],"right_children":[2,4,6,8,10,12,14,-1,-1,-1,-1,-1,-1,-1,-1],"split_conditions":[1.1327423E0,2.6132414E-1,2.1135433E-1,2.6354143E-1,5.09939E-1,6.256742E-1,5.357909E-1,1.9098032E-3,2.4115913E-4,1.4883217E-3,-4.777414E-4,2.7528673E-4,-5.985437E-4,1.2161317E-3,2.9274444E-3],"split_indices":[5,2,1,1,3,0,1,0,0,0,0,0,0,0,0],"split_type":[0,0,0,0,0,0,0,0,0,0,0,0,0,0,0],"sum_hessian":[7.2E1,6.3E1,9E0,7E0,5.6E1,2E0,7E0,2E0,5E0,2E0,5.4E1,1E0,1E0,4E0,3E0],"tree_param":{"num_deleted":"0","num_feature":"6","num_nodes":"15","size_leaf_vector":"1"}},{"base_weights":[3.4989037E-3,-2.2588259E-2,1.7010686E-1,8.9076385E-2,-3.7864204E-2,1.1923168E-2,2.3619656E-1,1.8970714E-3,2.3914946E-4,-7.6271093E-4,1.08621236E-4,-5.9555087E-4,5.5600953E-4,8.86055E-4,2.7751187E-3],"categories":[],"categories_nodes":[],"categories_segments":[],"categories_sizes":[],"default_left":[0,0,0,0,0,0,0,0,0,0,0,0,0,0,0],"id":72,"left_children":[1,3,5,7,9,11,13,-1,-1,-1,-1,-1,-1,-1,-1],"loss_changes":[3.2112443E-1,1.1254291E-1,1.0172692E-1,4.792112E-2,1.0749978E-1,1.5799368E-2,1.8095315E-2,0E0,0E0,0E0,0E0,0E0,0E0,0E0,0E0],"parents":[2147483647,0,0,1,1,2,2,3,3,4,4,5,5,6,6],"right_children":[2,4,6,8,10,12,14,-1,-1,-1,-1,-1,-1,-1,-1],"split_conditions":[1.1327423E0,2.6132414E-1,3.1365713E-1,2.6354143E-1,2.056581E-1,5.7087415E-1,1.6904539E-1,1.8970714E-3,2.3914946E-4,-7.6271093E-4,1.08621236E-4,-5.9555087E-4,5.5600953E-4,8.86055E-4,2.7751187E-3],"split_indices":[5,2,1,1,5,2,4,0,0,0,0,0,0,0,0],"split_type":[0,0,0,0,0,0,0,0,0,0,0,0,0,0,0],"sum_hessian":[7.2E1,6.3E1,9E0,7E0,5.6E1,3E0,6E0,2E0,5E0,3.1E1,2.5E1,1E0,2E0,2E0,4E0],"tree_param":{"num_deleted":"0","num_feature":"6","num_nodes":"15","size_leaf_vector":"1"}},{"base_weights":[3.5338323E-3,-2.2339214E-2,1.6876794E-1,8.8452645E-2,-3.7497032E-2,-2.142953E-2,2.18996E-1,-6.7124603E-4,1.2026719E-3,1.1084508E-4,-7.579775E-4,2.711302E-4,-5.9257314E-4,1.1961961E-3,2.8846748E-3],"categories":[],"categories_nodes":[],"categories_segments":[],"categories_sizes":[],"default_left":[0,0,0,0,0,0,0,0,0,0,0,0,0,0,0],"id":73,"left_children":[1,3,5,7,9,11,13,-1,-1,-1,-1,-1,-1,-1,-1],"loss_changes":[3.1585315E-1,1.1079594E-1,1.0022548E-1,4.766985E-2,1.06900536E-1,7.1154158E-3,2.0724237E-2,0E0,0E0,0E0,0E0,0E0,0E0,0E0,0E0],"parents":[2147483647,0,0,1,1,2,2,3,3,4,4,5,5,6,6],"right_children":[2,4,6,8,10,12,14,-1,-1,-1,-1,-1,-1,-1,-1],"split_conditions":[1.1327423E0,2.6132414E-1,2.1135433E-1,9.7679144E-1,2.357044E-1,6.256742E-1,5.357909E-1,-6.7124603E-4,1.2026719E-3,1.1084508E-4,-7.579775E-4,2.711302E-4,-5.9257314E-4,1.1961961E-3,2.8846748E-3],"split_indices":[5,2,1,0,1,0,1,0,0,0,0,0,0,0,0],"split_type":[0,0,0,0,0,0,0,0,0,0,0,0,0,0,0],"sum_hessian":[7.2E1,6.3E1,9E0,7E0,5.6E1,2E0,7E0,1E0,6E0,2.5E1,3.1E1,1E0,1E0,4E0,3E0],"tree_param":{"num_deleted":"0","num_feature":"6","num_nodes":"15","size_leaf_vector":"1"}},{"base_weights":[3.5484051E-3,-2.2117632E-2,1.674562E-1,8.763455E-2,-3.7133418E-2,1.1575352E-2,2.3260866E-1,1.8764065E-3,2.3025737E-4,1.482737E-3,-4.657138E-4,-5.8961025E-4,5.4741156E-4,8.721733E-4,2.733217E-3],"categories":[],"categories_nodes":[],"categories_segments":[],"categories_sizes":[],"default_left":[0,0,0,0,0,0,0,0,0,0,0,0,0,0,0],"id":74,"left_children":[1,3,5,7,9,11,13,-1,-1,-1,-1,-1,-1,-1,-1],"loss_changes":[3.1080478E-1,1.08727135E-1,9.8867655E-2,4.7369637E-2,1.0664764E-1,1.5406634E-2,1.75969E-2,0E0,0E0,0E0,0E0,0E0,0E0,0E0,0E0],"parents":[2147483647,0,0,1,1,2,2,3,3,4,4,5,5,6,6],"right_children":[2,4,6,8,10,12,14,-1,-1,-1,-1,-1,-1,-1,-1],"split_conditions":[1.1327423E0,2.6132414E-1,3.1365713E-1,2.6354143E-1,5.09939E-1,5.7087415E-1,1.6904539E-1,1.8764065E-3,2.3025737E-4,1.482737E-3,-4.657138E-4,-5.8961025E-4,5.4741156E-4,8.721733E-4,2.733217E-3],"split_indices":[5,2,1,1,3,2,4,0,0,0,0,0,0,0,0],"split_type":[0,0,0,0,0,0,0,0,0,0,0,0,0,0,0],"sum_hessian":[7.2E1,6.3E1,9E0,7E0,5.6E1,3E0,6E0,2E0,5E0,2E0,5.4E1,1E0,2E0,2E0,4E0],"tree_param":{"num_deleted":"0","num_feature":"6","num_nodes":"15","size_leaf_vector":"1"}},{"base_weights":[3.6045264E-3,-2.1847643E-2,1.6613795E-1,8.702154E-2,-3.6744233E-2,-2.1308318E-2,2.1566306E-1,-6.6904107E-4,1.1856864E-3,1.3630934E-5,-8.5576135E-4,2.6703745E-4,-5.866622E-4,1.1765765E-3,2.8425406E-3],"categories":[],"categories_nodes":[],"categories_segments":[],"categories_sizes":[],"default_left":[0,0,0,0,0,0,0,0,0,0,0,0,0,0,0],"id":75,"left_children":[1,3,5,7,9,11,13,-1,-1,-1,-1,-1,-1,-1,-1],"loss_changes":[3.056182E-1,1.0699145E-1,9.742838E-2,4.6779998E-2,1.061853E-1,6.9474983E-3,2.0333648E-2,0E0,0E0,0E0,0E0,0E0,0E0,0E0,0E0],"parents":[2147483647,0,0,1,1,2,2,3,3,4,4,5,5,6,6],"right_children":[2,4,6,8,10,12,14,-1,-1,-1,-1,-1,-1,-1,-1],"split_conditions":[1.1327423E0,2.6132414E-1,2.1135433E-1,9.7679144E-1,8.159345E-1,6.256742E-1,5.357909E-1,-6.6904107E-4,1.1856864E-3,1.3630934E-5,-8.5576135E-4,2.6703745E-4,-5.866622E-4,1.1765765E-3,2.8425406E-3],"split_indices":[5,2,1,0,3,0,1,0,0,0,0,0,0,0,0],"split_type":[0,0,0,0,0,0,0,0,0,0,0,0,0,0,0],"sum_hessian":[7.2E1,6.3E1,9E0,7E0,5.6E1,2E0,7E0,1E0,6E0,3.2E1,2.4E1,1E0,1E0,4E0,3E0],"tree_param":{"num_deleted":"0","num_feature":"6","num_nodes":"15","size_leaf_vector":"1"}},{"base_weights":[3.6146995E-3,-2.1634253E-2,1.6484652E-1,8.62159E-2,-3.6391567E-2,1.1234816E-2,2.2907515E-1,1.8559925E-3,2.2154911E-4,-7.44206E-4,1.18130716E-4,-5.837289E-4,5.3895015E-4,8.585151E-4,2.691943E-3],"categories":[],"categories_nodes":[],"categories_segments":[],"categories_sizes":[],"default_left":[0,0,0,0,0,0,0,0,0,0,0,0,0,0,0],"id":76,"left_children":[1,3,5,7,9,11,13,-1,-1,-1,-1,-1,-1,-1,-1],"loss_changes":[3.0074456E-1,1.0499858E-1,9.6089065E-2,4.6820834E-2,1.0537016E-1,1.5023923E-2,1.7111331E-2,0E0,0E0,0E0,0E0,0E0,0E0,0E0,0E0],"parents":[2147483647,0,0,1,1,2,2,3,3,4,4,5,5,6,6],"right_children":[2,4,6,8,10,12,14,-1,-1,-1,-1,-1,-1,-1,-1],"split_conditions":[1.1327423E0,2.6132414E-1,3.1365713E-1,2.6354143E-1,2.056581E-1,5.7087415E-1,1.6904539E-1,1.8559925E-3,2.2154911E-4,-7.44206E-4,1.18130716E-4,-5.837289E-4,5.3895015E-4,8.585151E-4,2.691943E-3],"split_indices":[5,2,1,1,5,2,4,0,0,0,0,0,0,0,0],"split_type":[0,0,0,0,0,0,0,0,0,0,0,0,0,0,0],"sum_hessian":[7.2E1,6.3E1,9E0,7E0,5.6E1,3E0,6E0,2E0,5E0,3.1E1,2.5E1,1E0,2E0,2E0,4E0],"tree_param":{"num_deleted":"0","num_feature":"6","num_nodes":"15","size_leaf_vector":"1"}},{"base_weights":[3.6464583E-3,-2.1395233E-2,1.6354863E-1,8.561343E-2,-3.6038637E-2,-2.118685E-2,2.1238086E-1,1.8436192E-3,2.1970287E-4,1.474848E-3,-4.539376E-4,2.6300756E-4,-5.808103E-4,1.1572681E-3,2.801032E-3],"categories":[],"categories_nodes":[],"categories_segments":[],"categories_sizes":[],"default_left":[0,0,0,0,0,0,0,0,0,0,0,0,0,0,0],"id":77,"left_children":[1,3,5,7,9,11,13,-1,-1,-1,-1,-1,-1,-1,-1],"loss_changes":[2.958073E-1,1.0337156E-1,9.471011E-2,4.6226833E-2,1.0455728E-1,6.783624E-3,1.9949675E-2,0E0,0E0,0E0,0E0,0E0,0E0,0E0,0E0],"parents":[2147483647,0,0,1,1,2,2,3,3,4,4,5,5,6,6],"right_children":[2,4,6,8,10,12,14,-1,-1,-1,-1,-1,-1,-1,-1],"split_conditions":[1.1327423E0,2.6132414E-1,2.1135433E-1,2.6354143E-1,5.09939E-1,6.256742E-1,5.357909E-1,1.8436192E-3,2.1970287E-4,1.474848E-3,-4.539376E-4,2.6300756E-4,-5.808103E-4,1.1572681E-3,2.801032E-3],"split_indices":[5,2,1,1,3,0,1,0,0,0,0,0,0,0,0],"split_type":[0,0,0,0,0,0,0,0,0,0,0,0,0,0,0],"sum_hessian":[7.2E1,6.3E1,9E0,7E0,5.6E1,2E0,7E0,2E0,5E0,2E0,5.4E1,1E0,1E0,4E0,3E0],"tree_param":{"num_deleted":"0","num_feature":"6","num_nodes":"15","size_leaf_vector":"1"}},{"base_weights":[3.70211E-3,-2.1133093E-2,1.6227719E-1,8.501521E-2,-3.5660345E-2,1.0901414E-2,2.2559519E-1,-6.6790206E-4,1.1624316E-3,1.2318224E-4,-7.352854E-4,-5.779062E-4,5.30623E-4,8.4507663E-4,2.6512868E-3],"categories":[],"categories_nodes":[],"categories_segments":[],"categories_sizes":[],"default_left":[0,0,0,0,0,0,0,0,0,0,0,0,0,0,0],"id":78,"left_children":[1,3,5,7,9,11,13,-1,-1,-1,-1,-1,-1,-1,-1],"loss_changes":[2.909212E-1,1.01722434E-1,9.3388796E-2,4.5688476E-2,1.0446687E-1,1.4650972E-2,1.6638368E-2,0E0,0E0,0E0,0E0,0E0,0E0,0E0,0E0],"parents":[2147483647,0,0,1,1,2,2,3,3,4,4,5,5,6,6],"right_children":[2,4,6,8,10,12,14,-1,-1,-1,-1,-1,-1,-1,-1],"split_conditions":[1.1327423E0,2.6132414E-1,3.1365713E-1,9.7679144E-1,2.357044E-1,5.7087415E-1,1.6904539E-1,-6.6790206E-4,1.1624316E-3,1.2318224E-4,-7.352854E-4,-5.779062E-4,5.30623E-4,8.4507663E-4,2.6512868E-3],"split_indices":[5,2,1,0,1,2,4,0,0,0,0,0,0,0,0],"split_type":[0,0,0,0,0,0,0,0,0,0,0,0,0,0,0],"sum_hessian":[7.2E1,6.3E1,9E0,7E0,5.6E1,3E0,6E0,1E0,6E0,2.5E1,3.1E1,1E0,2E0,2E0,4E0],"tree_param":{"num_deleted":"0","num_feature":"6","num_nodes":"15","size_leaf_vector":"1"}},{"base_weights":[3.7107223E-3,-2.0923603E-2,1.6099933E-1,8.422687E-2,-3.5314485E-2,-2.1065151E-2,2.091486E-1,1.8235786E-3,2.1123557E-4,2.2735967E-5,-8.351817E-4,2.590394E-4,-5.7501666E-4,1.138266E-3,2.7601395E-3],"categories":[],"categories_nodes":[],"categories_segments":[],"categories_sizes":[],"default_left":[0,0,0,0,0,0,0,0,0,0,0,0,0,0,0],"id":79,"left_children":[1,3,5,7,9,11,13,-1,-1,-1,-1,-1,-1,-1,-1],"loss_changes":[2.862217E-1,9.981974E-2,9.2068434E-2,4.568708E-2,1.0346728E-1,6.6236896E-3,1.9572198E-2,0E0,0E0,0E0,0E0,0E0,0E0,0E0,0E0],"parents":[2147483647,0,0,1,1,2,2,3,3,4,4,5,5,6,6],"right_children":[2,4,6,8,10,12,14,-1,-1,-1,-1,-1,-1,-1,-1],"split_conditions":[1.1327423E0,2.6132414E-1,2.1135433E-1,2.6354143E-1,8.159345E-1,6.256742E-1,5.357909E-1,1.8235786E-3,2.1123557E-4,2.2735967E-5,-8.351817E-4,2.590394E-4,-5.7501666E-4,1.138266E-3,2.7601395E-3],"split_indices":[5,2,1,1,3,0,1,0,0,0,0,0,0,0,0],"split_type":[0,0,0,0,0,0,0,0,0,0,0,0,0,0,0],"sum_hessian":[7.2E1,6.3E1,9E0,7E0,5.6E1,2E0,7E0,2E0,5E0,3.2E1,2.4E1,1E0,1E0,4E0,3E0],"tree_param":{"num_deleted":"0","num_feature":"6","num_nodes":"15","size_leaf_vector":"1"}},{"base_weights":[3.7394331E-3,-2.0695271E-2,1.5974759E-1,8.363895E-2,-3.4975596E-2,1.0575004E-2,2.2216798E-1,1.8114215E-3,2.0947524E-4,-7.2630134E-4,1.2713677E-4,-5.7214155E-4,5.224277E-4,8.318543E-4,2.6112392E-3],"categories":[],"categories_nodes":[],"categories_segments":[],"categories_sizes":[],"default_left":[0,0,0,0,0,0,0,0,0,0,0,0,0,0,0],"id":80,"left_children":[1,3,5,7,9,11,13,-1,-1,-1,-1,-1,-1,-1,-1],"loss_changes":[2.8158298E-1,9.8280616E-2,9.07647E-2,4.5106433E-2,1.03279315E-1,1.4287519E-2,1.6177654E-2,0E0,0E0,0E0,0E0,0E0,0E0,0E0,0E0],"parents":[2147483647,0,0,1,1,2,2,3,3,4,4,5,5,6,6],"right_children":[2,4,6,8,10,12,14,-1,-1,-1,-1,-1,-1,-1,-1],"split_conditions":[1.1327423E0,2.6132414E-1,3.1365713E-1,2.6354143E-1,2.056581E-1,5.7087415E-1,1.6904539E-1,1.8114215E-3,2.0947524E-4,-7.2630134E-4,1.2713677E-4,-5.7214155E-4,5.224277E-4,8.318543E-4,2.6112392E-3],"split_indices":[5,2,1,1,5,2,4,0,0,0,0,0,0,0,0],"split_type":[0,0,0,0,0,0,0,0,0,0,0,0,0,0,0],"sum_hessian":[7.2E1,6.3E1,9E0,7E0,5.6E1,3E0,6E0,2E0,5E0,3.1E1,2.5E1,1E0,2E0,2E0,4E0],"tree_param":{"num_deleted":"0","num_feature":"6","num_nodes":"15","size_leaf_vector":"1"}},{"base_weights":[3.7679984E-3,-2.0466104E-2,1.5848947E-1,1.6978437E-2,-6.0874116E-2,-2.0943254E-2,2.0596555E-1,-4.8288523E-4,1.0286915E-3,-7.54816E-4,1.0062298E-3,2.55132E-4,-5.692808E-4,1.1195651E-3,2.7198547E-3],"categories":[],"categories_nodes":[],"categories_segments":[],"categories_sizes":[],"default_left":[0,0,0,0,0,0,0,0,0,0,0,0,0,0,0],"id":81,"left_children":[1,3,5,7,9,11,13,-1,-1,-1,-1,-1,-1,-1,-1],"loss_changes":[2.7695978E-1,9.786935E-2,8.950123E-2,1.9556549E-1,8.072628E-2,6.467601E-3,1.920122E-2,0E0,0E0,0E0,0E0,0E0,0E0,0E0,0E0],"parents":[2147483647,0,0,1,1,2,2,3,3,4,4,5,5,6,6],"right_children":[2,4,6,8,10,12,14,-1,-1,-1,-1,-1,-1,-1,-1],"split_conditions":[1.1327423E0,3.1573886E-1,2.1135433E-1,2.056581E-1,9.9828535E-1,6.256742E-1,5.357909E-1,-4.8288523E-4,1.0286915E-3,-7.54816E-4,1.0062298E-3,2.55132E-4,-5.692808E-4,1.1195651E-3,2.7198547E-3],"split_indices":[5,1,1,5,0,0,1,0,0,0,0,0,0,0,0],"split_type":[0,0,0,0,0,0,0,0,0,0,0,0,0,0,0],"sum_hessian":[7.2E1,6.3E1,9E0,3.3E1,3E1,2E0,7E0,1.9E1,1.4E1,2.8E1,2E0,1E0,1E0,4E0,3E0],"tree_param":{"num_deleted":"0","num_feature":"6","num_nodes":"15","size_leaf_vector":"1"}},{"base_weights":[3.7895325E-3,-2.0248985E-2,1.572571E-1,8.320739E-2,-3.4413934E-2,1.0255471E-2,2.1879272E-1,1.8025647E-3,2.0814956E-4,1.4679887E-3,-4.3672556E-4,-5.664344E-4,5.1436253E-4,8.18845E-4,2.571791E-3],"categories":[],"categories_nodes":[],"categories_segments":[],"categories_sizes":[],"default_left":[0,0,0,0,0,0,0,0,0,0,0,0,0,0,0],"id":82,"left_children":[1,3,5,7,9,11,13,-1,-1,-1,-1,-1,-1,-1,-1],"loss_changes":[2.7249098E-1,9.665256E-2,8.821453E-2,4.468899E-2,1.02044635E-1,1.3933325E-2,1.572892E-2,0E0,0E0,0E0,0E0,0E0,0E0,0E0,0E0],"parents":[2147483647,0,0,1,1,2,2,3,3,4,4,5,5,6,6],"right_children":[2,4,6,8,10,12,14,-1,-1,-1,-1,-1,-1,-1,-1],"split_conditions":[1.1327423E0,2.6132414E-1,3.1365713E-1,2.6354143E-1,5.09939E-1,5.7087415E-1,1.6904539E-1,1.8025647E-3,2.0814956E-4,1.4679887E-3,-4.3672556E-4,-5.664344E-4,5.1436253E-4,8.18845E-4,2.571791E-3],"split_indices":[5,2,1,1,3,2,4,0,0,0,0,0,0,0,0],"split_type":[0,0,0,0,0,0,0,0,0,0,0,0,0,0,0],"sum_hessian":[7.2E1,6.3E1,9E0,7E0,5.6E1,3E0,6E0,2E0,5E0,2E0,5.4E1,1E0,2E0,2E0,4E0],"tree_param":{"num_deleted":"0","num_feature":"6","num_nodes":"15","size_leaf_vector":"1"}},{"base_weights":[3.8390423E-3,-1.9998966E-2,1.5601838E-1,1.7060844E-2,-6.000008E-2,-2.0821178E-2,2.0283093E-1,-4.7638826E-4,1.0218967E-3,-7.4463536E-4,9.98134E-4,2.5128454E-4,-5.636022E-4,1.1011609E-3,2.680167E-3],"categories":[],"categories_nodes":[],"categories_segments":[],"categories_sizes":[],"default_left":[0,0,0,0,0,0,0,0,0,0,0,0,0,0,0],"id":83,"left_children":[1,3,5,7,9,11,13,-1,-1,-1,-1,-1,-1,-1,-1],"loss_changes":[2.6793882E-1,9.589941E-2,8.700627E-2,1.9213367E-1,7.9087615E-2,6.3152635E-3,1.8836558E-2,0E0,0E0,0E0,0E0,0E0,0E0,0E0,0E0],"parents":[2147483647,0,0,1,1,2,2,3,3,4,4,5,5,6,6],"right_children":[2,4,6,8,10,12,14,-1,-1,-1,-1,-1,-1,-1,-1],"split_conditions":[1.1327423E0,3.1573886E-1,2.1135433E-1,2.056581E-1,9.9828535E-1,6.256742E-1,5.357909E-1,-4.7638826E-4,1.0218967E-3,-7.4463536E-4,9.98134E-4,2.5128454E-4,-5.636022E-4,1.1011609E-3,2.680167E-3],"split_indices":[5,1,1,5,0,0,1,0,0,0,0,0,0,0,0],"split_type":[0,0,0,0,0,0,0,0,0,0,0,0,0,0,0],"sum_hessian":[7.2E1,6.3E1,9E0,3.3E1,3E1,2E0,7E0,1.9E1,1.4E1,2.8E1,2E0,1E0,1E0,4E0,3E0],"tree_param":{"num_deleted":"0","num_feature":"6","num_nodes":"15","size_leaf_vector":"1"}},{"base_weights":[3.8591197E-3,-1.9786488E-2,1.548051E-1,8.2775466E-2,-3.3834018E-2,9.942688E-3,2.154686E-1,1.7937236E-3,2.0681112E-4,3.214469E-5,-8.138466E-4,-5.607842E-4,5.064253E-4,8.060449E-4,2.5329334E-3],"categories":[],"categories_nodes":[],"categories_segments":[],"categories_sizes":[],"default_left":[0,0,0,0,0,0,0,0,0,0,0,0,0,0,0],"id":84,"left_children":[1,3,5,7,9,11,13,-1,-1,-1,-1,-1,-1,-1,-1],"loss_changes":[2.636153E-1,9.500811E-2,8.5736245E-2,4.4275347E-2,1.0067733E-1,1.3588147E-2,1.529184E-2,0E0,0E0,0E0,0E0,0E0,0E0,0E0,0E0],"parents":[2147483647,0,0,1,1,2,2,3,3,4,4,5,5,6,6],"right_children":[2,4,6,8,10,12,14,-1,-1,-1,-1,-1,-1,-1,-1],"split_conditions":[1.1327423E0,2.6132414E-1,3.1365713E-1,2.6354143E-1,8.159345E-1,5.7087415E-1,1.6904539E-1,1.7937236E-3,2.0681112E-4,3.214469E-5,-8.138466E-4,-5.607842E-4,5.064253E-4,8.060449E-4,2.5329334E-3],"split_indices":[5,2,1,1,3,2,4,0,0,0,0,0,0,0,0],"split_type":[0,0,0,0,0,0,0,0,0,0,0,0,0,0,0],"sum_hessian":[7.2E1,6.3E1,9E0,7E0,5.6E1,3E0,6E0,2E0,5E0,3.2E1,2.4E1,1E0,2E0,2E0,4E0],"tree_param":{"num_deleted":"0","num_feature":"6","num_nodes":"15","size_leaf_vector":"1"}},{"base_weights":[3.8822198E-3,-1.9569578E-2,1.535855E-1,1.7094929E-2,-5.9150986E-2,-2.0698955E-2,1.9974399E-1,-4.705455E-4,1.014879E-3,-7.347279E-4,9.901011E-4,2.4749592E-4,-5.579802E-4,1.0830488E-3,2.6410685E-3],"categories":[],"categories_nodes":[],"categories_segments":[],"categories_sizes":[],"default_left":[0,0,0,0,0,0,0,0,0,0,0,0,0,0,0],"id":85,"left_children":[1,3,5,7,9,11,13,-1,-1,-1,-1,-1,-1,-1,-1],"loss_changes":[2.5929478E-1,9.389008E-2,8.4581554E-2,1.8884349E-1,7.749427E-2,6.1665834E-3,1.8478215E-2,0E0,0E0,0E0,0E0,0E0,0E0,0E0,0E0],"parents":[2147483647,0,0,1,1,2,2,3,3,4,4,5,5,6,6],"right_children":[2,4,6,8,10,12,14,-1,-1,-1,-1,-1,-1,-1,-1],"split_conditions":[1.1327423E0,3.1573886E-1,2.1135433E-1,2.056581E-1,9.9828535E-1,6.256742E-1,5.357909E-1,-4.705455E-4,1.014879E-3,-7.347279E-4,9.901011E-4,2.4749592E-4,-5.579802E-4,1.0830488E-3,2.6410685E-3],"split_indices":[5,1,1,5,0,0,1,0,0,0,0,0,0,0,0],"split_type":[0,0,0,0,0,0,0,0,0,0,0,0,0,0,0],"sum_hessian":[7.2E1,6.3E1,9E0,3.3E1,3E1,2E0,7E0,1.9E1,1.4E1,2.8E1,2E0,1E0,1E0,4E0,3E0],"tree_param":{"num_deleted":"0","num_feature":"6","num_nodes":"15","size_leaf_vector":"1"}},{"base_weights":[3.901117E-3,-1.9361382E-2,1.52391E-1,8.234342E-2,-3.3296067E-2,-2.0595467E-2,1.9821206E-1,1.7849023E-3,2.0546108E-4,