{"learner":{"attributes":{"scikit_learn":"{\"_estimator_type\": \"regressor\"}"},"feature_names":["freq","prediction_length","domain"],"feature_types":["float","int","float"],"gradient_booster":{"model":{"gbtree_model_param":{"num_parallel_tree":"1","num_trees":"200"},"iteration_indptr":[0,1,2,3,4,5,6,7,8,9,10,11,12,13,14,15,16,17,18,19,20,21,22,23,24,25,26,27,28,29,30,31,32,33,34,35,36,37,38,39,40,41,42,43,44,45,46,47,48,49,50,51,52,53,54,55,56,57,58,59,60,61,62,63,64,65,66,67,68,69,70,71,72,73,74,75,76,77,78,79,80,81,82,83,84,85,86,87,88,89,90,91,92,93,94,95,96,97,98,99,100,101,102,103,104,105,106,107,108,109,110,111,112,113,114,115,116,117,118,119,120,121,122,123,124,125,126,127,128,129,130,131,132,133,134,135,136,137,138,139,140,141,142,143,144,145,146,147,148,149,150,151,152,153,154,155,156,157,158,159,160,161,162,163,164,165,166,167,168,169,170,171,172,173,174,175,176,177,178,179,180,181,182,183,184,185,186,187,188,189,190,191,192,193,194,195,196,197,198,199,200],"tree_info":[0,0,0,0,0,0,0,0,0,0,0,0,0,0,0,0,0,0,0,0,0,0,0,0,0,0,0,0,0,0,0,0,0,0,0,0,0,0,0,0,0,0,0,0,0,0,0,0,0,0,0,0,0,0,0,0,0,0,0,0,0,0,0,0,0,0,0,0,0,0,0,0,0,0,0,0,0,0,0,0,0,0,0,0,0,0,0,0,0,0,0,0,0,0,0,0,0,0,0,0,0,0,0,0,0,0,0,0,0,0,0,0,0,0,0,0,0,0,0,0,0,0,0,0,0,0,0,0,0,0,0,0,0,0,0,0,0,0,0,0,0,0,0,0,0,0,0,0,0,0,0,0,0,0,0,0,0,0,0,0,0,0,0,0,0,0,0,0,0,0,0,0,0,0,0,0,0,0,0,0,0,0,0,0,0,0,0,0,0,0,0,0,0,0,0,0,0,0,0,0],"trees":[{"base_weights":[-7.348518E-9,1.5007633E-1,-2.0817041E-1,-8.378425E-2,1.8305232E-1,-2.534641E-3,-1.2595886E-1,-2.4396605E-4,-1.3503969E-3,2.1329937E-3,-1.273724E-3,2.8329654E-4,-2.6225324E-3],"categories":[],"categories_nodes":[],"categories_segments":[],"categories_sizes":[],"default_left":[0,0,0,0,0,0,0,0,0,0,0,0,0],"id":0,"left_children":[1,3,5,7,9,-1,11,-1,-1,-1,-1,-1,-1],"loss_changes":[2.3118677E0,3.469435E-1,8.350742E-2,1.4969129E-2,3.839668E-1,0E0,2.808021E-1,0E0,0E0,0E0,0E0,0E0,0E0],"parents":[2147483647,0,0,1,1,2,2,3,3,4,4,6,6],"right_children":[2,4,6,8,10,-1,12,-1,-1,-1,-1,-1,-1],"split_conditions":[3.504E4,1.2E1,6E0,2E0,6E0,-2.534641E-3,3.1536E6,-2.4396605E-4,-1.3503969E-3,2.1329937E-3,-1.273724E-3,2.8329654E-4,-2.6225324E-3],"split_indices":[0,1,2,2,2,0,0,0,0,0,0,0,0],"split_type":[0,0,0,0,0,0,0,0,0,0,0,0,0],"sum_hessian":[7.2E1,4.2E1,3E1,5E0,3.7E1,1.8E1,1.2E1,3E0,2E0,3.4E1,3E0,6E0,6E0],"tree_param":{"num_deleted":"0","num_feature":"3","num_nodes":"13","size_leaf_vector":"1"}},{"base_weights":[-7.6841E-5,1.4855848E-1,-2.0624594E-1,-8.321214E-2,1.8124442E-1,-2.5106287E-3,-1.2487921E-1,-2.4213635E-4,-1.3413941E-3,2.1122731E-3,-1.2641711E-3,2.8086823E-4,-2.6000536E-3],"categories":[],"categories_nodes":[],"categories_segments":[],"categories_sizes":[],"default_left":[0,0,0,0,0,0,0,0,0,0,0,0,0],"id":1,"left_children":[1,3,5,7,9,-1,11,-1,-1,-1,-1,-1,-1],"loss_changes":[2.2676523E0,3.408342E-1,8.169222E-2,1.4779802E-2,3.7723696E-1,0E0,2.7600896E-1,0E0,0E0,0E0,0E0,0E0,0E0],"parents":[2147483647,0,0,1,1,2,2,3,3,4,4,6,6],"right_children":[2,4,6,8,10,-1,12,-1,-1,-1,-1,-1,-1],"split_conditions":[3.504E4,1.2E1,6E0,2E0,6E0,-2.5106287E-3,3.1536E6,-2.4213635E-4,-1.3413941E-3,2.1122731E-3,-1.2641711E-3,2.8086823E-4,-2.6000536E-3],"split_indices":[0,1,2,2,2,0,0,0,0,0,0,0,0],"split_type":[0,0,0,0,0,0,0,0,0,0,0,0,0],"sum_hessian":[7.2E1,4.2E1,3E1,5E0,3.7E1,1.8E1,1.2E1,3E0,2E0,3.4E1,3E0,6E0,6E0],"tree_param":{"num_deleted":"0","num_feature":"3","num_nodes":"13","size_leaf_vector":"1"}},{"base_weights":[-1.5230273E-4,1.470558E-1,-2.0433928E-1,-8.2643926E-2,1.794543E-1,-2.4868436E-3,-1.23808816E-1,-2.4032027E-4,-1.3324515E-3,2.091754E-3,-1.2546896E-3,2.7846088E-4,-2.5777672E-3],"categories":[],"categories_nodes":[],"categories_segments":[],"categories_sizes":[],"default_left":[0,0,0,0,0,0,0,0,0,0,0,0,0],"id":2,"left_children":[1,3,5,7,9,-1,11,-1,-1,-1,-1,-1,-1],"loss_changes":[2.2242818E0,3.3483356E-1,7.991564E-2,1.4592856E-2,3.7062585E-1,0E0,2.712977E-1,0E0,0E0,0E0,0E0,0E0,0E0],"parents":[2147483647,0,0,1,1,2,2,3,3,4,4,6,6],"right_children":[2,4,6,8,10,-1,12,-1,-1,-1,-1,-1,-1],"split_conditions":[3.504E4,1.2E1,6E0,2E0,6E0,-2.4868436E-3,3.1536E6,-2.4032027E-4,-1.3324515E-3,2.091754E-3,-1.2546896E-3,2.7846088E-4,-2.5777672E-3],"split_indices":[0,1,2,2,2,0,0,0,0,0,0,0,0],"split_type":[0,0,0,0,0,0,0,0,0,0,0,0,0],"sum_hessian":[7.2E1,4.2E1,3E1,5E0,3.7E1,1.8E1,1.2E1,3E0,2E0,3.4E1,3E0,6E0,6E0],"tree_param":{"num_deleted":"0","num_feature":"3","num_nodes":"13","size_leaf_vector":"1"}},{"base_weights":[-2.2642437E-4,1.4556813E-1,-2.0245028E-1,-8.207961E-2,1.7768176E-1,-2.463284E-3,-1.2274759E-1,-2.3851781E-4,-1.3235685E-3,2.071434E-3,-1.2452796E-3,2.76074E-4,-2.555672E-3],"categories":[],"categories_nodes":[],"categories_segments":[],"categories_sizes":[],"default_left":[0,0,0,0,0,0,0,0,0,0,0,0,0],"id":3,"left_children":[1,3,5,7,9,-1,11,-1,-1,-1,-1,-1,-1],"loss_changes":[2.181739E0,3.2893968E-1,7.817721E-2,1.4408261E-2,3.6413157E-1,0E0,2.6666677E-1,0E0,0E0,0E0,0E0,0E0,0E0],"parents":[2147483647,0,0,1,1,2,2,3,3,4,4,6,6],"right_children":[2,4,6,8,10,-1,12,-1,-1,-1,-1,-1,-1],"split_conditions":[3.504E4,1.2E1,6E0,2E0,6E0,-2.463284E-3,3.1536E6,-2.3851781E-4,-1.3235685E-3,2.071434E-3,-1.2452796E-3,2.76074E-4,-2.555672E-3],"split_indices":[0,1,2,2,2,0,0,0,0,0,0,0,0],"split_type":[0,0,0,0,0,0,0,0,0,0,0,0,0],"sum_hessian":[7.2E1,4.2E1,3E1,5E0,3.7E1,1.8E1,1.2E1,3E0,2E0,3.4E1,3E0,6E0,6E0],"tree_param":{"num_deleted":"0","num_feature":"3","num_nodes":"13","size_leaf_vector":"1"}},{"base_weights":[-2.992147E-4,1.4409533E-1,-2.0057876E-1,-8.1519164E-2,1.7592669E-1,-2.4399476E-3,-1.2169548E-1,-2.36729E-4,-1.3147446E-3,2.0513113E-3,-1.23594E-3,2.737075E-4,-2.5337662E-3],"categories":[],"categories_nodes":[],"categories_segments":[],"categories_sizes":[],"default_left":[0,0,0,0,0,0,0,0,0,0,0,0,0],"id":4,"left_children":[1,3,5,7,9,-1,11,-1,-1,-1,-1,-1,-1],"loss_changes":[2.1400096E0,3.23151E-1,7.647562E-2,1.4225986E-2,3.5775185E-1,0E0,2.6211488E-1,0E0,0E0,0E0,0E0,0E0,0E0],"parents":[2147483647,0,0,1,1,2,2,3,3,4,4,6,6],"right_children":[2,4,6,8,10,-1,12,-1,-1,-1,-1,-1,-1],"split_conditions":[3.504E4,1.2E1,6E0,2E0,6E0,-2.4399476E-3,3.1536E6,-2.36729E-4,-1.3147446E-3,2.0513113E-3,-1.23594E-3,2.737075E-4,-2.5337662E-3],"split_indices":[0,1,2,2,2,0,0,0,0,0,0,0,0],"split_type":[0,0,0,0,0,0,0,0,0,0,0,0,0],"sum_hessian":[7.2E1,4.2E1,3E1,5E0,3.7E1,1.8E1,1.2E1,3E0,2E0,3.4E1,3E0,6E0,6E0],"tree_param":{"num_deleted":"0","num_feature":"3","num_nodes":"13","size_leaf_vector":"1"}},{"base_weights":[-3.706974E-4,1.4263724E-1,-1.987246E-1,-8.096255E-2,1.7418887E-1,-2.4168324E-3,-1.2065238E-1,-2.3495361E-4,-1.3059794E-3,2.0313843E-3,-1.2266705E-3,2.7136147E-4,-2.5120485E-3],"categories":[],"categories_nodes":[],"categories_segments":[],"categories_sizes":[],"default_left":[0,0,0,0,0,0,0,0,0,0,0,0,0],"id":5,"left_children":[1,3,5,7,9,-1,11,-1,-1,-1,-1,-1,-1],"loss_changes":[2.0990767E0,3.1746507E-1,7.4810505E-2,1.4045998E-2,3.5148466E-1,0E0,2.5764078E-1,0E0,0E0,0E0,0E0,0E0,0E0],"parents":[2147483647,0,0,1,1,2,2,3,3,4,4,6,6],"right_children":[2,4,6,8,10,-1,12,-1,-1,-1,-1,-1,-1],"split_conditions":[3.504E4,1.2E1,6E0,2E0,6E0,-2.4168324E-3,3.1536E6,-2.3495361E-4,-1.3059794E-3,2.0313843E-3,-1.2266705E-3,2.7136147E-4,-2.5120485E-3],"split_indices":[0,1,2,2,2,0,0,0,0,0,0,0,0],"split_type":[0,0,0,0,0,0,0,0,0,0,0,0,0],"sum_hessian":[7.2E1,4.2E1,3E1,5E0,3.7E1,1.8E1,1.2E1,3E0,2E0,3.4E1,3E0,6E0,6E0],"tree_param":{"num_deleted":"0","num_feature":"3","num_nodes":"13","size_leaf_vector":"1"}},{"base_weights":[-4.4088188E-4,1.4119375E-1,-1.968876E-1,-8.040975E-2,1.7246816E-1,-2.3939363E-3,-1.19618215E-1,-2.331914E-4,-1.297273E-3,2.0116507E-3,-1.2174704E-3,2.690356E-4,-2.4905168E-3],"categories":[],"categories_nodes":[],"categories_segments":[],"categories_sizes":[],"default_left":[0,0,0,0,0,0,0,0,0,0,0,0,0],"id":6,"left_children":[1,3,5,7,9,-1,11,-1,-1,-1,-1,-1,-1],"loss_changes":[2.058926E0,3.1188035E-1,7.318103E-2,1.3868287E-2,3.453281E-1,0E0,2.5324303E-1,0E0,0E0,0E0,0E0,0E0,0E0],"parents":[2147483647,0,0,1,1,2,2,3,3,4,4,6,6],"right_children":[2,4,6,8,10,-1,12,-1,-1,-1,-1,-1,-1],"split_conditions":[3.504E4,1.2E1,6E0,2E0,6E0,-2.3939363E-3,3.1536E6,-2.331914E-4,-1.297273E-3,2.0116507E-3,-1.2174704E-3,2.690356E-4,-2.4905168E-3],"split_indices":[0,1,2,2,2,0,0,0,0,0,0,0,0],"split_type":[0,0,0,0,0,0,0,0,0,0,0,0,0],"sum_hessian":[7.2E1,4.2E1,3E1,5E0,3.7E1,1.8E1,1.2E1,3E0,2E0,3.4E1,3E0,6E0,6E0],"tree_param":{"num_deleted":"0","num_feature":"3","num_nodes":"13","size_leaf_vector":"1"}},{"base_weights":[-5.0978566E-4,1.3976468E-1,-1.9506761E-1,-7.9860725E-2,1.7076436E-1,-2.3712567E-3,-1.1859291E-1,-2.3144238E-4,-1.2886247E-3,1.992109E-3,-1.2083394E-3,2.6672968E-4,-2.4691694E-3],"categories":[],"categories_nodes":[],"categories_segments":[],"categories_sizes":[],"default_left":[0,0,0,0,0,0,0,0,0,0,0,0,0],"id":7,"left_children":[1,3,5,7,9,-1,11,-1,-1,-1,-1,-1,-1],"loss_changes":[2.0195427E0,3.06395E-1,7.158625E-2,1.3692815E-2,3.3928E-1,0E0,2.4892035E-1,0E0,0E0,0E0,0E0,0E0,0E0],"parents":[2147483647,0,0,1,1,2,2,3,3,4,4,6,6],"right_children":[2,4,6,8,10,-1,12,-1,-1,-1,-1,-1,-1],"split_conditions":[3.504E4,1.2E1,6E0,2E0,6E0,-2.3712567E-3,3.1536E6,-2.3144238E-4,-1.2886247E-3,1.992109E-3,-1.2083394E-3,2.6672968E-4,-2.4691694E-3],"split_indices":[0,1,2,2,2,0,0,0,0,0,0,0,0],"split_type":[0,0,0,0,0,0,0,0,0,0,0,0,0],"sum_hessian":[7.2E1,4.2E1,3E1,5E0,3.7E1,1.8E1,1.2E1,3E0,2E0,3.4E1,3E0,6E0,6E0],"tree_param":{"num_deleted":"0","num_feature":"3","num_nodes":"13","size_leaf_vector":"1"}},{"base_weights":[-5.7742675E-4,1.3834992E-1,-1.9326447E-1,-7.931546E-2,1.6907735E-1,-2.3487923E-3,-1.1757639E-1,-2.2970654E-4,-1.2800338E-3,1.972757E-3,-1.1992769E-3,2.6444343E-4,-2.4480051E-3],"categories":[],"categories_nodes":[],"categories_segments":[],"categories_sizes":[],"default_left":[0,0,0,0,0,0,0,0,0,0,0,0,0],"id":8,"left_children":[1,3,5,7,9,-1,11,-1,-1,-1,-1,-1,-1],"loss_changes":[1.9809117E0,3.0100715E-1,7.002568E-2,1.3519548E-2,3.3333862E-1,0E0,2.446714E-1,0E0,0E0,0E0,0E0,0E0,0E0],"parents":[2147483647,0,0,1,1,2,2,3,3,4,4,6,6],"right_children":[2,4,6,8,10,-1,12,-1,-1,-1,-1,-1,-1],"split_conditions":[3.504E4,1.2E1,6E0,2E0,6E0,-2.3487923E-3,3.1536E6,-2.2970654E-4,-1.2800338E-3,1.972757E-3,-1.1992769E-3,2.6444343E-4,-2.4480051E-3],"split_indices":[0,1,2,2,2,0,0,0,0,0,0,0,0],"split_type":[0,0,0,0,0,0,0,0,0,0,0,0,0],"sum_hessian":[7.2E1,4.2E1,3E1,5E0,3.7E1,1.8E1,1.2E1,3E0,2E0,3.4E1,3E0,6E0,6E0],"tree_param":{"num_deleted":"0","num_feature":"3","num_nodes":"13","size_leaf_vector":"1"}},{"base_weights":[-6.438296E-4,1.369493E-1,-1.9147804E-1,-7.877392E-2,1.6740693E-1,-2.3265406E-3,-1.16568595E-1,-2.2798366E-4,-1.2715003E-3,1.9535932E-3,-1.1902822E-3,2.6217682E-4,-2.4270222E-3],"categories":[],"categories_nodes":[],"categories_segments":[],"categories_sizes":[],"default_left":[0,0,0,0,0,0,0,0,0,0,0,0,0],"id":9,"left_children":[1,3,5,7,9,-1,11,-1,-1,-1,-1,-1,-1],"loss_changes":[1.9430183E0,2.9571533E-1,6.849861E-2,1.3348464E-2,3.2750213E-1,0E0,2.4049503E-1,0E0,0E0,0E0,0E0,0E0,0E0],"parents":[2147483647,0,0,1,1,2,2,3,3,4,4,6,6],"right_children":[2,4,6,8,10,-1,12,-1,-1,-1,-1,-1,-1],"split_conditions":[3.504E4,1.2E1,6E0,2E0,6E0,-2.3265406E-3,3.1536E6,-2.2798366E-4,-1.2715003E-3,1.9535932E-3,-1.1902822E-3,2.6217682E-4,-2.4270222E-3],"split_indices":[0,1,2,2,2,0,0,0,0,0,0,0,0],"split_type":[0,0,0,0,0,0,0,0,0,0,0,0,0],"sum_hessian":[7.2E1,4.2E1,3E1,5E0,3.7E1,1.8E1,1.2E1,3E0,2E0,3.4E1,3E0,6E0,6E0],"tree_param":{"num_deleted":"0","num_feature":"3","num_nodes":"13","size_leaf_vector":"1"}},{"base_weights":[-7.090052E-4,1.3556267E-1,-1.8970814E-1,-7.82361E-2,1.6575293E-1,-2.3044997E-3,-1.1556944E-1,-2.2627375E-4,-1.2630236E-3,1.9346153E-3,-1.1813552E-3,2.5992963E-4,-2.4062193E-3],"categories":[],"categories_nodes":[],"categories_segments":[],"categories_sizes":[],"default_left":[0,0,0,0,0,0,0,0,0,0,0,0,0],"id":10,"left_children":[1,3,5,7,9,-1,11,-1,-1,-1,-1,-1,-1],"loss_changes":[1.9058492E0,2.905174E-1,6.7003846E-2,1.3179533E-2,3.217684E-1,0E0,2.3638996E-1,0E0,0E0,0E0,0E0,0E0,0E0],"parents":[2147483647,0,0,1,1,2,2,3,3,4,4,6,6],"right_children":[2,4,6,8,10,-1,12,-1,-1,-1,-1,-1,-1],"split_conditions":[3.504E4,1.2E1,6E0,2E0,6E0,-2.3044997E-3,3.1536E6,-2.2627375E-4,-1.2630236E-3,1.9346153E-3,-1.1813552E-3,2.5992963E-4,-2.4062193E-3],"split_indices":[0,1,2,2,2,0,0,0,0,0,0,0,0],"split_type":[0,0,0,0,0,0,0,0,0,0,0,0,0],"sum_hessian":[7.2E1,4.2E1,3E1,5E0,3.7E1,1.8E1,1.2E1,3E0,2E0,3.4E1,3E0,6E0,6E0],"tree_param":{"num_deleted":"0","num_feature":"3","num_nodes":"13","size_leaf_vector":"1"}},{"base_weights":[-7.7297265E-4,1.3418992E-1,-1.8795463E-1,-7.770196E-2,1.6411522E-1,-2.2826677E-3,-1.1457885E-1,-2.2457681E-4,-1.2546035E-3,1.9158218E-3,-1.172495E-3,2.577016E-4,-2.3855944E-3],"categories":[],"categories_nodes":[],"categories_segments":[],"categories_sizes":[],"default_left":[0,0,0,0,0,0,0,0,0,0,0,0,0],"id":11,"left_children":[1,3,5,7,9,-1,11,-1,-1,-1,-1,-1,-1],"loss_changes":[1.8693899E0,2.8541207E-1,6.554139E-2,1.3012722E-2,3.1613576E-1,0E0,2.3235494E-1,0E0,0E0,0E0,0E0,0E0,0E0],"parents":[2147483647,0,0,1,1,2,2,3,3,4,4,6,6],"right_children":[2,4,6,8,10,-1,12,-1,-1,-1,-1,-1,-1],"split_conditions":[3.504E4,1.2E1,6E0,2E0,6E0,-2.2826677E-3,3.1536E6,-2.2457681E-4,-1.2546035E-3,1.9158218E-3,-1.172495E-3,2.577016E-4,-2.3855944E-3],"split_indices":[0,1,2,2,2,0,0,0,0,0,0,0,0],"split_type":[0,0,0,0,0,0,0,0,0,0,0,0,0],"sum_hessian":[7.2E1,4.2E1,3E1,5E0,3.7E1,1.8E1,1.2E1,3E0,2E0,3.4E1,3E0,6E0,6E0],"tree_param":{"num_deleted":"0","num_feature":"3","num_nodes":"13","size_leaf_vector":"1"}},{"base_weights":[-8.357351E-4,1.3283092E-1,-1.8621737E-1,-7.717146E-2,1.6249365E-1,-2.2610424E-3,-1.1359675E-1,-2.2289238E-4,-1.2462394E-3,1.8972111E-3,-1.1637014E-3,2.5549275E-4,-2.3651468E-3],"categories":[],"categories_nodes":[],"categories_segments":[],"categories_sizes":[],"default_left":[0,0,0,0,0,0,0,0,0,0,0,0,0],"id":12,"left_children":[1,3,5,7,9,-1,11,-1,-1,-1,-1,-1,-1],"loss_changes":[1.8336273E0,2.803973E-1,6.411028E-2,1.2848012E-2,3.1060255E-1,0E0,2.2838882E-1,0E0,0E0,0E0,0E0,0E0,0E0],"parents":[2147483647,0,0,1,1,2,2,3,3,4,4,6,6],"right_children":[2,4,6,8,10,-1,12,-1,-1,-1,-1,-1,-1],"split_conditions":[3.504E4,1.2E1,6E0,2E0,6E0,-2.2610424E-3,3.1536E6,-2.2289238E-4,-1.2462394E-3,1.8972111E-3,-1.1637014E-3,2.5549275E-4,-2.3651468E-3],"split_indices":[0,1,2,2,2,0,0,0,0,0,0,0,0],"split_type":[0,0,0,0,0,0,0,0,0,0,0,0,0],"sum_hessian":[7.2E1,4.2E1,3E1,5E0,3.7E1,1.8E1,1.2E1,3E0,2E0,3.4E1,3E0,6E0,6E0],"tree_param":{"num_deleted":"0","num_feature":"3","num_nodes":"13","size_leaf_vector":"1"}},{"base_weights":[-8.9732994E-4,1.3148549E-1,-1.8449618E-1,-7.66446E-2,1.60888E-1,-2.239622E-3,-1.12623066E-1,-2.212207E-4,-1.2379311E-3,1.878781E-3,-1.1549736E-3,2.5330277E-4,-2.344874E-3],"categories":[],"categories_nodes":[],"categories_segments":[],"categories_sizes":[],"default_left":[0,0,0,0,0,0,0,0,0,0,0,0,0],"id":13,"left_children":[1,3,5,7,9,-1,11,-1,-1,-1,-1,-1,-1],"loss_changes":[1.798548E0,2.754717E-1,6.270957E-2,1.2685373E-2,3.0516684E-1,0E0,2.2449031E-1,0E0,0E0,0E0,0E0,0E0,0E0],"parents":[2147483647,0,0,1,1,2,2,3,3,4,4,6,6],"right_children":[2,4,6,8,10,-1,12,-1,-1,-1,-1,-1,-1],"split_conditions":[3.504E4,1.2E1,6E0,2E0,6E0,-2.239622E-3,3.1536E6,-2.212207E-4,-1.2379311E-3,1.878781E-3,-1.1549736E-3,2.5330277E-4,-2.344874E-3],"split_indices":[0,1,2,2,2,0,0,0,0,0,0,0,0],"split_type":[0,0,0,0,0,0,0,0,0,0,0,0,0],"sum_hessian":[7.2E1,4.2E1,3E1,5E0,3.7E1,1.8E1,1.2E1,3E0,2E0,3.4E1,3E0,6E0,6E0],"tree_param":{"num_deleted":"0","num_feature":"3","num_nodes":"13","size_leaf_vector":"1"}},{"base_weights":[-9.57756E-4,1.3015355E-1,-1.8279094E-1,-7.6121345E-2,1.5929818E-1,-2.2184046E-3,-1.11657724E-1,-2.1956152E-4,-1.2296782E-3,1.8605302E-3,-1.1463114E-3,2.5113174E-4,-2.324775E-3],"categories":[],"categories_nodes":[],"categories_segments":[],"categories_sizes":[],"default_left":[0,0,0,0,0,0,0,0,0,0,0,0,0],"id":14,"left_children":[1,3,5,7,9,-1,11,-1,-1,-1,-1,-1,-1],"loss_changes":[1.7641392E0,2.7063358E-1,6.13389E-2,1.2524791E-2,2.9982692E-1,0E0,2.2065845E-1,0E0,0E0,0E0,0E0,0E0,0E0],"parents":[2147483647,0,0,1,1,2,2,3,3,4,4,6,6],"right_children":[2,4,6,8,10,-1,12,-1,-1,-1,-1,-1,-1],"split_conditions":[3.504E4,1.2E1,6E0,2E0,6E0,-2.2184046E-3,3.1536E6,-2.1956152E-4,-1.2296782E-3,1.8605302E-3,-1.1463114E-3,2.5113174E-4,-2.324775E-3],"split_indices":[0,1,2,2,2,0,0,0,0,0,0,0,0],"split_type":[0,0,0,0,0,0,0,0,0,0,0,0,0],"sum_hessian":[7.2E1,4.2E1,3E1,5E0,3.7E1,1.8E1,1.2E1,3E0,2E0,3.4E1,3E0,6E0,6E0],"tree_param":{"num_deleted":"0","num_feature":"3","num_nodes":"13","size_leaf_vector":"1"}},{"base_weights":[-1.0170451E-3,1.2883492E-1,-1.8110149E-1,-7.560168E-2,1.57724E-1,-2.197388E-3,-1.1070065E-1,-2.1791487E-4,-1.2214804E-3,1.8424564E-3,-1.137714E-3,2.4897905E-4,-2.3048483E-3],"categories":[],"categories_nodes":[],"categories_segments":[],"categories_sizes":[],"default_left":[0,0,0,0,0,0,0,0,0,0,0,0,0],"id":15,"left_children":[1,3,5,7,9,-1,11,-1,-1,-1,-1,-1,-1],"loss_changes":[1.7303876E0,2.6588148E-1,5.9997916E-2,1.2366224E-2,2.9458106E-1,0E0,2.1689191E-1,0E0,0E0,0E0,0E0,0E0,0E0],"parents":[2147483647,0,0,1,1,2,2,3,3,4,4,6,6],"right_children":[2,4,6,8,10,-1,12,-1,-1,-1,-1,-1,-1],"split_conditions":[3.504E4,1.2E1,6E0,2E0,6E0,-2.197388E-3,3.1536E6,-2.1791487E-4,-1.2214804E-3,1.8424564E-3,-1.137714E-3,2.4897905E-4,-2.3048483E-3],"split_indices":[0,1,2,2,2,0,0,0,0,0,0,0,0],"split_type":[0,0,0,0,0,0,0,0,0,0,0,0,0],"sum_hessian":[7.2E1,4.2E1,3E1,5E0,3.7E1,1.8E1,1.2E1,3E0,2E0,3.4E1,3E0,6E0,6E0],"tree_param":{"num_deleted":"0","num_feature":"3","num_nodes":"13","size_leaf_vector":"1"}},{"base_weights":[-1.0752066E-3,1.2752949E-1,-1.7942767E-1,-7.5085565E-2,1.5616529E-1,-2.176571E-3,-1.0975178E-1,-2.1628052E-4,-1.2133372E-3,1.8245581E-3,-1.1291814E-3,2.4684504E-4,-2.2850924E-3],"categories":[],"categories_nodes":[],"categories_segments":[],"categories_sizes":[],"default_left":[0,0,0,0,0,0,0,0,0,0,0,0,0],"id":16,"left_children":[1,3,5,7,9,-1,11,-1,-1,-1,-1,-1,-1],"loss_changes":[1.6972806E0,2.6121372E-1,5.8685422E-2,1.2209654E-2,2.8942764E-1,0E0,2.1318969E-1,0E0,0E0,0E0,0E0,0E0,0E0],"parents":[2147483647,0,0,1,1,2,2,3,3,4,4,6,6],"right_children":[2,4,6,8,10,-1,12,-1,-1,-1,-1,-1,-1],"split_conditions":[3.504E4,1.2E1,6E0,2E0,6E0,-2.176571E-3,3.1536E6,-2.1628052E-4,-1.2133372E-3,1.8245581E-3,-1.1291814E-3,2.4684504E-4,-2.2850924E-3],"split_indices":[0,1,2,2,2,0,0,0,0,0,0,0,0],"split_type":[0,0,0,0,0,0,0,0,0,0,0,0,0],"sum_hessian":[7.2E1,4.2E1,3E1,5E0,3.7E1,1.8E1,1.2E1,3E0,2E0,3.4E1,3E0,6E0,6E0],"tree_param":{"num_deleted":"0","num_feature":"3","num_nodes":"13","size_leaf_vector":"1"}},{"base_weights":[-1.1322506E-3,1.2623711E-1,-1.7776935E-1,-7.457298E-2,1.5462193E-1,-2.1559505E-3,-1.0881106E-1,-2.1465844E-4,-1.2052483E-3,1.8068339E-3,-1.1207125E-3,2.447292E-4,-2.265506E-3],"categories":[],"categories_nodes":[],"categories_segments":[],"categories_sizes":[],"default_left":[0,0,0,0,0,0,0,0,0,0,0,0,0],"id":17,"left_children":[1,3,5,7,9,-1,11,-1,-1,-1,-1,-1,-1],"loss_changes":[1.6648064E0,2.5662887E-1,5.740112E-2,1.2055058E-2,2.84365E-1,0E0,2.0955066E-1,0E0,0E0,0E0,0E0,0E0,0E0],"parents":[2147483647,0,0,1,1,2,2,3,3,4,4,6,6],"right_children":[2,4,6,8,10,-1,12,-1,-1,-1,-1,-1,-1],"split_conditions":[3.504E4,1.2E1,6E0,2E0,6E0,-2.1559505E-3,3.1536E6,-2.1465844E-4,-1.2052483E-3,1.8068339E-3,-1.1207125E-3,2.447292E-4,-2.265506E-3],"split_indices":[0,1,2,2,2,0,0,0,0,0,0,0,0],"split_type":[0,0,0,0,0,0,0,0,0,0,0,0,0],"sum_hessian":[7.2E1,4.2E1,3E1,5E0,3.7E1,1.8E1,1.2E1,3E0,2E0,3.4E1,3E0,6E0,6E0],"tree_param":{"num_deleted":"0","num_feature":"3","num_nodes":"13","size_leaf_vector":"1"}},{"base_weights":[-1.1881877E-3,1.2495768E-1,-1.7612639E-1,-7.40639E-2,1.5309379E-1,-2.1355257E-3,-1.07878394E-1,-2.1304845E-4,-1.1972133E-3,1.7892817E-3,-1.1123072E-3,2.4263143E-4,-2.2460872E-3],"categories":[],"categories_nodes":[],"categories_segments":[],"categories_sizes":[],"default_left":[0,0,0,0,0,0,0,0,0,0,0,0,0],"id":18,"left_children":[1,3,5,7,9,-1,11,-1,-1,-1,-1,-1,-1],"loss_changes":[1.6329526E0,2.521255E-1,5.6144476E-2,1.1902414E-2,2.793916E-1,0E0,2.0597371E-1,0E0,0E0,0E0,0E0,0E0,0E0],"parents":[2147483647,0,0,1,1,2,2,3,3,4,4,6,6],"right_children":[2,4,6,8,10,-1,12,-1,-1,-1,-1,-1,-1],"split_conditions":[3.504E4,1.2E1,6E0,2E0,6E0,-2.1355257E-3,3.1536E6,-2.1304845E-4,-1.1972133E-3,1.7892817E-3,-1.1123072E-3,2.4263143E-4,-2.2460872E-3],"split_indices":[0,1,2,2,2,0,0,0,0,0,0,0,0],"split_type":[0,0,0,0,0,0,0,0,0,0,0,0,0],"sum_hessian":[7.2E1,4.2E1,3E1,5E0,3.7E1,1.8E1,1.2E1,3E0,2E0,3.4E1,3E0,6E0,6E0],"tree_param":{"num_deleted":"0","num_feature":"3","num_nodes":"13","size_leaf_vector":"1"}},{"base_weights":[-1.2430461E-3,1.2369106E-1,-1.7449865E-1,-7.35583E-2,1.5158066E-1,-2.1152943E-3,-1.0695372E-1,-2.1145053E-4,-1.1892319E-3,1.7719003E-3,-1.1039648E-3,2.4055182E-4,-2.2268351E-3],"categories":[],"categories_nodes":[],"categories_segments":[],"categories_sizes":[],"default_left":[0,0,0,0,0,0,0,0,0,0,0,0,0],"id":19,"left_children":[1,3,5,7,9,-1,11,-1,-1,-1,-1,-1,-1],"loss_changes":[1.6017078E0,2.4770188E-1,5.4914713E-2,1.1751689E-2,2.745058E-1,0E0,2.0245789E-1,0E0,0E0,0E0,0E0,0E0,0E0],"parents":[2147483647,0,0,1,1,2,2,3,3,4,4,6,6],"right_children":[2,4,6,8,10,-1,12,-1,-1,-1,-1,-1,-1],"split_conditions":[3.504E4,1.2E1,6E0,2E0,6E0,-2.1152943E-3,3.1536E6,-2.1145053E-4,-1.1892319E-3,1.7719003E-3,-1.1039648E-3,2.4055182E-4,-2.2268351E-3],"split_indices":[0,1,2,2,2,0,0,0,0,0,0,0,0],"split_type":[0,0,0,0,0,0,0,0,0,0,0,0,0],"sum_hessian":[7.2E1,4.2E1,3E1,5E0,3.7E1,1.8E1,1.2E1,3E0,2E0,3.4E1,3E0,6E0,6E0],"tree_param":{"num_deleted":"0","num_feature":"3","num_nodes":"13","size_leaf_vector":"1"}},{"base_weights":[-1.2968446E-3,1.22437105E-1,-1.7288597E-1,-7.305616E-2,1.5008244E-1,-2.0952548E-3,-1.06036976E-1,-2.0986467E-4,-1.1813036E-3,1.7546875E-3,-1.0956851E-3,2.3848984E-4,-2.207748E-3],"categories":[],"categories_nodes":[],"categories_segments":[],"categories_sizes":[],"default_left":[0,0,0,0,0,0,0,0,0,0,0,0,0],"id":20,"left_children":[1,3,5,7,9,-1,11,-1,-1,-1,-1,-1,-1],"loss_changes":[1.57106E0,2.4335688E-1,5.3711295E-2,1.1602864E-2,2.6970595E-1,0E0,1.9900209E-1,0E0,0E0,0E0,0E0,0E0,0E0],"parents":[2147483647,0,0,1,1,2,2,3,3,4,4,6,6],"right_children":[2,4,6,8,10,-1,12,-1,-1,-1,-1,-1,-1],"split_conditions":[3.504E4,1.2E1,6E0,2E0,6E0,-2.0952548E-3,3.1536E6,-2.0986467E-4,-1.1813036E-3,1.7546875E-3,-1.0956851E-3,2.3848984E-4,-2.207748E-3],"split_indices":[0,1,2,2,2,0,0,0,0,0,0,0,0],"split_type":[0,0,0,0,0,0,0,0,0,0,0,0,0],"sum_hessian":[7.2E1,4.2E1,3E1,5E0,3.7E1,1.8E1,1.2E1,3E0,2E0,3.4E1,3E0,6E0,6E0],"tree_param":{"num_deleted":"0","num_feature":"3","num_nodes":"13","size_leaf_vector":"1"}},{"base_weights":[-1.3495862E-3,1.21195704E-1,-1.7128822E-1,-7.2557464E-2,1.4859895E-1,-2.0754053E-3,-1.0512808E-1,-2.0829066E-4,-1.1734284E-3,1.737642E-3,-1.0874673E-3,2.3644575E-4,-2.1888244E-3],"categories":[],"categories_nodes":[],"categories_segments":[],"categories_sizes":[],"default_left":[0,0,0,0,0,0,0,0,0,0,0,0,0],"id":21,"left_children":[1,3,5,7,9,-1,11,-1,-1,-1,-1,-1,-1],"loss_changes":[1.5409976E0,2.3908895E-1,5.2533865E-2,1.1455912E-2,2.6499087E-1,0E0,1.9560525E-1,0E0,0E0,0E0,0E0,0E0,0E0],"parents":[2147483647,0,0,1,1,2,2,3,3,4,4,6,6],"right_children":[2,4,6,8,10,-1,12,-1,-1,-1,-1,-1,-1],"split_conditions":[3.504E4,1.2E1,6E0,2E0,6E0,-2.0754053E-3,3.1536E6,-2.0829066E-4,-1.1734284E-3,1.737642E-3,-1.0874673E-3,2.3644575E-4,-2.1888244E-3],"split_indices":[0,1,2,2,2,0,0,0,0,0,0,0,0],"split_type":[0,0,0,0,0,0,0,0,0,0,0,0,0],"sum_hessian":[7.2E1,4.2E1,3E1,5E0,3.7E1,1.8E1,1.2E1,3E0,2E0,3.4E1,3E0,6E0,6E0],"tree_param":{"num_deleted":"0","num_feature":"3","num_nodes":"13","size_leaf_vector":"1"}},{"base_weights":[-1.401296E-3,1.19966716E-1,-1.6970527E-1,-7.206217E-2,1.4713006E-1,-2.0557435E-3,-1.04226984E-1,-2.067285E-4,-1.1656054E-3,1.7207618E-3,-1.0793115E-3,2.3441901E-4,-2.1700629E-3],"categories":[],"categories_nodes":[],"categories_segments":[],"categories_sizes":[],"default_left":[0,0,0,0,0,0,0,0,0,0,0,0,0],"id":22,"left_children":[1,3,5,7,9,-1,11,-1,-1,-1,-1,-1,-1],"loss_changes":[1.5115095E0,2.3489672E-1,5.1381588E-2,1.1310812E-2,2.603584E-1,0E0,1.9226633E-1,0E0,0E0,0E0,0E0,0E0,0E0],"parents":[2147483647,0,0,1,1,2,2,3,3,4,4,6,6],"right_children":[2,4,6,8,10,-1,12,-1,-1,-1,-1,-1,-1],"split_conditions":[3.504E4,1.2E1,6E0,2E0,6E0,-2.0557435E-3,3.1536E6,-2.067285E-4,-1.1656054E-3,1.7207618E-3,-1.0793115E-3,2.3441901E-4,-2.1700629E-3],"split_indices":[0,1,2,2,2,0,0,0,0,0,0,0,0],"split_type":[0,0,0,0,0,0,0,0,0,0,0,0,0],"sum_hessian":[7.2E1,4.2E1,3E1,5E0,3.7E1,1.8E1,1.2E1,3E0,2E0,3.4E1,3E0,6E0,6E0],"tree_param":{"num_deleted":"0","num_feature":"3","num_nodes":"13","size_leaf_vector":"1"}},{"base_weights":[-1.4519702E-3,1.18750066E-1,-1.6813698E-1,-7.157027E-2,1.4567564E-1,-2.0362681E-3,-1.03333615E-1,-2.0517796E-4,-1.1578348E-3,1.7040459E-3,-1.0712165E-3,2.3240966E-4,-2.1514625E-3],"categories":[],"categories_nodes":[],"categories_segments":[],"categories_sizes":[],"default_left":[0,0,0,0,0,0,0,0,0,0,0,0,0],"id":23,"left_children":[1,3,5,7,9,-1,11,-1,-1,-1,-1,-1,-1],"loss_changes":[1.4825853E0,2.3077887E-1,5.0254226E-2,1.1167539E-2,2.5580782E-1,0E0,1.889845E-1,0E0,0E0,0E0,0E0,0E0,0E0],"parents":[2147483647,0,0,1,1,2,2,3,3,4,4,6,6],"right_children":[2,4,6,8,10,-1,12,-1,-1,-1,-1,-1,-1],"split_conditions":[3.504E4,1.2E1,6E0,2E0,6E0,-2.0362681E-3,3.1536E6,-2.0517796E-4,-1.1578348E-3,1.7040459E-3,-1.0712165E-3,2.3240966E-4,-2.1514625E-3],"split_indices":[0,1,2,2,2,0,0,0,0,0,0,0,0],"split_type":[0,0,0,0,0,0,0,0,0,0,0,0,0],"sum_hessian":[7.2E1,4.2E1,3E1,5E0,3.7E1,1.8E1,1.2E1,3E0,2E0,3.4E1,3E0,6E0,6E0],"tree_param":{"num_deleted":"0","num_feature":"3","num_nodes":"13","size_leaf_vector":"1"}},{"base_weights":[-1.5016294E-3,1.1754559E-1,-1.665832E-1,-6.0381554E-3,1.602162E-1,-2.016977E-3,-1.024479E-1,1.0905368E-3,-1.038257E-3,1.9145487E-3,-1.0631825E-3,2.3041767E-4,-2.1330214E-3],"categories":[],"categories_nodes":[],"categories_segments":[],"categories_sizes":[],"default_left":[0,0,0,0,0,0,0,0,0,0,0,0,0],"id":24,"left_children":[1,3,5,7,9,-1,11,-1,-1,-1,-1,-1,-1],"loss_changes":[1.4542137E0,2.277233E-1,4.9151003E-2,1.4637718E-1,2.86793E-1,0E0,1.8575868E-1,0E0,0E0,0E0,0E0,0E0,0E0],"parents":[2147483647,0,0,1,1,2,2,3,3,4,4,6,6],"right_children":[2,4,6,8,10,-1,12,-1,-1,-1,-1,-1,-1],"split_conditions":[3.504E4,3E1,6E0,5.2142857E1,6E0,-2.016977E-3,3.1536E6,1.0905368E-3,-1.038257E-3,1.9145487E-3,-1.0631825E-3,2.3041767E-4,-2.1330214E-3],"split_indices":[0,1,2,0,2,0,0,0,0,0,0,0,0],"split_type":[0,0,0,0,0,0,0,0,0,0,0,0,0],"sum_hessian":[7.2E1,4.2E1,3E1,1.1E1,3.1E1,1.8E1,1.2E1,5E0,6E0,2.8E1,3E0,6E0,6E0],"tree_param":{"num_deleted":"0","num_feature":"3","num_nodes":"13","size_leaf_vector":"1"}},{"base_weights":[-1.5279306E-3,1.1639114E-1,-1.650438E-1,-5.973415E-3,1.5864062E-1,-1.9978688E-3,-1.0156978E-1,1.0814491E-3,-1.0293578E-3,1.8960632E-3,-1.0552087E-3,2.2844254E-4,-2.1147386E-3],"categories":[],"categories_nodes":[],"categories_segments":[],"categories_sizes":[],"default_left":[0,0,0,0,0,0,0,0,0,0,0,0,0],"id":25,"left_children":[1,3,5,7,9,-1,11,-1,-1,-1,-1,-1,-1],"loss_changes":[1.4267693E0,2.2325075E-1,4.8071384E-2,1.4391418E-1,2.817657E-1,0E0,1.8258789E-1,0E0,0E0,0E0,0E0,0E0,0E0],"parents":[2147483647,0,0,1,1,2,2,3,3,4,4,6,6],"right_children":[2,4,6,8,10,-1,12,-1,-1,-1,-1,-1,-1],"split_conditions":[3.504E4,3E1,6E0,5.2142857E1,6E0,-1.9978688E-3,3.1536E6,1.0814491E-3,-1.0293578E-3,1.8960632E-3,-1.0552087E-3,2.2844254E-4,-2.1147386E-3],"split_indices":[0,1,2,0,2,0,0,0,0,0,0,0,0],"split_type":[0,0,0,0,0,0,0,0,0,0,0,0,0],"sum_hessian":[7.2E1,4.2E1,3E1,1.1E1,3.1E1,1.8E1,1.2E1,5E0,6E0,2.8E1,3E0,6E0,6E0],"tree_param":{"num_deleted":"0","num_feature":"3","num_nodes":"13","size_leaf_vector":"1"}},{"base_weights":[-1.5536238E-3,1.15248E-1,-1.6351867E-1,-5.9093274E-3,1.570805E-1,-1.9789417E-3,-1.0069918E-1,1.0724372E-3,-1.0205347E-3,1.8777563E-3,-1.0472946E-3,2.2648454E-4,-2.096612E-3],"categories":[],"categories_nodes":[],"categories_segments":[],"categories_sizes":[],"default_left":[0,0,0,0,0,0,0,0,0,0,0,0,0],"id":26,"left_children":[1,3,5,7,9,-1,11,-1,-1,-1,-1,-1,-1],"loss_changes":[1.3998432E0,2.1886575E-1,4.701519E-2,1.4149262E-1,2.7682716E-1,0E0,1.794712E-1,0E0,0E0,0E0,0E0,0E0,0E0],"parents":[2147483647,0,0,1,1,2,2,3,3,4,4,6,6],"right_children":[2,4,6,8,10,-1,12,-1,-1,-1,-1,-1,-1],"split_conditions":[3.504E4,3E1,6E0,5.2142857E1,6E0,-1.9789417E-3,3.1536E6,1.0724372E-3,-1.0205347E-3,1.8777563E-3,-1.0472946E-3,2.2648454E-4,-2.096612E-3],"split_indices":[0,1,2,0,2,0,0,0,0,0,0,0,0],"split_type":[0,0,0,0,0,0,0,0,0,0,0,0,0],"sum_hessian":[7.2E1,4.2E1,3E1,1.1E1,3.1E1,1.8E1,1.2E1,5E0,6E0,2.8E1,3E0,6E0,6E0],"tree_param":{"num_deleted":"0","num_feature":"3","num_nodes":"13","size_leaf_vector":"1"}},{"base_weights":[-1.5787293E-3,1.1411604E-1,-1.6200764E-1,-5.8459155E-3,1.5553565E-1,-1.960194E-3,-9.9836044E-2,1.0635002E-3,-1.0117872E-3,1.8596264E-3,-1.03944E-3,2.2454311E-4,-2.078641E-3],"categories":[],"categories_nodes":[],"categories_segments":[],"categories_sizes":[],"default_left":[0,0,0,0,0,0,0,0,0,0,0,0,0],"id":27,"left_children":[1,3,5,7,9,-1,11,-1,-1,-1,-1,-1,-1],"loss_changes":[1.3734251E0,2.1456665E-1,4.5981705E-2,1.391118E-1,2.7197564E-1,0E0,1.764077E-1,0E0,0E0,0E0,0E0,0E0,0E0],"parents":[2147483647,0,0,1,1,2,2,3,3,4,4,6,6],"right_children":[2,4,6,8,10,-1,12,-1,-1,-1,-1,-1,-1],"split_conditions":[3.504E4,3E1,6E0,5.2142857E1,6E0,-1.960194E-3,3.1536E6,1.0635002E-3,-1.0117872E-3,1.8596264E-3,-1.03944E-3,2.2454311E-4,-2.078641E-3],"split_indices":[0,1,2,0,2,0,0,0,0,0,0,0,0],"split_type":[0,0,0,0,0,0,0,0,0,0,0,0,0],"sum_hessian":[7.2E1,4.2E1,3E1,1.1E1,3.1E1,1.8E1,1.2E1,5E0,6E0,2.8E1,3E0,6E0,6E0],"tree_param":{"num_deleted":"0","num_feature":"3","num_nodes":"13","size_leaf_vector":"1"}},{"base_weights":[-1.6032496E-3,1.12995155E-1,-1.6051061E-1,-5.7831444E-3,1.5400591E-1,-1.9416236E-3,-9.898029E-2,1.0546377E-3,-1.0031147E-3,1.8416714E-3,-1.0316442E-3,2.2261858E-4,-2.060824E-3],"categories":[],"categories_nodes":[],"categories_segments":[],"categories_sizes":[],"default_left":[0,0,0,0,0,0,0,0,0,0,0,0,0],"id":28,"left_children":[1,3,5,7,9,-1,11,-1,-1,-1,-1,-1,-1],"loss_changes":[1.3475056E0,2.103517E-1,4.4970453E-2,1.3677107E-1,2.672097E-1,0E0,1.7339656E-1,0E0,0E0,0E0,0E0,0E0,0E0],"parents":[2147483647,0,0,1,1,2,2,3,3,4,4,6,6],"right_children":[2,4,6,8,10,-1,12,-1,-1,-1,-1,-1,-1],"split_conditions":[3.504E4,3E1,6E0,5.2142857E1,6E0,-1.9416236E-3,3.1536E6,1.0546377E-3,-1.0031147E-3,1.8416714E-3,-1.0316442E-3,2.2261858E-4,-2.060824E-3],"split_indices":[0,1,2,0,2,0,0,0,0,0,0,0,0],"split_type":[0,0,0,0,0,0,0,0,0,0,0,0,0],"sum_hessian":[7.2E1,4.2E1,3E1,1.1E1,3.1E1,1.8E1,1.2E1,5E0,6E0,2.8E1,3E0,6E0,6E0],"tree_param":{"num_deleted":"0","num_feature":"3","num_nodes":"13","size_leaf_vector":"1"}},{"base_weights":[-1.6271924E-3,1.1188524E-1,-1.5902743E-1,-5.7210214E-3,1.5249118E-1,-1.9232293E-3,-9.813189E-2,1.045849E-3,-9.945167E-4,1.8238897E-3,-1.0239069E-3,2.2071037E-4,-2.0431597E-3],"categories":[],"categories_nodes":[],"categories_segments":[],"categories_sizes":[],"default_left":[0,0,0,0,0,0,0,0,0,0,0,0,0],"id":29,"left_children":[1,3,5,7,9,-1,11,-1,-1,-1,-1,-1,-1],"loss_changes":[1.3220755E0,2.0621943E-1,4.3981016E-2,1.3446969E-1,2.6252794E-1,0E0,1.7043677E-1,0E0,0E0,0E0,0E0,0E0,0E0],"parents":[2147483647,0,0,1,1,2,2,3,3,4,4,6,6],"right_children":[2,4,6,8,10,-1,12,-1,-1,-1,-1,-1,-1],"split_conditions":[3.504E4,3E1,6E0,5.2142857E1,6E0,-1.9232293E-3,3.1536E6,1.045849E-3,-9.945167E-4,1.8238897E-3,-1.0239069E-3,2.2071037E-4,-2.0431597E-3],"split_indices":[0,1,2,0,2,0,0,0,0,0,0,0,0],"split_type":[0,0,0,0,0,0,0,0,0,0,0,0,0],"sum_hessian":[7.2E1,4.2E1,3E1,1.1E1,3.1E1,1.8E1,1.2E1,5E0,6E0,2.8E1,3E0,6E0,6E0],"tree_param":{"num_deleted":"0","num_feature":"3","num_nodes":"13","size_leaf_vector":"1"}},{"base_weights":[-1.6505745E-3,1.1078618E-1,-1.57558E-1,-5.6595416E-3,1.5099126E-1,-1.9050093E-3,-9.729076E-2,1.0371335E-3,-9.859923E-4,1.8062796E-3,-1.0162274E-3,2.1881852E-4,-2.0256469E-3],"categories":[],"categories_nodes":[],"categories_segments":[],"categories_sizes":[],"default_left":[0,0,0,0,0,0,0,0,0,0,0,0,0],"id":30,"left_children":[1,3,5,7,9,-1,11,-1,-1,-1,-1,-1,-1],"loss_changes":[1.2971251E0,2.021681E-1,4.3012798E-2,1.3220707E-1,2.5792873E-1,0E0,1.675275E-1,0E0,0E0,0E0,0E0,0E0,0E0],"parents":[2147483647,0,0,1,1,2,2,3,3,4,4,6,6],"right_children":[2,4,6,8,10,-1,12,-1,-1,-1,-1,-1,-1],"split_conditions":[3.504E4,3E1,6E0,5.2142857E1,6E0,-1.9050093E-3,3.1536E6,1.0371335E-3,-9.859923E-4,1.8062796E-3,-1.0162274E-3,2.1881852E-4,-2.0256469E-3],"split_indices":[0,1,2,0,2,0,0,0,0,0,0,0,0],"split_type":[0,0,0,0,0,0,0,0,0,0,0,0,0],"sum_hessian":[7.2E1,4.2E1,3E1,1.1E1,3.1E1,1.8E1,1.2E1,5E0,6E0,2.8E1,3E0,6E0,6E0],"tree_param":{"num_deleted":"0","num_feature":"3","num_nodes":"13","size_leaf_vector":"1"}},{"base_weights":[-1.6733936E-3,1.0969787E-1,-1.5610214E-1,-5.5986852E-3,1.4950602E-1,-1.8869617E-3,-9.645684E-2,1.0284908E-3,-9.775411E-4,1.7888397E-3,-1.0086058E-3,2.1694302E-4,-2.0082844E-3],"categories":[],"categories_nodes":[],"categories_segments":[],"categories_sizes":[],"default_left":[0,0,0,0,0,0,0,0,0,0,0,0,0],"id":31,"left_children":[1,3,5,7,9,-1,11,-1,-1,-1,-1,-1,-1],"loss_changes":[1.2726456E0,1.98196E-1,4.206544E-2,1.2998252E-1,2.5341058E-1,0E0,1.6466793E-1,0E0,0E0,0E0,0E0,0E0,0E0],"parents":[2147483647,0,0,1,1,2,2,3,3,4,4,6,6],"right_children":[2,4,6,8,10,-1,12,-1,-1,-1,-1,-1,-1],"split_conditions":[3.504E4,3E1,6E0,5.2142857E1,6E0,-1.8869617E-3,3.1536E6,1.0284908E-3,-9.775411E-4,1.7888397E-3,-1.0086058E-3,2.1694302E-4,-2.0082844E-3],"split_indices":[0,1,2,0,2,0,0,0,0,0,0,0,0],"split_type":[0,0,0,0,0,0,0,0,0,0,0,0,0],"sum_hessian":[7.2E1,4.2E1,3E1,1.1E1,3.1E1,1.8E1,1.2E1,5E0,6E0,2.8E1,3E0,6E0,6E0],"tree_param":{"num_deleted":"0","num_feature":"3","num_nodes":"13","size_leaf_vector":"1"}},{"base_weights":[-1.6956641E-3,1.0862022E-1,-1.5465976E-1,-5.538445E-3,1.4803533E-1,-1.8690852E-3,-9.5630065E-2,1.0199202E-3,-9.691621E-4,1.7715679E-3,-1.0010413E-3,2.1508362E-4,-1.9910706E-3],"categories":[],"categories_nodes":[],"categories_segments":[],"categories_sizes":[],"default_left":[0,0,0,0,0,0,0,0,0,0,0,0,0],"id":32,"left_children":[1,3,5,7,9,-1,11,-1,-1,-1,-1,-1,-1],"loss_changes":[1.248628E0,1.9430172E-1,4.113865E-2,1.2779541E-1,2.48972E-1,0E0,1.6185719E-1,0E0,0E0,0E0,0E0,0E0,0E0],"parents":[2147483647,0,0,1,1,2,2,3,3,4,4,6,6],"right_children":[2,4,6,8,10,-1,12,-1,-1,-1,-1,-1,-1],"split_conditions":[3.504E4,3E1,6E0,5.2142857E1,6E0,-1.8690852E-3,3.1536E6,1.0199202E-3,-9.691621E-4,1.7715679E-3,-1.0010413E-3,2.1508362E-4,-1.9910706E-3],"split_indices":[0,1,2,0,2,0,0,0,0,0,0,0,0],"split_type":[0,0,0,0,0,0,0,0,0,0,0,0,0],"sum_hessian":[7.2E1,4.2E1,3E1,1.1E1,3.1E1,1.8E1,1.2E1,5E0,6E0,2.8E1,3E0,6E0,6E0],"tree_param":{"num_deleted":"0","num_feature":"3","num_nodes":"13","size_leaf_vector":"1"}},{"base_weights":[-1.7173913E-3,1.0755311E-1,-1.5323076E-1,-5.4788277E-3,1.4657906E-1,-1.8513781E-1,-9.481038E-2,1.0114209E-3,-9.6085493E-4,1.7544632E-3,-9.935335E-4,-1.2050008E-3,-2.0570136E-3,2.1324004E-4,-1.974004E-3],"categories":[],"categories_nodes":[],"categories_segments":[],"categories_sizes":[],"default_left":[0,0,0,0,0,0,0,0,0,0,0,0,0,0,0],"id":33,"left_children":[1,3,5,7,9,11,13,-1,-1,-1,-1,-1,-1,-1,-1],"loss_changes":[1.2250642E0,1.9048372E-1,4.0231705E-2,1.2564509E-1,2.446118E-1,4.6741962E-4,1.5909436E-1,0E0,0E0,0E0,0E0,0E0,0E0,0E0,0E0],"parents":[2147483647,0,0,1,1,2,2,3,3,4,4,5,5,6,6],"right_children":[2,4,6,8,10,12,14,-1,-1,-1,-1,-1,-1,-1,-1],"split_conditions":[3.504E4,3E1,6E0,5.2142857E1,6E0,6E1,3.1536E6,1.0114209E-3,-9.6085493E-4,1.7544632E-3,-9.935335E-4,-1.2050008E-3,-2.0570136E-3,2.1324004E-4,-1.974004E-3],"split_indices":[0,1,2,0,2,1,0,0,0,0,0,0,0,0,0],"split_type":[0,0,0,0,0,0,0,0,0,0,0,0,0,0,0],"sum_hessian":[7.2E1,4.2E1,3E1,1.1E1,3.1E1,1.8E1,1.2E1,5E0,6E0,2.8E1,3E0,6E0,1.2E1,6E0,6E0],"tree_param":{"num_deleted":"0","num_feature":"3","num_nodes":"15","size_leaf_vector":"1"}},{"base_weights":[-1.7579057E-3,1.0649645E-1,-1.5186048E-1,-5.4198294E-3,1.4513704E-1,-1.939664E-3,-1.0577521E-1,1.0029923E-3,-9.52619E-4,1.7375235E-3,-9.860821E-4,-3.892905E-4,-1.957084E-3],"categories":[],"categories_nodes":[],"categories_segments":[],"categories_sizes":[],"default_left":[0,0,0,0,0,0,0,0,0,0,0,0,0],"id":34,"left_children":[1,3,5,7,9,-1,11,-1,-1,-1,-1,-1,-1],"loss_changes":[1.2023684E0,1.8674058E-1,3.9637506E-2,1.2353093E-1,2.4032849E-1,0E0,9.457998E-2,0E0,0E0,0E0,0E0,0E0,0E0],"parents":[2147483647,0,0,1,1,2,2,3,3,4,4,6,6],"right_children":[2,4,6,8,10,-1,12,-1,-1,-1,-1,-1,-1],"split_conditions":[3.504E4,3E1,4E0,5.2142857E1,6E0,-1.939664E-3,3.1536E6,1.0029923E-3,-9.52619E-4,1.7375235E-3,-9.860821E-4,-3.892905E-4,-1.957084E-3],"split_indices":[0,1,2,0,2,0,0,0,0,0,0,0,0],"split_type":[0,0,0,0,0,0,0,0,0,0,0,0,0],"sum_hessian":[7.2E1,4.2E1,3E1,1.1E1,3.1E1,1.4E1,1.6E1,5E0,6E0,2.8E1,3E0,1E1,6E0],"tree_param":{"num_deleted":"0","num_feature":"3","num_nodes":"13","size_leaf_vector":"1"}},{"base_weights":[-1.7880632E-3,1.0545012E-1,-1.5048014E-1,-5.361429E-3,1.4370914E-1,-1.8194695E-1,-9.2914775E-2,9.946339E-4,-9.444536E-4,1.7207473E-3,-9.786866E-4,-1.1802615E-3,-2.023699E-3,2.1474897E-4,-1.9403091E-3],"categories":[],"categories_nodes":[],"categories_segments":[],"categories_sizes":[],"default_left":[0,0,0,0,0,0,0,0,0,0,0,0,0,0,0],"id":35,"left_children":[1,3,5,7,9,11,13,-1,-1,-1,-1,-1,-1,-1,-1],"loss_changes":[1.1798873E0,1.8307078E-1,3.924775E-2,1.21452354E-1,2.3612064E-1,9.186864E-4,1.5453312E-1,0E0,0E0,0E0,0E0,0E0,0E0,0E0,0E0],"parents":[2147483647,0,0,1,1,2,2,3,3,4,4,5,5,6,6],"right_children":[2,4,6,8,10,12,14,-1,-1,-1,-1,-1,-1,-1,-1],"split_conditions":[3.504E4,3E1,6E0,5.2142857E1,6E0,6E1,3.1536E6,9.946339E-4,-9.444536E-4,1.7207473E-3,-9.786866E-4,-1.1802615E-3,-2.023699E-3,2.1474897E-4,-1.9403091E-3],"split_indices":[0,1,2,0,2,1,0,0,0,0,0,0,0,0,0],"split_type":[0,0,0,0,0,0,0,0,0,0,0,0,0,0,0],"sum_hessian":[7.2E1,4.2E1,3E1,1.1E1,3.1E1,1.8E1,1.2E1,5E0,6E0,2.8E1,3E0,6E0,1.2E1,6E0,6E0],"tree_param":{"num_deleted":"0","num_feature":"3","num_nodes":"15","size_leaf_vector":"1"}},{"base_weights":[-1.8268491E-3,1.0441407E-1,-1.4913435E-1,-5.3036227E-3,1.4229526E-1,-1.8029611E-1,-9.211837E-2,9.863455E-4,-9.363582E-4,1.7041335E-3,-9.7134645E-4,-1.170145E-3,-2.0050188E-3,2.1290821E-4,-1.9236777E-3],"categories":[],"categories_nodes":[],"categories_segments":[],"categories_sizes":[],"default_left":[0,0,0,0,0,0,0,0,0,0,0,0,0,0,0],"id":36,"left_children":[1,3,5,7,9,11,13,-1,-1,-1,-1,-1,-1,-1,-1],"loss_changes":[1.1580278E0,1.7947283E-1,3.8469672E-2,1.1940877E-1,2.31987E-1,8.328557E-4,1.5189533E-1,0E0,0E0,0E0,0E0,0E0,0E0,0E0,0E0],"parents":[2147483647,0,0,1,1,2,2,3,3,4,4,5,5,6,6],"right_children":[2,4,6,8,10,12,14,-1,-1,-1,-1,-1,-1,-1,-1],"split_conditions":[3.504E4,3E1,6E0,5.2142857E1,6E0,6E1,3.1536E6,9.863455E-4,-9.363582E-4,1.7041335E-3,-9.7134645E-4,-1.170145E-3,-2.0050188E-3,2.1290821E-4,-1.9236777E-3],"split_indices":[0,1,2,0,2,1,0,0,0,0,0,0,0,0,0],"split_type":[0,0,0,0,0,0,0,0,0,0,0,0,0,0,0],"sum_hessian":[7.2E1,4.2E1,3E1,1.1E1,3.1E1,1.8E1,1.2E1,5E0,6E0,2.8E1,3E0,6E0,1.2E1,6E0,6E0],"tree_param":{"num_deleted":"0","num_feature":"3","num_nodes":"15","size_leaf_vector":"1"}},{"base_weights":[-1.8647964E-3,1.03388116E-1,-1.4780061E-1,-5.246417E-3,1.4089519E-1,-1.8895536E-3,-1.0279345E-1,9.78126E-4,-9.283323E-4,1.6876794E-3,-9.640615E-4,-3.7496022E-4,-1.9071891E-3],"categories":[],"categories_nodes":[],"categories_segments":[],"categories_sizes":[],"default_left":[0,0,0,0,0,0,0,0,0,0,0,0,0],"id":37,"left_children":[1,3,5,7,9,-1,11,-1,-1,-1,-1,-1,-1],"loss_changes":[1.1365733E0,1.7594537E-1,3.799659E-2,1.1739959E-1,2.2792602E-1,0E0,9.0451E-2,0E0,0E0,0E0,0E0,0E0,0E0],"parents":[2147483647,0,0,1,1,2,2,3,3,4,4,6,6],"right_children":[2,4,6,8,10,-1,12,-1,-1,-1,-1,-1,-1],"split_conditions":[3.504E4,3E1,4E0,5.2142857E1,6E0,-1.8895536E-3,3.1536E6,9.78126E-4,-9.283323E-4,1.6876794E-3,-9.640615E-4,-3.7496022E-4,-1.9071891E-3],"split_indices":[0,1,2,0,2,0,0,0,0,0,0,0,0],"split_type":[0,0,0,0,0,0,0,0,0,0,0,0,0],"sum_hessian":[7.2E1,4.2E1,3E1,1.1E1,3.1E1,1.4E1,1.6E1,5E0,6E0,2.8E1,3E0,1E1,6E0],"tree_param":{"num_deleted":"0","num_feature":"3","num_nodes":"13","size_leaf_vector":"1"}},{"base_weights":[-1.8927049E-3,1.0237221E-1,-1.4645717E-1,-5.1897927E-3,1.3950883E-1,-1.7718902E-1,-9.027547E-2,9.69975E-4,-9.2037505E-4,1.6713844E-3,-9.568308E-4,-1.1460825E-3,-1.972564E-3,2.1429734E-4,-1.8908416E-3],"categories":[],"categories_nodes":[],"categories_segments":[],"categories_sizes":[],"default_left":[0,0,0,0,0,0,0,0,0,0,0,0,0,0,0],"id":38,"left_children":[1,3,5,7,9,11,13,-1,-1,-1,-1,-1,-1,-1,-1],"loss_changes":[1.1153222E0,1.7248705E-1,3.75278E-2,1.1542421E-1,2.2393668E-1,1.2536049E-3,1.4753881E-1,0E0,0E0,0E0,0E0,0E0,0E0,0E0,0E0],"parents":[2147483647,0,0,1,1,2,2,3,3,4,4,5,5,6,6],"right_children":[2,4,6,8,10,12,14,-1,-1,-1,-1,-1,-1,-1,-1],"split_conditions":[3.504E4,3E1,6E0,5.2142857E1,6E0,6E1,3.1536E6,9.69975E-4,-9.2037505E-4,1.6713844E-3,-9.568308E-4,-1.1460825E-3,-1.972564E-3,2.1429734E-4,-1.8908416E-3],"split_indices":[0,1,2,0,2,1,0,0,0,0,0,0,0,0,0],"split_type":[0,0,0,0,0,0,0,0,0,0,0,0,0,0,0],"sum_hessian":[7.2E1,4.2E1,3E1,1.1E1,3.1E1,1.8E1,1.2E1,5E0,6E0,2.8E1,3E0,6E0,1.2E1,6E0,6E0],"tree_param":{"num_deleted":"0","num_feature":"3","num_nodes":"15","size_leaf_vector":"1"}},{"base_weights":[-1.9289955E-3,1.0136627E-1,-1.451473E-1,-5.133757E-3,1.3813607E-1,-1.779263E-1,-9.263518E-2,9.618919E-4,-9.12486E-4,1.6552471E-3,-9.4965455E-4,-1.1362591E-3,-2.0060767E-3,1.9189585E-5,-1.8746344E-3],"categories":[],"categories_nodes":[],"categories_segments":[],"categories_sizes":[],"default_left":[0,0,0,0,0,0,0,0,0,0,0,0,0,0,0],"id":39,"left_children":[1,3,5,7,9,11,13,-1,-1,-1,-1,-1,-1,-1,-1],"loss_changes":[1.0946583E0,1.6909656E-1,3.687793E-2,1.1348206E-1,2.2001767E-1,3.457427E-3,1.258894E-1,0E0,0E0,0E0,0E0,0E0,0E0,0E0,0E0],"parents":[2147483647,0,0,1,1,2,2,3,3,4,4,5,5,6,6],"right_children":[2,4,6,8,10,12,14,-1,-1,-1,-1,-1,-1,-1,-1],"split_conditions":[3.504E4,3E1,1.0512E5,5.2142857E1,6E0,6E1,3.1536E6,9.618919E-4,-9.12486E-4,1.6552471E-3,-9.4965455E-4,-1.1362591E-3,-2.0060767E-3,1.9189585E-5,-1.8746344E-3],"split_indices":[0,1,0,0,2,1,0,0,0,0,0,0,0,0,0],"split_type":[0,0,0,0,0,0,0,0,0,0,0,0,0,0,0],"sum_hessian":[7.2E1,4.2E1,3E1,1.1E1,3.1E1,1.7E1,1.3E1,5E0,6E0,2.8E1,3E0,6E0,1.1E1,7E0,6E0],"tree_param":{"num_deleted":"0","num_feature":"3","num_nodes":"15","size_leaf_vector":"1"}},{"base_weights":[-1.9678152E-3,1.00370176E-1,-1.4385703E-1,-5.0783046E-3,1.3677679E-1,-1.8404381E-3,-9.993594E-2,9.5387606E-4,-9.046647E-4,1.6392656E-3,-9.4253226E-4,-3.6174047E-4,-1.8585662E-3],"categories":[],"categories_nodes":[],"categories_segments":[],"categories_sizes":[],"default_left":[0,0,0,0,0,0,0,0,0,0,0,0,0],"id":40,"left_children":[1,3,5,7,9,-1,11,-1,-1,-1,-1,-1,-1],"loss_changes":[1.074447E0,1.6577256E-1,3.6323905E-2,1.1157258E-1,2.1616775E-1,0E0,8.6410716E-2,0E0,0E0,0E0,0E0,0E0,0E0],"parents":[2147483647,0,0,1,1,2,2,3,3,4,4,6,6],"right_children":[2,4,6,8,10,-1,12,-1,-1,-1,-1,-1,-1],"split_conditions":[3.504E4,3E1,4E0,5.2142857E1,6E0,-1.8404381E-3,3.1536E6,9.5387606E-4,-9.046647E-4,1.6392656E-3,-9.4253226E-4,-3.6174047E-4,-1.8585662E-3],"split_indices":[0,1,2,0,2,0,0,0,0,0,0,0,0],"split_type":[0,0,0,0,0,0,0,0,0,0,0,0,0],"sum_hessian":[7.2E1,4.2E1,3E1,1.1E1,3.1E1,1.4E1,1.6E1,5E0,6E0,2.8E1,3E0,1E1,6E0],"tree_param":{"num_deleted":"0","num_feature":"3","num_nodes":"13","size_leaf_vector":"1"}},{"base_weights":[-1.9935372E-3,9.938383E-2,-1.4254946E-1,-5.023416E-3,1.3543081E-1,-1.7262977E-1,-8.762057E-2,9.4592705E-4,-8.969103E-4,1.6234382E-3,-9.354633E-4,-1.1128568E-3,-1.9238199E-3,2.1539655E-4,-1.8426357E-3],"categories":[],"categories_nodes":[],"categories_segments":[],"categories_sizes":[],"default_left":[0,0,0,0,0,0,0,0,0,0,0,0,0,0,0],"id":41,"left_children":[1,3,5,7,9,11,13,-1,-1,-1,-1,-1,-1,-1,-1],"loss_changes":[1.0543579E0,1.6251361E-1,3.6094785E-2,1.0969523E-1,2.1238565E-1,1.6125441E-3,1.411134E-1,0E0,0E0,0E0,0E0,0E0,0E0,0E0,0E0],"parents":[2147483647,0,0,1,1,2,2,3,3,4,4,5,5,6,6],"right_children":[2,4,6,8,10,12,14,-1,-1,-1,-1,-1,-1,-1,-1],"split_conditions":[3.504E4,3E1,6E0,5.2142857E1,6E0,6E1,3.1536E6,9.4592705E-4,-8.969103E-4,1.6234382E-3,-9.354633E-4,-1.1128568E-3,-1.9238199E-3,2.1539655E-4,-1.8426357E-3],"split_indices":[0,1,2,0,2,1,0,0,0,0,0,0,0,0,0],"split_type":[0,0,0,0,0,0,0,0,0,0,0,0,0,0,0],"sum_hessian":[7.2E1,4.2E1,3E1,1.1E1,3.1E1,1.8E1,1.2E1,5E0,6E0,2.8E1,3E0,6E0,1.2E1,6E0,6E0],"tree_param":{"num_deleted":"0","num_feature":"3","num_nodes":"15","size_leaf_vector":"1"}},{"base_weights":[-2.0274003E-3,9.840713E-2,-1.4127441E-1,-4.9691014E-3,1.34098E-1,-1.7106329E-1,-8.6869545E-2,9.3804434E-4,-8.892226E-4,1.6077636E-3,-9.2844723E-4,-1.1033181E-3,-1.9060614E-3,2.1355016E-4,-1.8268416E-3],"categories":[],"categories_nodes":[],"categories_segments":[],"categories_sizes":[],"default_left":[0,0,0,0,0,0,0,0,0,0,0,0,0,0,0],"id":42,"left_children":[1,3,5,7,9,11,13,-1,-1,-1,-1,-1,-1,-1,-1],"loss_changes":[1.0348226E0,1.5931854E-1,3.5380363E-2,1.0784951E-1,2.0867008E-1,1.5204549E-3,1.3870466E-1,0E0,0E0,0E0,0E0,0E0,0E0,0E0,0E0],"parents":[2147483647,0,0,1,1,2,2,3,3,4,4,5,5,6,6],"right_children":[2,4,6,8,10,12,14,-1,-1,-1,-1,-1,-1,-1,-1],"split_conditions":[3.504E4,3E1,6E0,5.2142857E1,6E0,6E1,3.1536E6,9.3804434E-4,-8.892226E-4,1.6077636E-3,-9.2844723E-4,-1.1033181E-3,-1.9060614E-3,2.1355016E-4,-1.8268416E-3],"split_indices":[0,1,2,0,2,1,0,0,0,0,0,0,0,0,0],"split_type":[0,0,0,0,0,0,0,0,0,0,0,0,0,0,0],"sum_hessian":[7.2E1,4.2E1,3E1,1.1E1,3.1E1,1.8E1,1.2E1,5E0,6E0,2.8E1,3E0,6E0,1.2E1,6E0,6E0],"tree_param":{"num_deleted":"0","num_feature":"3","num_nodes":"15","size_leaf_vector":"1"}},{"base_weights":[-2.0604818E-3,9.7439975E-2,-1.4001077E-1,-4.915353E-3,1.3277823E-1,-1.792894E-3,-9.7117245E-2,9.3022716E-4,-8.816007E-4,1.5922403E-3,-9.214838E-4,-3.4833193E-4,-1.8111829E-3],"categories":[],"categories_nodes":[],"categories_segments":[],"categories_sizes":[],"default_left":[0,0,0,0,0,0,0,0,0,0,0,0,0],"id":43,"left_children":[1,3,5,7,9,-1,11,-1,-1,-1,-1,-1,-1],"loss_changes":[1.0156492E0,1.5618613E-1,3.4816742E-2,1.06034815E-1,2.0501995E-1,0E0,8.263381E-2,0E0,0E0,0E0,0E0,0E0,0E0],"parents":[2147483647,0,0,1,1,2,2,3,3,4,4,6,6],"right_children":[2,4,6,8,10,-1,12,-1,-1,-1,-1,-1,-1],"split_conditions":[3.504E4,3E1,4E0,5.2142857E1,6E0,-1.792894E-3,3.1536E6,9.3022716E-4,-8.816007E-4,1.5922403E-3,-9.214838E-4,-3.4833193E-4,-1.8111829E-3],"split_indices":[0,1,2,0,2,0,0,0,0,0,0,0,0],"split_type":[0,0,0,0,0,0,0,0,0,0,0,0,0],"sum_hessian":[7.2E1,4.2E1,3E1,1.1E1,3.1E1,1.4E1,1.6E1,5E0,6E0,2.8E1,3E0,1E1,6E0],"tree_param":{"num_deleted":"0","num_feature":"3","num_nodes":"13","size_leaf_vector":"1"}},{"base_weights":[-2.0841553E-3,9.648232E-2,-1.3873817E-1,-4.8621506E-3,1.3147143E-1,-1.6811663E-1,-8.5128255E-2,9.2247507E-4,-8.740441E-4,1.5768671E-3,-9.145726E-4,-1.080557E-3,-1.8752507E-3,2.147053E-4,-1.7956586E-3],"categories":[],"categories_nodes":[],"categories_segments":[],"categories_sizes":[],"default_left":[0,0,0,0,0,0,0,0,0,0,0,0,0,0,0],"id":44,"left_children":[1,3,5,7,9,11,13,-1,-1,-1,-1,-1,-1,-1,-1],"loss_changes":[9.9665964E-1,1.5311518E-1,3.4512818E-2,1.04250655E-1,2.0143402E-1,1.8849373E-3,1.3472551E-1,0E0,0E0,0E0,0E0,0E0,0E0,0E0,0E0],"parents":[2147483647,0,0,1,1,2,2,3,3,4,4,5,5,6,6],"right_children":[2,4,6,8,10,12,14,-1,-1,-1,-1,-1,-1,-1,-1],"split_conditions":[3.504E4,3E1,6E0,5.2142857E1,6E0,6E1,3.1536E6,9.2247507E-4,-8.740441E-4,1.5768671E-3,-9.145726E-4,-1.080557E-3,-1.8752507E-3,2.147053E-4,-1.7956586E-3],"split_indices":[0,1,2,0,2,1,0,0,0,0,0,0,0,0,0],"split_type":[0,0,0,0,0,0,0,0,0,0,0,0,0,0,0],"sum_hessian":[7.2E1,4.2E1,3E1,1.1E1,3.1E1,1.8E1,1.2E1,5E0,6E0,2.8E1,3E0,6E0,1.2E1,6E0,6E0],"tree_param":{"num_deleted":"0","num_feature":"3","num_nodes":"15","size_leaf_vector":"1"}},{"base_weights":[-2.115718E-3,9.553404E-2,-1.3749713E-1,-4.809505E-3,1.3017744E-1,-1.6659103E-1,-8.439858E-2,9.147876E-4,-8.665523E-4,1.5616424E-3,-9.077133E-4,-1.0712952E-3,-1.8579407E-3,2.1286504E-4,-1.7802672E-3],"categories":[],"categories_nodes":[],"categories_segments":[],"categories_sizes":[],"default_left":[0,0,0,0,0,0,0,0,0,0,0,0,0,0,0],"id":45,"left_children":[1,3,5,7,9,11,13,-1,-1,-1,-1,-1,-1,-1,-1],"loss_changes":[9.781929E-1,1.5010443E-1,3.3830166E-2,1.02496505E-1,1.9791138E-1,1.7910004E-3,1.3242583E-1,0E0,0E0,0E0,0E0,0E0,0E0,0E0,0E0],"parents":[2147483647,0,0,1,1,2,2,3,3,4,4,5,5,6,6],"right_children":[2,4,6,8,10,12,14,-1,-1,-1,-1,-1,-1,-1,-1],"split_conditions":[3.504E4,3E1,6E0,5.2142857E1,6E0,6E1,3.1536E6,9.147876E-4,-8.665523E-4,1.5616424E-3,-9.077133E-4,-1.0712952E-3,-1.8579407E-3,2.1286504E-4,-1.7802672E-3],"split_indices":[0,1,2,0,2,1,0,0,0,0,0,0,0,0,0],"split_type":[0,0,0,0,0,0,0,0,0,0,0,0,0,0,0],"sum_hessian":[7.2E1,4.2E1,3E1,1.1E1,3.1E1,1.8E1,1.2E1,5E0,6E0,2.8E1,3E0,6E0,1.2E1,6E0,6E0],"tree_param":{"num_deleted":"0","num_feature":"3","num_nodes":"15","size_leaf_vector":"1"}},{"base_weights":[-2.1465411E-3,9.459503E-2,-1.3626722E-1,-4.7573955E-3,1.2889609E-1,-1.7465883E-1,-9.437655E-2,9.071641E-4,-8.5912464E-4,1.5465645E-3,-9.009054E-4,-1.0894476E-3,-1.9662138E-3,-3.3535986E-4,-1.7650077E-3],"categories":[],"categories_nodes":[],"categories_segments":[],"categories_sizes":[],"default_left":[0,0,0,0,0,0,0,0,0,0,0,0,0,0,0],"id":46,"left_children":[1,3,5,7,9,11,13,-1,-1,-1,-1,-1,-1,-1,-1],"loss_changes":[9.600685E-1,1.4715266E-1,3.3371985E-2,1.00771874E-1,1.9445068E-1,2.2786856E-4,7.902111E-2,0E0,0E0,0E0,0E0,0E0,0E0,0E0,0E0],"parents":[2147483647,0,0,1,1,2,2,3,3,4,4,5,5,6,6],"right_children":[2,4,6,8,10,12,14,-1,-1,-1,-1,-1,-1,-1,-1],"split_conditions":[3.504E4,3E1,4E0,5.2142857E1,6E0,6E1,3.1536E6,9.071641E-4,-8.5912464E-4,1.5465645E-3,-9.009054E-4,-1.0894476E-3,-1.9662138E-3,-3.3535986E-4,-1.7650077E-3],"split_indices":[0,1,2,0,2,1,0,0,0,0,0,0,0,0,0],"split_type":[0,0,0,0,0,0,0,0,0,0,0,0,0,0,0],"sum_hessian":[7.2E1,4.2E1,3E1,1.1E1,3.1E1,1.4E1,1.6E1,5E0,6E0,2.8E1,3E0,5E0,9E0,1E1,6E0],"tree_param":{"num_deleted":"0","num_feature":"3","num_nodes":"15","size_leaf_vector":"1"}},{"base_weights":[-2.1862043E-3,9.3665205E-2,-1.3507086E-1,-4.705833E-3,1.2762731E-1,-1.6379063E-1,-8.2705766E-2,8.996043E-4,-8.517608E-4,1.5316323E-3,-8.941488E-4,-1.0538517E-3,-1.8264045E-3,2.1391494E-4,-1.7498791E-3],"categories":[],"categories_nodes":[],"categories_segments":[],"categories_sizes":[],"default_left":[0,0,0,0,0,0,0,0,0,0,0,0,0,0,0],"id":47,"left_children":[1,3,5,7,9,11,13,-1,-1,-1,-1,-1,-1,-1,-1],"loss_changes":[9.424658E-1,1.4425874E-1,3.3074856E-2,9.907629E-2,1.9105089E-1,1.6701221E-3,1.286254E-1,0E0,0E0,0E0,0E0,0E0,0E0,0E0,0E0],"parents":[2147483647,0,0,1,1,2,2,3,3,4,4,5,5,6,6],"right_children":[2,4,6,8,10,12,14,-1,-1,-1,-1,-1,-1,-1,-1],"split_conditions":[3.504E4,3E1,6E0,5.2142857E1,6E0,6E1,3.1536E6,8.996043E-4,-8.517608E-4,1.5316323E-3,-8.941488E-4,-1.0538517E-3,-1.8264045E-3,2.1391494E-4,-1.7498791E-3],"split_indices":[0,1,2,0,2,1,0,0,0,0,0,0,0,0,0],"split_type":[0,0,0,0,0,0,0,0,0,0,0,0,0,0,0],"sum_hessian":[7.2E1,4.2E1,3E1,1.1E1,3.1E1,1.8E1,1.2E1,5E0,6E0,2.8E1,3E0,6E0,1.2E1,6E0,6E0],"tree_param":{"num_deleted":"0","num_feature":"3","num_nodes":"15","size_leaf_vector":"1"}},{"base_weights":[-2.2154641E-3,9.274448E-2,-1.3386261E-1,-4.6547963E-3,1.2637094E-1,-1.644904E-1,-8.492243E-2,8.9210755E-4,-8.444601E-4,1.5168437E-3,-8.874425E-4,-1.0448188E-3,-1.8578782E-3,3.187755E-5,-1.7348801E-3],"categories":[],"categories_nodes":[],"categories_segments":[],"categories_sizes":[],"default_left":[0,0,0,0,0,0,0,0,0,0,0,0,0,0,0],"id":48,"left_children":[1,3,5,7,9,11,13,-1,-1,-1,-1,-1,-1,-1,-1],"loss_changes":[9.25003E-1,1.4142153E-1,3.2497942E-2,9.7409256E-2,1.8771094E-1,3.5930276E-3,1.0980247E-1,0E0,0E0,0E0,0E0,0E0,0E0,0E0,0E0],"parents":[2147483647,0,0,1,1,2,2,3,3,4,4,5,5,6,6],"right_children":[2,4,6,8,10,12,14,-1,-1,-1,-1,-1,-1,-1,-1],"split_conditions":[3.504E4,3E1,1.0512E5,5.2142857E1,6E0,6E1,3.1536E6,8.9210755E-4,-8.444601E-4,1.5168437E-3,-8.874425E-4,-1.0448188E-3,-1.8578782E-3,3.187755E-5,-1.7348801E-3],"split_indices":[0,1,0,0,2,1,0,0,0,0,0,0,0,0,0],"split_type":[0,0,0,0,0,0,0,0,0,0,0,0,0,0,0],"sum_hessian":[7.2E1,4.2E1,3E1,1.1E1,3.1E1,1.7E1,1.3E1,5E0,6E0,2.8E1,3E0,6E0,1.1E1,7E0,6E0],"tree_param":{"num_deleted":"0","num_feature":"3","num_nodes":"15","size_leaf_vector":"1"}},{"base_weights":[-2.247119E-3,9.183279E-2,-1.3267256E-1,-4.6042814E-3,1.2512691E-1,-1.7020583E-1,-9.175072E-2,8.846733E-4,-8.37222E-4,1.5021985E-3,-8.807866E-4,-1.0628802E-3,-1.9153593E-3,-3.2341393E-4,-1.7200097E-3],"categories":[],"categories_nodes":[],"categories_segments":[],"categories_sizes":[],"default_left":[0,0,0,0,0,0,0,0,0,0,0,0,0,0,0],"id":49,"left_children":[1,3,5,7,9,11,13,-1,-1,-1,-1,-1,-1,-1,-1],"loss_changes":[9.07924E-1,1.3863999E-1,3.1997323E-2,9.577027E-2,1.8442982E-1,9.262562E-5,7.548669E-2,0E0,0E0,0E0,0E0,0E0,0E0,0E0,0E0],"parents":[2147483647,0,0,1,1,2,2,3,3,4,4,5,5,6,6],"right_children":[2,4,6,8,10,12,14,-1,-1,-1,-1,-1,-1,-1,-1],"split_conditions":[3.504E4,3E1,4E0,5.2142857E1,6E0,6E1,3.1536E6,8.846733E-4,-8.37222E-4,1.5021985E-3,-8.807866E-4,-1.0628802E-3,-1.9153593E-3,-3.2341393E-4,-1.7200097E-3],"split_indices":[0,1,2,0,2,1,0,0,0,0,0,0,0,0,0],"split_type":[0,0,0,0,0,0,0,0,0,0,0,0,0,0,0],"sum_hessian":[7.2E1,4.2E1,3E1,1.1E1,3.1E1,1.4E1,1.6E1,5E0,6E0,2.8E1,3E0,5E0,9E0,1E1,6E0],"tree_param":{"num_deleted":"0","num_feature":"3","num_nodes":"15","size_leaf_vector":"1"}},{"base_weights":[-2.2842793E-3,9.093001E-2,-1.3150783E-1,-4.554268E-3,1.2389505E-1,-1.5964538E-1,-8.026774E-2,8.773012E-4,-8.300456E-4,1.4876944E-3,-8.7418075E-4,-1.0278093E-3,-1.7798428E-3,2.1458013E-4,-1.7052668E-3],"categories":[],"categories_nodes":[],"categories_segments":[],"categories_sizes":[],"default_left":[0,0,0,0,0,0,0,0,0,0,0,0,0,0,0],"id":50,"left_children":[1,3,5,7,9,11,13,-1,-1,-1,-1,-1,-1,-1,-1],"loss_changes":[8.912781E-1,1.3591293E-1,3.1880498E-2,9.415886E-2,1.8120635E-1,1.5204549E-3,1.2302073E-1,0E0,0E0,0E0,0E0,0E0,0E0,0E0,0E0],"parents":[2147483647,0,0,1,1,2,2,3,3,4,4,5,5,6,6],"right_children":[2,4,6,8,10,12,14,-1,-1,-1,-1,-1,-1,-1,-1],"split_conditions":[3.504E4,3E1,6E0,5.2142857E1,6E0,6E1,3.1536E6,8.773012E-4,-8.300456E-4,1.4876944E-3,-8.7418075E-4,-1.0278093E-3,-1.7798428E-3,2.1458013E-4,-1.7052668E-3],"split_indices":[0,1,2,0,2,1,0,0,0,0,0,0,0,0,0],"split_type":[0,0,0,0,0,0,0,0,0,0,0,0,0,0,0],"sum_hessian":[7.2E1,4.2E1,3E1,1.1E1,3.1E1,1.8E1,1.2E1,5E0,6E0,2.8E1,3E0,6E0,1.2E1,6E0,6E0],"tree_param":{"num_deleted":"0","num_feature":"3","num_nodes":"15","size_leaf_vector":"1"}},{"base_weights":[-2.3112553E-3,9.0036094E-2,-1.303314E-1,-4.504791E-3,1.2267529E-1,-1.5819669E-1,-7.957974E-2,8.699902E-4,-8.229309E-4,1.4733307E-3,-8.676244E-4,-1.0189994E-3,-1.7634133E-3,2.127409E-4,-1.6906502E-3],"categories":[],"categories_nodes":[],"categories_segments":[],"categories_sizes":[],"default_left":[0,0,0,0,0,0,0,0,0,0,0,0,0,0,0],"id":51,"left_children":[1,3,5,7,9,11,13,-1,-1,-1,-1,-1,-1,-1,-1],"loss_changes":[8.74764E-1,1.3323939E-1,3.1251192E-2,9.257454E-2,1.7803964E-1,1.4390349E-3,1.2092084E-1,0E0,0E0,0E0,0E0,0E0,0E0,0E0,0E0],"parents":[2147483647,0,0,1,1,2,2,3,3,4,4,5,5,6,6],"right_children":[2,4,6,8,10,12,14,-1,-1,-1,-1,-1,-1,-1,-1],"split_conditions":[3.504E4,3E1,6E0,5.2142857E1,6E0,6E1,3.1536E6,8.699902E-4,-8.229309E-4,1.4733307E-3,-8.676244E-4,-1.0189994E-3,-1.7634133E-3,2.127409E-4,-1.6906502E-3],"split_indices":[0,1,2,0,2,1,0,0,0,0,0,0,0,0,0],"split_type":[0,0,0,0,0,0,0,0,0,0,0,0,0,0,0],"sum_hessian":[7.2E1,4.2E1,3E1,1.1E1,3.1E1,1.8E1,1.2E1,5E0,6E0,2.8E1,3E0,6E0,1.2E1,6E0,6E0],"tree_param":{"num_deleted":"0","num_feature":"3","num_nodes":"15","size_leaf_vector":"1"}},{"base_weights":[-2.337552E-3,8.915093E-2,-1.2916552E-1,-4.455821E-3,1.2146749E-1,-1.6589409E-3,-8.915998E-2,8.6274033E-4,-8.158772E-4,1.4591058E-3,-8.611171E-4,-3.1128037E-4,-1.676159E-3],"categories":[],"categories_nodes":[],"categories_segments":[],"categories_sizes":[],"default_left":[0,0,0,0,0,0,0,0,0,0,0,0,0],"id":52,"left_children":[1,3,5,7,9,-1,11,-1,-1,-1,-1,-1,-1],"loss_changes":[8.585559E-1,1.306183E-1,3.075862E-2,9.101689E-2,1.7492855E-1,0E0,7.2182596E-2,0E0,0E0,0E0,0E0,0E0,0E0],"parents":[2147483647,0,0,1,1,2,2,3,3,4,4,6,6],"right_children":[2,4,6,8,10,-1,12,-1,-1,-1,-1,-1,-1],"split_conditions":[3.504E4,3E1,4E0,5.2142857E1,6E0,-1.6589409E-3,3.1536E6,8.6274033E-4,-8.158772E-4,1.4591058E-3,-8.611171E-4,-3.1128037E-4,-1.676159E-3],"split_indices":[0,1,2,0,2,0,0,0,0,0,0,0,0],"split_type":[0,0,0,0,0,0,0,0,0,0,0,0,0],"sum_hessian":[7.2E1,4.2E1,3E1,1.1E1,3.1E1,1.4E1,1.6E1,5E0,6E0,2.8E1,3E0,1E1,6E0],"tree_param":{"num_deleted":"0","num_feature":"3","num_nodes":"13","size_leaf_vector":"1"}},{"base_weights":[-2.3552962E-3,8.8274404E-2,-1.2799148E-1,-4.4073523E-3,1.2027149E-1,-1.5547325E-1,-7.798033E-2,8.55551E-4,-8.0888404E-4,1.4450175E-3,-8.546588E-4,-9.979708E-4,-1.7349323E-3,2.1358566E-4,-1.6617918E-3],"categories":[],"categories_nodes":[],"categories_segments":[],"categories_sizes":[],"default_left":[0,0,0,0,0,0,0,0,0,0,0,0,0,0,0],"id":53,"left_children":[1,3,5,7,9,11,13,-1,-1,-1,-1,-1,-1,-1,-1],"loss_changes":[8.4250337E-1,1.2804854E-1,3.0482352E-2,8.94855E-2,1.7187229E-1,1.7483234E-3,1.17449835E-1,0E0,0E0,0E0,0E0,0E0,0E0,0E0,0E0],"parents":[2147483647,0,0,1,1,2,2,3,3,4,4,5,5,6,6],"right_children":[2,4,6,8,10,12,14,-1,-1,-1,-1,-1,-1,-1,-1],"split_conditions":[3.504E4,3E1,6E0,5.2142857E1,6E0,6E1,3.1536E6,8.55551E-4,-8.0888404E-4,1.4450175E-3,-8.546588E-4,-9.979708E-4,-1.7349323E-3,2.1358566E-4,-1.6617918E-3],"split_indices":[0,1,2,0,2,1,0,0,0,0,0,0,0,0,0],"split_type":[0,0,0,0,0,0,0,0,0,0,0,0,0,0,0],"sum_hessian":[7.2E1,4.2E1,3E1,1.1E1,3.1E1,1.8E1,1.2E1,5E0,6E0,2.8E1,3E0,6E0,1.2E1,6E0,6E0],"tree_param":{"num_deleted":"0","num_feature":"3","num_nodes":"15","size_leaf_vector":"1"}},{"base_weights":[-2.3802842E-3,8.7406486E-2,-1.2684645E-1,-4.3593906E-3,1.1908724E-1,-1.5406235E-1,-7.731194E-2,8.484213E-4,-8.019507E-4,1.431066E-3,-8.482487E-4,-9.894168E-4,-1.7189174E-3,2.1175487E-4,-1.6475479E-3],"categories":[],"categories_nodes":[],"categories_segments":[],"categories_sizes":[],"default_left":[0,0,0,0,0,0,0,0,0,0,0,0,0,0,0],"id":54,"left_children":[1,3,5,7,9,11,13,-1,-1,-1,-1,-1,-1,-1,-1],"loss_changes":[8.268925E-1,1.2552929E-1,2.988109E-2,8.797981E-2,1.6886976E-1,1.665324E-3,1.1544506E-1,0E0,0E0,0E0,0E0,0E0,0E0,0E0,0E0],"parents":[2147483647,0,0,1,1,2,2,3,3,4,4,5,5,6,6],"right_children":[2,4,6,8,10,12,14,-1,-1,-1,-1,-1,-1,-1,-1],"split_conditions":[3.504E4,3E1,6E0,5.2142857E1,6E0,6E1,3.1536E6,8.484213E-4,-8.019507E-4,1.431066E-3,-8.482487E-4,-9.894168E-4,-1.7189174E-3,2.1175487E-4,-1.6475479E-3],"split_indices":[0,1,2,0,2,1,0,0,0,0,0,0,0,0,0],"split_type":[0,0,0,0,0,0,0,0,0,0,0,0,0,0,0],"sum_hessian":[7.2E1,4.2E1,3E1,1.1E1,3.1E1,1.8E1,1.2E1,5E0,6E0,2.8E1,3E0,6E0,1.2E1,6E0,6E0],"tree_param":{"num_deleted":"0","num_feature":"3","num_nodes":"15","size_leaf_vector":"1"}},{"base_weights":[-2.4046223E-3,8.654708E-2,-1.2571166E-1,2.7303718E-2,1.3687591E-1,-1.6161098E-1,-8.664099E-2,-9.1628946E-4,8.098538E-4,1.7424504E-3,-8.4188685E-4,-1.0065801E-3,-1.8202165E-3,-2.9954425E-4,-1.633426E-3],"categories":[],"categories_nodes":[],"categories_segments":[],"categories_sizes":[],"default_left":[0,0,0,0,0,0,0,0,0,0,0,0,0,0,0],"id":55,"left_children":[1,3,5,7,9,11,13,-1,-1,-1,-1,-1,-1,-1,-1],"loss_changes":[8.11571E-1,1.2447372E-1,2.9478759E-2,1.4149517E-1,2.0467225E-1,3.3941865E-4,6.902234E-2,0E0,0E0,0E0,0E0,0E0,0E0,0E0,0E0],"parents":[2147483647,0,0,1,1,2,2,3,3,4,4,5,5,6,6],"right_children":[2,4,6,8,10,12,14,-1,-1,-1,-1,-1,-1,-1,-1],"split_conditions":[3.504E4,8.76E3,4E0,2E0,6E0,6E1,3.1536E6,-9.1628946E-4,8.098538E-4,1.7424504E-3,-8.4188685E-4,-1.0065801E-3,-1.8202165E-3,-2.9954425E-4,-1.633426E-3],"split_indices":[0,0,2,2,2,1,0,0,0,0,0,0,0,0,0],"split_type":[0,0,0,0,0,0,0,0,0,0,0,0,0,0,0],"sum_hessian":[7.2E1,4.2E1,3E1,2E1,2.2E1,1.4E1,1.6E1,6E0,1.4E1,1.9E1,3E0,5E0,9E0,1E1,6E0],"tree_param":{"num_deleted":"0","num_feature":"3","num_nodes":"15","size_leaf_vector":"1"}},{"base_weights":[-2.4348916E-3,8.570009E-2,-1.2460809E-1,2.702562E-2,1.3554634E-1,-1.5147412E-1,-7.575711E-2,-9.0843544E-4,8.0229517E-4,1.7258973E-3,-8.355726E-4,-9.7331847E-4,-1.6897579E-3,2.1250741E-4,-1.6194251E-3],"categories":[],"categories_nodes":[],"categories_segments":[],"categories_sizes":[],"default_left":[0,0,0,0,0,0,0,0,0,0,0,0,0,0,0],"id":56,"left_children":[1,3,5,7,9,11,13,-1,-1,-1,-1,-1,-1,-1,-1],"loss_changes":[7.967234E-1,1.2209895E-1,2.921018E-2,1.3898143E-1,2.0109704E-1,1.5573204E-3,1.1213E-1,0E0,0E0,0E0,0E0,0E0,0E0,0E0,0E0],"parents":[2147483647,0,0,1,1,2,2,3,3,4,4,5,5,6,6],"right_children":[2,4,6,8,10,12,14,-1,-1,-1,-1,-1,-1,-1,-1],"split_conditions":[3.504E4,8.76E3,6E0,2E0,6E0,6E1,3.1536E6,-9.0843544E-4,8.0229517E-4,1.7258973E-3,-8.355726E-4,-9.7331847E-4,-1.6897579E-3,2.1250741E-4,-1.6194251E-3],"split_indices":[0,0,2,2,2,1,0,0,0,0,0,0,0,0,0],"split_type":[0,0,0,0,0,0,0,0,0,0,0,0,0,0,0],"sum_hessian":[7.2E1,4.2E1,3E1,2E1,2.2E1,1.8E1,1.2E1,6E0,1.4E1,1.9E1,3E0,6E0,1.2E1,6E0,6E0],"tree_param":{"num_deleted":"0","num_feature":"3","num_nodes":"15","size_leaf_vector":"1"}},{"base_weights":[-2.455556E-3,8.4861316E-2,-1.234933E-1,2.6750317E-2,1.3422957E-1,-1.5214032E-1,-7.784048E-2,-9.006489E-4,7.948072E-4,1.7095011E-3,-8.293059E-4,-9.649758E-4,-1.719202E-3,4.2643005E-5,-1.6055444E-3],"categories":[],"categories_nodes":[],"categories_segments":[],"categories_sizes":[],"default_left":[0,0,0,0,0,0,0,0,0,0,0,0,0,0,0],"id":57,"left_children":[1,3,5,7,9,11,13,-1,-1,-1,-1,-1,-1,-1,-1],"loss_changes":[7.8199035E-1,1.19769394E-1,2.8699666E-2,1.3651241E-1,1.9758454E-1,3.2210648E-3,9.576162E-2,0E0,0E0,0E0,0E0,0E0,0E0,0E0,0E0],"parents":[2147483647,0,0,1,1,2,2,3,3,4,4,5,5,6,6],"right_children":[2,4,6,8,10,12,14,-1,-1,-1,-1,-1,-1,-1,-1],"split_conditions":[3.504E4,8.76E3,1.0512E5,2E0,6E0,6E1,3.1536E6,-9.006489E-4,7.948072E-4,1.7095011E-3,-8.293059E-4,-9.649758E-4,-1.719202E-3,4.2643005E-5,-1.6055444E-3],"split_indices":[0,0,0,2,2,1,0,0,0,0,0,0,0,0,0],"split_type":[0,0,0,0,0,0,0,0,0,0,0,0,0,0,0],"sum_hessian":[7.2E1,4.2E1,3E1,2E1,2.2E1,1.7E1,1.3E1,6E0,1.4E1,1.9E1,3E0,6E0,1.1E1,7E0,6E0],"tree_param":{"num_deleted":"0","num_feature":"3","num_nodes":"15","size_leaf_vector":"1"}},{"base_weights":[-2.478581E-3,8.40307E-2,-1.22395374E-1,2.6477762E-2,1.3292553E-1,-1.5749185E-1,-8.422816E-2,-8.9292903E-4,7.873889E-4,1.6932607E-3,-8.23086E-4,-9.820396E-4,-1.7731539E-3,-2.8875537E-4,-1.5917826E-3],"categories":[],"categories_nodes":[],"categories_segments":[],"categories_sizes":[],"default_left":[0,0,0,0,0,0,0,0,0,0,0,0,0,0,0],"id":58,"left_children":[1,3,5,7,9,11,13,-1,-1,-1,-1,-1,-1,-1,-1],"loss_changes":[7.6758075E-1,1.1748421E-1,2.826035E-2,1.3408725E-1,1.9413367E-1,2.1636486E-4,6.5931275E-2,0E0,0E0,0E0,0E0,0E0,0E0,0E0,0E0],"parents":[2147483647,0,0,1,1,2,2,3,3,4,4,5,5,6,6],"right_children":[2,4,6,8,10,12,14,-1,-1,-1,-1,-1,-1,-1,-1],"split_conditions":[3.504E4,8.76E3,4E0,2E0,6E0,6E1,3.1536E6,-8.9292903E-4,7.873889E-4,1.6932607E-3,-8.23086E-4,-9.820396E-4,-1.7731539E-3,-2.8875537E-4,-1.5917826E-3],"split_indices":[0,0,2,2,2,1,0,0,0,0,0,0,0,0,0],"split_type":[0,0,0,0,0,0,0,0,0,0,0,0,0,0,0],"sum_hessian":[7.2E1,4.2E1,3E1,2E1,2.2E1,1.4E1,1.6E1,6E0,1.4E1,1.9E1,3E0,5E0,9E0,1E1,6E0],"tree_param":{"num_deleted":"0","num_feature":"3","num_nodes":"15","size_leaf_vector":"1"}},{"base_weights":[-2.5068193E-3,8.320819E-2,-1.2132096E-1,2.6207969E-2,1.3163412E-1,-1.476426E-1,-7.35185E-2,-8.852753E-4,7.8004E-4,1.6771748E-3,-8.169129E-4,-9.492775E-4,-1.6467039E-3,2.127953E-4,-1.5781387E-3],"categories":[],"categories_nodes":[],"categories_segments":[],"categories_sizes":[],"default_left":[0,0,0,0,0,0,0,0,0,0,0,0,0,0,0],"id":59,"left_children":[1,3,5,7,9,11,13,-1,-1,-1,-1,-1,-1,-1,-1],"loss_changes":[7.535382E-1,1.1524251E-1,2.8150976E-2,1.3170522E-1,1.9074357E-1,1.4229417E-3,1.0724168E-1,0E0,0E0,0E0,0E0,0E0,0E0,0E0,0E0],"parents":[2147483647,0,0,1,1,2,2,3,3,4,4,5,5,6,6],"right_children":[2,4,6,8,10,12,14,-1,-1,-1,-1,-1,-1,-1,-1],"split_conditions":[3.504E4,8.76E3,6E0,2E0,6E0,6E1,3.1536E6,-8.852753E-4,7.8004E-4,1.6771748E-3,-8.169129E-4,-9.492775E-4,-1.6467039E-3,2.127953E-4,-1.5781387E-3],"split_indices":[0,0,2,2,2,1,0,0,0,0,0,0,0,0,0],"split_type":[0,0,0,0,0,0,0,0,0,0,0,0,0,0,0],"sum_hessian":[7.2E1,4.2E1,3E1,2E1,2.2E1,1.8E1,1.2E1,6E0,1.4E1,1.9E1,3E0,6E0,1.2E1,6E0,6E0],"tree_param":{"num_deleted":"0","num_feature":"3","num_nodes":"15","size_leaf_vector":"1"}},{"base_weights":[-2.5256702E-3,8.239367E-2,-1.2023554E-1,2.594087E-2,1.303552E-1,-1.463028E-1,-7.288833E-2,-8.7768724E-4,7.727596E-4,1.6612419E-3,-8.1078615E-4,-9.41141E-4,-1.6315035E-3,2.109714E-4,-1.5646118E-3],"categories":[],"categories_nodes":[],"categories_segments":[],"categories_sizes":[],"default_left":[0,0,0,0,0,0,0,0,0,0,0,0,0,0,0],"id":60,"left_children":[1,3,5,7,9,11,13,-1,-1,-1,-1,-1,-1,-1,-1],"loss_changes":[7.396032E-1,1.13043636E-1,2.7596831E-2,1.2936556E-1,1.8741298E-1,1.3510287E-3,1.0541112E-1,0E0,0E0,0E0,0E0,0E0,0E0,0E0,0E0],"parents":[2147483647,0,0,1,1,2,2,3,3,4,4,5,5,6,6],"right_children":[2,4,6,8,10,12,14,-1,-1,-1,-1,-1,-1,-1,-1],"split_conditions":[3.504E4,8.76E3,6E0,2E0,6E0,6E1,3.1536E6,-8.7768724E-4,7.727596E-4,1.6612419E-3,-8.1078615E-4,-9.41141E-4,-1.6315035E-3,2.109714E-4,-1.5646118E-3],"split_indices":[0,0,2,2,2,1,0,0,0,0,0,0,0,0,0],"split_type":[0,0,0,0,0,0,0,0,0,0,0,0,0,0,0],"sum_hessian":[7.2E1,4.2E1,3E1,2E1,2.2E1,1.8E1,1.2E1,6E0,1.4E1,1.9E1,3E0,6E0,1.2E1,6E0,6E0],"tree_param":{"num_deleted":"0","num_feature":"3","num_nodes":"15","size_leaf_vector":"1"}},{"base_weights":[-2.5439905E-3,8.158706E-2,-1.1915984E-1,2.5676453E-2,1.2908861E-1,-1.5350357E-1,-8.1847146E-2,-8.701643E-4,7.6554704E-4,1.6454601E-3,-8.047053E-4,-9.5810264E-4,-1.7276919E-3,-2.7778267E-4,-1.5512008E-3],"categories":[],"categories_nodes":[],"categories_segments":[],"categories_sizes":[],"default_left":[0,0,0,0,0,0,0,0,0,0,0,0,0,0,0],"id":61,"left_children":[1,3,5,7,9,11,13,-1,-1,-1,-1,-1,-1,-1,-1],"loss_changes":[7.259259E-1,1.108866E-1,2.716133E-2,1.2706746E-1,1.8414086E-1,1.193881E-4,6.3041374E-2,0E0,0E0,0E0,0E0,0E0,0E0,0E0,0E0],"parents":[2147483647,0,0,1,1,2,2,3,3,4,4,5,5,6,6],"right_children":[2,4,6,8,10,12,14,-1,-1,-1,-1,-1,-1,-1,-1],"split_conditions":[3.504E4,8.76E3,4E0,2E0,6E0,6E1,3.1536E6,-8.701643E-4,7.6554704E-4,1.6454601E-3,-8.047053E-4,-9.5810264E-4,-1.7276919E-3,-2.7778267E-4,-1.5512008E-3],"split_indices":[0,0,2,2,2,1,0,0,0,0,0,0,0,0,0],"split_type":[0,0,0,0,0,0,0,0,0,0,0,0,0,0,0],"sum_hessian":[7.2E1,4.2E1,3E1,2E1,2.2E1,1.4E1,1.6E1,6E0,1.4E1,1.9E1,3E0,5E0,9E0,1E1,6E0],"tree_param":{"num_deleted":"0","num_feature":"3","num_nodes":"15","size_leaf_vector":"1"}},{"base_weights":[-2.570308E-3,8.0788314E-2,-1.1811387E-1,2.5414702E-2,1.2783429E-1,-1.4384618E-1,-7.141941E-2,-8.6270575E-4,7.584018E-4,1.6298284E-3,-7.9867017E-4,-9.2583365E-4,-1.6038415E-3,2.1154413E-4,-1.5379046E-3],"categories":[],"categories_nodes":[],"categories_segments":[],"categories_sizes":[],"default_left":[0,0,0,0,0,0,0,0,0,0,0,0,0,0,0],"id":62,"left_children":[1,3,5,7,9,11,13,-1,-1,-1,-1,-1,-1,-1,-1],"loss_changes":[7.126456E-1,1.0877067E-1,2.6974827E-2,1.2481025E-1,1.8092614E-1,1.2589693E-3,1.023836E-1,0E0,0E0,0E0,0E0,0E0,0E0,0E0,0E0],"parents":[2147483647,0,0,1,1,2,2,3,3,4,4,5,5,6,6],"right_children":[2,4,6,8,10,12,14,-1,-1,-1,-1,-1,-1,-1,-1],"split_conditions":[3.504E4,8.76E3,6E0,2E0,6E0,6E1,3.1536E6,-8.6270575E-4,7.584018E-4,1.6298284E-3,-7.9867017E-4,-9.2583365E-4,-1.6038415E-3,2.1154413E-4,-1.5379046E-3],"split_indices":[0,0,2,2,2,1,0,0,0,0,0,0,0,0,0],"split_type":[0,0,0,0,0,0,0,0,0,0,0,0,0,0,0],"sum_hessian":[7.2E1,4.2E1,3E1,2E1,2.2E1,1.8E1,1.2E1,6E0,1.4E1,1.9E1,3E0,6E0,1.2E1,6E0,6E0],"tree_param":{"num_deleted":"0","num_feature":"3","num_nodes":"15","size_leaf_vector":"1"}},{"base_weights":[-2.5874688E-3,7.999733E-2,-1.17057115E-1,4.3506037E-2,1.5247887E-1,-1.4254087E-1,-7.080723E-2,-4.5972483E-4,6.324064E-4,1.7697765E-3,-8.300259E-4,-9.1789785E-4,-1.5890369E-3,2.0973095E-4,-1.5247224E-3],"categories":[],"categories_nodes":[],"categories_segments":[],"categories_sizes":[],"default_left":[0,0,0,0,0,0,0,0,0,0,0,0,0,0,0],"id":63,"left_children":[1,3,5,7,9,11,13,-1,-1,-1,-1,-1,-1,-1,-1],"loss_changes":[6.994663E-1,1.0709891E-1,2.6444346E-2,5.5882026E-2,9.5455706E-2,1.1924505E-3,1.0063597E-1,0E0,0E0,0E0,0E0,0E0,0E0,0E0,0E0],"parents":[2147483647,0,0,1,1,2,2,3,3,4,4,5,5,6,6],"right_children":[2,4,6,8,10,12,14,-1,-1,-1,-1,-1,-1,-1,-1],"split_conditions":[3.504E4,6E1,6E0,1.2E1,6E0,6E1,3.1536E6,-4.5972483E-4,6.324064E-4,1.7697765E-3,-8.300259E-4,-9.1789785E-4,-1.5890369E-3,2.0973095E-4,-1.5247224E-3],"split_indices":[0,1,2,1,2,1,0,0,0,0,0,0,0,0,0],"split_type":[0,0,0,0,0,0,0,0,0,0,0,0,0,0,0],"sum_hessian":[7.2E1,4.2E1,3E1,2.9E1,1.3E1,1.8E1,1.2E1,5E0,2.4E1,1.2E1,1E0,6E0,1.2E1,6E0,6E0],"tree_param":{"num_deleted":"0","num_feature":"3","num_nodes":"15","size_leaf_vector":"1"}},{"base_weights":[-2.5987101E-3,7.922323E-2,-1.1600983E-1,4.3076735E-2,1.5102121E-1,-1.4961727E-1,-7.95321E-2,-4.5589375E-4,6.2633527E-4,1.75344E-3,-8.2587573E-4,-9.3475374E-4,-1.6834068E-3,-2.6717113E-4,-1.5116535E-3],"categories":[],"categories_nodes":[],"categories_segments":[],"categories_sizes":[],"default_left":[0,0,0,0,0,0,0,0,0,0,0,0,0,0,0],"id":64,"left_children":[1,3,5,7,9,11,13,-1,-1,-1,-1,-1,-1,-1,-1],"loss_changes":[6.865955E-1,1.0509008E-1,2.6104271E-2,5.4876182E-2,9.4029486E-2,3.1799078E-5,6.027755E-2,0E0,0E0,0E0,0E0,0E0,0E0,0E0,0E0],"parents":[2147483647,0,0,1,1,2,2,3,3,4,4,5,5,6,6],"right_children":[2,4,6,8,10,12,14,-1,-1,-1,-1,-1,-1,-1,-1],"split_conditions":[3.504E4,6E1,4E0,1.2E1,6E0,6E1,3.1536E6,-4.5589375E-4,6.2633527E-4,1.75344E-3,-8.2587573E-4,-9.3475374E-4,-1.6834068E-3,-2.6717113E-4,-1.5116535E-3],"split_indices":[0,1,2,1,2,1,0,0,0,0,0,0,0,0,0],"split_type":[0,0,0,0,0,0,0,0,0,0,0,0,0,0,0],"sum_hessian":[7.2E1,4.2E1,3E1,2.9E1,1.3E1,1.4E1,1.6E1,5E0,2.4E1,1.2E1,1E0,5E0,9E0,1E1,6E0],"tree_param":{"num_deleted":"0","num_feature":"3","num_nodes":"15","size_leaf_vector":"1"}},{"base_weights":[-2.617911E-3,7.8456536E-2,-1.1499157E-1,2.4474496E-2,1.2433333E-1,-1.4014776E-1,-6.9379315E-2,-8.567815E-4,7.4247434E-4,1.5888001E-3,-7.9483405E-4,-9.029716E-4,-1.5620979E-3,2.1022346E-4,-1.4986963E-3],"categories":[],"categories_nodes":[],"categories_segments":[],"categories_sizes":[],"default_left":[0,0,0,0,0,0,0,0,0,0,0,0,0,0,0],"id":65,"left_children":[1,3,5,7,9,11,13,-1,-1,-1,-1,-1,-1,-1,-1],"loss_changes":[6.740979E-1,1.0344753E-1,2.5847018E-2,1.2149641E-1,1.7457575E-1,1.1080205E-3,9.774457E-2,0E0,0E0,0E0,0E0,0E0,0E0,0E0,0E0],"parents":[2147483647,0,0,1,1,2,2,3,3,4,4,5,5,6,6],"right_children":[2,4,6,8,10,12,14,-1,-1,-1,-1,-1,-1,-1,-1],"split_conditions":[3.504E4,8.76E3,6E0,2E0,6E0,6E1,3.1536E6,-8.567815E-4,7.4247434E-4,1.5888001E-3,-7.9483405E-4,-9.029716E-4,-1.5620979E-3,2.1022346E-4,-1.4986963E-3],"split_indices":[0,0,2,2,2,1,0,0,0,0,0,0,0,0,0],"split_type":[0,0,0,0,0,0,0,0,0,0,0,0,0,0,0],"sum_hessian":[7.2E1,4.2E1,3E1,2E1,2.2E1,1.8E1,1.2E1,6E0,1.4E1,1.9E1,3E0,6E0,1.2E1,6E0,6E0],"tree_param":{"num_deleted":"0","num_feature":"3","num_nodes":"15","size_leaf_vector":"1"}},{"base_weights":[-2.6338499E-3,7.768776E-2,-1.1396273E-1,4.215878E-2,1.4827217E-1,-1.407835E-1,-7.133869E-2,-4.5028562E-4,6.139739E-4,1.7225882E-3,-8.1777223E-4,-8.952318E-4,-1.589534E-3,5.1692034E-5,-1.4858503E-3],"categories":[],"categories_nodes":[],"categories_segments":[],"categories_sizes":[],"default_left":[0,0,0,0,0,0,0,0,0,0,0,0,0,0,0],"id":66,"left_children":[1,3,5,7,9,11,13,-1,-1,-1,-1,-1,-1,-1,-1],"loss_changes":[6.616279E-1,1.0158408E-1,2.5396198E-2,5.3085532E-2,9.134048E-2,2.535075E-3,8.350745E-2,0E0,0E0,0E0,0E0,0E0,0E0,0E0,0E0],"parents":[2147483647,0,0,1,1,2,2,3,3,4,4,5,5,6,6],"right_children":[2,4,6,8,10,12,14,-1,-1,-1,-1,-1,-1,-1,-1],"split_conditions":[3.504E4,6E1,1.0512E5,1.2E1,6E0,6E1,3.1536E6,-4.5028562E-4,6.139739E-4,1.7225882E-3,-8.1777223E-4,-8.952318E-4,-1.589534E-3,5.1692034E-5,-1.4858503E-3],"split_indices":[0,1,0,1,2,1,0,0,0,0,0,0,0,0,0],"split_type":[0,0,0,0,0,0,0,0,0,0,0,0,0,0,0],"sum_hessian":[7.2E1,4.2E1,3E1,2.9E1,1.3E1,1.7E1,1.3E1,5E0,2.4E1,1.2E1,1E0,6E0,1.1E1,7E0,6E0],"tree_param":{"num_deleted":"0","num_feature":"3","num_nodes":"15","size_leaf_vector":"1"}},{"base_weights":[-2.6465582E-3,7.693573E-2,-1.1294952E-1,-4.8647285E-3,1.0520665E-1,-1.4580525E-3,-7.731507E-2,7.922725E-4,-7.624861E-4,1.2698525E-3,-7.8989833E-4,-2.5743272E-4,-1.4731145E-3],"categories":[],"categories_nodes":[],"categories_segments":[],"categories_sizes":[],"default_left":[0,0,0,0,0,0,0,0,0,0,0,0,0],"id":67,"left_children":[1,3,5,7,9,-1,11,-1,-1,-1,-1,-1,-1],"loss_changes":[6.4949566E-1,9.995252E-2,2.5021791E-2,7.807471E-2,1.3839984E-1,0E0,5.7574965E-2,0E0,0E0,0E0,0E0,0E0,0E0],"parents":[2147483647,0,0,1,1,2,2,3,3,4,4,6,6],"right_children":[2,4,6,8,10,-1,12,-1,-1,-1,-1,-1,-1],"split_conditions":[3.504E4,3E1,4E0,5.2142857E1,6E0,-1.4580525E-3,3.1536E6,7.922725E-4,-7.624861E-4,1.2698525E-3,-7.8989833E-4,-2.5743272E-4,-1.4731145E-3],"split_indices":[0,1,2,0,2,0,0,0,0,0,0,0,0],"split_type":[0,0,0,0,0,0,0,0,0,0,0,0,0],"sum_hessian":[7.2E1,4.2E1,3E1,1.1E1,3.1E1,1.4E1,1.6E1,5E0,6E0,2.8E1,3E0,1E1,6E0],"tree_param":{"num_deleted":"0","num_feature":"3","num_nodes":"13","size_leaf_vector":"1"}},{"base_weights":[-2.6567967E-3,7.617821E-2,-1.1192288E-1,2.337793E-2,1.21075064E-1,-1.3654724E-1,-6.732398E-2,-8.487281E-4,7.233641E-4,1.549158E-3,-7.839739E-4,-8.7677594E-4,-1.5235802E-3,2.1018514E-4,-1.4604876E-3],"categories":[],"categories_nodes":[],"categories_segments":[],"categories_sizes":[],"default_left":[0,0,0,0,0,0,0,0,0,0,0,0,0,0,0],"id":68,"left_children":[1,3,5,7,9,11,13,-1,-1,-1,-1,-1,-1,-1,-1],"loss_changes":[6.373475E-1,9.910387E-2,2.4851918E-2,1.1743504E-1,1.6740179E-1,1.3222694E-3,9.3481384E-2,0E0,0E0,0E0,0E0,0E0,0E0,0E0,0E0],"parents":[2147483647,0,0,1,1,2,2,3,3,4,4,5,5,6,6],"right_children":[2,4,6,8,10,12,14,-1,-1,-1,-1,-1,-1,-1,-1],"split_conditions":[3.504E4,8.76E3,6E0,2E0,6E0,6E1,3.1536E6,-8.487281E-4,7.233641E-4,1.549158E-3,-7.839739E-4,-8.7677594E-4,-1.5235802E-3,2.1018514E-4,-1.4604876E-3],"split_indices":[0,0,2,2,2,1,0,0,0,0,0,0,0,0,0],"split_type":[0,0,0,0,0,0,0,0,0,0,0,0,0,0,0],"sum_hessian":[7.2E1,4.2E1,3E1,2E1,2.2E1,1.8E1,1.2E1,6E0,1.4E1,1.9E1,3E0,6E0,1.2E1,6E0,6E0],"tree_param":{"num_deleted":"0","num_feature":"3","num_nodes":"15","size_leaf_vector":"1"}},{"base_weights":[-2.6714783E-3,7.5431295E-2,-1.1092141E-1,4.0661447E-2,1.4455017E-1,-1.3530809E-1,-6.674692E-2,-4.3834667E-4,5.9314055E-4,1.6806654E-3,-8.058139E-4,-8.6926064E-4,-1.5095164E-3,2.0838346E-4,-1.4479692E-3],"categories":[],"categories_nodes":[],"categories_segments":[],"categories_sizes":[],"default_left":[0,0,0,0,0,0,0,0,0,0,0,0,0,0,0],"id":69,"left_children":[1,3,5,7,9,11,13,-1,-1,-1,-1,-1,-1,-1,-1],"loss_changes":[6.2555426E-1,9.746224E-2,2.4363935E-2,4.988221E-2,8.7662965E-2,1.2588203E-3,9.188573E-2,0E0,0E0,0E0,0E0,0E0,0E0,0E0,0E0],"parents":[2147483647,0,0,1,1,2,2,3,3,4,4,5,5,6,6],"right_children":[2,4,6,8,10,12,14,-1,-1,-1,-1,-1,-1,-1,-1],"split_conditions":[3.504E4,6E1,6E0,1.2E1,6E0,6E1,3.1536E6,-4.3834667E-4,5.9314055E-4,1.6806654E-3,-8.058139E-4,-8.6926064E-4,-1.5095164E-3,2.0838346E-4,-1.4479692E-3],"split_indices":[0,1,2,1,2,1,0,0,0,0,0,0,0,0,0],"split_type":[0,0,0,0,0,0,0,0,0,0,0,0,0,0,0],"sum_hessian":[7.2E1,4.2E1,3E1,2.9E1,1.3E1,1.8E1,1.2E1,5E0,2.4E1,1.2E1,1E0,6E0,1.2E1,6E0,6E0],"tree_param":{"num_deleted":"0","num_feature":"3","num_nodes":"15","size_leaf_vector":"1"}},{"base_weights":[-2.6802202E-3,7.470094E-2,-1.0992891E-1,2.2818888E-2,1.1882363E-1,-1.4204253E-1,-7.512696E-2,-8.4211666E-4,7.124522E-4,1.5222809E-3,-7.790452E-4,-8.852782E-4,-1.5994711E-3,-2.4751615E-4,-1.4355578E-3],"categories":[],"categories_nodes":[],"categories_segments":[],"categories_sizes":[],"default_left":[0,0,0,0,0,0,0,0,0,0,0,0,0,0,0],"id":70,"left_children":[1,3,5,7,9,11,13,-1,-1,-1,-1,-1,-1,-1,-1],"loss_changes":[6.1404085E-1,9.572314E-2,2.3974895E-2,1.1484473E-1,1.6300595E-1,2.1260977E-4,5.504792E-2,0E0,0E0,0E0,0E0,0E0,0E0,0E0,0E0],"parents":[2147483647,0,0,1,1,2,2,3,3,4,4,5,5,6,6],"right_children":[2,4,6,8,10,12,14,-1,-1,-1,-1,-1,-1,-1,-1],"split_conditions":[3.504E4,8.76E3,4E0,2E0,6E0,6E1,3.1536E6,-8.4211666E-4,7.124522E-4,1.5222809E-3,-7.790452E-4,-8.852782E-4,-1.5994711E-3,-2.4751615E-4,-1.4355578E-3],"split_indices":[0,0,2,2,2,1,0,0,0,0,0,0,0,0,0],"split_type":[0,0,0,0,0,0,0,0,0,0,0,0,0,0,0],"sum_hessian":[7.2E1,4.2E1,3E1,2E1,2.2E1,1.4E1,1.6E1,6E0,1.4E1,1.9E1,3E0,5E0,9E0,1E1,6E0],"tree_param":{"num_deleted":"0","num_feature":"3","num_nodes":"15","size_leaf_vector":"1"}},{"base_weights":[-2.7021163E-3,7.396819E-2,-1.0896408E-1,3.979268E-2,1.4191797E-1,-1.330375E-1,-6.539801E-2,-4.3285813E-4,5.813981E-4,1.6510995E-3,-7.978896E-4,-8.5513276E-4,-1.483938E-3,2.0871886E-4,-1.4232532E-3],"categories":[],"categories_nodes":[],"categories_segments":[],"categories_sizes":[],"default_left":[0,0,0,0,0,0,0,0,0,0,0,0,0,0,0],"id":71,"left_children":[1,3,5,7,9,11,13,-1,-1,-1,-1,-1,-1,-1,-1],"loss_changes":[6.0280085E-1,9.420806E-2,2.3811907E-2,4.8244193E-2,8.515951E-2,1.1765063E-3,8.9245245E-2,0E0,0E0,0E0,0E0,0E0,0E0,0E0,0E0],"parents":[2147483647,0,0,1,1,2,2,3,3,4,4,5,5,6,6],"right_children":[2,4,6,8,10,12,14,-1,-1,-1,-1,-1,-1,-1,-1],"split_conditions":[3.504E4,6E1,6E0,1.2E1,6E0,6E1,3.1536E6,-4.3285813E-4,5.813981E-4,1.6510995E-3,-7.978896E-4,-8.5513276E-4,-1.483938E-3,2.0871886E-4,-1.4232532E-3],"split_indices":[0,1,2,1,2,1,0,0,0,0,0,0,0,0,0],"split_type":[0,0,0,0,0,0,0,0,0,0,0,0,0,0,0],"sum_hessian":[7.2E1,4.2E1,3E1,2.9E1,1.3E1,1.8E1,1.2E1,5E0,2.4E1,1.2E1,1E0,6E0,1.2E1,6E0,6E0],"tree_param":{"num_deleted":"0","num_feature":"3","num_nodes":"15","size_leaf_vector":"1"}},{"base_weights":[-2.710049E-3,7.3251806E-2,-1.07989065E-1,2.2272307E-2,1.1661344E-1,-1.3183023E-1,-6.483745E-2,-8.355351E-4,7.017287E-4,1.4958775E-3,-7.7411457E-4,-8.478032E-4,-1.4702401E-3,2.0692994E-4,-1.4110539E-3],"categories":[],"categories_nodes":[],"categories_segments":[],"categories_sizes":[],"default_left":[0,0,0,0,0,0,0,0,0,0,0,0,0,0,0],"id":72,"left_children":[1,3,5,7,9,11,13,-1,-1,-1,-1,-1,-1,-1,-1],"loss_changes":[5.917052E-1,9.2456564E-2,2.3344785E-2,1.12314634E-1,1.5873006E-1,1.1177063E-3,8.7721914E-2,0E0,0E0,0E0,0E0,0E0,0E0,0E0,0E0],"parents":[2147483647,0,0,1,1,2,2,3,3,4,4,5,5,6,6],"right_children":[2,4,6,8,10,12,14,-1,-1,-1,-1,-1,-1,-1,-1],"split_conditions":[3.504E4,8.76E3,6E0,2E0,6E0,6E1,3.1536E6,-8.355351E-4,7.017287E-4,1.4958775E-3,-7.7411457E-4,-8.478032E-4,-1.4702401E-3,2.0692994E-4,-1.4110539E-3],"split_indices":[0,0,2,2,2,1,0,0,0,0,0,0,0,0,0],"split_type":[0,0,0,0,0,0,0,0,0,0,0,0,0,0,0],"sum_hessian":[7.2E1,4.2E1,3E1,2E1,2.2E1,1.8E1,1.2E1,6E0,1.4E1,1.9E1,3E0,6E0,1.2E1,6E0,6E0],"tree_param":{"num_deleted":"0","num_feature":"3","num_nodes":"15","size_leaf_vector":"1"}},{"base_weights":[-2.7231462E-3,7.253295E-2,-1.0702279E-1,3.8941912E-2,1.3933282E-1,-1.3844761E-1,-7.299956E-2,-4.2741245E-4,5.6988193E-4,1.6220502E-3,-7.9002953E-4,-8.637097E-4,-1.5584882E-3,-2.379281E-4,-1.3989593E-3],"categories":[],"categories_nodes":[],"categories_segments":[],"categories_sizes":[],"default_left":[0,0,0,0,0,0,0,0,0,0,0,0,0,0,0],"id":73,"left_children":[1,3,5,7,9,11,13,-1,-1,-1,-1,-1,-1,-1,-1],"loss_changes":[5.8075315E-1,9.10608E-2,2.3037761E-2,4.6658065E-2,8.272818E-2,1.321435E-4,5.263128E-2,0E0,0E0,0E0,0E0,0E0,0E0,0E0,0E0],"parents":[2147483647,0,0,1,1,2,2,3,3,4,4,5,5,6,6],"right_children":[2,4,6,8,10,12,14,-1,-1,-1,-1,-1,-1,-1,-1],"split_conditions":[3.504E4,6E1,4E0,1.2E1,6E0,6E1,3.1536E6,-4.2741245E-4,5.6988193E-4,1.6220502E-3,-7.9002953E-4,-8.637097E-4,-1.5584882E-3,-2.379281E-4,-1.3989593E-3],"split_indices":[0,1,2,1,2,1,0,0,0,0,0,0,0,0,0],"split_type":[0,0,0,0,0,0,0,0,0,0,0,0,0,0,0],"sum_hessian":[7.2E1,4.2E1,3E1,2.9E1,1.3E1,1.4E1,1.6E1,5E0,2.4E1,1.2E1,1E0,5E0,9E0,1E1,6E0],"tree_param":{"num_deleted":"0","num_feature":"3","num_nodes":"15","size_leaf_vector":"1"}},{"base_weights":[-2.7381633E-3,7.1830295E-2,-1.06083505E-1,8.4909394E-2,-7.6918304E-4,-1.2961832E-1,-6.3526206E-2,2.1737927E-4,1.4699396E-3,-8.34027E-4,-1.4453299E-3,2.0719587E-4,-1.3869683E-3],"categories":[],"categories_nodes":[],"categories_segments":[],"categories_sizes":[],"default_left":[0,0,0,0,0,0,0,0,0,0,0,0,0],"id":74,"left_children":[1,3,5,7,-1,9,11,-1,-1,-1,-1,-1,-1],"loss_changes":[5.7018006E-1,9.0187505E-2,2.281478E-2,1.536836E-1,0E0,1.0420978E-3,8.520026E-2,0E0,0E0,0E0,0E0,0E0,0E0],"parents":[2147483647,0,0,1,1,2,2,3,3,5,5,6,6],"right_children":[2,4,6,8,-1,10,12,-1,-1,-1,-1,-1,-1],"split_conditions":[3.504E4,6E0,6E0,8.76E3,-7.6918304E-4,6E1,3.1536E6,2.1737927E-4,1.4699396E-3,-8.34027E-4,-1.4453299E-3,2.0719587E-4,-1.3869683E-3],"split_indices":[0,2,2,0,0,1,0,0,0,0,0,0,0],"split_type":[0,0,0,0,0,0,0,0,0,0,0,0,0],"sum_hessian":[7.2E1,4.2E1,3E1,3.9E1,3E0,1.8E1,1.2E1,2E1,1.9E1,6E0,1.2E1,6E0,6E0],"tree_param":{"num_deleted":"0","num_feature":"3","num_nodes":"13","size_leaf_vector":"1"}},{"base_weights":[-2.745582E-3,7.113336E-2,-1.05134256E-1,8.4102504E-2,-7.63414E-4,-1.3022123E-1,-6.536997E-2,2.15309E-4,1.4559756E-3,-8.2687824E-4,-1.4709729E-3,5.9220474E-5,-1.37508E-3],"categories":[],"categories_nodes":[],"categories_segments":[],"categories_sizes":[],"default_left":[0,0,0,0,0,0,0,0,0,0,0,0,0],"id":75,"left_children":[1,3,5,7,-1,9,11,-1,-1,-1,-1,-1,-1],"loss_changes":[5.596773E-1,8.8663235E-2,2.2412002E-2,1.5077892E-1,0E0,2.2760034E-3,7.281445E-2,0E0,0E0,0E0,0E0,0E0,0E0],"parents":[2147483647,0,0,1,1,2,2,3,3,5,5,6,6],"right_children":[2,4,6,8,-1,10,12,-1,-1,-1,-1,-1,-1],"split_conditions":[3.504E4,6E0,1.0512E5,8.76E3,-7.63414E-4,6E1,3.1536E6,2.15309E-4,1.4559756E-3,-8.2687824E-4,-1.4709729E-3,5.9220474E-5,-1.37508E-3],"split_indices":[0,2,0,0,0,1,0,0,0,0,0,0,0],"split_type":[0,0,0,0,0,0,0,0,0,0,0,0,0],"sum_hessian":[7.2E1,4.2E1,3E1,3.9E1,3E0,1.7E1,1.3E1,2E1,1.9E1,6E0,1.1E1,7E0,6E0],"tree_param":{"num_deleted":"0","num_feature":"3","num_nodes":"13","size_leaf_vector":"1"}},{"base_weights":[-2.755186E-3,7.0443146E-2,-1.04199484E-1,8.3303265E-2,-7.576884E-4,-1.3492121E-1,-7.09627E-2,2.132585E-4,1.4421439E-3,-8.4267155E-4,-1.5182152E-3,-2.2914575E-4,-1.3632936E-3],"categories":[],"categories_nodes":[],"categories_segments":[],"categories_sizes":[],"default_left":[0,0,0,0,0,0,0,0,0,0,0,0,0],"id":76,"left_children":[1,3,5,7,-1,9,11,-1,-1,-1,-1,-1,-1],"loss_changes":[5.494055E-1,8.716485E-2,2.2079468E-2,1.479291E-1,0E0,4.74751E-5,5.026874E-2,0E0,0E0,0E0,0E0,0E0,0E0],"parents":[2147483647,0,0,1,1,2,2,3,3,5,5,6,6],"right_children":[2,4,6,8,-1,10,12,-1,-1,-1,-1,-1,-1],"split_conditions":[3.504E4,6E0,4E0,8.76E3,-7.576884E-4,6E1,3.1536E6,2.132585E-4,1.4421439E-3,-8.4267155E-4,-1.5182152E-3,-2.2914575E-4,-1.3632936E-3],"split_indices":[0,2,2,0,0,1,0,0,0,0,0,0,0],"split_type":[0,0,0,0,0,0,0,0,0,0,0,0,0],"sum_hessian":[7.2E1,4.2E1,3E1,3.9E1,3E0,1.4E1,1.6E1,2E1,1.9E1,5E0,9E0,1E1,6E0],"tree_param":{"num_deleted":"0","num_feature":"3","num_nodes":"13","size_leaf_vector":"1"}},{"base_weights":[-2.7694895E-3,6.975959E-2,-1.0328501E-1,8.251162E-2,-7.520057E-4,-1.2634332E-1,-6.163939E-2,2.1122742E-4,1.4284436E-3,-8.1344444E-4,-1.4085477E-3,2.0687656E-4,-1.3516082E-3],"categories":[],"categories_nodes":[],"categories_segments":[],"categories_sizes":[],"default_left":[0,0,0,0,0,0,0,0,0,0,0,0,0],"id":77,"left_children":[1,3,5,7,-1,9,11,-1,-1,-1,-1,-1,-1],"loss_changes":[5.393969E-1,8.569197E-2,2.1980882E-2,1.4513314E-1,0E0,9.4923377E-4,8.1482574E-2,0E0,0E0,0E0,0E0,0E0,0E0],"parents":[2147483647,0,0,1,1,2,2,3,3,5,5,6,6],"right_children":[2,4,6,8,-1,10,12,-1,-1,-1,-1,-1,-1],"split_conditions":[3.504E4,6E0,6E0,8.76E3,-7.520057E-4,6E1,3.1536E6,2.1122742E-4,1.4284436E-3,-8.1344444E-4,-1.4085477E-3,2.0687656E-4,-1.3516082E-3],"split_indices":[0,2,2,0,0,1,0,0,0,0,0,0,0],"split_type":[0,0,0,0,0,0,0,0,0,0,0,0,0],"sum_hessian":[7.2E1,4.2E1,3E1,3.9E1,3E0,1.8E1,1.2E1,2E1,1.9E1,6E0,1.2E1,6E0,6E0],"tree_param":{"num_deleted":"0","num_feature":"3","num_nodes":"13","size_leaf_vector":"1"}},{"base_weights":[-2.7757543E-3,6.908265E-2,-1.0236077E-1,-5.9465677E-3,9.505977E-2,-1.2519684E-1,-6.1111066E-2,7.539509E-4,-7.481848E-4,1.1518823E-3,-7.4636575E-4,-8.06472E-4,-1.3955457E-3,2.0510325E-4,-1.340023E-3],"categories":[],"categories_nodes":[],"categories_segments":[],"categories_sizes":[],"default_left":[0,0,0,0,0,0,0,0,0,0,0,0,0,0,0],"id":78,"left_children":[1,3,5,7,9,11,13,-1,-1,-1,-1,-1,-1,-1,-1],"loss_changes":[5.294608E-1,8.437413E-2,2.1550506E-2,7.286681E-2,1.1790055E-1,8.983016E-4,8.0091715E-2,0E0,0E0,0E0,0E0,0E0,0E0,0E0,0E0],"parents":[2147483647,0,0,1,1,2,2,3,3,4,4,5,5,6,6],"right_children":[2,4,6,8,10,12,14,-1,-1,-1,-1,-1,-1,-1,-1],"split_conditions":[3.504E4,3E1,6E0,5.2142857E1,6E0,6E1,3.1536E6,7.539509E-4,-7.481848E-4,1.1518823E-3,-7.4636575E-4,-8.06472E-4,-1.3955457E-3,2.0510325E-4,-1.340023E-3],"split_indices":[0,1,2,0,2,1,0,0,0,0,0,0,0,0,0],"split_type":[0,0,0,0,0,0,0,0,0,0,0,0,0,0,0],"sum_hessian":[7.2E1,4.2E1,3E1,1.1E1,3.1E1,1.8E1,1.2E1,5E0,6E0,2.8E1,3E0,6E0,1.2E1,6E0,6E0],"tree_param":{"num_deleted":"0","num_feature":"3","num_nodes":"15","size_leaf_vector":"1"}},{"base_weights":[-2.7880613E-3,6.8401396E-2,-1.01444796E-1,3.6295526E-2,1.3231389E-1,-1.3150695E-3,-6.8952024E-2,-4.2475906E-4,5.3748843E-4,1.5429397E-3,-7.67136E-4,-2.2018955E-4,-1.328537E-3],"categories":[],"categories_nodes":[],"categories_segments":[],"categories_sizes":[],"default_left":[0,0,0,0,0,0,0,0,0,0,0,0,0],"id":79,"left_children":[1,3,5,7,9,-1,11,-1,-1,-1,-1,-1,-1],"loss_changes":[5.1964134E-1,8.343215E-2,2.1213204E-2,4.3527722E-2,7.615864E-2,0E0,4.8059434E-2,0E0,0E0,0E0,0E0,0E0,0E0],"parents":[2147483647,0,0,1,1,2,2,3,3,4,4,6,6],"right_children":[2,4,6,8,10,-1,12,-1,-1,-1,-1,-1,-1],"split_conditions":[3.504E4,6E1,4E0,1.2E1,6E0,-1.3150695E-3,3.1536E6,-4.2475906E-4,5.3748843E-4,1.5429397E-3,-7.67136E-4,-2.2018955E-4,-1.328537E-3],"split_indices":[0,1,2,1,2,0,0,0,0,0,0,0,0],"split_type":[0,0,0,0,0,0,0,0,0,0,0,0,0],"sum_hessian":[7.2E1,4.2E1,3E1,2.9E1,1.3E1,1.4E1,1.6E1,5E0,2.4E1,1.2E1,1E0,1E1,6E0],"tree_param":{"num_deleted":"0","num_feature":"3","num_nodes":"13","size_leaf_vector":"1"}},{"base_weights":[-2.7872478E-3,6.773804E-2,-1.0052274E-1,8.023377E-2,-7.415375E-4,-1.23045415E-1,-5.9872463E-2,2.0179365E-4,1.3927921E-3,-7.898515E-4,-1.3730513E-3,2.052325E-4,-1.3171497E-3],"categories":[],"categories_nodes":[],"categories_segments":[],"categories_sizes":[],"default_left":[0,0,0,0,0,0,0,0,0,0,0,0,0],"id":80,"left_children":[1,3,5,7,-1,9,11,-1,-1,-1,-1,-1,-1],"loss_changes":[5.099853E-1,8.219044E-2,2.1015108E-2,1.3902697E-1,0E0,1.0924041E-3,7.778899E-2,0E0,0E0,0E0,0E0,0E0,0E0],"parents":[2147483647,0,0,1,1,2,2,3,3,5,5,6,6],"right_children":[2,4,6,8,-1,10,12,-1,-1,-1,-1,-1,-1],"split_conditions":[3.504E4,6E0,6E0,8.76E3,-7.415375E-4,6E1,3.1536E6,2.0179365E-4,1.3927921E-3,-7.898515E-4,-1.3730513E-3,2.052325E-4,-1.3171497E-3],"split_indices":[0,2,2,0,0,1,0,0,0,0,0,0,0],"split_type":[0,0,0,0,0,0,0,0,0,0,0,0,0],"sum_hessian":[7.2E1,4.2E1,3E1,3.9E1,3E0,1.8E1,1.2E1,2E1,1.9E1,6E0,1.2E1,6E0,6E0],"tree_param":{"num_deleted":"0","num_feature":"3","num_nodes":"13","size_leaf_vector":"1"}},{"base_weights":[-2.7925516E-3,6.70805E-2,-9.962315E-2,7.947129E-2,-7.359759E-4,-1.21928796E-1,-5.9359267E-2,1.9987162E-4,1.3795607E-3,-7.8308134E-4,-1.3603771E-3,2.0347346E-4,-1.3058598E-3],"categories":[],"categories_nodes":[],"categories_segments":[],"categories_sizes":[],"default_left":[0,0,0,0,0,0,0,0,0,0,0,0,0],"id":81,"left_children":[1,3,5,7,-1,9,11,-1,-1,-1,-1,-1,-1],"loss_changes":[5.005897E-1,8.080281E-2,2.0603895E-2,1.363993E-1,0E0,1.0404885E-3,7.646121E-2,0E0,0E0,0E0,0E0,0E0,0E0],"parents":[2147483647,0,0,1,1,2,2,3,3,5,5,6,6],"right_children":[2,4,6,8,-1,10,12,-1,-1,-1,-1,-1,-1],"split_conditions":[3.504E4,6E0,6E0,8.76E3,-7.359759E-4,6E1,3.1536E6,1.9987162E-4,1.3795607E-3,-7.8308134E-4,-1.3603771E-3,2.0347346E-4,-1.3058598E-3],"split_indices":[0,2,2,0,0,1,0,0,0,0,0,0,0],"split_type":[0,0,0,0,0,0,0,0,0,0,0,0,0],"sum_hessian":[7.2E1,4.2E1,3E1,3.9E1,3E0,1.8E1,1.2E1,2E1,1.9E1,6E0,1.2E1,6E0,6E0],"tree_param":{"num_deleted":"0","num_feature":"3","num_nodes":"13","size_leaf_vector":"1"}},{"base_weights":[-2.7975286E-3,6.642932E-2,-9.8731615E-2,-6.3465848E-3,9.164436E-2,-1.2811519E-1,-6.69972E-2,7.3984155E-4,-7.4294844E-4,1.1120007E-3,-7.3045626E-4,-7.980833E-4,-1.4428778E-3,-2.115323E-4,-1.2946668E-3],"categories":[],"categories_nodes":[],"categories_segments":[],"categories_sizes":[],"default_left":[0,0,0,0,0,0,0,0,0,0,0,0,0,0,0],"id":82,"left_children":[1,3,5,7,9,11,13,-1,-1,-1,-1,-1,-1,-1,-1],"loss_changes":[4.9136728E-1,7.948871E-2,2.0323247E-2,7.099664E-2,1.1118281E-1,2.0334125E-4,4.594679E-2,0E0,0E0,0E0,0E0,0E0,0E0,0E0,0E0],"parents":[2147483647,0,0,1,1,2,2,3,3,4,4,5,5,6,6],"right_children":[2,4,6,8,10,12,14,-1,-1,-1,-1,-1,-1,-1,-1],"split_conditions":[3.504E4,3E1,4E0,5.2142857E1,6E0,6E1,3.1536E6,7.3984155E-4,-7.4294844E-4,1.1120007E-3,-7.3045626E-4,-7.980833E-4,-1.4428778E-3,-2.115323E-4,-1.2946668E-3],"split_indices":[0,1,2,0,2,1,0,0,0,0,0,0,0,0,0],"split_type":[0,0,0,0,0,0,0,0,0,0,0,0,0,0,0],"sum_hessian":[7.2E1,4.2E1,3E1,1.1E1,3.1E1,1.4E1,1.6E1,5E0,6E0,2.8E1,3E0,5E0,9E0,1E1,6E0],"tree_param":{"num_deleted":"0","num_feature":"3","num_nodes":"15","size_leaf_vector":"1"}},{"base_weights":[-2.8156918E-3,6.577384E-2,-9.786517E-2,3.4601077E-2,1.2787448E-1,-1.1988429E-1,-5.81553E-2,-4.183754E-4,5.15623E-4,1.4928421E-3,-7.5226044E-4,-7.703664E-4,-1.3373424E-3,2.035427E-4,-1.2835696E-3],"categories":[],"categories_nodes":[],"categories_segments":[],"categories_sizes":[],"default_left":[0,0,0,0,0,0,0,0,0,0,0,0,0,0,0],"id":83,"left_children":[1,3,5,7,9,11,13,-1,-1,-1,-1,-1,-1,-1,-1],"loss_changes":[4.823531E-1,7.8816876E-2,2.0133764E-2,4.1052017E-2,7.210666E-2,9.72867E-4,7.426214E-2,0E0,0E0,0E0,0E0,0E0,0E0,0E0,0E0],"parents":[2147483647,0,0,1,1,2,2,3,3,4,4,5,5,6,6],"right_children":[2,4,6,8,10,12,14,-1,-1,-1,-1,-1,-1,-1,-1],"split_conditions":[3.504E4,6E1,6E0,1.2E1,6E0,6E1,3.1536E6,-4.183754E-4,5.15623E-4,1.4928421E-3,-7.5226044E-4,-7.703664E-4,-1.3373424E-3,2.035427E-4,-1.2835696E-3],"split_indices":[0,1,2,1,2,1,0,0,0,0,0,0,0,0,0],"split_type":[0,0,0,0,0,0,0,0,0,0,0,0,0,0,0],"sum_hessian":[7.2E1,4.2E1,3E1,2.9E1,1.3E1,1.8E1,1.2E1,5E0,2.4E1,1.2E1,1E0,6E0,1.2E1,6E0,6E0],"tree_param":{"num_deleted":"0","num_feature":"3","num_nodes":"15","size_leaf_vector":"1"}},{"base_weights":[-2.819734E-3,6.513557E-2,-9.6989356E-2,7.727749E-2,-7.256752E-4,-1.20455004E-1,-5.989142E-2,1.9087672E-4,1.3451291E-3,-7.637633E-4,-1.3612964E-3,6.539689E-5,-1.2725678E-3],"categories":[],"categories_nodes":[],"categories_segments":[],"categories_sizes":[],"default_left":[0,0,0,0,0,0,0,0,0,0,0,0,0],"id":84,"left_children":[1,3,5,7,-1,9,11,-1,-1,-1,-1,-1,-1],"loss_changes":[4.7346818E-1,7.750298E-2,1.9772112E-2,1.3065323E-1,0E0,2.0394623E-3,6.348439E-2,0E0,0E0,0E0,0E0,0E0,0E0],"parents":[2147483647,0,0,1,1,2,2,3,3,5,5,6,6],"right_children":[2,4,6,8,-1,10,12,-1,-1,-1,-1,-1,-1],"split_conditions":[3.504E4,6E0,1.0512E5,8.76E3,-7.256752E-4,6E1,3.1536E6,1.9087672E-4,1.3451291E-3,-7.637633E-4,-1.3612964E-3,6.539689E-5,-1.2725678E-3],"split_indices":[0,2,0,0,0,1,0,0,0,0,0,0,0],"split_type":[0,0,0,0,0,0,0,0,0,0,0,0,0],"sum_hessian":[7.2E1,4.2E1,3E1,3.9E1,3E0,1.7E1,1.3E1,2E1,1.9E1,6E0,1.1E1,7E0,6E0],"tree_param":{"num_deleted":"0","num_feature":"3","num_nodes":"13","size_leaf_vector":"1"}},{"base_weights":[-2.826083E-3,6.450305E-2,-9.6126944E-2,7.654311E-2,-7.2023255E-4,-1.2485286E-1,-6.5126024E-2,1.8905898E-4,1.3323502E-3,-7.786482E-4,-1.4056038E-3,-2.0361852E-4,-1.2616601E-3],"categories":[],"categories_nodes":[],"categories_segments":[],"categories_sizes":[],"default_left":[0,0,0,0,0,0,0,0,0,0,0,0,0],"id":85,"left_children":[1,3,5,7,-1,9,11,-1,-1,-1,-1,-1,-1],"loss_changes":[4.6477672E-1,7.619561E-2,1.9475251E-2,1.2818363E-1,0E0,1.2628734E-4,4.38819E-2,0E0,0E0,0E0,0E0,0E0,0E0],"parents":[2147483647,0,0,1,1,2,2,3,3,5,5,6,6],"right_children":[2,4,6,8,-1,10,12,-1,-1,-1,-1,-1,-1],"split_conditions":[3.504E4,6E0,4E0,8.76E3,-7.2023255E-4,6E1,3.1536E6,1.8905898E-4,1.3323502E-3,-7.786482E-4,-1.4056038E-3,-2.0361852E-4,-1.2616601E-3],"split_indices":[0,2,2,0,0,1,0,0,0,0,0,0,0],"split_type":[0,0,0,0,0,0,0,0,0,0,0,0,0],"sum_hessian":[7.2E1,4.2E1,3E1,3.9E1,3E0,1.4E1,1.6E1,2E1,1.9E1,5E0,9E0,1E1,6E0],"tree_param":{"num_deleted":"0","num_feature":"3","num_nodes":"13","size_leaf_vector":"1"}},{"base_weights":[-2.8368437E-3,6.387665E-2,-9.528341E-2,3.3476654E-2,1.244569E-1,-1.1685692E-1,-5.6423403E-2,-4.1805528E-4,5.0205307E-4,1.4543465E-3,-7.412695E-4,-7.5136404E-4,-1.3033281E-3,2.0298276E-4,-1.250846E-3],"categories":[],"categories_nodes":[],"categories_segments":[],"categories_sizes":[],"default_left":[0,0,0,0,0,0,0,0,0,0,0,0,0,0,0],"id":86,"left_children":[1,3,5,7,9,11,13,-1,-1,-1,-1,-1,-1,-1,-1],"loss_changes":[4.5630902E-1,7.50241E-2,1.9395322E-2,3.9879955E-2,6.910244E-2,8.894801E-4,7.102043E-2,0E0,0E0,0E0,0E0,0E0,0E0,0E0,0E0],"parents":[2147483647,0,0,1,1,2,2,3,3,4,4,5,5,6,6],"right_children":[2,4,6,8,10,12,14,-1,-1,-1,-1,-1,-1,-1,-1],"split_conditions":[3.504E4,6E1,6E0,1.2E1,6E0,6E1,3.1536E6,-4.1805528E-4,5.0205307E-4,1.4543465E-3,-7.412695E-4,-7.5136404E-4,-1.3033281E-3,2.0298276E-4,-1.250846E-3],"split_indices":[0,1,2,1,2,1,0,0,0,0,0,0,0,0,0],"split_type":[0,0,0,0,0,0,0,0,0,0,0,0,0,0,0],"sum_hessian":[7.2E1,4.2E1,3E1,2.9E1,1.3E1,1.8E1,1.2E1,5E0,2.4E1,1.2E1,1E0,6E0,1.2E1,6E0,6E0],"tree_param":{"num_deleted":"0","num_feature":"3","num_nodes":"15","size_leaf_vector":"1"}},{"base_weights":[-2.8400586E-3,6.325643E-2,-9.443066E-2,7.5155534E-2,-7.1548787E-4,-1.157965E-1,-5.593978E-2,1.8466769E-4,1.3092096E-3,-7.449237E-4,-1.2912975E-3,2.012429E-4,-1.2401246E-3],"categories":[],"categories_nodes":[],"categories_segments":[],"categories_sizes":[],"default_left":[0,0,0,0,0,0,0,0,0,0,0,0,0],"id":87,"left_children":[1,3,5,7,-1,9,11,-1,-1,-1,-1,-1,-1],"loss_changes":[4.4790202E-1,7.435197E-2,1.9016445E-2,1.2403323E-1,0E0,8.444786E-4,6.9808155E-2,0E0,0E0,0E0,0E0,0E0,0E0],"parents":[2147483647,0,0,1,1,2,2,3,3,5,5,6,6],"right_children":[2,4,6,8,-1,10,12,-1,-1,-1,-1,-1,-1],"split_conditions":[3.504E4,6E0,6E0,8.76E3,-7.1548787E-4,6E1,3.1536E6,1.8466769E-4,1.3092096E-3,-7.449237E-4,-1.2912975E-3,2.012429E-4,-1.2401246E-3],"split_indices":[0,2,2,0,0,1,0,0,0,0,0,0,0],"split_type":[0,0,0,0,0,0,0,0,0,0,0,0,0],"sum_hessian":[7.2E1,4.2E1,3E1,3.9E1,3E0,1.8E1,1.2E1,2E1,1.9E1,6E0,1.2E1,6E0,6E0],"tree_param":{"num_deleted":"0","num_feature":"3","num_nodes":"13","size_leaf_vector":"1"}},{"base_weights":[-2.843118E-3,6.264197E-2,-9.358556E-2,7.444133E-2,-7.1012165E-4,-1.21694416E-1,-6.3278586E-2,1.8290906E-4,1.296772E-3,-7.596905E-4,-1.369602E-3,-1.9553596E-4,-1.2294948E-3],"categories":[],"categories_nodes":[],"categories_segments":[],"categories_sizes":[],"default_left":[0,0,0,0,0,0,0,0,0,0,0,0,0],"id":88,"left_children":[1,3,5,7,-1,9,11,-1,-1,-1,-1,-1,-1],"loss_changes":[4.3964857E-1,7.309869E-2,1.870805E-2,1.2168878E-1,0E0,6.578863E-5,4.1950755E-2,0E0,0E0,0E0,0E0,0E0,0E0],"parents":[2147483647,0,0,1,1,2,2,3,3,5,5,6,6],"right_children":[2,4,6,8,-1,10,12,-1,-1,-1,-1,-1,-1],"split_conditions":[3.504E4,6E0,4E0,8.76E3,-7.1012165E-4,6E1,3.1536E6,1.8290906E-4,1.296772E-3,-7.596905E-4,-1.369602E-3,-1.9553596E-4,-1.2294948E-3],"split_indices":[0,2,2,0,0,1,0,0,0,0,0,0,0],"split_type":[0,0,0,0,0,0,0,0,0,0,0,0,0],"sum_hessian":[7.2E1,4.2E1,3E1,3.9E1,3E0,1.4E1,1.6E1,2E1,1.9E1,5E0,9E0,1E1,6E0],"tree_param":{"num_deleted":"0","num_feature":"3","num_nodes":"13","size_leaf_vector":"1"}},{"base_weights":[-2.852834E-3,6.203345E-2,-9.2764355E-2,-7.128908E-3,8.603078E-2,-1.1385586E-1,-5.4802593E-2,7.189665E-4,-7.384668E-4,1.0465183E-3,-7.047957E-4,-7.3283305E-4,-1.2694448E-3,2.0119385E-4,-1.2189562E-3],"categories":[],"categories_nodes":[],"categories_segments":[],"categories_sizes":[],"default_left":[0,0,0,0,0,0,0,0,0,0,0,0,0,0,0],"id":89,"left_children":[1,3,5,7,9,11,13,-1,-1,-1,-1,-1,-1,-1,-1],"loss_changes":[4.3163827E-1,7.198094E-2,1.8581212E-2,6.857824E-2,1.00636214E-1,7.86826E-4,6.780013E-2,0E0,0E0,0E0,0E0,0E0,0E0,0E0,0E0],"parents":[2147483647,0,0,1,1,2,2,3,3,4,4,5,5,6,6],"right_children":[2,4,6,8,10,12,14,-1,-1,-1,-1,-1,-1,-1,-1],"split_conditions":[3.504E4,3E1,6E0,5.2142857E1,6E0,6E1,3.1536E6,7.189665E-4,-7.384668E-4,1.0465183E-3,-7.047957E-4,-7.3283305E-4,-1.2694448E-3,2.0119385E-4,-1.2189562E-3],"split_indices":[0,1,2,0,2,1,0,0,0,0,0,0,0,0,0],"split_type":[0,0,0,0,0,0,0,0,0,0,0,0,0,0,0],"sum_hessian":[7.2E1,4.2E1,3E1,1.1E1,3.1E1,1.8E1,1.2E1,5E0,6E0,2.8E1,3E0,6E0,1.2E1,6E0,6E0],"tree_param":{"num_deleted":"0","num_feature":"3","num_nodes":"15","size_leaf_vector":"1"}},{"base_weights":[-2.8612665E-3,6.1420593E-2,-9.193413E-2,3.1903327E-2,1.2028471E-1,-1.12822674E-1,-5.433286E-2,-4.114804E-4,4.815952E-4,1.4072062E-3,-7.2691106E-4,-7.2655163E-4,-1.2577267E-3,1.9946933E-4,-1.2085082E-3],"categories":[],"categories_nodes":[],"categories_segments":[],"categories_sizes":[],"default_left":[0,0,0,0,0,0,0,0,0,0,0,0,0,0,0],"id":90,"left_children":[1,3,5,7,9,11,13,-1,-1,-1,-1,-1,-1,-1,-1],"loss_changes":[4.2362785E-1,7.087535E-2,1.8218517E-2,3.760779E-2,6.544007E-2,7.4517727E-4,6.664282E-2,0E0,0E0,0E0,0E0,0E0,0E0,0E0,0E0],"parents":[2147483647,0,0,1,1,2,2,3,3,4,4,5,5,6,6],"right_children":[2,4,6,8,10,12,14,-1,-1,-1,-1,-1,-1,-1,-1],"split_conditions":[3.504E4,6E1,6E0,1.2E1,6E0,6E1,3.1536E6,-4.114804E-4,4.815952E-4,1.4072062E-3,-7.2691106E-4,-7.2655163E-4,-1.2577267E-3,1.9946933E-4,-1.2085082E-3],"split_indices":[0,1,2,1,2,1,0,0,0,0,0,0,0,0,0],"split_type":[0,0,0,0,0,0,0,0,0,0,0,0,0,0,0],"sum_hessian":[7.2E1,4.2E1,3E1,2.9E1,1.3E1,1.8E1,1.2E1,5E0,2.4E1,1.2E1,1E0,6E0,1.2E1,6E0,6E0],"tree_param":{"num_deleted":"0","num_feature":"3","num_nodes":"15","size_leaf_vector":"1"}},{"base_weights":[-2.863383E-3,6.0823835E-2,-9.111135E-2,7.238663E-2,-7.001005E-4,-1.1861666E-1,-6.1482467E-2,1.7461962E-4,1.2643819E-3,-7.4119814E-4,-1.334531E-3,-1.877248E-4,-1.1981494E-3],"categories":[],"categories_nodes":[],"categories_segments":[],"categories_sizes":[],"default_left":[0,0,0,0,0,0,0,0,0,0,0,0,0],"id":91,"left_children":[1,3,5,7,-1,9,11,-1,-1,-1,-1,-1,-1],"loss_changes":[4.1582128E-1,7.011841E-2,1.7970651E-2,1.165427E-1,0E0,1.1101365E-5,4.0104225E-2,0E0,0E0,0E0,0E0,0E0,0E0],"parents":[2147483647,0,0,1,1,2,2,3,3,5,5,6,6],"right_children":[2,4,6,8,-1,10,12,-1,-1,-1,-1,-1,-1],"split_conditions":[3.504E4,6E0,4E0,8.76E3,-7.001005E-4,6E1,3.1536E6,1.7461962E-4,1.2643819E-3,-7.4119814E-4,-1.334531E-3,-1.877248E-4,-1.1981494E-3],"split_indices":[0,2,2,0,0,1,0,0,0,0,0,0,0],"split_type":[0,0,0,0,0,0,0,0,0,0,0,0,0],"sum_hessian":[7.2E1,4.2E1,3E1,3.9E1,3E0,1.4E1,1.6E1,2E1,1.9E1,5E0,9E0,1E1,6E0],"tree_param":{"num_deleted":"0","num_feature":"3","num_nodes":"13","size_leaf_vector":"1"}},{"base_weights":[-2.8720566E-3,6.023277E-2,-9.031191E-2,7.1698725E-2,-6.9484976E-4,-1.1093218E-1,-5.3227518E-2,1.7295647E-4,1.2523702E-3,-7.1476167E-4,-1.2364448E-3,1.9936869E-4,-1.1878796E-3],"categories":[],"categories_nodes":[],"categories_segments":[],"categories_sizes":[],"default_left":[0,0,0,0,0,0,0,0,0,0,0,0,0],"id":92,"left_children":[1,3,5,7,-1,9,11,-1,-1,-1,-1,-1,-1],"loss_changes":[4.0824473E-1,6.893751E-2,1.7800748E-2,1.1433989E-1,0E0,6.9232285E-4,6.4725235E-2,0E0,0E0,0E0,0E0,0E0,0E0],"parents":[2147483647,0,0,1,1,2,2,3,3,5,5,6,6],"right_children":[2,4,6,8,-1,10,12,-1,-1,-1,-1,-1,-1],"split_conditions":[3.504E4,6E0,6E0,8.76E3,-6.9484976E-4,6E1,3.1536E6,1.7295647E-4,1.2523702E-3,-7.1476167E-4,-1.2364448E-3,1.9936869E-4,-1.1878796E-3],"split_indices":[0,2,2,0,0,1,0,0,0,0,0,0,0],"split_type":[0,0,0,0,0,0,0,0,0,0,0,0,0],"sum_hessian":[7.2E1,4.2E1,3E1,3.9E1,3E0,1.8E1,1.2E1,2E1,1.9E1,6E0,1.2E1,6E0,6E0],"tree_param":{"num_deleted":"0","num_feature":"3","num_nodes":"13","size_leaf_vector":"1"}},{"base_weights":[-2.8735993E-3,5.9647433E-2,-8.950362E-2,-7.447204E-3,8.294394E-2,-1.11473575E-1,-5.4863427E-2,7.0606504E-4,-7.3286495E-4,1.010366E-3,-6.8963855E-4,-7.0863526E-4,-1.258733E-3,7.037556E-5,-1.1776978E-3],"categories":[],"categories_nodes":[],"categories_segments":[],"categories_sizes":[],"default_left":[0,0,0,0,0,0,0,0,0,0,0,0,0,0,0],"id":93,"left_children":[1,3,5,7,9,11,13,-1,-1,-1,-1,-1,-1,-1,-1],"loss_changes":[4.0072113E-1,6.782974E-2,