{"learner":{"attributes":{"scikit_learn":"{\"_estimator_type\": \"regressor\"}"},"feature_names":["freq","prediction_length","domain"],"feature_types":["float","int","float"],"gradient_booster":{"model":{"gbtree_model_param":{"num_parallel_tree":"1","num_trees":"200"},"iteration_indptr":[0,1,2,3,4,5,6,7,8,9,10,11,12,13,14,15,16,17,18,19,20,21,22,23,24,25,26,27,28,29,30,31,32,33,34,35,36,37,38,39,40,41,42,43,44,45,46,47,48,49,50,51,52,53,54,55,56,57,58,59,60,61,62,63,64,65,66,67,68,69,70,71,72,73,74,75,76,77,78,79,80,81,82,83,84,85,86,87,88,89,90,91,92,93,94,95,96,97,98,99,100,101,102,103,104,105,106,107,108,109,110,111,112,113,114,115,116,117,118,119,120,121,122,123,124,125,126,127,128,129,130,131,132,133,134,135,136,137,138,139,140,141,142,143,144,145,146,147,148,149,150,151,152,153,154,155,156,157,158,159,160,161,162,163,164,165,166,167,168,169,170,171,172,173,174,175,176,177,178,179,180,181,182,183,184,185,186,187,188,189,190,191,192,193,194,195,196,197,198,199,200],"tree_info":[0,0,0,0,0,0,0,0,0,0,0,0,0,0,0,0,0,0,0,0,0,0,0,0,0,0,0,0,0,0,0,0,0,0,0,0,0,0,0,0,0,0,0,0,0,0,0,0,0,0,0,0,0,0,0,0,0,0,0,0,0,0,0,0,0,0,0,0,0,0,0,0,0,0,0,0,0,0,0,0,0,0,0,0,0,0,0,0,0,0,0,0,0,0,0,0,0,0,0,0,0,0,0,0,0,0,0,0,0,0,0,0,0,0,0,0,0,0,0,0,0,0,0,0,0,0,0,0,0,0,0,0,0,0,0,0,0,0,0,0,0,0,0,0,0,0,0,0,0,0,0,0,0,0,0,0,0,0,0,0,0,0,0,0,0,0,0,0,0,0,0,0,0,0,0,0,0,0,0,0,0,0,0,0,0,0,0,0,0,0,0,0,0,0,0,0,0,0,0,0],"trees":[{"base_weights":[-2.8577569E-8,-1.9206358E-2,1.8383198E-3,3.2567993E-2,-1.265888E-1,7.3736586E-2,-5.742954E-2,-2.3249571E-1,2.3749063E-2,-7.0977286E-2,1.0316424E-1,-1.1615929E-3,5.0024975E-2,-3.9227068E-4,-2.6406938E-1,-1.0938459E-1,1.3073559E-3,9.223078E-4,-2.6492893E-3,3.6034096E-4,1.6292551E-3,2.4689213E-4,6.7131006E-4,-2.9226672E-3,8.952051E-5,6.900728E-5,-1.8920837E-3],"categories":[],"categories_nodes":[],"categories_segments":[],"categories_sizes":[],"default_left":[0,0,0,0,0,0,0,0,0,0,0,0,0,0,0,0,0,0,0,0,0,0,0,0,0,0,0],"id":0,"left_children":[1,3,-1,5,7,9,11,13,15,17,19,-1,21,-1,23,25,-1,-1,-1,-1,-1,-1,-1,-1,-1,-1,-1],"loss_changes":[2.6127464E-1,3.7661973E-1,0E0,1.7466797E-1,3.5580158E-1,1.4359717E-1,1.00472525E-1,6.8969905E-2,1.5673554E-1,2.1436147E-1,1.0244727E-1,0E0,9.4295386E-4,0E0,8.7299645E-2,4.7717348E-2,0E0,0E0,0E0,0E0,0E0,0E0,0E0,0E0,0E0,0E0,0E0],"parents":[2147483647,0,0,1,1,3,3,4,4,5,5,6,6,7,7,8,8,9,9,10,10,12,12,14,14,15,15],"right_children":[2,4,-1,6,8,10,12,14,16,18,20,-1,22,-1,24,26,-1,-1,-1,-1,-1,-1,-1,-1,-1,-1,-1],"split_conditions":[3.1536E6,5E0,1.8383198E-3,3.504E4,6E0,5.2142857E1,5.256E4,8.76E3,6E1,3E0,2E0,-1.1615929E-3,2E0,-3.9227068E-4,5.256E4,3.504E4,1.3073559E-3,9.223078E-4,-2.6492893E-3,3.6034096E-4,1.6292551E-3,2.4689213E-4,6.7131006E-4,-2.9226672E-3,8.952051E-5,6.900728E-5,-1.8920837E-3],"split_indices":[0,2,0,0,2,0,0,0,1,2,2,0,2,0,0,0,0,0,0,0,0,0,0,0,0,0,0],"split_type":[0,0,0,0,0,0,0,0,0,0,0,0,0,0,0,0,0,0,0,0,0,0,0,0,0,0,0],"sum_hessian":[7.2E1,6.6E1,6E0,4.5E1,2.1E1,3.1E1,1.4E1,1.2E1,9E0,5E0,2.6E1,9E0,5E0,2E0,1E1,4E0,5E0,3E0,2E0,1.3E1,1.3E1,3E0,2E0,9E0,1E0,2E0,2E0],"tree_param":{"num_deleted":"0","num_feature":"3","num_nodes":"27","size_leaf_vector":"1"}},{"base_weights":[-2.5838614E-5,-1.9069854E-2,1.8225628E-3,3.2242723E-2,-1.2549298E-1,7.300743E-2,-5.6871485E-2,-2.3041888E-1,2.3459991E-2,-7.0555344E-2,1.0220628E-1,-1.1511388E-3,4.967776E-2,-3.8965564E-4,-2.6168624E-1,-1.0865536E-1,1.2964612E-3,9.153904E-4,-2.6316273E-3,3.5699463E-4,1.6141265E-3,2.450405E-4,6.668345E-4,-2.8963634E-3,8.9072884E-5,6.854713E-5,-1.8794698E-3],"categories":[],"categories_nodes":[],"categories_segments":[],"categories_sizes":[],"default_left":[0,0,0,0,0,0,0,0,0,0,0,0,0,0,0,0,0,0,0,0,0,0,0,0,0,0,0],"id":1,"left_children":[1,3,-1,5,7,9,11,13,15,17,19,-1,21,-1,23,25,-1,-1,-1,-1,-1,-1,-1,-1,-1,-1,-1],"loss_changes":[2.5688657E-1,3.6992282E-1,0E0,1.7125688E-1,3.4924418E-1,1.4135101E-1,9.880386E-2,6.762439E-2,1.5437493E-1,2.1141315E-1,1.0055357E-1,0E0,9.3456265E-4,0E0,8.577412E-2,4.708323E-2,0E0,0E0,0E0,0E0,0E0,0E0,0E0,0E0,0E0,0E0,0E0],"parents":[2147483647,0,0,1,1,3,3,4,4,5,5,6,6,7,7,8,8,9,9,10,10,12,12,14,14,15,15],"right_children":[2,4,-1,6,8,10,12,14,16,18,20,-1,22,-1,24,26,-1,-1,-1,-1,-1,-1,-1,-1,-1,-1,-1],"split_conditions":[3.1536E6,5E0,1.8225628E-3,3.504E4,6E0,5.2142857E1,5.256E4,8.76E3,6E1,3E0,2E0,-1.1511388E-3,2E0,-3.8965564E-4,5.256E4,3.504E4,1.2964612E-3,9.153904E-4,-2.6316273E-3,3.5699463E-4,1.6141265E-3,2.450405E-4,6.668345E-4,-2.8963634E-3,8.9072884E-5,6.854713E-5,-1.8794698E-3],"split_indices":[0,2,0,0,2,0,0,0,1,2,2,0,2,0,0,0,0,0,0,0,0,0,0,0,0,0,0],"split_type":[0,0,0,0,0,0,0,0,0,0,0,0,0,0,0,0,0,0,0,0,0,0,0,0,0,0,0],"sum_hessian":[7.2E1,6.6E1,6E0,4.5E1,2.1E1,3.1E1,1.4E1,1.2E1,9E0,5E0,2.6E1,9E0,5E0,2E0,1E1,4E0,5E0,3E0,2E0,1.3E1,1.3E1,3E0,2E0,9E0,1E0,2E0,2E0],"tree_param":{"num_deleted":"0","num_feature":"3","num_nodes":"27","size_leaf_vector":"1"}},{"base_weights":[-5.124489E-5,-1.8934319E-2,1.8069405E-3,3.1920634E-2,-1.2440675E-1,7.228531E-2,-5.631872E-2,-2.2836061E-1,2.3173943E-2,-7.013585E-2,1.0125722E-1,-1.1407785E-3,4.9332958E-2,-3.8705807E-4,-2.5932458E-1,-1.07931E-1,1.2856574E-3,9.0852485E-4,-2.6140832E-3,3.536799E-4,1.5991379E-3,2.4320274E-4,6.623888E-4,-2.870296E-3,8.862763E-5,6.809016E-5,-1.8669401E-3],"categories":[],"categories_nodes":[],"categories_segments":[],"categories_sizes":[],"default_left":[0,0,0,0,0,0,0,0,0,0,0,0,0,0,0,0,0,0,0,0,0,0,0,0,0,0,0],"id":2,"left_children":[1,3,-1,5,7,9,11,13,15,17,19,-1,21,-1,23,25,-1,-1,-1,-1,-1,-1,-1,-1,-1,-1,-1],"loss_changes":[2.525723E-1,3.633454E-1,0E0,1.6791166E-1,3.4280685E-1,1.3914059E-1,9.716303E-2,6.630474E-2,1.5205008E-1,2.0850544E-1,9.869474E-2,0E0,9.262273E-4,0E0,8.4275305E-2,4.645756E-2,0E0,0E0,0E0,0E0,0E0,0E0,0E0,0E0,0E0,0E0,0E0],"parents":[2147483647,0,0,1,1,3,3,4,4,5,5,6,6,7,7,8,8,9,9,10,10,12,12,14,14,15,15],"right_children":[2,4,-1,6,8,10,12,14,16,18,20,-1,22,-1,24,26,-1,-1,-1,-1,-1,-1,-1,-1,-1,-1,-1],"split_conditions":[3.1536E6,5E0,1.8069405E-3,3.504E4,6E0,5.2142857E1,5.256E4,8.76E3,6E1,3E0,2E0,-1.1407785E-3,2E0,-3.8705807E-4,5.256E4,3.504E4,1.2856574E-3,9.0852485E-4,-2.6140832E-3,3.536799E-4,1.5991379E-3,2.4320274E-4,6.623888E-4,-2.870296E-3,8.862763E-5,6.809016E-5,-1.8669401E-3],"split_indices":[0,2,0,0,2,0,0,0,1,2,2,0,2,0,0,0,0,0,0,0,0,0,0,0,0,0,0],"split_type":[0,0,0,0,0,0,0,0,0,0,0,0,0,0,0,0,0,0,0,0,0,0,0,0,0,0,0],"sum_hessian":[7.2E1,6.6E1,6E0,4.5E1,2.1E1,3.1E1,1.4E1,1.2E1,9E0,5E0,2.6E1,9E0,5E0,2E0,1E1,4E0,5E0,3E0,2E0,1.3E1,1.3E1,3E0,2E0,9E0,1E0,2E0,2E0],"tree_param":{"num_deleted":"0","num_feature":"3","num_nodes":"27","size_leaf_vector":"1"}},{"base_weights":[-7.6249446E-5,-1.8799748E-2,1.7914528E-3,3.1601686E-2,-1.23330034E-1,7.157018E-2,-5.577121E-2,-2.2632073E-1,2.289088E-2,-6.971876E-2,1.0031697E-1,-1.1305115E-3,4.8990566E-2,-3.8447755E-4,-2.569842E-1,-1.07211456E-1,1.2749435E-3,9.0171065E-4,-2.596656E-3,3.5039562E-4,1.5842889E-3,2.4137883E-4,6.579729E-4,-2.8444629E-3,8.8184475E-5,6.763637E-5,-1.8544939E-3],"categories":[],"categories_nodes":[],"categories_segments":[],"categories_sizes":[],"default_left":[0,0,0,0,0,0,0,0,0,0,0,0,0,0,0,0,0,0,0,0,0,0,0,0,0,0,0],"id":3,"left_children":[1,3,-1,5,7,9,11,13,15,17,19,-1,21,-1,23,25,-1,-1,-1,-1,-1,-1,-1,-1,-1,-1,-1],"loss_changes":[2.4833065E-1,3.5688534E-1,0E0,1.6463104E-1,3.3648732E-1,1.3696529E-1,9.554967E-2,6.501043E-2,1.4976041E-1,2.0563774E-1,9.687042E-2,0E0,9.179441E-4,0E0,8.280283E-2,4.584019E-2,0E0,0E0,0E0,0E0,0E0,0E0,0E0,0E0,0E0,0E0,0E0],"parents":[2147483647,0,0,1,1,3,3,4,4,5,5,6,6,7,7,8,8,9,9,10,10,12,12,14,14,15,15],"right_children":[2,4,-1,6,8,10,12,14,16,18,20,-1,22,-1,24,26,-1,-1,-1,-1,-1,-1,-1,-1,-1,-1,-1],"split_conditions":[3.1536E6,5E0,1.7914528E-3,3.504E4,6E0,5.2142857E1,5.256E4,8.76E3,6E1,3E0,2E0,-1.1305115E-3,2E0,-3.8447755E-4,5.256E4,3.504E4,1.2749435E-3,9.0171065E-4,-2.596656E-3,3.5039562E-4,1.5842889E-3,2.4137883E-4,6.579729E-4,-2.8444629E-3,8.8184475E-5,6.763637E-5,-1.8544939E-3],"split_indices":[0,2,0,0,2,0,0,0,1,2,2,0,2,0,0,0,0,0,0,0,0,0,0,0,0,0,0],"split_type":[0,0,0,0,0,0,0,0,0,0,0,0,0,0,0,0,0,0,0,0,0,0,0,0,0,0,0],"sum_hessian":[7.2E1,6.6E1,6E0,4.5E1,2.1E1,3.1E1,1.4E1,1.2E1,9E0,5E0,2.6E1,9E0,5E0,2E0,1E1,4E0,5E0,3E0,2E0,1.3E1,1.3E1,3E0,2E0,9E0,1E0,2E0,2E0],"tree_param":{"num_deleted":"0","num_feature":"3","num_nodes":"27","size_leaf_vector":"1"}},{"base_weights":[-1.008727E-4,-1.8666146E-2,1.7760972E-3,3.1285852E-2,-1.2226277E-1,7.086196E-2,-5.5228908E-2,-2.2429913E-1,2.2610774E-2,-6.930406E-2,9.938545E-2,-1.1203368E-3,4.8650544E-2,-3.8191455E-4,-2.5466493E-1,-1.0649672E-1,1.2643189E-3,8.949479E-4,-2.5793451E-3,3.4714173E-4,1.5695776E-3,2.3956834E-4,6.5358635E-4,-2.8188631E-3,8.77437E-5,6.718536E-5,-1.8421307E-3],"categories":[],"categories_nodes":[],"categories_segments":[],"categories_sizes":[],"default_left":[0,0,0,0,0,0,0,0,0,0,0,0,0,0,0,0,0,0,0,0,0,0,0,0,0,0,0],"id":4,"left_children":[1,3,-1,5,7,9,11,13,15,17,19,-1,21,-1,23,25,-1,-1,-1,-1,-1,-1,-1,-1,-1,-1,-1],"loss_changes":[2.4416022E-1,3.505406E-1,0E0,1.6141383E-1,3.3028373E-1,1.3482457E-1,9.396325E-2,6.374091E-2,1.4750543E-1,2.0280959E-1,9.507975E-2,0E0,9.097224E-4,0E0,8.135635E-2,4.5231026E-2,0E0,0E0,0E0,0E0,0E0,0E0,0E0,0E0,0E0,0E0,0E0],"parents":[2147483647,0,0,1,1,3,3,4,4,5,5,6,6,7,7,8,8,9,9,10,10,12,12,14,14,15,15],"right_children":[2,4,-1,6,8,10,12,14,16,18,20,-1,22,-1,24,26,-1,-1,-1,-1,-1,-1,-1,-1,-1,-1,-1],"split_conditions":[3.1536E6,5E0,1.7760972E-3,3.504E4,6E0,5.2142857E1,5.256E4,8.76E3,6E1,3E0,2E0,-1.1203368E-3,2E0,-3.8191455E-4,5.256E4,3.504E4,1.2643189E-3,8.949479E-4,-2.5793451E-3,3.4714173E-4,1.5695776E-3,2.3956834E-4,6.5358635E-4,-2.8188631E-3,8.77437E-5,6.718536E-5,-1.8421307E-3],"split_indices":[0,2,0,0,2,0,0,0,1,2,2,0,2,0,0,0,0,0,0,0,0,0,0,0,0,0,0],"split_type":[0,0,0,0,0,0,0,0,0,0,0,0,0,0,0,0,0,0,0,0,0,0,0,0,0,0,0],"sum_hessian":[7.2E1,6.6E1,6E0,4.5E1,2.1E1,3.1E1,1.4E1,1.2E1,9E0,5E0,2.6E1,9E0,5E0,2E0,1E1,4E0,5E0,3E0,2E0,1.3E1,1.3E1,3E0,2E0,9E0,1E0,2E0,2E0],"tree_param":{"num_deleted":"0","num_feature":"3","num_nodes":"27","size_leaf_vector":"1"}},{"base_weights":[-1.2509995E-4,-1.8533489E-2,1.7608735E-3,3.0973107E-2,-1.21204846E-1,7.0160605E-2,-5.469176E-2,-2.222956E-1,2.2333601E-2,-6.8891756E-2,9.846259E-2,-1.1102539E-3,4.8312914E-2,-3.7936866E-4,-2.5236654E-1,-1.0578673E-1,1.2537828E-3,8.882357E-4,-2.5621494E-3,1.5571715E-3,3.4174978E-4,2.3777172E-4,6.492293E-4,-2.793493E-3,8.730501E-5,6.673753E-5,-1.8298498E-3],"categories":[],"categories_nodes":[],"categories_segments":[],"categories_sizes":[],"default_left":[0,0,0,0,0,0,0,0,0,0,0,0,0,0,0,0,0,0,0,0,0,0,0,0,0,0,0],"id":5,"left_children":[1,3,-1,5,7,9,11,13,15,17,19,-1,21,-1,23,25,-1,-1,-1,-1,-1,-1,-1,-1,-1,-1,-1],"loss_changes":[2.4006E-1,3.4430903E-1,0E0,1.5825883E-1,3.2419363E-1,1.3271789E-1,9.240337E-2,6.2496066E-2,1.4528455E-1,2.0002034E-1,9.40589E-2,0E0,9.01551E-4,0E0,7.993513E-2,4.462996E-2,0E0,0E0,0E0,0E0,0E0,0E0,0E0,0E0,0E0,0E0,0E0],"parents":[2147483647,0,0,1,1,3,3,4,4,5,5,6,6,7,7,8,8,9,9,10,10,12,12,14,14,15,15],"right_children":[2,4,-1,6,8,10,12,14,16,18,20,-1,22,-1,24,26,-1,-1,-1,-1,-1,-1,-1,-1,-1,-1,-1],"split_conditions":[3.1536E6,5E0,1.7608735E-3,3.504E4,6E0,5.2142857E1,5.256E4,8.76E3,6E1,3E0,8.76E3,-1.1102539E-3,2E0,-3.7936866E-4,5.256E4,3.504E4,1.2537828E-3,8.882357E-4,-2.5621494E-3,1.5571715E-3,3.4174978E-4,2.3777172E-4,6.492293E-4,-2.793493E-3,8.730501E-5,6.673753E-5,-1.8298498E-3],"split_indices":[0,2,0,0,2,0,0,0,1,2,0,0,2,0,0,0,0,0,0,0,0,0,0,0,0,0,0],"split_type":[0,0,0,0,0,0,0,0,0,0,0,0,0,0,0,0,0,0,0,0,0,0,0,0,0,0,0],"sum_hessian":[7.2E1,6.6E1,6E0,4.5E1,2.1E1,3.1E1,1.4E1,1.2E1,9E0,5E0,2.6E1,9E0,5E0,2E0,1E1,4E0,5E0,3E0,2E0,1.3E1,1.3E1,3E0,2E0,9E0,1E0,2E0,2E0],"tree_param":{"num_deleted":"0","num_feature":"3","num_nodes":"27","size_leaf_vector":"1"}},{"base_weights":[-1.4895323E-4,-1.8401787E-2,1.7457801E-3,3.066341E-2,-1.20156206E-1,6.9466025E-2,-5.4159723E-2,-2.2030999E-1,2.205933E-2,-6.848182E-2,9.754828E-2,-1.1002616E-3,4.7977626E-2,-3.7683945E-4,-2.500889E-1,-1.0508149E-1,1.2433346E-3,8.81574E-4,-2.5450683E-3,3.3640402E-4,1.5448843E-3,2.359885E-4,6.449012E-4,-2.7683517E-3,8.68684E-5,6.629249E-5,-1.8176506E-3],"categories":[],"categories_nodes":[],"categories_segments":[],"categories_sizes":[],"default_left":[0,0,0,0,0,0,0,0,0,0,0,0,0,0,0,0,0,0,0,0,0,0,0,0,0,0,0],"id":6,"left_children":[1,3,-1,5,7,9,11,13,15,17,19,-1,21,-1,23,25,-1,-1,-1,-1,-1,-1,-1,-1,-1,-1,-1],"loss_changes":[2.3602869E-1,3.3818865E-1,0E0,1.5516478E-1,3.1821522E-1,1.3064466E-1,9.086953E-2,6.1274946E-2,1.4309731E-1,1.9726956E-1,9.305391E-2,0E0,8.934336E-4,0E0,7.8538895E-2,4.4036854E-2,0E0,0E0,0E0,0E0,0E0,0E0,0E0,0E0,0E0,0E0,0E0],"parents":[2147483647,0,0,1,1,3,3,4,4,5,5,6,6,7,7,8,8,9,9,10,10,12,12,14,14,15,15],"right_children":[2,4,-1,6,8,10,12,14,16,18,20,-1,22,-1,24,26,-1,-1,-1,-1,-1,-1,-1,-1,-1,-1,-1],"split_conditions":[3.1536E6,5E0,1.7457801E-3,3.504E4,6E0,5.2142857E1,5.256E4,8.76E3,6E1,3E0,2E0,-1.1002616E-3,2E0,-3.7683945E-4,5.256E4,3.504E4,1.2433346E-3,8.81574E-4,-2.5450683E-3,3.3640402E-4,1.5448843E-3,2.359885E-4,6.449012E-4,-2.7683517E-3,8.68684E-5,6.629249E-5,-1.8176506E-3],"split_indices":[0,2,0,0,2,0,0,0,1,2,2,0,2,0,0,0,0,0,0,0,0,0,0,0,0,0,0],"split_type":[0,0,0,0,0,0,0,0,0,0,0,0,0,0,0,0,0,0,0,0,0,0,0,0,0,0,0],"sum_hessian":[7.2E1,6.6E1,6E0,4.5E1,2.1E1,3.1E1,1.4E1,1.2E1,9E0,5E0,2.6E1,9E0,5E0,2E0,1E1,4E0,5E0,3E0,2E0,1.3E1,1.3E1,3E0,2E0,9E0,1E0,2E0,2E0],"tree_param":{"num_deleted":"0","num_feature":"3","num_nodes":"27","size_leaf_vector":"1"}},{"base_weights":[-1.7243011E-4,-1.8271029E-2,1.7308164E-3,3.0356735E-2,-1.1911676E-1,6.8778165E-2,-5.3632762E-2,-2.1834216E-1,2.1787927E-2,-6.807424E-2,9.664247E-2,-1.0903594E-3,4.7644664E-2,-3.743273E-4,-2.478318E-1,-1.0438095E-1,1.2329733E-3,8.7496237E-4,-2.5281012E-3,1.5326826E-3,3.3113634E-4,2.3421868E-4,6.4060173E-4,-2.7434367E-3,8.6434186E-5,6.585061E-5,-1.805533E-3],"categories":[],"categories_nodes":[],"categories_segments":[],"categories_sizes":[],"default_left":[0,0,0,0,0,0,0,0,0,0,0,0,0,0,0,0,0,0,0,0,0,0,0,0,0,0,0],"id":7,"left_children":[1,3,-1,5,7,9,11,13,15,17,19,-1,21,-1,23,25,-1,-1,-1,-1,-1,-1,-1,-1,-1,-1,-1],"loss_changes":[2.3206526E-1,3.3217746E-1,0E0,1.521306E-1,3.123463E-1,1.2860435E-1,8.936134E-2,6.007743E-2,1.4094317E-1,1.9455664E-1,9.205374E-2,0E0,8.853674E-4,0E0,7.716721E-2,4.3451667E-2,0E0,0E0,0E0,0E0,0E0,0E0,0E0,0E0,0E0,0E0,0E0],"parents":[2147483647,0,0,1,1,3,3,4,4,5,5,6,6,7,7,8,8,9,9,10,10,12,12,14,14,15,15],"right_children":[2,4,-1,6,8,10,12,14,16,18,20,-1,22,-1,24,26,-1,-1,-1,-1,-1,-1,-1,-1,-1,-1,-1],"split_conditions":[3.1536E6,5E0,1.7308164E-3,3.504E4,6E0,5.2142857E1,5.256E4,8.76E3,6E1,3E0,8.76E3,-1.0903594E-3,2E0,-3.743273E-4,5.256E4,3.504E4,1.2329733E-3,8.7496237E-4,-2.5281012E-3,1.5326826E-3,3.3113634E-4,2.3421868E-4,6.4060173E-4,-2.7434367E-3,8.6434186E-5,6.585061E-5,-1.805533E-3],"split_indices":[0,2,0,0,2,0,0,0,1,2,0,0,2,0,0,0,0,0,0,0,0,0,0,0,0,0,0],"split_type":[0,0,0,0,0,0,0,0,0,0,0,0,0,0,0,0,0,0,0,0,0,0,0,0,0,0,0],"sum_hessian":[7.2E1,6.6E1,6E0,4.5E1,2.1E1,3.1E1,1.4E1,1.2E1,9E0,5E0,2.6E1,9E0,5E0,2E0,1E1,4E0,5E0,3E0,2E0,1.3E1,1.3E1,3E0,2E0,9E0,1E0,2E0,2E0],"tree_param":{"num_deleted":"0","num_feature":"3","num_nodes":"27","size_leaf_vector":"1"}},{"base_weights":[-1.9553467E-4,-1.8141204E-2,1.715981E-3,3.0053055E-2,-1.1808642E-1,6.8096966E-2,-5.311082E-2,-2.1639192E-1,2.1519372E-2,-6.7669E-2,9.5745064E-2,-1.0805463E-3,4.7314E-2,-2.3585795E-1,8.600205E-5,-1.0368507E-1,1.2226985E-3,8.684003E-4,-2.511247E-3,3.25914E-4,1.520598E-3,2.3246184E-4,6.363308E-4,-3.7183185E-4,-2.7187457E-3,6.541153E-5,-1.7934961E-3],"categories":[],"categories_nodes":[],"categories_segments":[],"categories_sizes":[],"default_left":[0,0,0,0,0,0,0,0,0,0,0,0,0,0,0,0,0,0,0,0,0,0,0,0,0,0,0],"id":8,"left_children":[1,3,-1,5,7,9,11,13,15,17,19,-1,21,23,-1,25,-1,-1,-1,-1,-1,-1,-1,-1,-1,-1,-1],"loss_changes":[2.2816849E-1,3.262735E-1,0E0,1.4915511E-1,3.0658495E-1,1.2659647E-1,8.787833E-2,5.896461E-2,1.3882165E-1,1.9188106E-1,9.106915E-2,0E0,8.7736174E-4,7.575792E-2,0E0,4.287423E-2,0E0,0E0,0E0,0E0,0E0,0E0,0E0,0E0,0E0,0E0,0E0],"parents":[2147483647,0,0,1,1,3,3,4,4,5,5,6,6,7,7,8,8,9,9,10,10,12,12,13,13,15,15],"right_children":[2,4,-1,6,8,10,12,14,16,18,20,-1,22,24,-1,26,-1,-1,-1,-1,-1,-1,-1,-1,-1,-1,-1],"split_conditions":[3.1536E6,5E0,1.715981E-3,3.504E4,6E0,5.2142857E1,5.256E4,5.256E4,6E1,3E0,2E0,-1.0805463E-3,2E0,8.76E3,8.600205E-5,3.504E4,1.2226985E-3,8.684003E-4,-2.511247E-3,3.25914E-4,1.520598E-3,2.3246184E-4,6.363308E-4,-3.7183185E-4,-2.7187457E-3,6.541153E-5,-1.7934961E-3],"split_indices":[0,2,0,0,2,0,0,0,1,2,2,0,2,0,0,0,0,0,0,0,0,0,0,0,0,0,0],"split_type":[0,0,0,0,0,0,0,0,0,0,0,0,0,0,0,0,0,0,0,0,0,0,0,0,0,0,0],"sum_hessian":[7.2E1,6.6E1,6E0,4.5E1,2.1E1,3.1E1,1.4E1,1.2E1,9E0,5E0,2.6E1,9E0,5E0,1.1E1,1E0,4E0,5E0,3E0,2E0,1.3E1,1.3E1,3E0,2E0,2E0,9E0,2E0,2E0],"tree_param":{"num_deleted":"0","num_feature":"3","num_nodes":"27","size_leaf_vector":"1"}},{"base_weights":[-2.1825302E-4,-1.801229E-2,1.7012728E-3,2.975236E-2,-1.17065094E-1,6.742237E-2,-5.2593812E-2,-2.1445912E-1,2.125366E-2,-6.72661E-2,9.485602E-2,-1.0708211E-3,4.6985656E-2,-2.3375691E-1,8.5572E-5,-1.0299383E-1,1.2125096E-3,8.6188747E-4,-2.4945054E-3,1.5085978E-3,3.2076827E-4,2.307184E-4,6.320885E-4,-3.693531E-4,-2.694277E-3,6.497562E-5,-1.7815394E-3],"categories":[],"categories_nodes":[],"categories_segments":[],"categories_sizes":[],"default_left":[0,0,0,0,0,0,0,0,0,0,0,0,0,0,0,0,0,0,0,0,0,0,0,0,0,0,0],"id":9,"left_children":[1,3,-1,5,7,9,11,13,15,17,19,-1,21,23,-1,25,-1,-1,-1,-1,-1,-1,-1,-1,-1,-1,-1],"loss_changes":[2.2433724E-1,3.2047486E-1,0E0,1.4623713E-1,3.0092928E-1,1.2462045E-1,8.642006E-2,5.794871E-2,1.3673224E-1,1.8924233E-1,9.008941E-2,0E0,8.694073E-4,7.4298024E-2,0E0,4.230449E-2,0E0,0E0,0E0,0E0,0E0,0E0,0E0,0E0,0E0,0E0,0E0],"parents":[2147483647,0,0,1,1,3,3,4,4,5,5,6,6,7,7,8,8,9,9,10,10,12,12,13,13,15,15],"right_children":[2,4,-1,6,8,10,12,14,16,18,20,-1,22,24,-1,26,-1,-1,-1,-1,-1,-1,-1,-1,-1,-1,-1],"split_conditions":[3.1536E6,5E0,1.7012728E-3,3.504E4,6E0,5.2142857E1,5.256E4,5.256E4,6E1,3E0,8.76E3,-1.0708211E-3,2E0,8.76E3,8.5572E-5,3.504E4,1.2125096E-3,8.6188747E-4,-2.4945054E-3,1.5085978E-3,3.2076827E-4,2.307184E-4,6.320885E-4,-3.693531E-4,-2.694277E-3,6.497562E-5,-1.7815394E-3],"split_indices":[0,2,0,0,2,0,0,0,1,2,0,0,2,0,0,0,0,0,0,0,0,0,0,0,0,0,0],"split_type":[0,0,0,0,0,0,0,0,0,0,0,0,0,0,0,0,0,0,0,0,0,0,0,0,0,0,0],"sum_hessian":[7.2E1,6.6E1,6E0,4.5E1,2.1E1,3.1E1,1.4E1,1.2E1,9E0,5E0,2.6E1,9E0,5E0,1.1E1,1E0,4E0,5E0,3E0,2E0,1.3E1,1.3E1,3E0,2E0,2E0,9E0,2E0,2E0],"tree_param":{"num_deleted":"0","num_feature":"3","num_nodes":"27","size_leaf_vector":"1"}},{"base_weights":[-2.4063415E-4,-1.7884322E-2,1.6866903E-3,2.9454581E-2,-1.1605274E-1,6.675429E-2,-5.208176E-2,-2.1254364E-1,2.0990703E-2,-6.686554E-2,9.39752E-2,-1.061184E-3,4.665959E-2,-2.3167467E-1,8.514404E-5,-1.0230721E-1,1.2024051E-3,8.5542334E-4,-2.4778752E-3,3.1566672E-4,1.4967121E-3,2.2898793E-4,6.278745E-4,-3.668906E-4,-2.6700287E-3,6.4542495E-5,-1.7696626E-3],"categories":[],"categories_nodes":[],"categories_segments":[],"categories_sizes":[],"default_left":[0,0,0,0,0,0,0,0,0,0,0,0,0,0,0,0,0,0,0,0,0,0,0,0,0,0,0],"id":10,"left_children":[1,3,-1,5,7,9,11,13,15,17,19,-1,21,23,-1,25,-1,-1,-1,-1,-1,-1,-1,-1,-1,-1,-1],"loss_changes":[2.2057034E-1,3.147797E-1,0E0,1.4337564E-1,2.953772E-1,1.22675836E-1,8.4986195E-2,5.695051E-2,1.3467441E-1,1.8663993E-1,8.912484E-2,0E0,8.615097E-4,7.2865844E-2,0E0,4.174232E-2,0E0,0E0,0E0,0E0,0E0,0E0,0E0,0E0,0E0,0E0,0E0],"parents":[2147483647,0,0,1,1,3,3,4,4,5,5,6,6,7,7,8,8,9,9,10,10,12,12,13,13,15,15],"right_children":[2,4,-1,6,8,10,12,14,16,18,20,-1,22,24,-1,26,-1,-1,-1,-1,-1,-1,-1,-1,-1,-1,-1],"split_conditions":[3.1536E6,5E0,1.6866903E-3,3.504E4,6E0,5.2142857E1,5.256E4,5.256E4,6E1,3E0,2E0,-1.061184E-3,2E0,8.76E3,8.514404E-5,3.504E4,1.2024051E-3,8.5542334E-4,-2.4778752E-3,3.1566672E-4,1.4967121E-3,2.2898793E-4,6.278745E-4,-3.668906E-4,-2.6700287E-3,6.4542495E-5,-1.7696626E-3],"split_indices":[0,2,0,0,2,0,0,0,1,2,2,0,2,0,0,0,0,0,0,0,0,0,0,0,0,0,0],"split_type":[0,0,0,0,0,0,0,0,0,0,0,0,0,0,0,0,0,0,0,0,0,0,0,0,0,0,0],"sum_hessian":[7.2E1,6.6E1,6E0,4.5E1,2.1E1,3.1E1,1.4E1,1.2E1,9E0,5E0,2.6E1,9E0,5E0,1.1E1,1E0,4E0,5E0,3E0,2E0,1.3E1,1.3E1,3E0,2E0,2E0,9E0,2E0,2E0],"tree_param":{"num_deleted":"0","num_feature":"3","num_nodes":"27","size_leaf_vector":"1"}},{"base_weights":[-2.6264216E-4,-1.7757252E-2,1.6722329E-3,2.915972E-2,-1.1504923E-1,6.609267E-2,-5.1574558E-2,-2.1064524E-1,2.0730522E-2,-6.64673E-2,9.310257E-2,-1.0516332E-3,4.6335798E-2,-2.29611E-1,8.4718464E-5,-1.0162516E-1,1.192385E-3,8.490075E-4,-2.461356E-3,1.4849092E-3,3.106402E-4,2.2727042E-4,6.236887E-4,-1.4775024E-3,-3.5639491E-3,6.4112144E-5,-1.7578647E-3],"categories":[],"categories_nodes":[],"categories_segments":[],"categories_sizes":[],"default_left":[0,0,0,0,0,0,0,0,0,0,0,0,0,0,0,0,0,0,0,0,0,0,0,0,0,0,0],"id":11,"left_children":[1,3,-1,5,7,9,11,13,15,17,19,-1,21,23,-1,25,-1,-1,-1,-1,-1,-1,-1,-1,-1,-1,-1],"loss_changes":[2.1686679E-1,3.09186E-1,0E0,1.4056943E-1,2.8992683E-1,1.2076205E-1,8.357623E-2,5.5969596E-2,1.3264775E-1,1.8407336E-1,8.8165015E-2,0E0,8.536661E-4,7.188612E-2,0E0,4.1187607E-2,0E0,0E0,0E0,0E0,0E0,0E0,0E0,0E0,0E0,0E0,0E0],"parents":[2147483647,0,0,1,1,3,3,4,4,5,5,6,6,7,7,8,8,9,9,10,10,12,12,13,13,15,15],"right_children":[2,4,-1,6,8,10,12,14,16,18,20,-1,22,24,-1,26,-1,-1,-1,-1,-1,-1,-1,-1,-1,-1,-1],"split_conditions":[3.1536E6,5E0,1.6722329E-3,3.504E4,6E0,5.2142857E1,5.256E4,5.256E4,6E1,3E0,8.76E3,-1.0516332E-3,2E0,3.504E4,8.4718464E-5,3.504E4,1.192385E-3,8.490075E-4,-2.461356E-3,1.4849092E-3,3.106402E-4,2.2727042E-4,6.236887E-4,-1.4775024E-3,-3.5639491E-3,6.4112144E-5,-1.7578647E-3],"split_indices":[0,2,0,0,2,0,0,0,1,2,0,0,2,0,0,0,0,0,0,0,0,0,0,0,0,0,0],"split_type":[0,0,0,0,0,0,0,0,0,0,0,0,0,0,0,0,0,0,0,0,0,0,0,0,0,0,0],"sum_hessian":[7.2E1,6.6E1,6E0,4.5E1,2.1E1,3.1E1,1.4E1,1.2E1,9E0,5E0,2.6E1,9E0,5E0,1.1E1,1E0,4E0,5E0,3E0,2E0,1.3E1,1.3E1,3E0,2E0,8E0,3E0,2E0,2E0],"tree_param":{"num_deleted":"0","num_feature":"3","num_nodes":"27","size_leaf_vector":"1"}},{"base_weights":[-3.1212872E-4,-1.766142E-2,1.6578997E-3,2.8867723E-2,-1.1414684E-1,6.543745E-2,-5.107221E-2,-2.0892009E-1,2.0473072E-2,-6.607135E-2,9.223802E-2,-1.0421687E-3,4.601426E-2,-3.54595E-4,-2.3723479E-1,-1.0094767E-1,1.1824485E-3,8.4263994E-4,-2.444947E-3,3.0565698E-4,1.473219E-3,2.2556588E-4,6.195307E-4,-2.6264417E-3,8.4294974E-5,6.368458E-5,-1.7461458E-3],"categories":[],"categories_nodes":[],"categories_segments":[],"categories_sizes":[],"default_left":[0,0,0,0,0,0,0,0,0,0,0,0,0,0,0,0,0,0,0,0,0,0,0,0,0,0,0],"id":12,"left_children":[1,3,-1,5,7,9,11,13,15,17,19,-1,21,-1,23,25,-1,-1,-1,-1,-1,-1,-1,-1,-1,-1,-1],"loss_changes":[2.1329612E-1,3.0408388E-1,0E0,1.3781759E-1,2.849613E-1,1.1887863E-1,8.218987E-2,5.5437088E-2,1.3065176E-1,1.8154211E-1,8.722007E-2,0E0,8.4587466E-4,0E0,7.087791E-2,4.0640265E-2,0E0,0E0,0E0,0E0,0E0,0E0,0E0,0E0,0E0,0E0,0E0],"parents":[2147483647,0,0,1,1,3,3,4,4,5,5,6,6,7,7,8,8,9,9,10,10,12,12,14,14,15,15],"right_children":[2,4,-1,6,8,10,12,14,16,18,20,-1,22,-1,24,26,-1,-1,-1,-1,-1,-1,-1,-1,-1,-1,-1],"split_conditions":[3.1536E6,5E0,1.6578997E-3,3.504E4,6E0,5.2142857E1,5.256E4,8.76E3,6E1,3E0,2E0,-1.0421687E-3,2E0,-3.54595E-4,5.256E4,3.504E4,1.1824485E-3,8.4263994E-4,-2.444947E-3,3.0565698E-4,1.473219E-3,2.2556588E-4,6.195307E-4,-2.6264417E-3,8.4294974E-5,6.368458E-5,-1.7461458E-3],"split_indices":[0,2,0,0,2,0,0,0,1,2,2,0,2,0,0,0,0,0,0,0,0,0,0,0,0,0,0],"split_type":[0,0,0,0,0,0,0,0,0,0,0,0,0,0,0,0,0,0,0,0,0,0,0,0,0,0,0],"sum_hessian":[7.2E1,6.6E1,6E0,4.5E1,2.1E1,3.1E1,1.4E1,1.2E1,9E0,5E0,2.6E1,9E0,5E0,2E0,1E1,4E0,5E0,3E0,2E0,1.3E1,1.3E1,3E0,2E0,9E0,1E0,2E0,2E0],"tree_param":{"num_deleted":"0","num_feature":"3","num_nodes":"27","size_leaf_vector":"1"}},{"base_weights":[-3.33112E-4,-1.7535815E-2,1.6436891E-3,2.8578598E-2,-1.13159776E-1,6.478859E-2,-5.0574612E-2,-2.0705374E-1,2.0218346E-2,-6.567769E-2,9.138151E-2,-1.032789E-3,4.5694977E-2,-3.5223106E-4,-2.3509356E-1,-1.0027469E-1,1.1725947E-3,8.363202E-4,-2.4286474E-3,1.4616103E-3,3.007473E-4,2.2387429E-4,6.154005E-4,-2.602804E-3,8.3873565E-5,6.3260195E-5,-1.734505E-3],"categories":[],"categories_nodes":[],"categories_segments":[],"categories_sizes":[],"default_left":[0,0,0,0,0,0,0,0,0,0,0,0,0,0,0,0,0,0,0,0,0,0,0,0,0,0,0],"id":13,"left_children":[1,3,-1,5,7,9,11,13,15,17,19,-1,21,-1,23,25,-1,-1,-1,-1,-1,-1,-1,-1,-1,-1,-1],"loss_changes":[2.0971468E-1,2.9868004E-1,0E0,1.3511895E-1,2.7970108E-1,1.1702509E-1,8.082663E-2,5.4354608E-2,1.2868597E-1,1.7904575E-1,8.627987E-2,0E0,8.3813444E-4,0E0,6.9640696E-2,4.0100224E-2,0E0,0E0,0E0,0E0,0E0,0E0,0E0,0E0,0E0,0E0,0E0],"parents":[2147483647,0,0,1,1,3,3,4,4,5,5,6,6,7,7,8,8,9,9,10,10,12,12,14,14,15,15],"right_children":[2,4,-1,6,8,10,12,14,16,18,20,-1,22,-1,24,26,-1,-1,-1,-1,-1,-1,-1,-1,-1,-1,-1],"split_conditions":[3.1536E6,5E0,1.6436891E-3,3.504E4,6E0,5.2142857E1,5.256E4,8.76E3,6E1,3E0,8.76E3,-1.032789E-3,2E0,-3.5223106E-4,5.256E4,3.504E4,1.1725947E-3,8.363202E-4,-2.4286474E-3,1.4616103E-3,3.007473E-4,2.2387429E-4,6.154005E-4,-2.602804E-3,8.3873565E-5,6.3260195E-5,-1.734505E-3],"split_indices":[0,2,0,0,2,0,0,0,1,2,0,0,2,0,0,0,0,0,0,0,0,0,0,0,0,0,0],"split_type":[0,0,0,0,0,0,0,0,0,0,0,0,0,0,0,0,0,0,0,0,0,0,0,0,0,0,0],"sum_hessian":[7.2E1,6.6E1,6E0,4.5E1,2.1E1,3.1E1,1.4E1,1.2E1,9E0,5E0,2.6E1,9E0,5E0,2E0,1E1,4E0,5E0,3E0,2E0,1.3E1,1.3E1,3E0,2E0,9E0,1E0,2E0,2E0],"tree_param":{"num_deleted":"0","num_feature":"3","num_nodes":"27","size_leaf_vector":"1"}},{"base_weights":[-3.5375805E-4,-1.741111E-2,1.6296001E-3,2.8292289E-2,-1.1218135E-1,6.4146E-2,-5.008178E-2,-2.0520405E-1,1.9966295E-2,-6.528629E-2,9.053295E-2,-1.023494E-3,4.53779E-2,-3.4988302E-4,-2.3297161E-1,-9.9606186E-2,1.162823E-3,8.300479E-4,-2.4124563E-3,2.9588005E-4,1.4501126E-3,2.2219523E-4,6.1129767E-4,-2.5793784E-3,8.345425E-5,6.283859E-5,-1.7229416E-3],"categories":[],"categories_nodes":[],"categories_segments":[],"categories_sizes":[],"default_left":[0,0,0,0,0,0,0,0,0,0,0,0,0,0,0,0,0,0,0,0,0,0,0,0,0,0,0],"id":14,"left_children":[1,3,-1,5,7,9,11,13,15,17,19,-1,21,-1,23,25,-1,-1,-1,-1,-1,-1,-1,-1,-1,-1,-1],"loss_changes":[2.0619345E-1,2.9337245E-1,0E0,1.324726E-1,2.7453724E-1,1.1520094E-1,7.948618E-2,5.329293E-2,1.267499E-1,1.7658375E-1,8.535418E-2,0E0,8.3045196E-4,0E0,6.842518E-2,3.9567348E-2,0E0,0E0,0E0,0E0,0E0,0E0,0E0,0E0,0E0,0E0,0E0],"parents":[2147483647,0,0,1,1,3,3,4,4,5,5,6,6,7,7,8,8,9,9,10,10,12,12,14,14,15,15],"right_children":[2,4,-1,6,8,10,12,14,16,18,20,-1,22,-1,24,26,-1,-1,-1,-1,-1,-1,-1,-1,-1,-1,-1],"split_conditions":[3.1536E6,5E0,1.6296001E-3,3.504E4,6E0,5.2142857E1,5.256E4,8.76E3,6E1,3E0,2E0,-1.023494E-3,2E0,-3.4988302E-4,5.256E4,3.504E4,1.162823E-3,8.300479E-4,-2.4124563E-3,2.9588005E-4,1.4501126E-3,2.2219523E-4,6.1129767E-4,-2.5793784E-3,8.345425E-5,6.283859E-5,-1.7229416E-3],"split_indices":[0,2,0,0,2,0,0,0,1,2,2,0,2,0,0,0,0,0,0,0,0,0,0,0,0,0,0],"split_type":[0,0,0,0,0,0,0,0,0,0,0,0,0,0,0,0,0,0,0,0,0,0,0,0,0,0,0],"sum_hessian":[7.2E1,6.6E1,6E0,4.5E1,2.1E1,3.1E1,1.4E1,1.2E1,9E0,5E0,2.6E1,9E0,5E0,2E0,1E1,4E0,5E0,3E0,2E0,1.3E1,1.3E1,3E0,2E0,9E0,1E0,2E0,2E0],"tree_param":{"num_deleted":"0","num_feature":"3","num_nodes":"27","size_leaf_vector":"1"}},{"base_weights":[-3.7405794E-4,-1.7287295E-2,1.6156321E-3,2.8008783E-2,-1.1121149E-1,6.350965E-2,-4.9593646E-2,-2.0337091E-1,1.9716904E-2,-6.489717E-2,8.969229E-2,-1.0142828E-3,4.506303E-2,-2.2170244E-1,8.303702E-5,-9.8942146E-2,1.1531329E-3,8.2382245E-4,-2.3963733E-3,1.438695E-3,2.9108478E-4,2.2052869E-4,6.072223E-4,-1.4099636E-3,-3.478655E-3,6.241977E-5,-1.7114554E-3],"categories":[],"categories_nodes":[],"categories_segments":[],"categories_sizes":[],"default_left":[0,0,0,0,0,0,0,0,0,0,0,0,0,0,0,0,0,0,0,0,0,0,0,0,0,0,0],"id":15,"left_children":[1,3,-1,5,7,9,11,13,15,17,19,-1,21,23,-1,25,-1,-1,-1,-1,-1,-1,-1,-1,-1,-1,-1],"loss_changes":[2.027315E-1,2.8815952E-1,0E0,1.2987752E-1,2.694681E-1,1.13405734E-1,7.8168094E-2,5.2285135E-2,1.24843106E-1,1.7415565E-1,8.443326E-2,0E0,8.228235E-4,7.31377E-2,0E0,3.904154E-2,0E0,0E0,0E0,0E0,0E0,0E0,0E0,0E0,0E0,0E0,0E0],"parents":[2147483647,0,0,1,1,3,3,4,4,5,5,6,6,7,7,8,8,9,9,10,10,12,12,13,13,15,15],"right_children":[2,4,-1,6,8,10,12,14,16,18,20,-1,22,24,-1,26,-1,-1,-1,-1,-1,-1,-1,-1,-1,-1,-1],"split_conditions":[3.1536E6,5E0,1.6156321E-3,3.504E4,6E0,5.2142857E1,5.256E4,5.256E4,6E1,3E0,8.76E3,-1.0142828E-3,2E0,3.504E4,8.303702E-5,3.504E4,1.1531329E-3,8.2382245E-4,-2.3963733E-3,1.438695E-3,2.9108478E-4,2.2052869E-4,6.072223E-4,-1.4099636E-3,-3.478655E-3,6.241977E-5,-1.7114554E-3],"split_indices":[0,2,0,0,2,0,0,0,1,2,0,0,2,0,0,0,0,0,0,0,0,0,0,0,0,0,0],"split_type":[0,0,0,0,0,0,0,0,0,0,0,0,0,0,0,0,0,0,0,0,0,0,0,0,0,0,0],"sum_hessian":[7.2E1,6.6E1,6E0,4.5E1,2.1E1,3.1E1,1.4E1,1.2E1,9E0,5E0,2.6E1,9E0,5E0,1.1E1,1E0,4E0,5E0,3E0,2E0,1.3E1,1.3E1,3E0,2E0,8E0,3E0,2E0,2E0],"tree_param":{"num_deleted":"0","num_feature":"3","num_nodes":"27","size_leaf_vector":"1"}},{"base_weights":[-4.2121092E-4,-1.7193986E-2,1.6017838E-3,2.772806E-2,-1.1034036E-1,6.2879466E-2,-4.9110137E-2,-2.0170687E-1,1.9470152E-2,-6.451029E-2,8.885943E-2,-1.0051542E-3,4.4750363E-2,-3.3815086E-4,-2.2915855E-1,-9.828253E-2,1.1435236E-3,8.17644E-4,-2.3803976E-3,2.86331E-4,1.4273865E-3,2.1887466E-4,6.031744E-4,-2.5372684E-3,8.262187E-5,6.200373E-5,-1.7000459E-3],"categories":[],"categories_nodes":[],"categories_segments":[],"categories_sizes":[],"default_left":[0,0,0,0,0,0,0,0,0,0,0,0,0,0,0,0,0,0,0,0,0,0,0,0,0,0,0],"id":16,"left_children":[1,3,-1,5,7,9,11,13,15,17,19,-1,21,-1,23,25,-1,-1,-1,-1,-1,-1,-1,-1,-1,-1,-1],"loss_changes":[1.9939427E-1,2.8340936E-1,0E0,1.2733266E-1,2.6485458E-1,1.1163896E-1,7.6871976E-2,5.216682E-2,1.2296519E-1,1.71761E-1,8.352652E-2,0E0,8.152537E-4,0E0,6.625962E-2,3.8522746E-2,0E0,0E0,0E0,0E0,0E0,0E0,0E0,0E0,0E0,0E0,0E0],"parents":[2147483647,0,0,1,1,3,3,4,4,5,5,6,6,7,7,8,8,9,9,10,10,12,12,14,14,15,15],"right_children":[2,4,-1,6,8,10,12,14,16,18,20,-1,22,-1,24,26,-1,-1,-1,-1,-1,-1,-1,-1,-1,-1,-1],"split_conditions":[3.1536E6,5E0,1.6017838E-3,3.504E4,6E0,5.2142857E1,5.256E4,8.76E3,6E1,3E0,2E0,-1.0051542E-3,2E0,-3.3815086E-4,5.256E4,3.504E4,1.1435236E-3,8.17644E-4,-2.3803976E-3,2.86331E-4,1.4273865E-3,2.1887466E-4,6.031744E-4,-2.5372684E-3,8.262187E-5,6.200373E-5,-1.7000459E-3],"split_indices":[0,2,0,0,2,0,0,0,1,2,2,0,2,0,0,0,0,0,0,0,0,0,0,0,0,0,0],"split_type":[0,0,0,0,0,0,0,0,0,0,0,0,0,0,0,0,0,0,0,0,0,0,0,0,0,0,0],"sum_hessian":[7.2E1,6.6E1,6E0,4.5E1,2.1E1,3.1E1,1.4E1,1.2E1,9E0,5E0,2.6E1,9E0,5E0,2E0,1E1,4E0,5E0,3E0,2E0,1.3E1,1.3E1,3E0,2E0,9E0,1E0,2E0,2E0],"tree_param":{"num_deleted":"0","num_feature":"3","num_nodes":"27","size_leaf_vector":"1"}},{"base_weights":[-4.4053345E-4,-1.7071597E-2,1.5880545E-3,2.7450072E-2,-1.0938638E-1,6.2255368E-2,-4.8631232E-2,-1.9990465E-1,1.9226005E-2,-6.4125665E-2,8.803429E-2,-9.961077E-4,4.4439863E-2,-3.358966E-4,-2.2709014E-1,-9.762731E-2,1.1339943E-3,8.1151153E-4,-2.3645286E-3,1.4161565E-3,2.816475E-4,2.1723314E-4,5.9915305E-4,-2.514433E-3,8.220881E-5,6.159047E-5,-1.6887124E-3],"categories":[],"categories_nodes":[],"categories_segments":[],"categories_sizes":[],"default_left":[0,0,0,0,0,0,0,0,0,0,0,0,0,0,0,0,0,0,0,0,0,0,0,0,0,0,0],"id":17,"left_children":[1,3,-1,5,7,9,11,13,15,17,19,-1,21,-1,23,25,-1,-1,-1,-1,-1,-1,-1,-1,-1,-1,-1],"loss_changes":[1.9604646E-1,2.783732E-1,0E0,1.24837056E-1,2.5996232E-1,1.0990016E-1,7.559751E-2,5.1149666E-2,1.2111566E-1,1.6939932E-1,8.2624525E-2,0E0,8.077333E-4,0E0,6.510341E-2,3.8010824E-2,0E0,0E0,0E0,0E0,0E0,0E0,0E0,0E0,0E0,0E0,0E0],"parents":[2147483647,0,0,1,1,3,3,4,4,5,5,6,6,7,7,8,8,9,9,10,10,12,12,14,14,15,15],"right_children":[2,4,-1,6,8,10,12,14,16,18,20,-1,22,-1,24,26,-1,-1,-1,-1,-1,-1,-1,-1,-1,-1,-1],"split_conditions":[3.1536E6,5E0,1.5880545E-3,3.504E4,6E0,5.2142857E1,5.256E4,8.76E3,6E1,3E0,8.76E3,-9.961077E-4,2E0,-3.358966E-4,5.256E4,3.504E4,1.1339943E-3,8.1151153E-4,-2.3645286E-3,1.4161565E-3,2.816475E-4,2.1723314E-4,5.9915305E-4,-2.514433E-3,8.220881E-5,6.159047E-5,-1.6887124E-3],"split_indices":[0,2,0,0,2,0,0,0,1,2,0,0,2,0,0,0,0,0,0,0,0,0,0,0,0,0,0],"split_type":[0,0,0,0,0,0,0,0,0,0,0,0,0,0,0,0,0,0,0,0,0,0,0,0,0,0,0],"sum_hessian":[7.2E1,6.6E1,6E0,4.5E1,2.1E1,3.1E1,1.4E1,1.2E1,9E0,5E0,2.6E1,9E0,5E0,2E0,1E1,4E0,5E0,3E0,2E0,1.3E1,1.3E1,3E0,2E0,9E0,1E0,2E0,2E0],"tree_param":{"num_deleted":"0","num_feature":"3","num_nodes":"27","size_leaf_vector":"1"}},{"base_weights":[-4.5952282E-4,-1.6950075E-2,1.5744426E-3,2.7174817E-2,-1.0844076E-1,6.163735E-2,-4.8156902E-2,-1.9811854E-1,1.8984446E-2,-6.374325E-2,8.721684E-2,-9.871426E-4,4.4131517E-2,-3.3365743E-4,-2.2504035E-1,-9.697645E-2,1.1245445E-3,8.0542517E-4,-2.3487653E-3,2.7700514E-4,1.4050339E-3,2.1560371E-4,5.951587E-4,-2.4918034E-3,8.1797836E-5,6.117999E-5,-1.6774542E-3],"categories":[],"categories_nodes":[],"categories_segments":[],"categories_sizes":[],"default_left":[0,0,0,0,0,0,0,0,0,0,0,0,0,0,0,0,0,0,0,0,0,0,0,0,0,0,0],"id":18,"left_children":[1,3,-1,5,7,9,11,13,15,17,19,-1,21,-1,23,25,-1,-1,-1,-1,-1,-1,-1,-1,-1,-1,-1],"loss_changes":[1.9275491E-1,2.7342695E-1,0E0,1.2238987E-1,2.551598E-1,1.0818899E-1,7.434429E-2,5.0152183E-2,1.192941E-1,1.6707012E-1,8.173628E-2,0E0,8.002706E-4,0E0,6.396741E-2,3.7505705E-2,0E0,0E0,0E0,0E0,0E0,0E0,0E0,0E0,0E0,0E0,0E0],"parents":[2147483647,0,0,1,1,3,3,4,4,5,5,6,6,7,7,8,8,9,9,10,10,12,12,14,14,15,15],"right_children":[2,4,-1,6,8,10,12,14,16,18,20,-1,22,-1,24,26,-1,-1,-1,-1,-1,-1,-1,-1,-1,-1,-1],"split_conditions":[3.1536E6,5E0,1.5744426E-3,3.504E4,6E0,5.2142857E1,5.256E4,8.76E3,6E1,3E0,2E0,-9.871426E-4,2E0,-3.3365743E-4,5.256E4,3.504E4,1.1245445E-3,8.0542517E-4,-2.3487653E-3,2.7700514E-4,1.4050339E-3,2.1560371E-4,5.951587E-4,-2.4918034E-3,8.1797836E-5,6.117999E-5,-1.6774542E-3],"split_indices":[0,2,0,0,2,0,0,0,1,2,2,0,2,0,0,0,0,0,0,0,0,0,0,0,0,0,0],"split_type":[0,0,0,0,0,0,0,0,0,0,0,0,0,0,0,0,0,0,0,0,0,0,0,0,0,0,0],"sum_hessian":[7.2E1,6.6E1,6E0,4.5E1,2.1E1,3.1E1,1.4E1,1.2E1,9E0,5E0,2.6E1,9E0,5E0,2E0,1E1,4E0,5E0,3E0,2E0,1.3E1,1.3E1,3E0,2E0,9E0,1E0,2E0,2E0],"tree_param":{"num_deleted":"0","num_feature":"3","num_nodes":"27","size_leaf_vector":"1"}},{"base_weights":[-4.7819052E-4,-1.6829418E-2,1.5609473E-3,2.6902257E-2,-1.075034E-1,6.1025307E-2,-4.7687072E-2,-1.9634838E-1,1.8745426E-2,-6.336304E-2,8.640697E-2,-9.782581E-4,4.382534E-2,-3.31433E-4,-2.23009E-1,-9.6329935E-2,1.1151731E-3,7.993844E-4,-2.3331067E-3,1.3939885E-3,2.724315E-4,2.1398679E-4,5.9119106E-4,-2.469377E-3,8.138895E-5,6.0772298E-5,-1.6662712E-3],"categories":[],"categories_nodes":[],"categories_segments":[],"categories_sizes":[],"default_left":[0,0,0,0,0,0,0,0,0,0,0,0,0,0,0,0,0,0,0,0,0,0,0,0,0,0,0],"id":19,"left_children":[1,3,-1,5,7,9,11,13,15,17,19,-1,21,-1,23,25,-1,-1,-1,-1,-1,-1,-1,-1,-1,-1,-1],"loss_changes":[1.8951862E-1,2.6856887E-1,0E0,1.19990036E-1,2.5044534E-1,1.0650485E-1,7.3112E-2,4.9173653E-2,1.17500044E-1,1.6477297E-1,8.085278E-2,0E0,7.9285726E-4,0E0,6.285149E-2,3.7007306E-2,0E0,0E0,0E0,0E0,0E0,0E0,0E0,0E0,0E0,0E0,0E0],"parents":[2147483647,0,0,1,1,3,3,4,4,5,5,6,6,7,7,8,8,9,9,10,10,12,12,14,14,15,15],"right_children":[2,4,-1,6,8,10,12,14,16,18,20,-1,22,-1,24,26,-1,-1,-1,-1,-1,-1,-1,-1,-1,-1,-1],"split_conditions":[3.1536E6,5E0,1.5609473E-3,3.504E4,6E0,5.2142857E1,5.256E4,8.76E3,6E1,3E0,8.76E3,-9.782581E-4,2E0,-3.31433E-4,5.256E4,3.504E4,1.1151731E-3,7.993844E-4,-2.3331067E-3,1.3939885E-3,2.724315E-4,2.1398679E-4,5.9119106E-4,-2.469377E-3,8.138895E-5,6.0772298E-5,-1.6662712E-3],"split_indices":[0,2,0,0,2,0,0,0,1,2,0,0,2,0,0,0,0,0,0,0,0,0,0,0,0,0,0],"split_type":[0,0,0,0,0,0,0,0,0,0,0,0,0,0,0,0,0,0,0,0,0,0,0,0,0,0,0],"sum_hessian":[7.2E1,6.6E1,6E0,4.5E1,2.1E1,3.1E1,1.4E1,1.2E1,9E0,5E0,2.6E1,9E0,5E0,2E0,1E1,4E0,5E0,3E0,2E0,1.3E1,1.3E1,3E0,2E0,9E0,1E0,2E0,2E0],"tree_param":{"num_deleted":"0","num_feature":"3","num_nodes":"27","size_leaf_vector":"1"}},{"base_weights":[-4.965545E-4,-1.6709642E-2,1.547568E-3,2.663235E-2,-1.06574275E-1,6.04192E-2,-4.7221757E-2,-1.945941E-1,1.8508915E-2,-6.298502E-2,8.5604616E-2,-9.69454E-4,4.3521274E-2,-3.2922326E-4,-2.2099602E-1,-9.5687754E-2,1.1058798E-3,7.933892E-4,-2.3175527E-3,2.678978E-4,1.3830482E-3,2.1238193E-4,5.872496E-4,-2.4471527E-3,8.098215E-5,6.0366987E-5,-1.6551628E-3],"categories":[],"categories_nodes":[],"categories_segments":[],"categories_sizes":[],"default_left":[0,0,0,0,0,0,0,0,0,0,0,0,0,0,0,0,0,0,0,0,0,0,0,0,0,0,0],"id":20,"left_children":[1,3,-1,5,7,9,11,13,15,17,19,-1,21,-1,23,25,-1,-1,-1,-1,-1,-1,-1,-1,-1,-1,-1],"loss_changes":[1.8633686E-1,2.6379746E-1,0E0,1.176368E-1,2.458173E-1,1.0484737E-1,7.190031E-2,4.8214108E-2,1.1573314E-1,1.625075E-1,7.99828E-2,0E0,7.85497E-4,0E0,6.175512E-2,3.6515515E-2,0E0,0E0,0E0,0E0,0E0,0E0,0E0,0E0,0E0,0E0,0E0],"parents":[2147483647,0,0,1,1,3,3,4,4,5,5,6,6,7,7,8,8,9,9,10,10,12,12,14,14,15,15],"right_children":[2,4,-1,6,8,10,12,14,16,18,20,-1,22,-1,24,26,-1,-1,-1,-1,-1,-1,-1,-1,-1,-1,-1],"split_conditions":[3.1536E6,5E0,1.547568E-3,3.504E4,6E0,5.2142857E1,5.256E4,8.76E3,6E1,3E0,2E0,-9.69454E-4,2E0,-3.2922326E-4,5.256E4,3.504E4,1.1058798E-3,7.933892E-4,-2.3175527E-3,2.678978E-4,1.3830482E-3,2.1238193E-4,5.872496E-4,-2.4471527E-3,8.098215E-5,6.0366987E-5,-1.6551628E-3],"split_indices":[0,2,0,0,2,0,0,0,1,2,2,0,2,0,0,0,0,0,0,0,0,0,0,0,0,0,0],"split_type":[0,0,0,0,0,0,0,0,0,0,0,0,0,0,0,0,0,0,0,0,0,0,0,0,0,0,0],"sum_hessian":[7.2E1,6.6E1,6E0,4.5E1,2.1E1,3.1E1,1.4E1,1.2E1,9E0,5E0,2.6E1,9E0,5E0,2E0,1E1,4E0,5E0,3E0,2E0,1.3E1,1.3E1,3E0,2E0,9E0,1E0,2E0,2E0],"tree_param":{"num_deleted":"0","num_feature":"3","num_nodes":"27","size_leaf_vector":"1"}},{"base_weights":[-5.1461137E-4,-1.6590727E-2,1.534303E-3,2.6365083E-2,-1.0565329E-1,5.9818953E-2,-4.6760846E-2,-1.928555E-1,1.8274918E-2,-6.26092E-2,8.480969E-2,-9.607288E-4,4.3219347E-2,-3.2702863E-4,-2.1900119E-1,-9.504984E-2,1.096664E-3,7.874387E-4,-2.3021023E-3,1.3721844E-3,2.6343108E-4,2.1078913E-4,5.833347E-4,-2.4251284E-3,8.0577134E-5,5.9964455E-5,-1.6441284E-3],"categories":[],"categories_nodes":[],"categories_segments":[],"categories_sizes":[],"default_left":[0,0,0,0,0,0,0,0,0,0,0,0,0,0,0,0,0,0,0,0,0,0,0,0,0,0,0],"id":21,"left_children":[1,3,-1,5,7,9,11,13,15,17,19,-1,21,-1,23,25,-1,-1,-1,-1,-1,-1,-1,-1,-1,-1,-1],"loss_changes":[1.8320857E-1,2.5911114E-1,0E0,1.1532907E-1,2.4127437E-1,1.032161E-1,7.070881E-2,4.727295E-2,1.13992944E-1,1.6027316E-1,7.9117596E-2,0E0,7.781936E-4,0E0,6.0678005E-2,3.603026E-2,0E0,0E0,0E0,0E0,0E0,0E0,0E0,0E0,0E0,0E0,0E0],"parents":[2147483647,0,0,1,1,3,3,4,4,5,5,6,6,7,7,8,8,9,9,10,10,12,12,14,14,15,15],"right_children":[2,4,-1,6,8,10,12,14,16,18,20,-1,22,-1,24,26,-1,-1,-1,-1,-1,-1,-1,-1,-1,-1,-1],"split_conditions":[3.1536E6,5E0,1.534303E-3,3.504E4,6E0,5.2142857E1,5.256E4,8.76E3,6E1,3E0,8.76E3,-9.607288E-4,2E0,-3.2702863E-4,5.256E4,3.504E4,1.096664E-3,7.874387E-4,-2.3021023E-3,1.3721844E-3,2.6343108E-4,2.1078913E-4,5.833347E-4,-2.4251284E-3,8.0577134E-5,5.9964455E-5,-1.6441284E-3],"split_indices":[0,2,0,0,2,0,0,0,1,2,0,0,2,0,0,0,0,0,0,0,0,0,0,0,0,0,0],"split_type":[0,0,0,0,0,0,0,0,0,0,0,0,0,0,0,0,0,0,0,0,0,0,0,0,0,0,0],"sum_hessian":[7.2E1,6.6E1,6E0,4.5E1,2.1E1,3.1E1,1.4E1,1.2E1,9E0,5E0,2.6E1,9E0,5E0,2E0,1E1,4E0,5E0,3E0,2E0,1.3E1,1.3E1,3E0,2E0,9E0,1E0,2E0,2E0],"tree_param":{"num_deleted":"0","num_feature":"3","num_nodes":"27","size_leaf_vector":"1"}},{"base_weights":[-5.3234585E-4,-1.647265E-2,1.521152E-3,2.6100438E-2,-1.0474035E-1,5.9224546E-2,-4.6304356E-2,-1.9113246E-1,1.804342E-2,-6.223555E-2,8.402217E-2,-9.520824E-4,4.2919517E-2,-2.083964E-1,8.0174206E-5,-9.441617E-2,1.087525E-3,7.8153296E-4,-2.286755E-3,2.5900392E-4,1.3614238E-3,2.0920842E-4,5.7944574E-4,-1.2937624E-3,-3.3409267E-3,5.9564707E-5,-1.6331675E-3],"categories":[],"categories_nodes":[],"categories_segments":[],"categories_sizes":[],"default_left":[0,0,0,0,0,0,0,0,0,0,0,0,0,0,0,0,0,0,0,0,0,0,0,0,0,0,0],"id":22,"left_children":[1,3,-1,5,7,9,11,13,15,17,19,-1,21,23,-1,25,-1,-1,-1,-1,-1,-1,-1,-1,-1,-1,-1],"loss_changes":[1.801329E-1,2.545083E-1,0E0,1.1306618E-1,2.3681477E-1,1.0161068E-1,6.953721E-2,4.6366274E-2,1.1227906E-1,1.5806961E-1,7.826547E-2,0E0,7.7094045E-4,7.5966775E-2,0E0,3.5551462E-2,0E0,0E0,0E0,0E0,0E0,0E0,0E0,0E0,0E0,0E0,0E0],"parents":[2147483647,0,0,1,1,3,3,4,4,5,5,6,6,7,7,8,8,9,9,10,10,12,12,13,13,15,15],"right_children":[2,4,-1,6,8,10,12,14,16,18,20,-1,22,24,-1,26,-1,-1,-1,-1,-1,-1,-1,-1,-1,-1,-1],"split_conditions":[3.1536E6,5E0,1.521152E-3,3.504E4,6E0,5.2142857E1,5.256E4,5.256E4,6E1,3E0,2E0,-9.520824E-4,2E0,3.504E4,8.0174206E-5,3.504E4,1.087525E-3,7.8153296E-4,-2.286755E-3,2.5900392E-4,1.3614238E-3,2.0920842E-4,5.7944574E-4,-1.2937624E-3,-3.3409267E-3,5.9564707E-5,-1.6331675E-3],"split_indices":[0,2,0,0,2,0,0,0,1,2,2,0,2,0,0,0,0,0,0,0,0,0,0,0,0,0,0],"split_type":[0,0,0,0,0,0,0,0,0,0,0,0,0,0,0,0,0,0,0,0,0,0,0,0,0,0,0],"sum_hessian":[7.2E1,6.6E1,6E0,4.5E1,2.1E1,3.1E1,1.4E1,1.2E1,9E0,5E0,2.6E1,9E0,5E0,1.1E1,1E0,4E0,5E0,3E0,2E0,1.3E1,1.3E1,3E0,2E0,8E0,3E0,2E0,2E0],"tree_param":{"num_deleted":"0","num_feature":"3","num_nodes":"27","size_leaf_vector":"1"}},{"base_weights":[-5.758956E-4,-1.6383877E-2,1.5081135E-3,2.5838386E-2,-1.0392207E-1,5.8635905E-2,-4.5852214E-2,-1.8957147E-1,1.7814372E-2,-6.1864074E-2,8.324198E-2,-9.4351376E-4,4.2621773E-2,-3.1622307E-4,-2.1541475E-1,-9.3786724E-2,1.0784622E-3,7.7567145E-4,-2.27151E-3,1.3507383E-3,2.5464257E-4,2.0763933E-4,5.7558296E-4,-2.385517E-3,7.977337E-5,5.916774E-5,-1.6222796E-3],"categories":[],"categories_nodes":[],"categories_segments":[],"categories_sizes":[],"default_left":[0,0,0,0,0,0,0,0,0,0,0,0,0,0,0,0,0,0,0,0,0,0,0,0,0,0,0],"id":23,"left_children":[1,3,-1,5,7,9,11,13,15,17,19,-1,21,-1,23,25,-1,-1,-1,-1,-1,-1,-1,-1,-1,-1,-1],"loss_changes":[1.7716911E-1,2.5032124E-1,0E0,1.10847175E-1,2.3276351E-1,1.000307E-1,6.8385154E-2,4.6253085E-2,1.1059107E-1,1.558964E-1,7.7418074E-2,0E0,7.637441E-4,0E0,5.8757663E-2,3.507903E-2,0E0,0E0,0E0,0E0,0E0,0E0,0E0,0E0,0E0,0E0,0E0],"parents":[2147483647,0,0,1,1,3,3,4,4,5,5,6,6,7,7,8,8,9,9,10,10,12,12,14,14,15,15],"right_children":[2,4,-1,6,8,10,12,14,16,18,20,-1,22,-1,24,26,-1,-1,-1,-1,-1,-1,-1,-1,-1,-1,-1],"split_conditions":[3.1536E6,5E0,1.5081135E-3,3.504E4,6E0,5.2142857E1,5.256E4,8.76E3,6E1,3E0,8.76E3,-9.4351376E-4,2E0,-3.1622307E-4,5.256E4,3.504E4,1.0784622E-3,7.7567145E-4,-2.27151E-3,1.3507383E-3,2.5464257E-4,2.0763933E-4,5.7558296E-4,-2.385517E-3,7.977337E-5,5.916774E-5,-1.6222796E-3],"split_indices":[0,2,0,0,2,0,0,0,1,2,0,0,2,0,0,0,0,0,0,0,0,0,0,0,0,0,0],"split_type":[0,0,0,0,0,0,0,0,0,0,0,0,0,0,0,0,0,0,0,0,0,0,0,0,0,0,0],"sum_hessian":[7.2E1,6.6E1,6E0,4.5E1,2.1E1,3.1E1,1.4E1,1.2E1,9E0,5E0,2.6E1,9E0,5E0,2E0,1E1,4E0,5E0,3E0,2E0,1.3E1,1.3E1,3E0,2E0,9E0,1E0,2E0,2E0],"tree_param":{"num_deleted":"0","num_feature":"3","num_nodes":"27","size_leaf_vector":"1"}},{"base_weights":[-5.9273513E-4,-1.626717E-2,1.4951867E-3,2.5578897E-2,-1.0302407E-1,5.8052965E-2,-4.5404367E-2,-1.8787746E-1,1.7587742E-2,-6.149474E-2,8.246901E-2,-9.350219E-4,4.2326074E-2,-3.1411508E-4,-2.1347024E-1,-9.316149E-2,1.0694748E-3,7.698537E-4,-2.2563664E-3,2.5031992E-4,1.3401537E-3,4.7729898E-4,7.653474E-5,-2.3640473E-3,7.937461E-5,5.877316E-5,-1.6114648E-3],"categories":[],"categories_nodes":[],"categories_segments":[],"categories_sizes":[],"default_left":[0,0,0,0,0,0,0,0,0,0,0,0,0,0,0,0,0,0,0,0,0,0,0,0,0,0,0],"id":24,"left_children":[1,3,-1,5,7,9,11,13,15,17,19,-1,21,-1,23,25,-1,-1,-1,-1,-1,-1,-1,-1,-1,-1,-1],"loss_changes":[1.7419477E-1,2.4587439E-1,0E0,1.0867115E-1,2.2845943E-1,9.847566E-2,6.725223E-2,4.5351684E-2,1.0892861E-1,1.5375306E-1,7.658343E-2,0E0,7.588882E-4,0E0,5.773312E-2,3.461287E-2,0E0,0E0,0E0,0E0,0E0,0E0,0E0,0E0,0E0,0E0,0E0],"parents":[2147483647,0,0,1,1,3,3,4,4,5,5,6,6,7,7,8,8,9,9,10,10,12,12,14,14,15,15],"right_children":[2,4,-1,6,8,10,12,14,16,18,20,-1,22,-1,24,26,-1,-1,-1,-1,-1,-1,-1,-1,-1,-1,-1],"split_conditions":[3.1536E6,5E0,1.4951867E-3,3.504E4,6E0,5.2142857E1,5.256E4,8.76E3,6E1,3E0,2E0,-9.350219E-4,6E2,-3.1411508E-4,5.256E4,3.504E4,1.0694748E-3,7.698537E-4,-2.2563664E-3,2.5031992E-4,1.3401537E-3,4.7729898E-4,7.653474E-5,-2.3640473E-3,7.937461E-5,5.877316E-5,-1.6114648E-3],"split_indices":[0,2,0,0,2,0,0,0,1,2,2,0,1,0,0,0,0,0,0,0,0,0,0,0,0,0,0],"split_type":[0,0,0,0,0,0,0,0,0,0,0,0,0,0,0,0,0,0,0,0,0,0,0,0,0,0,0],"sum_hessian":[7.2E1,6.6E1,6E0,4.5E1,2.1E1,3.1E1,1.4E1,1.2E1,9E0,5E0,2.6E1,9E0,5E0,2E0,1E1,4E0,5E0,3E0,2E0,1.3E1,1.3E1,4E0,1E0,9E0,1E0,2E0,2E0],"tree_param":{"num_deleted":"0","num_feature":"3","num_nodes":"27","size_leaf_vector":"1"}},{"base_weights":[-6.123475E-4,-1.6154641E-2,1.4823708E-3,2.5317077E-2,-1.0213393E-1,5.747568E-2,-4.4975743E-2,-1.861986E-1,1.7363539E-2,-6.112754E-2,8.1703216E-2,-9.2660676E-4,4.1995108E-2,-3.1202097E-4,-2.1154323E-1,-9.254041E-2,1.0605624E-3,7.640798E-4,-2.241324E-3,1.3296435E-3,2.460614E-4,2.0350397E-4,5.685635E-4,-2.342771E-3,7.8977646E-5,5.8381356E-5,-1.6007216E-3],"categories":[],"categories_nodes":[],"categories_segments":[],"categories_sizes":[],"default_left":[0,0,0,0,0,0,0,0,0,0,0,0,0,0,0,0,0,0,0,0,0,0,0,0,0,0,0],"id":25,"left_children":[1,3,-1,5,7,9,11,13,15,17,19,-1,21,-1,23,25,-1,-1,-1,-1,-1,-1,-1,-1,-1,-1,-1],"loss_changes":[1.7127742E-1,2.4148823E-1,0E0,1.0656887E-1,2.2423443E-1,9.6945174E-2,6.6099286E-2,4.4467688E-2,1.0729128E-1,1.5163925E-1,7.5753525E-2,0E0,7.729558E-4,0E0,5.6726426E-2,3.4152895E-2,0E0,0E0,0E0,0E0,0E0,0E0,0E0,0E0,0E0,0E0,0E0],"parents":[2147483647,0,0,1,1,3,3,4,4,5,5,6,6,7,7,8,8,9,9,10,10,12,12,14,14,15,15],"right_children":[2,4,-1,6,8,10,12,14,16,18,20,-1,22,-1,24,26,-1,-1,-1,-1,-1,-1,-1,-1,-1,-1,-1],"split_conditions":[3.1536E6,5E0,1.4823708E-3,3.504E4,6E0,5.2142857E1,5.256E4,8.76E3,6E1,3E0,8.76E3,-9.2660676E-4,2E0,-3.1202097E-4,5.256E4,3.504E4,1.0605624E-3,7.640798E-4,-2.241324E-3,1.3296435E-3,2.460614E-4,2.0350397E-4,5.685635E-4,-2.342771E-3,7.8977646E-5,5.8381356E-5,-1.6007216E-3],"split_indices":[0,2,0,0,2,0,0,0,1,2,0,0,2,0,0,0,0,0,0,0,0,0,0,0,0,0,0],"split_type":[0,0,0,0,0,0,0,0,0,0,0,0,0,0,0,0,0,0,0,0,0,0,0,0,0,0,0],"sum_hessian":[7.2E1,6.6E1,6E0,4.5E1,2.1E1,3.1E1,1.4E1,1.2E1,9E0,5E0,2.6E1,9E0,5E0,2E0,1E1,4E0,5E0,3E0,2E0,1.3E1,1.3E1,3E0,2E0,9E0,1E0,2E0,2E0],"tree_param":{"num_deleted":"0","num_feature":"3","num_nodes":"27","size_leaf_vector":"1"}},{"base_weights":[-6.285681E-4,-1.6039565E-2,1.4696649E-3,2.5062688E-2,-1.01251565E-1,5.6903996E-2,-4.453628E-2,-1.8453476E-1,1.7141744E-2,-6.076247E-2,8.0944546E-2,-9.182673E-4,4.170384E-2,-3.0994078E-4,-2.096336E-1,-9.192346E-2,1.0517245E-3,7.5834926E-4,-2.2263818E-3,2.4184056E-4,1.3192327E-3,2.0197779E-4,5.6477304E-4,-2.3216861E-3,7.8582765E-5,5.7992336E-5,-1.59005E-3],"categories":[],"categories_nodes":[],"categories_segments":[],"categories_sizes":[],"default_left":[0,0,0,0,0,0,0,0,0,0,0,0,0,0,0,0,0,0,0,0,0,0,0,0,0,0,0],"id":26,"left_children":[1,3,-1,5,7,9,11,13,15,17,19,-1,21,-1,23,25,-1,-1,-1,-1,-1,-1,-1,-1,-1,-1,-1],"loss_changes":[1.684021E-1,2.3719878E-1,0E0,1.04475915E-1,2.2008708E-1,9.543891E-2,6.500454E-2,4.360059E-2,1.05678685E-1,1.4955455E-1,7.4936196E-2,0E0,7.655984E-4,0E0,5.5737495E-2,3.369905E-2,0E0,0E0,0E0,0E0,0E0,0E0,0E0,0E0,0E0,0E0,0E0],"parents":[2147483647,0,0,1,1,3,3,4,4,5,5,6,6,7,7,8,8,9,9,10,10,12,12,14,14,15,15],"right_children":[2,4,-1,6,8,10,12,14,16,18,20,-1,22,-1,24,26,-1,-1,-1,-1,-1,-1,-1,-1,-1,-1,-1],"split_conditions":[3.1536E6,5E0,1.4696649E-3,3.504E4,6E0,5.2142857E1,5.256E4,8.76E3,6E1,3E0,2E0,-9.182673E-4,2E0,-3.0994078E-4,5.256E4,3.504E4,1.0517245E-3,7.5834926E-4,-2.2263818E-3,2.4184056E-4,1.3192327E-3,2.0197779E-4,5.6477304E-4,-2.3216861E-3,7.8582765E-5,5.7992336E-5,-1.59005E-3],"split_indices":[0,2,0,0,2,0,0,0,1,2,2,0,2,0,0,0,0,0,0,0,0,0,0,0,0,0,0],"split_type":[0,0,0,0,0,0,0,0,0,0,0,0,0,0,0,0,0,0,0,0,0,0,0,0,0,0,0],"sum_hessian":[7.2E1,6.6E1,6E0,4.5E1,2.1E1,3.1E1,1.4E1,1.2E1,9E0,5E0,2.6E1,9E0,5E0,2E0,1E1,4E0,5E0,3E0,2E0,1.3E1,1.3E1,3E0,2E0,9E0,1E0,2E0,2E0],"tree_param":{"num_deleted":"0","num_feature":"3","num_nodes":"27","size_leaf_vector":"1"}},{"base_weights":[-6.44503E-4,-1.5925314E-2,1.4570676E-3,2.8986244E-2,-9.253618E-2,9.844795E-2,-1.1741382E-2,-1.5516421E-1,1.6922299E-2,-1.865456E-2,1.3903666E-1,-5.7448704E-2,1.0970801E-1,-3.291236E-2,-2.0774122E-1,-9.131063E-2,1.0429602E-3,7.5266167E-4,-1.9716874E-3,1.9329087E-3,7.267066E-4,-7.1478216E-4,2.0046279E-4,3.6620456E-4,1.2796712E-3,-1.275947E-3,4.6327486E-4,-2.3007912E-3,7.8189965E-5,5.7605703E-5,-1.5794494E-3],"categories":[],"categories_nodes":[],"categories_segments":[],"categories_sizes":[],"default_left":[0,0,0,0,0,0,0,0,0,0,0,0,0,0,0,0,0,0,0,0,0,0,0,0,0,0,0,0,0,0,0],"id":27,"left_children":[1,3,-1,5,7,9,11,13,15,17,19,21,23,25,27,29,-1,-1,-1,-1,-1,-1,-1,-1,-1,-1,-1,-1,-1,-1,-1],"loss_changes":[1.6557516E-1,2.3321006E-1,0E0,1.22803345E-1,1.7400499E-1,7.864232E-2,1.6173412E-1,9.60049E-2,1.04090475E-1,9.867105E-2,2.916105E-2,2.4264425E-2,5.989887E-3,5.092683E-2,5.476579E-2,3.3251226E-2,0E0,0E0,0E0,0E0,0E0,0E0,0E0,0E0,0E0,0E0,0E0,0E0,0E0,0E0,0E0],"parents":[2147483647,0,0,1,1,3,3,4,4,5,5,6,6,7,7,8,8,9,9,10,10,11,11,12,12,13,13,14,14,15,15],"right_children":[2,4,-1,6,8,10,12,14,16,18,20,22,24,26,28,30,-1,-1,-1,-1,-1,-1,-1,-1,-1,-1,-1,-1,-1,-1,-1],"split_conditions":[3.1536E6,4E0,1.4570676E-3,8.76E3,6E0,5.2142857E1,2E0,8.76E3,6E1,3E0,1.8E1,5.256E4,6E1,3.65E2,5.256E4,3.504E4,1.0429602E-3,7.5266167E-4,-1.9716874E-3,1.9329087E-3,7.267066E-4,-7.1478216E-4,2.0046279E-4,3.6620456E-4,1.2796712E-3,-1.275947E-3,4.6327486E-4,-2.3007912E-3,7.8189965E-5,5.7605703E-5,-1.5794494E-3],"split_indices":[0,2,0,0,2,0,2,0,1,2,1,0,1,0,0,0,0,0,0,0,0,0,0,0,0,0,0,0,0,0,0],"split_type":[0,0,0,0,0,0,0,0,0,0,0,0,0,0,0,0,0,0,0,0,0,0,0,0,0,0,0,0,0,0,0],"sum_hessian":[7.2E1,6.6E1,6E0,4.2E1,2.4E1,1.5E1,2.7E1,1.5E1,9E0,4E0,1.1E1,2E1,7E0,5E0,1E1,4E0,5E0,3E0,1E0,5E0,6E0,1.7E1,3E0,2E0,5E0,2E0,3E0,9E0,1E0,2E0,2E0],"tree_param":{"num_deleted":"0","num_feature":"3","num_nodes":"31","size_leaf_vector":"1"}},{"base_weights":[-6.310021E-4,-1.578012E-2,1.4445783E-3,2.4641158E-2,-9.958006E-2,5.5963214E-2,-4.382197E-2,-1.8137024E-1,1.6705194E-2,-6.0234603E-2,7.971224E-2,-9.035698E-4,4.104005E-2,-1.9778109E-1,7.779896E-5,-9.070187E-2,1.0342688E-3,7.470165E-4,-2.200714E-3,2.3763788E-4,1.2996696E-3,1.989594E-4,5.555218E-4,-1.2024103E-3,-3.2280092E-3,5.722185E-5,-1.5689196E-3],"categories":[],"categories_nodes":[],"categories_segments":[],"categories_sizes":[],"default_left":[0,0,0,0,0,0,0,0,0,0,0,0,0,0,0,0,0,0,0,0,0,0,0,0,0,0,0],"id":28,"left_children":[1,3,-1,5,7,9,11,13,15,17,19,-1,21,23,-1,25,-1,-1,-1,-1,-1,-1,-1,-1,-1,-1,-1],"loss_changes":[1.6273119E-1,2.2940288E-1,0E0,1.01095095E-1,2.1227165E-1,9.310815E-2,6.294409E-2,4.18922E-2,1.0252623E-1,1.4584637E-1,7.282668E-2,0E0,7.3581375E-4,7.751465E-2,0E0,3.2809354E-2,0E0,0E0,0E0,0E0,0E0,0E0,0E0,0E0,0E0,0E0,0E0],"parents":[2147483647,0,0,1,1,3,3,4,4,5,5,6,6,7,7,8,8,9,9,10,10,12,12,13,13,15,15],"right_children":[2,4,-1,6,8,10,12,14,16,18,20,-1,22,24,-1,26,-1,-1,-1,-1,-1,-1,-1,-1,-1,-1,-1],"split_conditions":[3.1536E6,5E0,1.4445783E-3,3.504E4,6E0,5.2142857E1,5.256E4,5.256E4,6E1,3E0,2E0,-9.035698E-4,2E0,3.504E4,7.779896E-5,3.504E4,1.0342688E-3,7.470165E-4,-2.200714E-3,2.3763788E-4,1.2996696E-3,1.989594E-4,5.555218E-4,-1.2024103E-3,-3.2280092E-3,5.722185E-5,-1.5689196E-3],"split_indices":[0,2,0,0,2,0,0,0,1,2,2,0,2,0,0,0,0,0,0,0,0,0,0,0,0,0,0],"split_type":[0,0,0,0,0,0,0,0,0,0,0,0,0,0,0,0,0,0,0,0,0,0,0,0,0,0,0],"sum_hessian":[7.2E1,6.6E1,6E0,4.5E1,2.1E1,3.1E1,1.4E1,1.2E1,9E0,5E0,2.6E1,9E0,5E0,1.1E1,1E0,4E0,5E0,3E0,2E0,1.3E1,1.3E1,3E0,2E0,8E0,3E0,2E0,2E0],"tree_param":{"num_deleted":"0","num_feature":"3","num_nodes":"27","size_leaf_vector":"1"}},{"base_weights":[-6.7197095E-4,-1.5695391E-2,1.4321961E-3,2.8500332E-2,-9.108422E-2,9.698933E-2,-1.1654108E-2,-1.5262559E-1,1.6490404E-2,-1.8719912E-2,1.3711907E-1,-5.663043E-2,1.078655E-1,-3.2384302E-2,-2.043367E-1,-9.00972E-2,1.02565E-3,7.414138E-4,-1.9508254E-3,1.9130507E-3,7.108549E-4,-7.0457E-4,1.974672E-4,3.5757918E-4,1.259417E-3,-1.2644371E-3,4.6256333E-4,-2.2631856E-3,7.741004E-5,5.684038E-5,-1.5584603E-3],"categories":[],"categories_nodes":[],"categories_segments":[],"categories_sizes":[],"default_left":[0,0,0,0,0,0,0,0,0,0,0,0,0,0,0,0,0,0,0,0,0,0,0,0,0,0,0,0,0,0,0],"id":29,"left_children":[1,3,-1,5,7,9,11,13,15,17,19,21,23,25,27,29,-1,-1,-1,-1,-1,-1,-1,-1,-1,-1,-1,-1,-1,-1,-1],"loss_changes":[1.6005519E-1,2.258308E-1,0E0,1.19386226E-1,1.6802412E-1,7.6860964E-2,1.5662391E-1,9.286764E-2,1.0098566E-1,9.635001E-2,2.9338121E-2,2.3568004E-2,5.9240386E-3,5.023017E-2,5.3032488E-2,3.237336E-2,0E0,0E0,0E0,0E0,0E0,0E0,0E0,0E0,0E0,0E0,0E0,0E0,0E0,0E0,0E0],"parents":[2147483647,0,0,1,1,3,3,4,4,5,5,6,6,7,7,8,8,9,9,10,10,11,11,12,12,13,13,14,14,15,15],"right_children":[2,4,-1,6,8,10,12,14,16,18,20,22,24,26,28,30,-1,-1,-1,-1,-1,-1,-1,-1,-1,-1,-1,-1,-1,-1,-1],"split_conditions":[3.1536E6,4E0,1.4321961E-3,8.76E3,6E0,5.2142857E1,2E0,8.76E3,6E1,3E0,1.8E1,5.256E4,6E1,3.65E2,5.256E4,3.504E4,1.02565E-3,7.414138E-4,-1.9508254E-3,1.9130507E-3,7.108549E-4,-7.0457E-4,1.974672E-4,3.5757918E-4,1.259417E-3,-1.2644371E-3,4.6256333E-4,-2.2631856E-3,7.741004E-5,5.684038E-5,-1.5584603E-3],"split_indices":[0,2,0,0,2,0,2,0,1,2,1,0,1,0,0,0,0,0,0,0,0,0,0,0,0,0,0,0,0,0,0],"split_type":[0,0,0,0,0,0,0,0,0,0,0,0,0,0,0,0,0,0,0,0,0,0,0,0,0,0,0,0,0,0,0],"sum_hessian":[7.2E1,6.6E1,6E0,4.2E1,2.4E1,1.5E1,2.7E1,1.5E1,9E0,4E0,1.1E1,2E1,7E0,5E0,1E1,4E0,5E0,3E0,1E0,5E0,6E0,1.7E1,3E0,2E0,5E0,2E0,3E0,9E0,1E0,2E0,2E0],"tree_param":{"num_deleted":"0","num_feature":"3","num_nodes":"31","size_leaf_vector":"1"}},{"base_weights":[-6.5849867E-4,-1.5552457E-2,1.4199202E-3,2.4226697E-2,-9.802012E-2,5.5037554E-2,-4.3118246E-2,-1.7840166E-1,1.6277889E-2,-5.9709374E-2,7.8498445E-2,-8.890966E-4,4.0387165E-2,-1.9455218E-1,7.702291E-5,-8.9496545E-2,1.0171026E-3,7.3585316E-4,-2.175325E-3,1.2818758E-3,2.3202274E-4,4.5618988E-4,7.114023E-5,-1.1776623E-3,-3.1868252E-3,5.6461296E-5,-1.5480705E-3],"categories":[],"categories_nodes":[],"categories_segments":[],"categories_sizes":[],"default_left":[0,0,0,0,0,0,0,0,0,0,0,0,0,0,0,0,0,0,0,0,0,0,0,0,0,0,0],"id":30,"left_children":[1,3,-1,5,7,9,11,13,15,17,19,-1,21,23,-1,25,-1,-1,-1,-1,-1,-1,-1,-1,-1,-1,-1],"loss_changes":[1.573064E-1,2.2216779E-1,0E0,9.782107E-2,2.0502792E-1,9.0833165E-2,6.0948275E-2,4.0572256E-2,9.9468336E-2,1.4222911E-1,7.121149E-2,0E0,7.199412E-4,7.684752E-2,0E0,3.1943135E-2,0E0,0E0,0E0,0E0,0E0,0E0,0E0,0E0,0E0,0E0,0E0],"parents":[2147483647,0,0,1,1,3,3,4,4,5,5,6,6,7,7,8,8,9,9,10,10,12,12,13,13,15,15],"right_children":[2,4,-1,6,8,10,12,14,16,18,20,-1,22,24,-1,26,-1,-1,-1,-1,-1,-1,-1,-1,-1,-1,-1],"split_conditions":[3.1536E6,5E0,1.4199202E-3,3.504E4,6E0,5.2142857E1,5.256E4,5.256E4,6E1,3E0,8.76E3,-8.890966E-4,6E2,3.504E4,7.702291E-5,3.504E4,1.0171026E-3,7.3585316E-4,-2.175325E-3,1.2818758E-3,2.3202274E-4,4.5618988E-4,7.114023E-5,-1.1776623E-3,-3.1868252E-3,5.6461296E-5,-1.5480705E-3],"split_indices":[0,2,0,0,2,0,0,0,1,2,0,0,1,0,0,0,0,0,0,0,0,0,0,0,0,0,0],"split_type":[0,0,0,0,0,0,0,0,0,0,0,0,0,0,0,0,0,0,0,0,0,0,0,0,0,0,0],"sum_hessian":[7.2E1,6.6E1,6E0,4.5E1,2.1E1,3.1E1,1.4E1,1.2E1,9E0,5E0,2.6E1,9E0,5E0,1.1E1,1E0,4E0,5E0,3E0,2E0,1.3E1,1.3E1,4E0,1E0,8E0,3E0,2E0,2E0],"tree_param":{"num_deleted":"0","num_feature":"3","num_nodes":"27","size_leaf_vector":"1"}},{"base_weights":[-7.016279E-4,-1.5472293E-2,1.4077497E-3,2.8017217E-2,-8.965536E-2,9.5224544E-2,-1.1387581E-2,-1.501288E-1,1.6067663E-2,-1.8781066E-2,1.347915E-1,-5.584244E-2,1.0672987E-1,-3.1866286E-2,-2.0098753E-1,-8.88999E-2,1.0086269E-3,7.303341E-4,-1.9301948E-3,1.8864264E-3,6.937746E-4,-6.9450116E-4,1.9352719E-4,3.529012E-4,1.2466144E-3,-1.2530292E-3,4.6177758E-4,-2.2261904E-3,7.6637865E-5,5.6084988E-5,-1.53775E-3],"categories":[],"categories_nodes":[],"categories_segments":[],"categories_sizes":[],"default_left":[0,0,0,0,0,0,0,0,0,0,0,0,0,0,0,0,0,0,0,0,0,0,0,0,0,0,0,0,0,0,0],"id":31,"left_children":[1,3,-1,5,7,9,11,13,15,17,19,21,23,25,27,29,-1,-1,-1,-1,-1,-1,-1,-1,-1,-1,-1,-1,-1,-1,-1],"loss_changes":[1.5472646E-1,2.1866632E-1,0E0,1.14960894E-1,1.6224806E-1,7.47052E-2,1.5298511E-1,8.983022E-2,9.797396E-2,9.408491E-2,2.9183894E-2,2.283191E-2,5.8488995E-3,4.953925E-2,5.135396E-2,3.151866E-2,0E0,0E0,0E0,0E0,0E0,0E0,0E0,0E0,0E0,0E0,0E0,0E0,0E0,0E0,0E0],"parents":[2147483647,0,0,1,1,3,3,4,4,5,5,6,6,7,7,8,8,9,9,10,10,11,11,12,12,13,13,14,14,15,15],"right_children":[2,4,-1,6,8,10,12,14,16,18,20,22,24,26,28,30,-1,-1,-1,-1,-1,-1,-1,-1,-1,-1,-1,-1,-1,-1,-1],"split_conditions":[3.1536E6,4E0,1.4077497E-3,8.76E3,6E0,5.2142857E1,2E0,8.76E3,6E1,3E0,1.8E1,5.256E4,6E1,3.65E2,5.256E4,3.504E4,1.0086269E-3,7.303341E-4,-1.9301948E-3,1.8864264E-3,6.937746E-4,-6.9450116E-4,1.9352719E-4,3.529012E-4,1.2466144E-3,-1.2530292E-3,4.6177758E-4,-2.2261904E-3,7.6637865E-5,5.6084988E-5,-1.53775E-3],"split_indices":[0,2,0,0,2,0,2,0,1,2,1,0,1,0,0,0,0,0,0,0,0,0,0,0,0,0,0,0,0,0,0],"split_type":[0,0,0,0,0,0,0,0,0,0,0,0,0,0,0,0,0,0,0,0,0,0,0,0,0,0,0,0,0,0,0],"sum_hessian":[7.2E1,6.6E1,6E0,4.2E1,2.4E1,1.5E1,2.7E1,1.5E1,9E0,4E0,1.1E1,2E1,7E0,5E0,1E1,4E0,5E0,3E0,1E0,5E0,6E0,1.7E1,3E0,2E0,5E0,2E0,3E0,9E0,1E0,2E0,2E0],"tree_param":{"num_deleted":"0","num_feature":"3","num_nodes":"31","size_leaf_vector":"1"}},{"base_weights":[-6.881385E-4,-1.5331529E-2,1.3956834E-3,2.3814613E-2,-9.648567E-2,5.4127164E-2,-4.2439807E-2,-1.7548318E-1,1.5859678E-2,-5.9186842E-2,7.730334E-2,-8.7484386E-4,3.97078E-2,-1.913777E-1,7.6254604E-5,-8.830725E-2,1.0002217E-3,7.2485657E-4,-2.1502122E-3,2.2566301E-4,1.2651873E-3,1.9207566E-4,5.380551E-4,-1.1533791E-3,-3.146228E-3,5.571107E-5,-1.5274985E-3],"categories":[],"categories_nodes":[],"categories_segments":[],"categories_sizes":[],"default_left":[0,0,0,0,0,0,0,0,0,0,0,0,0,0,0,0,0,0,0,0,0,0,0,0,0,0,0],"id":32,"left_children":[1,3,-1,5,7,9,11,13,15,17,19,-1,21,23,-1,25,-1,-1,-1,-1,-1,-1,-1,-1,-1,-1,-1],"loss_changes":[1.5206942E-1,2.1514815E-1,0E0,9.468081E-2,1.9803318E-1,8.861329E-2,5.8978382E-2,3.929481E-2,9.6502155E-2,1.3870057E-1,6.988035E-2,0E0,7.0056506E-4,7.6170415E-2,0E0,3.1099811E-2,0E0,0E0,0E0,0E0,0E0,0E0,0E0,0E0,0E0,0E0,0E0],"parents":[2147483647,0,0,1,1,3,3,4,4,5,5,6,6,7,7,8,8,9,9,10,10,12,12,13,13,15,15],"right_children":[2,4,-1,6,8,10,12,14,16,18,20,-1,22,24,-1,26,-1,-1,-1,-1,-1,-1,-1,-1,-1,-1,-1],"split_conditions":[3.1536E6,5E0,1.3956834E-3,3.504E4,6E0,5.2142857E1,5.256E4,5.256E4,6E1,3E0,2E0,-8.7484386E-4,2E0,3.504E4,7.6254604E-5,3.504E4,1.0002217E-3,7.2485657E-4,-2.1502122E-3,2.2566301E-4,1.2651873E-3,1.9207566E-4,5.380551E-4,-1.1533791E-3,-3.146228E-3,5.571107E-5,-1.5274985E-3],"split_indices":[0,2,0,0,2,0,0,0,1,2,2,0,2,0,0,0,0,0,0,0,0,0,0,0,0,0,0],"split_type":[0,0,0,0,0,0,0,0,0,0,0,0,0,0,0,0,0,0,0,0,0,0,0,0,0,0,0],"sum_hessian":[7.2E1,6.6E1,6E0,4.5E1,2.1E1,3.1E1,1.4E1,1.2E1,9E0,5E0,2.6E1,9E0,5E0,1.1E1,1E0,4E0,5E0,3E0,2E0,1.3E1,1.3E1,3E0,2E0,8E0,3E0,2E0,2E0],"tree_param":{"num_deleted":"0","num_feature":"3","num_nodes":"27","size_leaf_vector":"1"}},{"base_weights":[-7.275404E-4,-1.5249471E-2,1.3837202E-3,2.7546931E-2,-8.82493E-2,9.381208E-2,-1.1302685E-2,-1.4767323E-1,1.5653918E-2,-1.8838096E-2,1.3293198E-1,-5.5046342E-2,1.04937255E-1,-3.1358395E-2,-1.9769286E-1,-8.771854E-2,9.918865E-4,7.1942015E-4,-1.9097927E-3,1.8670929E-3,6.784684E-4,-6.8457075E-4,1.9063531E-4,3.4453766E-4,1.2268946E-3,-1.2417256E-3,4.6091824E-4,-2.1897962E-3,7.587343E-5,5.5339537E-5,-1.5173152E-3],"categories":[],"categories_nodes":[],"categories_segments":[],"categories_sizes":[],"default_left":[0,0,0,0,0,0,0,0,0,0,0,0,0,0,0,0,0,0,0,0,0,0,0,0,0,0,0,0,0,0,0],"id":33,"left_children":[1,3,-1,5,7,9,11,13,15,17,19,21,23,25,27,29,-1,-1,-1,-1,-1,-1,-1,-1,-1,-1,-1,-1,-1,-1,-1],"loss_changes":[1.4956968E-1,2.1174775E-1,0E0,1.1175848E-1,1.566701E-1,7.3014006E-2,1.481497E-1,8.688906E-2,9.5052585E-2,9.187441E-2,2.9333621E-2,2.217625E-2,5.7827756E-3,4.8854202E-2,4.972869E-2,3.0686527E-2,0E0,0E0,0E0,0E0,0E0,0E0,0E0,0E0,0E0,0E0,0E0,0E0,0E0,0E0,0E0],"parents":[2147483647,0,0,1,1,3,3,4,4,5,5,6,6,7,7,8,8,9,9,10,10,11,11,12,12,13,13,14,14,15,15],"right_children":[2,4,-1,6,8,10,12,14,16,18,20,22,24,26,28,30,-1,-1,-1,-1,-1,-1,-1,-1,-1,-1,-1,-1,-1,-1,-1],"split_conditions":[3.1536E6,4E0,1.3837202E-3,8.76E3,6E0,5.2142857E1,2E0,8.76E3,6E1,3E0,1.8E1,5.256E4,6E1,3.65E2,5.256E4,3.504E4,9.918865E-4,7.1942015E-4,-1.9097927E-3,1.8670929E-3,6.784684E-4,-6.8457075E-4,1.9063531E-4,3.4453766E-4,1.2268946E-3,-1.2417256E-3,4.6091824E-4,-2.1897962E-3,7.587343E-5,5.5339537E-5,-1.5173152E-3],"split_indices":[0,2,0,0,2,0,2,0,1,2,1,0,1,0,0,0,0,0,0,0,0,0,0,0,0,0,0,0,0,0,0],"split_type":[0,0,0,0,0,0,0,0,0,0,0,0,0,0,0,0,0,0,0,0,0,0,0,0,0,0,0,0,0,0,0],"sum_hessian":[7.2E1,6.6E1,6E0,4.2E1,2.4E1,1.5E1,2.7E1,1.5E1,9E0,4E0,1.1E1,2E1,7E0,5E0,1E1,4E0,5E0,3E0,1E0,5E0,6E0,1.7E1,3E0,2E0,5E0,2E0,3E0,9E0,1E0,2E0,2E0],"tree_param":{"num_deleted":"0","num_feature":"3","num_nodes":"31","size_leaf_vector":"1"}},{"base_weights":[-7.140804E-4,-1.511089E-2,1.3718597E-3,2.341409E-2,-9.497626E-2,5.3231448E-2,-4.1757215E-2,-1.7261396E-1,1.5450373E-2,-5.8666978E-2,7.612623E-2,-8.608095E-4,3.9075214E-2,-1.882567E-1,7.549405E-5,-8.713375E-2,9.836208E-4,7.140244E-4,-2.1253722E-3,2.216601E-4,1.2464885E-3,4.4174123E-4,6.79034E-5,-1.1295526E-3,-3.1062076E-3,5.4970777E-5,-1.5071998E-3],"categories":[],"categories_nodes":[],"categories_segments":[],"categories_sizes":[],"default_left":[0,0,0,0,0,0,0,0,0,0,0,0,0,0,0,0,0,0,0,0,0,0,0,0,0,0,0],"id":34,"left_children":[1,3,-1,5,7,9,11,13,15,17,19,-1,21,23,-1,25,-1,-1,-1,-1,-1,-1,-1,-1,-1,-1,-1],"loss_changes":[1.4700143E-1,2.083702E-1,0E0,9.161167E-2,1.912789E-1,8.644658E-2,5.7105567E-2,3.805843E-2,9.36249E-2,1.3525856E-1,6.793092E-2,0E0,6.877482E-4,7.548404E-2,0E0,3.0278746E-2,0E0,0E0,0E0,0E0,0E0,0E0,0E0,0E0,0E0,0E0,0E0],"parents":[2147483647,0,0,1,1,3,3,4,4,5,5,6,6,7,7,8,8,9,9,10,10,12,12,13,13,15,15],"right_children":[2,4,-1,6,8,10,12,14,16,18,20,-1,22,24,-1,26,-1,-1,-1,-1,-1,-1,-1,-1,-1,-1,-1],"split_conditions":[3.1536E6,5E0,1.3718597E-3,3.504E4,6E0,5.2142857E1,5.256E4,5.256E4,6E1,3E0,2E0,-8.608095E-4,6E2,3.504E4,7.549405E-5,3.504E4,9.836208E-4,7.140244E-4,-2.1253722E-3,2.216601E-4,1.2464885E-3,4.4174123E-4,6.79034E-5,-1.1295526E-3,-3.1062076E-3,5.4970777E-5,-1.5071998E-3],"split_indices":[0,2,0,0,2,0,0,0,1,2,2,0,1,0,0,0,0,0,0,0,0,0,0,0,0,0,0],"split_type":[0,0,0,0,0,0,0,0,0,0,0,0,0,0,0,0,0,0,0,0,0,0,0,0,0,0,0],"sum_hessian":[7.2E1,6.6E1,6E0,4.5E1,2.1E1,3.1E1,1.4E1,1.2E1,9E0,5E0,2.6E1,9E0,5E0,1.1E1,1E0,4E0,5E0,3E0,2E0,1.3E1,1.3E1,4E0,1E0,8E0,3E0,2E0,2E0],"tree_param":{"num_deleted":"0","num_feature":"3","num_nodes":"27","size_leaf_vector":"1"}},{"base_weights":[-7.5558724E-4,-1.5033262E-2,1.3601009E-3,2.707925E-2,-8.6865455E-2,9.242089E-2,-1.1225946E-2,-1.452579E-1,1.5249029E-2,-1.889112E-2,1.3109915E-1,-5.4280236E-2,1.0319481E-1,-3.0859694E-2,-1.9445167E-1,-8.655284E-2,9.7542413E-4,7.086694E-4,-1.8896168E-3,1.8479783E-3,6.634325E-4,-6.747866E-4,1.8682732E-4,3.3661345E-4,1.2076241E-3,-1.2305176E-3,4.5999288E-4,-2.1539917E-3,7.5116455E-5,5.460441E-5,-1.4971517E-3],"categories":[],"categories_nodes":[],"categories_segments":[],"categories_sizes":[],"default_left":[0,0,0,0,0,0,0,0,0,0,0,0,0,0,0,0,0,0,0,0,0,0,0,0,0,0,0,0,0,0,0],"id":35,"left_children":[1,3,-1,5,7,9,11,13,15,17,19,21,23,25,27,29,-1,-1,-1,-1,-1,-1,-1,-1,-1,-1,-1,-1,-1,-1,-1],"loss_changes":[1.4459148E-1,2.0502953E-1,0E0,1.0866326E-1,1.512829E-1,7.136229E-2,1.4353797E-1,8.404213E-2,9.221879E-2,8.9717165E-2,2.9467598E-2,2.1483608E-2,5.707264E-3,4.817503E-2,4.815492E-2,2.9876377E-2,0E0,0E0,0E0,0E0,0E0,0E0,0E0,0E0,0E0,0E0,0E0,0E0,0E0,0E0,0E0],"parents":[2147483647,0,0,1,1,3,3,4,4,5,5,6,6,7,7,8,8,9,9,10,10,11,11,12,12,13,13,14,14,15,15],"right_children":[2,4,-1,6,8,10,12,14,16,18,20,22,24,26,28,30,-1,-1,-1,-1,-1,-1,-1,-1,-1,-1,-1,-1,-1,-1,-1],"split_conditions":[3.1536E6,4E0,1.3601009E-3,8.76E3,6E0,5.2142857E1,2E0,8.76E3,6E1,3E0,1.8E1,5.256E4,6E1,3.65E2,5.256E4,3.504E4,9.7542413E-4,7.086694E-4,-1.8896168E-3,1.8479783E-3,6.634325E-4,-6.747866E-4,1.8682732E-4,3.3661345E-4,1.2076241E-3,-1.2305176E-3,4.5999288E-4,-2.1539917E-3,7.5116455E-5,5.460441E-5,-1.4971517E-3],"split_indices":[0,2,0,0,2,0,2,0,1,2,1,0,1,0,0,0,0,0,0,0,0,0,0,0,0,0,0,0,0,0,0],"split_type":[0,0,0,0,0,0,0,0,0,0,0,0,0,0,0,0,0,0,0,0,0,0,0,0,0,0,0,0,0,0,0],"sum_hessian":[7.2E1,6.6E1,6E0,4.2E1,2.4E1,1.5E1,2.7E1,1.5E1,9E0,4E0,1.1E1,2E1,7E0,5E0,1E1,4E0,5E0,3E0,1E0,5E0,6E0,1.7E1,3E0,2E0,5E0,2E0,3E0,9E0,1E0,2E0,2E0],"tree_param":{"num_deleted":"0","num_feature":"3","num_nodes":"31","size_leaf_vector":"1"}},{"base_weights":[-7.421403E-4,-1.4896809E-2,1.3484427E-3,2.3015793E-2,-9.349149E-2,5.235012E-2,-4.109849E-2,-1.6979314E-1,1.50498245E-2,-5.814984E-2,7.496677E-2,-8.4698916E-4,3.841864E-2,-1.8518826E-1,7.474094E-5,-8.597582E-2,9.6729555E-4,7.033542E-4,-2.1008023E-3,2.1770378E-4,1.228084E-3,1.8542632E-4,5.211377E-4,-1.1061742E-3,-3.0667558E-3,5.4240427E-5,-1.4871707E-3],"categories":[],"categories_nodes":[],"categories_segments":[],"categories_sizes":[],"default_left":[0,0,0,0,0,0,0,0,0,0,0,0,0,0,0,0,0,0,0,0,0,0,0,0,0,0,0],"id":36,"left_children":[1,3,-1,5,7,9,11,13,15,17,19,-1,21,23,-1,25,-1,-1,-1,-1,-1,-1,-1,-1,-1,-1,-1],"loss_changes":[1.4210896E-1,2.017936E-1,0E0,8.866598E-2,1.8475677E-1,8.4331766E-2,5.525873E-2,3.6861777E-2,9.083388E-2,1.3190098E-1,6.6041455E-2,0E0,6.668996E-4,7.4789256E-2,0E0,2.9479355E-2,0E0,0E0,0E0,0E0,0E0,0E0,0E0,0E0,0E0,0E0,0E0],"parents":[2147483647,0,0,1,1,3,3,4,4,5,5,6,6,7,7,8,8,9,9,10,10,12,12,13,13,15,15],"right_children":[2,4,-1,6,8,10,12,14,16,18,20,-1,22,24,-1,26,-1,-1,-1,-1,-1,-1,-1,-1,-1,-1,-1],"split_conditions":[3.1536E6,5E0,1.3484427E-3,3.504E4,6E0,5.2142857E1,5.256E4,5.256E4,6E1,3E0,2E0,-8.4698916E-4,2E0,3.504E4,7.474094E-5,3.504E4,9.6729555E-4,7.033542E-4,-2.1008023E-3,2.1770378E-4,1.228084E-3,1.8542632E-4,5.211377E-4,-1.1061742E-3,-3.0667558E-3,5.4240427E-5,-1.4871707E-3],"split_indices":[0,2,0,0,2,0,0,0,1,2,2,0,2,0,0,0,0,0,0,0,0,0,0,0,0,0,0],"split_type":[0,0,0,0,0,0,0,0,0,0,0,0,0,0,0,0,0,0,0,0,0,0,0,0,0,0,0],"sum_hessian":[7.2E1,6.6E1,6E0,4.5E1,2.1E1,3.1E1,1.4E1,1.2E1,9E0,5E0,2.6E1,9E0,5E0,1.1E1,1E0,4E0,5E0,3E0,2E0,1.3E1,1.3E1,3E0,2E0,8E0,3E0,2E0,2E0],"tree_param":{"num_deleted":"0","num_feature":"3","num_nodes":"27","size_leaf_vector":"1"}},{"base_weights":[-7.8001944E-4,-1.48173245E-2,1.3368848E-3,2.6623871E-2,-8.550349E-2,1.6363969E-3,8.375076E-3,-1.4288217E-1,1.4852753E-2,-3.5863943E-2,7.421016E-2,-3.0369991E-2,-1.9126315E-1,-8.540264E-2,9.592345E-4,1.567382E-3,-6.049769E-4,-7.14165E-4,1.1330988E-3,-1.219405E-3,4.5900387E-4,-2.1187682E-3,7.436722E-5,5.3878823E-5,-1.4772561E-3],"categories":[],"categories_nodes":[],"categories_segments":[],"categories_sizes":[],"default_left":[0,0,0,0,0,0,0,0,0,0,0,0,0,0,0,0,0,0,0,0,0,0,0,0,0],"id":37,"left_children":[1,3,-1,5,7,-1,9,11,13,15,17,19,21,23,-1,-1,-1,-1,-1,-1,-1,-1,-1,-1,-1],"loss_changes":[1.3977389E-1,1.9854082E-1,0E0,1.0614559E-1,1.4607994E-1,0E0,1.1624817E-1,8.128652E-2,8.9469865E-2,1.2335062E-1,9.9195614E-2,4.750182E-2,4.663092E-2,2.908761E-2,0E0,0E0,0E0,0E0,0E0,0E0,0E0,0E0,0E0,0E0,0E0],"parents":[2147483647,0,0,1,1,3,3,4,4,6,6,7,7,8,8,9,9,10,10,11,11,12,12,13,13],"right_children":[2,4,-1,6,8,-1,10,12,14,16,18,20,22,24,-1,-1,-1,-1,-1,-1,-1,-1,-1,-1,-1],"split_conditions":[3.1536E6,4E0,1.3368848E-3,1.2E1,6E0,1.6363969E-3,2E0,8.76E3,6E1,3E1,5.2142857E1,3.65E2,5.256E4,3.504E4,9.592345E-4,1.567382E-3,-6.049769E-4,-7.14165E-4,1.1330988E-3,-1.219405E-3,4.5900387E-4,-2.1187682E-3,7.436722E-5,5.3878823E-5,-1.4772561E-3],"split_indices":[0,2,0,1,2,0,2,0,1,1,0,0,0,0,0,0,0,0,0,0,0,0,0,0,0],"split_type":[0,0,0,0,0,0,0,0,0,0,0,0,0,0,0,0,0,0,0,0,0,0,0,0,0],"sum_hessian":[7.2E1,6.6E1,6E0,4.2E1,2.4E1,4E0,3.8E1,1.5E1,9E0,2.3E1,1.5E1,5E0,1E1,4E0,5E0,2E0,2.1E1,3E0,1.2E1,2E0,3E0,9E0,1E0,2E0,2E0],"tree_param":{"num_deleted":"0","num_feature":"3","num_nodes":"25","size_leaf_vector":"1"}},{"base_weights":[-7.5733947E-4,-1.4672894E-2,1.3254258E-3,2.2643417E-2,-9.203096E-2,5.1470518E-2,-4.0363956E-2,-1.6701993E-1,1.4657816E-2,-5.7502136E-2,7.378035E-2,-8.339214E-4,3.8077015E-2,-1.8217152E-1,7.399529E-5,-8.4833294E-2,9.51241E-4,6.977317E-4,-2.0803516E-3,1.2103046E-3,2.1260211E-4,4.294331E-4,6.872773E-5,-1.0832362E-3,-3.027864E-3,5.3519605E-5,-1.4674078E-3],"categories":[],"categories_nodes":[],"categories_segments":[],"categories_sizes":[],"default_left":[0,0,0,0,0,0,0,0,0,0,0,0,0,0,0,0,0,0,0,0,0,0,0,0,0,0,0],"id":38,"left_children":[1,3,-1,5,7,9,11,13,15,17,19,-1,21,23,-1,25,-1,-1,-1,-1,-1,-1,-1,-1,-1,-1,-1],"loss_changes":[1.3735558E-1,1.9549397E-1,0E0,8.562827E-2,1.7845875E-1,8.20397E-2,5.3802922E-2,3.570351E-2,8.8126495E-2,1.294701E-1,6.442958E-2,0E0,6.1595347E-4,7.4086964E-2,0E0,2.8701063E-2,0E0,0E0,0E0,0E0,0E0,0E0,0E0,0E0,0E0,0E0,0E0],"parents":[2147483647,0,0,1,1,3,3,4,4,5,5,6,6,7,7,8,8,9,9,10,10,12,12,13,13,15,15],"right_children":[2,4,-1,6,8,10,12,14,16,18,20,-1,22,24,-1,26,-1,-1,-1,-1,-1,-1,-1,-1,-1,-1,-1],"split_conditions":[3.1536E6,5E0,1.3254258E-3,3.504E4,6E0,5.2142857E1,5.256E4,5.256E4,6E1,3E0,8.76E3,-8.339214E-4,6E2,3.504E4,7.399529E-5,3.504E4,9.51241E-4,6.977317E-4,-2.0803516E-3,1.2103046E-3,2.1260211E-4,4.294331E-4,6.872773E-5,-1.0832362E-3,-3.027864E-3,5.3519605E-5,-1.4674078E-3],"split_indices":[0,2,0,0,2,0,0,0,1,2,0,0,1,0,0,0,0,0,0,0,0,0,0,0,0,0,0],"split_type":[0,0,0,0,0,0,0,0,0,0,0,0,0,0,0,0,0,0,0,0,0,0,0,0,0,0,0],"sum_hessian":[7.2E1,6.6E1,6E0,4.5E1,2.1E1,3.1E1,1.4E1,1.2E1,9E0,5E0,2.6E1,9E0,5E0,1.1E1,1E0,4E0,5E0,3E0,2E0,1.3E1,1.3E1,4E0,1E0,8E0,3E0,2E0,2E0],"tree_param":{"num_deleted":"0","num_feature":"3","num_nodes":"27","size_leaf_vector":"1"}},{"base_weights":[-7.973007E-4,-1.4597738E-2,1.314065E-3,2.6186625E-2,-8.4162936E-2,1.6136231E-3,8.1849545E-3,-1.4054519E-1,1.4464977E-2,-3.5391923E-2,7.303871E-2,-2.9888665E-2,-1.8812646E-1,-8.426774E-2,9.433141E-4,1.5505726E-3,-5.9753546E-4,-7.070963E-4,1.116506E-3,-1.2083756E-3,4.579517E-4,-2.0841162E-3,7.3625444E-5,5.3162774E-5,-1.4576252E-3],"categories":[],"categories_nodes":[],"categories_segments":[],"categories_sizes":[],"default_left":[0,0,0,0,0,0,0,0,0,0,0,0,0,0,0,0,0,0,0,0,0,0,0,0,0],"id":39,"left_children":[1,3,-1,5,7,-1,9,11,13,15,17,19,21,23,-1,-1,-1,-1,-1,-1,-1,-1,-1,-1,-1],"loss_changes":[1.3510458E-1,1.9229448E-1,0E0,1.0331495E-1,1.410546E-1,0E0,1.12803824E-1,7.862002E-2,8.68034E-2,1.20616846E-1,9.670111E-2,4.6833947E-2,4.5155197E-2,2.8319653E-2,0E0,0E0,0E0,0E0,0E0,0E0,0E0,0E0,0E0,0E0,0E0],"parents":[2147483647,0,0,1,1,3,3,4,4,6,6,7,7,8,8,9,9,10,10,11,11,12,12,13,13],"right_children":[2,4,-1,6,8,-1,10,12,14,16,18,20,22,24,-1,-1,-1,-1,-1,-1,-1,-1,-1,-1,-1],"split_conditions":[3.1536E6,4E0,1.314065E-3,1.2E1,6E0,1.6136231E-3,2E0,8.76E3,6E1,3E1,5.2142857E1,3.65E2,5.256E4,3.504E4,9.433141E-4,1.5505726E-3,-5.9753546E-4,-7.070963E-4,1.116506E-3,-1.2083756E-3,4.579517E-4,-2.0841162E-3,7.3625444E-5,5.3162774E-5,-1.4576252E-3],"split_indices":[0,2,0,1,2,0,2,0,1,1,0,0,0,0,0,0,0,0,0,0,0,0,0,0,0],"split_type":[0,0,0,0,0,0,0,0,0,0,0,0,0,0,0,0,0,0,0,0,0,0,0,0,0],"sum_hessian":[7.2E1,6.6E1,6E0,4.2E1,2.4E1,4E0,3.8E1,1.5E1,9E0,2.3E1,1.5E1,5E0,1E1,4E0,5E0,2E0,2.1E1,3E0,1.2E1,2E0,3E0,9E0,1E0,2E0,2E0],"tree_param":{"num_deleted":"0","num_feature":"3","num_nodes":"25","size_leaf_vector":"1"}},{"base_weights":[-7.7469175E-4,-1.4455429E-2,1.3028018E-3,2.2273041E-2,-9.0594254E-2,5.0605096E-2,-3.9653543E-2,-1.6429353E-1,1.4274219E-2,-5.6861028E-2,7.2612196E-2,-8.2103827E-4,3.7705857E-2,-1.7920561E-1,7.325738E-5,-8.3705954E-2,9.354532E-4,6.921577E-4,-2.0600976E-3,2.0868411E-4,1.1916939E-3,4.2392156E-4,7.137179E-5,-1.0607307E-3,-2.9895243E-3,5.2808322E-5,-1.4479075E-3],"categories":[],"categories_nodes":[],"categories_segments":[],"categories_sizes":[],"default_left":[0,0,0,0,0,0,0,0,0,0,0,0,0,0,0,0,0,0,0,0,0,0,0,0,0,0,0],"id":40,"left_children":[1,3,-1,5,7,9,11,13,15,17,19,-1,21,23,-1,25,-1,-1,-1,-1,-1,-1,-1,-1,-1,-1,-1],"loss_changes":[1.3276695E-1,1.8938082E-1,0E0,8.271401E-2,1.723772E-1,7.980936E-2,5.235473E-2,3.4582436E-2,8.550028E-2,1.270843E-1,6.2557355E-2,0E0,5.569635E-4,7.337785E-2,0E0,2.794332E-2,0E0,0E0,0E0,0E0,0E0,0E0,0E0,0E0,0E0,0E0,0E0],"parents":[2147483647,0,0,1,1,3,3,4,4,5,5,6,6,7,7,8,8,9,9,10,10,12,12,13,13,15,15],"right_children":[2,4,-1,6,8,10,12,14,16,18,20,-1,22,24,-1,26,-1,-1,-1,-1,-1,-1,-1,-1,-1,-1,-1],"split_conditions":[3.1536E6,5E0,1.3028018E-3,3.504E4,6E0,5.2142857E1,5.256E4,5.256E4,6E1,3E0,2E0,-8.2103827E-4,6E2,3.504E4,7.325738E-5,3.504E4,9.354532E-4,6.921577E-4,-2.0600976E-3,2.0868411E-4,1.1916939E-3,4.2392156E-4,7.137179E-5,-1.0607307E-3,-2.9895243E-3,5.2808322E-5,-1.4479075E-3],"split_indices":[0,2,0,0,2,0,0,0,1,2,2,0,1,0,0,0,0,0,0,0,0,0,0,0,0,0,0],"split_type":[0,0,0,0,0,0,0,0,0,0,0,0,0,0,0,0,0,0,0,0,0,0,0,0,0,0,0],"sum_hessian":[7.2E1,6.6E1,6E0,4.5E1,2.1E1,3.1E1,1.4E1,1.2E1,9E0,5E0,2.6E1,9E0,5E0,1.1E1,1E0,4E0,5E0,3E0,2E0,1.3E1,1.3E1,4E0,1E0,8E0,3E0,2E0,2E0],"tree_param":{"num_deleted":"0","num_feature":"3","num_nodes":"27","size_leaf_vector":"1"}},{"base_weights":[-8.138798E-4,-1.438146E-2,1.2916352E-3,2.2043949E-2,-8.988998E-2,5.0100073E-2,-3.927871E-2,-1.6295652E-1,1.4085522E-2,-5.6520388E-2,7.193795E-2,-8.1364874E-4,3.7411362E-2,-1.7775108E-1,7.289111E-5,-8.314791E-2,9.27658E-4,6.8696676E-4,-2.0463634E-3,1.1827683E-3,2.0460639E-4,4.2053033E-4,7.1015056E-5,-1.051302E-3,-2.9671027E-3,5.245626E-5,-1.4382548E-3],"categories":[],"categories_nodes":[],"categories_segments":[],"categories_sizes":[],"default_left":[0,0,0,0,0,0,0,0,0,0,0,0,0,0,0,0,0,0,0,0,0,0,0,0,0,0,0],"id":41,"left_children":[1,3,-1,5,7,9,11,13,15,17,19,-1,21,23,-1,25,-1,-1,-1,-1,-1,-1,-1,-1,-1,-1,-1],"loss_changes":[1.305915E-1,1.8626025E-1,0E0,8.110976E-2,1.6943221E-1,7.8573614E-2,5.1457845E-2,3.403887E-2,8.421681E-2,1.2533772E-1,6.1985806E-2,0E0,5.4549053E-4,7.2473824E-2,0E0,2.7571976E-2,0E0,0E0,0E0,0E0,0E0,0E0,0E0,0E0,0E0,0E0,0E0],"parents":[2147483647,0,0,1,1,3,3,4,4,5,5,6,6,7,7,8,8,9,9,10,10,12,12,13,13,15,15],"right_children":[2,4,-1,6,8,10,12,14,16,18,20,-1,22,24,-1,26,-1,-1,-1,-1,-1,-1,-1,-1,-1,-1,-1],"split_conditions":[3.1536E6,5E0,1.2916352E-3,3.504E4,6E0,5.2142857E1,5.256E4,5.256E4,6E1,3E0,8.76E3,-8.1364874E-4,6E2,3.504E4,7.289111E-5,3.504E4,9.27658E-4,6.8696676E-4,-2.0463634E-3,1.1827683E-3,2.0460639E-4,4.2053033E-4,7.1015056E-5,-1.051302E-3,-2.9671027E-3,5.245626E-5,-1.4382548E-3],"split_indices":[0,2,0,0,2,0,0,0,1,2,0,0,1,0,0,0,0,0,0,0,0,0,0,0,0,0,0],"split_type":[0,0,0,0,0,0,0,0,0,0,0,0,0,0,0,0,0,0,0,0,0,0,0,0,0,0,0],"sum_hessian":[7.2E1,6.6E1,6E0,4.5E1,2.1E1,3.1E1,1.4E1,1.2E1,9E0,5E0,2.6E1,9E0,5E0,1.1E1,1E0,4E0,5E0,3E0,2E0,1.3E1,1.3E1,4E0,1E0,8E0,3E0,2E0,2E0],"tree_param":{"num_deleted":"0","num_feature":"3","num_nodes":"27","size_leaf_vector":"1"}},{"base_weights":[-8.524048E-4,-1.4307766E-2,1.2805639E-3,2.552117E-2,-8.224122E-2,1.5876165E-3,7.784667E-3,-1.3718869E-1,1.389884E-2,-3.4772754E-2,7.1134254E-2,-2.9117918E-2,-1.8366468E-1,-8.259359E-2,9.1992726E-4,1.5310006E-3,-5.881119E-4,-6.984223E-4,1.0903977E-3,-1.1945465E-3,4.5914113E-4,-2.034817E-3,7.252663E-5,5.210658E-5,-1.4286664E-3],"categories":[],"categories_nodes":[],"categories_segments":[],"categories_sizes":[],"default_left":[0,0,0,0,0,0,0,0,0,0,0,0,0,0,0,0,0,0,0,0,0,0,0,0,0],"id":42,"left_children":[1,3,-1,5,7,-1,9,11,13,15,17,19,21,23,-1,-1,-1,-1,-1,-1,-1,-1,-1,-1,-1],"loss_changes":[1.2845175E-1,1.8338196E-1,0E0,1.0038257E-1,1.3397309E-1,0E0,1.0761735E-1,7.501522E-2,8.29527E-2,1.17392056E-1,9.311616E-2,4.615354E-2,4.3093264E-2,2.7205579E-2,0E0,0E0,0E0,0E0,0E0,0E0,0E0,0E0,0E0,0E0,0E0],"parents":[2147483647,0,0,1,1,3,3,4,4,6,6,7,7,8,8,9,9,10,10,11,11,12,12,13,13],"right_children":[2,4,-1,6,8,-1,10,12,14,16,18,20,22,24,-1,-1,-1,-1,-1,-1,-1,-1,-1,-1,-1],"split_conditions":[3.1536E6,4E0,1.2805639E-3,1.2E1,6E0,1.5876165E-3,2E0,8.76E3,6E1,3E1,5.2142857E1,3.65E2,5.256E4,3.504E4,9.1992726E-4,1.5310006E-3,-5.881119E-4,-6.984223E-4,1.0903977E-3,-1.1945465E-3,4.5914113E-4,-2.034817E-3,7.252663E-5,5.210658E-5,-1.4286664E-3],"split_indices":[0,2,0,1,2,0,2,0,1,1,0,0,0,0,0,0,0,0,0,0,0,0,0,0,0],"split_type":[0,0,0,0,0,0,0,0,0,0,0,0,0,0,0,0,0,0,0,0,0,0,0,0,0],"sum_hessian":[7.2E1,6.6E1,6E0,4.2E1,2.4E1,4E0,3.8E1,1.5E1,9E0,2.3E1,1.5E1,5E0,1E1,4E0,5E0,2E0,2.1E1,3E0,1.2E1,2E0,3E0,9E0,1E0,2E0,2E0],"tree_param":{"num_deleted":"0","num_feature":"3","num_nodes":"25","size_leaf_vector":"1"}},{"base_weights":[-8.295101E-4,-1.4168145E-2,1.2695879E-3,2.1684032E-2,-8.848778E-2,4.9256235E-2,-3.8582273E-2,-1.6029793E-1,1.3714185E-2,-5.5888597E-2,7.079745E-2,-8.0103276E-4,3.704978E-2,-1.7485882E-1,7.216394E-5,-8.204296E-2,9.122611E-4,6.814794E-4,-2.026411E-3,2.0063801E-4,1.1647413E-3,4.1515706E-4,7.3600706E-5,-1.0294118E-3,-2.9295878E-3,5.175928E-5,-1.419142E-3],"categories":[],"categories_nodes":[],"categories_segments":[],"categories_sizes":[],"default_left":[0,0,0,0,0,0,0,0,0,0,0,0,0,0,0,0,0,0,0,0,0,0,0,0,0,0,0],"id":43,"left_children":[1,3,-1,5,7,9,11,13,15,17,19,-1,21,23,-1,25,-1,-1,-1,-1,-1,-1,-1,-1,-1,-1,-1],"loss_changes":[1.2622884E-1,1.8044165E-1,0E0,7.833745E-2,1.636594E-1,7.643508E-2,5.0072588E-2,3.2970905E-2,8.170767E-2,1.2302563E-1,6.0231388E-2,0E0,4.899949E-4,7.176414E-2,0E0,2.684405E-2,0E0,0E0,0E0,0E0,0E0,0E0,0E0,0E0,0E0,0E0,0E0],"parents":[2147483647,0,0,1,1,3,3,4,4,5,5,6,6,7,7,8,8,9,9,10,10,12,12,13,13,15,15],"right_children":[2,4,-1,6,8,10,12,14,16,18,20,-1,22,24,-1,26,-1,-1,-1,-1,-1,-1,-1,-1,-1,-1,-1],"split_conditions":[3.1536E6,5E0,1.2695879E-3,3.504E4,6E0,5.2142857E1,5.256E4,5.256E4,6E1,3E0,2E0,-8.0103276E-4,6E2,3.504E4,7.216394E-5,3.504E4,9.122611E-4,6.814794E-4,-2.026411E-3,2.0063801E-4,1.1647413E-3,4.1515706E-4,7.3600706E-5,-1.0294118E-3,-2.9295878E-3,5.175928E-5,-1.419142E-3],"split_indices":[0,2,0,0,2,0,0,0,1,2,2,0,1,0,0,0,0,0,0,0,0,0,0,0,0,0,0],"split_type":[0,0,0,0,0,0,0,0,0,0,0,0,0,0,0,0,0,0,0,0,0,0,0,0,0,0,0],"sum_hessian":[7.2E1,6.6E1,6E0,4.5E1,2.1E1,3.1E1,1.4E1,1.2E1,9E0,5E0,2.6E1,9E0,5E0,1.1E1,1E0,4E0,5E0,3E0,2E0,1.3E1,1.3E1,4E0,1E0,8E0,3E0,2E0,2E0],"tree_param":{"num_deleted":"0","num_feature":"3","num_nodes":"27","size_leaf_vector":"1"}},{"base_weights":[-8.672929E-4,-1.4095618E-2,1.2587056E-3,2.5102222E-2,-8.095208E-2,1.5713823E-3,7.5308825E-3,-1.3494484E-1,1.3531539E-2,-3.4235E-2,6.970903E-2,-2.8656667E-2,-1.8065248E-1,-8.149601E-2,9.04659E-2,1.5178536E-3,-5.804528E-4,-6.915252E-4,1.0707342E-3,-1.1837106E-3,4.5793294E-4,-2.001538E-3,7.1803035E-5,5.141437E-5,-1.4096812E-3,1.2798789E-3,5.7363923E-4],"categories":[],"categories_nodes":[],"categories_segments":[],"categories_sizes":[],"default_left":[0,0,0,0,0,0,0,0,0,0,0,0,0,0,0,0,0,0,0,0,0,0,0,0,0,0,0],"id":44,"left_children":[1,3,-1,5,7,-1,9,11,13,15,17,19,21,23,25,-1,-1,-1,-1,-1,-1,-1,-1,-1,-1,-1,-1],"loss_changes":[1.2416089E-1,1.7761421E-1,0E0,9.8578736E-2,1.293618E-1,0E0,1.03666574E-1,7.255402E-2,8.048145E-2,1.1511113E-1,9.042004E-2,4.5495994E-2,4.1729957E-2,2.648734E-2,1.1042133E-4,0E0,0E0,0E0,0E0,0E0,0E0,0E0,0E0,0E0,0E0,0E0,0E0],"parents":[2147483647,0,0,1,1,3,3,4,4,6,6,7,7,8,8,9,9,10,10,11,11,12,12,13,13,14,14],"right_children":[2,4,-1,6,8,-1,10,12,14,16,18,20,22,24,26,-1,-1,-1,-1,-1,-1,-1,-1,-1,-1,-1,-1],"split_conditions":[3.1536E6,4E0,1.2587056E-3,1.2E1,6E0,1.5713823E-3,2E0,8.76E3,6E1,3E1,5.2142857E1,3.65E2,5.256E4,3.504E4,6E2,1.5178536E-3,-5.804528E-4,-6.915252E-4,1.0707342E-3,-1.1837106E-3,4.5793294E-4,-2.001538E-3,7.1803035E-5,5.141437E-5,-1.4096812E-3,1.2798789E-3,5.7363923E-4],"split_indices":[0,2,0,1,2,0,2,0,1,1,0,0,0,0,1,0,0,0,0,0,0,0,0,0,0,0,0],"split_type":[0,0,0,0,0,0,0,0,0,0,0,0,0,0,0,0,0,0,0,0,0,0,0,0,0,0,0],"sum_hessian":[7.2E1,6.6E1,6E0,4.2E1,2.4E1,4E0,3.8E1,1.5E1,9E0,2.3E1,1.5E1,5E0,1E1,4E0,5E0,2E0,2.1E1,3E0,1.2E1,2E0,3E0,9E0,1E0,2E0,2E0,1E0,4E0],"tree_param":{"num_deleted":"0","num_feature":"3","num_nodes":"27","size_leaf_vector":"1"}},{"base_weights":[-8.3141826E-4,-1.3943809E-2,1.2479166E-3,2.1330487E-2,-8.706535E-2,4.8426177E-2,-3.789569E-2,-1.5768424E-1,1.344575E-2,-5.5263773E-2,6.967483E-2,-7.885996E-4,3.669405E-2,-1.7201532E-1,7.1443916E-5,-8.09527E-2,8.987016E-2,6.760316E-4,-2.006651E-3,1.1473696E-3,1.9635915E-4,4.098747E-4,7.61348E-5,-1.0079354E-3,-2.8926048E-3,5.107144E-5,-1.4002831E-3,1.2734794E-3,5.690502E-4],"categories":[],"categories_nodes":[],"categories_segments":[],"categories_sizes":[],"default_left":[0,0,0,0,0,0,0,0,0,0,0,0,0,0,0,0,0,0,0,0,0,0,0,0,0,0,0,0,0],"id":45,"left_children":[1,3,-1,5,7,9,11,13,15,17,19,-1,21,23,-1,25,27,-1,-1,-1,-1,-1,-1,-1,-1,-1,-1,-1,-1],"loss_changes":[1.21987045E-1,1.7467093E-1,0E0,7.565475E-2,1.5827578E-1,7.435518E-2,4.8726413E-2,3.1937152E-2,7.941869E-2,1.2075567E-1,5.8628276E-2,0E0,4.370734E-4,7.104936E-2,0E0,2.6135333E-2,1.6602874E-4,0E0,0E0,0E0,0E0,0E0,0E0,0E0,0E0,0E0,0E0,0E0,0E0],"parents":[2147483647,0,0,1,1,3,3,4,4,5,5,6,6,7,7,8,8,9,9,10,10,12,12,13,13,15,15,16,16],"right_children":[2,4,-1,6,8,10,12,14,16,18,20,-1,22,24,-1,26,28,-1,-1,-1,-1,-1,-1,-1,-1,-1,-1,-1,-1],"split_conditions":[3.1536E6,5E0,1.2479166E-3,3.504E4,6E0,5.2142857E1,5.256E4,5.256E4,6E1,3E0,8.76E3,-7.885996E-4,6E2,3.504E4,7.1443916E-5,3.504E4,6E2,6.760316E-4,-2.006651E-3,1.1473696E-3,1.9635915E-4,4.098747E-4,7.61348E-5,-1.0079354E-3,-2.8926048E-3,5.107144E-5,-1.4002831E-3,1.2734794E-3,5.690502E-4],"split_indices":[0,2,0,0,2,0,0,0,1,2,0,0,1,0,0,0,1,0,0,0,0,0,0,0,0,0,0,0,0],"split_type":[0,0,0,0,0,0,0,0,0,0,0,0,0,0,0,0,0,0,0,0,0,0,0,0,0,0,0,0,0],"sum_hessian":[7.2E1,6.6E1,6E0,4.5E1,2.1E1,3.1E1,1.4E1,1.2E1,9E0,5E0,2.6E1,9E0,5E0,1.1E1,1E0,4E0,5E0,3E0,2E0,1.3E1,1.3E1,4E0,1E0,8E0,3E0,2E0,2E0,1E0,4E0],"tree_param":{"num_deleted":"0","num_feature":"3","num_nodes":"29","size_leaf_vector":"1"}},{"base_weights":[-8.5567165E-4,-1.3858478E-2,1.23722E-3,2.469014E-2,-7.960776E-2,1.5496322E-3,7.355382E-3,-1.3273752E-1,1.3360629E-2,-3.3784434E-2,6.860539E-2,-2.8203124E-2,-1.7768924E-1,-8.041301E-2,8.927856E-2,1.5016566E-3,-5.733288E-4,-6.8470225E-4,1.0550517E-3,-1.172955E-3,4.5666946E-4,-1.968799E-3,7.1086586E-5,5.0730905E-5,-1.3909478E-3,1.2671122E-3,5.6449784E-4],"categories":[],"categories_nodes":[],"categories_segments":[],"categories_sizes":[],"default_left":[0,0,0,0,0,0,0,0,0,0,0,0,0,0,0,0,0,0,0,0,0,0,0,0,0,0,0],"id":46,"left_children":[1,3,-1,5,7,-1,9,11,13,15,17,19,21,23,25,-1,-1,-1,-1,-1,-1,-1,-1,-1,-1,-1,-1],"loss_changes":[1.1996433E-1,1.7177998E-1,0E0,9.596505E-2,1.2525818E-1,0E0,1.0059055E-1,7.017261E-2,7.837017E-2,1.1257118E-1,8.815293E-2,4.484409E-2,4.0409863E-2,2.578802E-2,2.2038817E-4,0E0,0E0,0E0,0E0,0E0,0E0,0E0,0E0,0E0,0E0,0E0,0E0],"parents":[2147483647,0,0,1,1,3,3,4,4,6,6,7,7,8,8,9,9,10,10,11,11,12,12,13,13,14,14],"right_children":[2,4,-1,6,8,-1,10,12,14,16,18,20,22,24,26,-1,-1,-1,-1,-1,-1,-1,-1,-1,-1,-1,-1],"split_conditions":[3.1536E6,4E0,1.23722E-3,1.2E1,6E0,1.5496322E-3,2E0,8.76E3,6E1,3E1,5.2142857E1,3.65E2,5.256E4,3.504E4,6E2,1.5016566E-3,-5.733288E-4,-6.8470225E-4,1.0550517E-3,-1.172955E-3,4.5666946E-4,-1.968799E-3,7.1086586E-5,5.0730905E-5,-1.3909478E-3,1.2671122E-3,5.6449784E-4],"split_indices":[0,2,0,1,2,0,2,0,1,1,0,0,0,0,1,0,0,0,0,0,0,0,0,0,0,0,0],"split_type":[0,0,0,0,0,0,0,0,0,0,0,0,0,0,0,0,0,0,0,0,0,0,0,0,0,0,0],"sum_hessian":[7.2E1,6.6E1,6E0,4.2E1,2.4E1,4E0,3.8E1,1.5E1,9E0,2.3E1,1.5E1,5E0,1E1,4E0,5E0,2E0,2.1E1,3E0,1.2E1,2E0,3E0,9E0,1E0,2E0,2E0,1E0,4E0],"tree_param":{"num_deleted":"0","num_feature":"3","num_nodes":"27","size_leaf_vector":"1"}},{"base_weights":[-8.202297E-4,-1.3709067E-2,1.2266153E-3,2.098308E-2,-8.5624054E-2,4.7609534E-2,-3.72189E-2,-1.5511467E-1,1.327615E-2,-5.4645356E-2,6.8569526E-2,-7.7634194E-4,3.634308E-2,-1.6921973E-1,7.073104E-5,-7.987693E-2,8.8691026E-2,6.706305E-4,-1.987081E-3,1.9212766E-4,1.1302846E-3,4.0466856E-4,7.8620906E-5,-9.868657E-4,-2.8561442E-3,5.0392744E-5,-1.3816748E-3,1.2607765E-3,5.599817E-4],"categories":[],"categories_nodes":[],"categories_segments":[],"categories_sizes":[],"default_left":[0,0,0,0,0,0,0,0,0,0,0,0,0,0,0,0,0,0,0,0,0,0,0,0,0,0,0,0,0],"id":47,"left_children":[1,3,-1,5,7,9,11,13,15,17,19,-1,21,23,-1,25,27,-1,-1,-1,-1,-1,-1,-1,-1,-1,-1,-1,-1],"loss_changes":[1.1786372E-1,1.6895397E-1,0E0,7.305874E-2,1.5325731E-1,7.2331384E-2,4.7416903E-2,3.0936629E-2,7.733565E-2,1.1852785E-1,5.7075858E-2,0E0,3.865417E-4,7.0329934E-2,0E0,2.5445327E-2,2.735369E-4,0E0,0E0,0E0,0E0,0E0,0E0,0E0,0E0,0E0,0E0,0E0,0E0],"parents":[2147483647,0,0,1,1,3,3,4,4,5,5,6,6,7,7,8,8,9,9,10,10,12,12,13,13,15,15,16,16],"right_children":[2,4,-1,6,8,10,12,14,16,18,20,-1,22,24,-1,26,28,-1,-1,-1,-1,-1,-1,-1,-1,-1,-1,-1,-1],"split_conditions":[3.1536E6,5E0,1.2266153E-3,3.504E4,6E0,5.2142857E1,5.256E4,5.256E4,6E1,3E0,2E0,-7.7634194E-4,6E2,3.504E4,7.073104E-5,3.504E4,6E2,6.706305E-4,-1.987081E-3,1.9212766E-4,1.1302846E-3,4.0466856E-4,7.8620906E-5,-9.868657E-4,-2.8561442E-3,5.0392744E-5,-1.3816748E-3,1.2607765E-3,5.599817E-4],"split_indices":[0,2,0,0,2,0,0,0,1,2,2,0,1,0,0,0,1,0,0,0,0,0,0,0,0,0,0,0,0],"split_type":[0,0,0,0,0,0,0,0,0,0,0,0,0,0,0,0,0,0,0,0,0,0,0,0,0,0,0,0,0],"sum_hessian":[7.2E1,6.6E1,6E0,4.5E1,2.1E1,3.1E1,1.4E1,1.2E1,9E0,5E0,2.6E1,9E0,5E0,1.1E1,1E0,4E0,5E0,3E0,2E0,1.3E1,1.3E1,4E0,1E0,8E0,3E0,2E0,2E0,1E0,4E0],"tree_param":{"num_deleted":"0","num_feature":"3","num_nodes":"29","size_leaf_vector":"1"}},{"base_weights":[-8.441173E-4,-1.3625248E-2,1.2161016E-3,2.42847E-2,-7.828535E-2,1.5338218E-3,7.1110567E-3,-1.3056608E-1,1.3192346E-2,-3.3261757E-2,6.7225836E-2,-2.7757103E-2,-1.7477405E-1,-7.93444E-2,8.810758E-2,1.4887697E-3,-5.6586956E-4,-6.779524E-4,1.0359957E-3,-1.1622793E-3,4.5535294E-4,-1.9365901E-3,7.037729E-5,5.0056973E-5,-1.3724635E-3,1.2544726E-3,5.555018E-4],"categories":[],"categories_nodes":[],"categories_segments":[],"categories_sizes":[],"default_left":[0,0,0,0,0,0,0,0,0,0,0,0,0,0,0,0,0,0,0,0,0,0,0,0,0,0,0],"id":48,"left_children":[1,3,-1,5,7,-1,9,11,13,15,17,19,21,23,25,-1,-1,-1,-1,-1,-1,-1,-1,-1,-1,-1,-1],"loss_changes":[1.1590957E-1,1.6613564E-1,0E0,9.4243474E-2,1.2128547E-1,0E0,9.688916E-2,6.786841E-2,7.6314956E-2,1.1038663E-1,8.560308E-2,4.419791E-2,3.9131492E-2,2.5107194E-2,3.2548234E-4,0E0,0E0,0E0,0E0,0E0,0E0,0E0,0E0,0E0,0E0,0E0,0E0],"parents":[2147483647,0,0,1,1,3,3,4,4,6,6,7,7,8,8,9,9,10,10,11,11,12,12,13,13,14,14],"right_children":[2,4,-1,6,8,-1,10,12,14,16,18,20,22,24,26,-1,-1,-1,-1,-1,-1,-1,-1,-1,-1,-1,-1],"split_conditions":[3.1536E6,4E0,1.2161016E-3,1.2E1,6E0,1.5338218E-3,2E0,8.76E3,6E1,3E1,5.2142857E1,3.65E2,5.256E4,3.504E4,6E2,1.4887697E-3,-5.6586956E-4,-6.779524E-4,1.0359957E-3,-1.1622793E-3,4.5535294E-4,-1.9365901E-3,7.037729E-5,5.0056973E-5,-1.3724635E-3,1.2544726E-3,5.555018E-4],"split_indices":[0,2,0,1,2,0,2,0,1,1,0,0,0,0,1,0,0,0,0,0,0,0,0,0,0,0,0],"split_type":[0,0,0,0,0,0,0,0,0,0,0,0,0,0,0,0,0,0,0,0,0,0,0,0,0,0,0],"sum_hessian":[7.2E1,6.6E1,6E0,4.2E1,2.4E1,4E0,3.8E1,1.5E1,9E0,2.3E1,1.5E1,5E0,1E1,4E0,5E0,2E0,2.1E1,3E0,1.2E1,2E0,3E0,9E0,1E0,2E0,2E0,1E0,4E0],"tree_param":{"num_deleted":"0","num_feature":"3","num_nodes":"27","size_leaf_vector":"1"}},{"base_weights":[-8.090216E-4,-1.3478104E-2,1.2056777E-3,2.0641847E-2,-8.420718E-2,4.6806246E-2,-3.655166E-2,-1.5258843E-1,1.3109168E-2,-5.403373E-2,6.748156E-2,-7.6426176E-4,3.599782E-2,-1.6647123E-1,7.002532E-5,-7.8815445E-2,8.752815E-2,6.6526874E-4,-1.9676997E-3,1.1129868E-3,1.8844336E-4,3.995509E-4,8.1057246E-5,-9.661947E-4,-2.8201984E-3,4.9723185E-5,-1.3633139E-3,1.2482002E-3,5.510577E-4],"categories":[],"categories_nodes":[],"categories_segments":[],"categories_sizes":[],"default_left":[0,0,0,0,0,0,0,0,0,0,0,0,0,0,0,0,0,0,0,0,0,0,0,0,0,0,0,0,0],"id":49,"left_children":[1,3,-1,5,7,9,11,13,15,17,19,-1,21,23,-1,25,27,-1,-1,-1,-1,-1,-1,-1,-1,-1,-1,-1,-1],"loss_changes":[1.138795E-1,1.6342744E-1,0E0,7.054679E-2,1.484018E-1,7.0363045E-2,4.6144314E-2,2.9968113E-2,7.530792E-2,1.163407E-1,5.5443503E-2,0E0,3.3839606E-4,6.960669E-2,0E0,2.4773546E-2,3.7624687E-4,0E0,0E0,0E0,0E0,0E0,0E0,0E0,0E0,0E0,0E0,0E0,0E0],"parents":[2147483647,0,0,1,1,3,3,4,4,5,5,6,6,7,7,8,8,9,9,10,10,12,12,13,13,15,15,16,16],"right_children":[2,4,-1,6,8,10,12,14,16,18,20,-1,22,24,-1,26,28,-1,-1,-1,-1,-1,-1,-1,-1,-1,-1,-1,-1],"split_conditions":[3.1536E6,5E0,1.2056777E-3,3.504E4,6E0,5.2142857E1,5.256E4,5.256E4,6E1,3E0,8.76E3,-7.6426176E-4,6E2,3.504E4,7.002532E-5,3.504E4,6E2,6.6526874E-4,-1.9676997E-3,1.1129868E-3,1.8844336E-4,3.995509E-4,8.1057246E-5,-9.661947E-4,-2.8201984E-3,4.9723185E-5,-1.3633139E-3,1.2482002E-3,5.510577E-4],"split_indices":[0,2,0,0,2,0,0,0,1,2,0,0,1,0,0,0,1,0,0,0,0,0,0,0,0,0,0,0,0],"split_type":[0,0,0,0,0,0,0,0,0,0,0,0,0,0,0,0,0,0,0,0,0,0,0,0,0,0,0,0,0],"sum_hessian":[7.2E1,6.6E1,6E0,4.5E1,2.1E1,3.1E1,1.4E1,1.2E1,9E0,5E0,2.6E1,9E0,5E0,1.1E1,1E0,4E0,5E0,3E0,2E0,1.3E1,1.3E1,4E0,1E0,8E0,3E0,2E0,2E0,1E0,4E0],"tree_param":{"num_deleted":"0","num_feature":"3","num_nodes":"29","size_leaf_vector":"1"}},{"base_weights":[-8.3257526E-4,-1.3395796E-2,1.1953432E-3,2.3885883E-2,-7.698445E-2,1.5126474E-3,6.9428016E-3,-1.2842986E-1,1.30266575E-2,-3.282404E-2,6.615914E-2,-2.7318344E-2,-1.7190616E-1,-7.828999E-2,8.695275E-2,1.4729172E-3,-5.589327E-4,-6.712748E-4,1.0208123E-3,-1.1516816E-3,4.5398608E-4,-1.9049027E-3,6.9675145E-5,4.9391783E-5,-1.354225E-3,1.2419593E-3,5.4664933E-4],"categories":[],"categories_nodes":[],"categories_segments":[],"categories_sizes":[],"default_left":[0,0,0,0,0,0,0,0,0,0,0,0,0,0,0,0,0,0,0,0,0,0,0,0,0,0,0],"id":50,"left_children":[1,3,-1,5,7,-1,9,11,13,15,17,19,21,23,25,-1,-1,-1,-1,-1,-1,-1,-1,-1,-1,-1,-1],"loss_changes":[1.1199156E-1,1.6067518E-1,0E0,9.175199E-2,1.1743948E-1,0E0,9.401062E-2,6.563908E-2,7.431437E-2,1.07955806E-1,8.345943E-2,4.3557502E-2,3.7893564E-2,2.4444332E-2,4.2584166E-4,0E0,0E0,0E0,0E0,0E0,0E0,0E0,0E0,0E0,0E0,0E0,0E0],"parents":[2147483647,0,0,1,1,3,3,4,4,6,6,7,7,8,8,9,9,10,10,11,11,12,12,13,13,14,14],"right_children":[2,4,-1,6,8,-1,10,12,14,16,18,20,22,24,26,-1,-1,-1,-1,-1,-1,-1,-1,-1,-1,-1,-1],"split_conditions":[3.1536E6,4E0,1.1953432E-3,1.2E1,6E0,1.5126474E-3,2E0,8.76E3,6E1,3E1,5.2142857E1,3.65E2,5.256E4,3.504E4,6E2,1.4729172E-3,-5.589327E-4,-6.712748E-4,1.0208123E-3,-1.1516816E-3,4.5398608E-4,-1.9049027E-3,6.9675145E-5,4.9391783E-5,-1.354225E-3,1.2419593E-3,5.4664933E-4],"split_indices":[0,2,0,1,2,0,2,0,1,1,0,0,0,0,1,0,0,0,0,0,0,0,0,0,0,0,0],"split_type":[0,0,0,0,0,0,0,0,0,0,0,0,0,0,0,0,0,0,0,0,0,0,0,0,0,0,0],"sum_hessian":[7.2E1,6.6E1,6E0,4.2E1,2.4E1,4E0,3.8E1,1.5E1,9E0,2.3E1,1.5E1,5E0,1E1,4E0,5E0,2E0,2.1E1,3E0,1.2E1,2E0,3E0,9E0,1E0,2E0,2E0,1E0,4E0],"tree_param":{"num_deleted":"0","num_feature":"3","num_nodes":"27","size_leaf_vector":"1"}},{"base_weights":[-7.9792045E-4,-1.3250989E-2,1.1850973E-3,2.0306503E-2,-8.2814336E-2,4.6015926E-2,-3.589403E-2,-1.5010485E-1,1.2944767E-2,-5.342835E-2,6.6410355E-2,-7.5235334E-4,3.565715E-2,-9.459159E-2,-2.2000776E-1,-7.776807E-2,8.638134E-2,6.599535E-4,-1.9485048E-3,1.8387914E-4,1.096892E-3,3.9450717E-4,8.34465E-5,-3.7279198E-4,-1.3298565E-3,-2.7847602E-3,6.932676E-5,4.906237E-5,-1.3451967E-3,1.2357493E-3,5.4227625E-4],"categories":[],"categories_nodes":[],"categories_segments":[],"categories_sizes":[],"default_left":[0,0,0,0,0,0,0,0,0,0,0,0,0,0,0,0,0,0,0,0,0,0,0,0,0,0,0,0,0,0,0],"id":51,"left_children":[1,3,-1,5,7,9,11,13,15,17,19,-1,21,23,25,27,29,-1,-1,-1,-1,-1,-1,-1,-1,-1,-1,-1,-1,-1,-1],"loss_changes":[1.10029854E-1,1.5808456E-1,0E0,6.811632E-2,1.4370404E-1,6.844771E-2,4.4906426E-2,2.9636085E-2,7.33341E-2,1.1419417E-1,5.4098673E-2,0E0,2.9246835E-4,1.4846511E-2,6.827466E-2,2.411949E-2,4.7430024E-4,0E0,0E0,0E0,0E0,0E0,0E0,0E0,0E0,0E0,0E0,0E0,0E0,0E0,0E0],"parents":[2147483647,0,0,1,1,3,3,4,4,5,5,6,6,7,7,8,8,9,9,10,10,12,12,13,13,14,14,15,15,16,16],"right_children":[2,4,-1,6,8,10,12,14,16,18,20,-1,22,24,26,28,30,-1,-1,-1,-1,-1,-1,-1,-1,-1,-1,-1,-1,-1,-1],"split_conditions":[3.1536E6,5E0,1.1850973E-3,3.504E4,6E0,5.2142857E1,5.256E4,3.504E4,6E1,3E0,2E0,-7.5235334E-4,6E2,6E1,5.256E4,3.504E4,6E2,6.599535E-4,-1.9485048E-3,1.8387914E-4,1.096892E-3,3.9450717E-4,8.34465E-5,-3.7279198E-4,-1.3298565E-3,-2.7847602E-3,6.932676E-5,4.906237E-5,-1.3451967E-3,1.2357493E-3,5.4227625E-4],"split_indices":[0,2,0,0,2,0,0,0,1,2,2,0,1,1,0,0,1,0,0,0,0,0,0,0,0,0,0,0,0,0,0],"split_type":[0,0,0,0,0,0,0,0,0,0,0,0,0,0,0,0,0,0,0,0,0,0,0,0,0,0,0,0,0,0,0],"sum_hessian":[7.2E1,6.6E1,6E0,4.5E1,2.1E1,3.1E1,1.4E1,1.2E1,9E0,5E0,2.6E1,9E0,5E0,8E0,4E0,4E0,5E0,3E0,2E0,1.3E1,1.3E1,4E0,1E0,4E0,4E0,3E0,1E0,2E0,2E0,1E0,4E0],"tree_param":{"num_deleted":"0","num_feature":"3","num_nodes":"31","size_leaf_vector":"1"}},{"base_weights":[-8.3150156E-4,-1.3181448E-2,1.1749391E-3,2.3493484E-2,-7.573507E-2,1.4972491E-3,6.7075696E-3,-1.2637575E-1,1.2863514E-2,-3.2316074E-2,6.4823814E-2,-2.7078087E-2,-1.690494E-1,-7.72496E-2,8.581386E-2,1.4602852E-3,-5.516688E-4,-6.646688E-4,1.002345E-3,-1.1411652E-3,4.4970258E-4,-1.8733394E-3,6.898015E-5,4.8735343E-5,-1.3362287E-3,1.2295708E-3,5.37938E-4],"categories":[],"categories_nodes":[],"categories_segments":[],"categories_sizes":[],"default_left":[0,0,0,0,0,0,0,0,0,0,0,0,0,0,0,0,0,0,0,0,0,0,0,0,0,0,0],"id":52,"left_children":[1,3,-1,5,7,-1,9,11,13,15,17,19,21,23,25,-1,-1,-1,-1,-1,-1,-1,-1,-1,-1,-1,-1],"loss_changes":[1.0822455E-1,1.5548731E-1,0E0,9.010884E-2,1.1379294E-1,0E0,9.054325E-2,6.322077E-2,7.236692E-2,1.05863556E-1,8.1047796E-2,4.27577E-2,3.668052E-2,2.3798965E-2,5.216375E-4,0E0,0E0,0E0,0E0,0E0,0E0,0E0,0E0,0E0,0E0,0E0,0E0],"parents":[2147483647,0,0,1,1,3,3,4,4,6,6,7,7,8,8,9,9,10,10,11,11,12,12,13,13,14,14],"right_children":[2,4,-1,6,8,-1,10,12,14,16,18,20,22,24,26,-1,-1,-1,-1,-1,-1,-1,-1,-1,-1,-1,-1],"split_conditions":[3.1536E6,4E0,1.1749391E-3,1.2E1,6E0,1.4972491E-3,2E0,8.76E3,6E1,3E1,5.2142857E1,3.65E2,5.256E4,3.504E4,6E2,1.4602852E-3,-5.516688E-4,-6.646688E-4,1.002345E-3,-1.1411652E-3,4.4970258E-4,-1.8733394E-3,6.898015E-5,4.8735343E-5,-1.3362287E-3,1.2295708E-3,5.37938E-4],"split_indices":[0,2,0,1,2,0,2,0,1,1,0,0,0,0,1,0,0,0,0,0,0,0,0,0,0,0,0],"split_type":[0,0,0,0,0,0,0,0,0,0,0,0,0,0,0,0,0,0,0,0,0,0,0,0,0,0,0],"sum_hessian":[7.2E1,6.6E1,6E0,4.2E1,2.4E1,4E0,3.8E1,1.5E1,9E0,2.3E1,1.5E1,5E0,1E1,4E0,5E0,2E0,2.1E1,3E0,1.2E1,2E0,3E0,9E0,1E0,2E0,2E0,1E0,4E0],"tree_param":{"num_deleted":"0","num_feature":"3","num_nodes":"27","size_leaf_vector":"1"}},{"base_weights":[-7.971399E-4,-1.3038792E-2,1.1648682E-3,1.997714E-2,-8.147943E-2,4.5238577E-2,-3.524574E-2,-1.4772125E-1,1.27828745E-2,-5.2829687E-2,6.535602E-2,-7.406176E-4,3.532192E-2,-9.268594E-2,-2.1724056E-1,-7.673462E-2,8.525031E-2,6.546764E-4,-1.9294956E-3,1.079592E-3,1.8084545E-4,3.8954805E-4,8.578748E-5,-3.6411546E-4,-1.3042312E-3,-2.7498244E-3,6.8635345E-5,4.8410297E-5,-1.3273206E-3,1.2234228E-3,5.336345E-4],"categories":[],"categories_nodes":[],"categories_segments":[],"categories_sizes":[],"default_left":[0,0,0,0,0,0,0,0,0,0,0,0,0,0,0,0,0,0,0,0,0,0,0,0,0,0,0,0,0,0,0],"id":53,"left_children":[1,3,-1,5,7,9,11,13,15,17,19,-1,21,23,25,27,29,-1,-1,-1,-1,-1,-1,-1,-1,-1,-1,-1,-1,-1,-1],"loss_changes":[1.0632856E-1,1.5302303E-1,0E0,6.57649E-2,1.3925867E-1,6.6585E-2,4.370334E-2,2.9603064E-2,7.141268E-2,1.12086795E-1,5.242332E-2,0E0,2.4874555E-4,1.4363833E-2,6.658831E-2,2.3482699E-2,5.678721E-4,0E0,0E0,0E0,0E0,0E0,0E0,0E0,0E0,0E0,0E0,0E0,0E0,0E0,0E0],"parents":[2147483647,0,0,1,1,3,3,4,4,5,5,6,6,7,7,8,8,9,9,10,10,12,12,13,13,14,14,15,15,16,16],"right_children":[2,4,-1,6,8,10,12,14,16,18,20,-1,22,24,26,28,30,-1,-1,-1,-1,-1,-1,-1,-1,-1,-1,-1,-1,-1,-1],"split_conditions":[3.1536E6,5E0,1.1648682E-3,3.504E4,6E0,5.2142857E1,5.256E4,3.504E4,6E1,3E0,8.76E3,-7.406176E-4,6E2,6E1,5.256E4,3.504E4,6E2,6.546764E-4,-1.9294956E-3,1.079592E-3,1.8084545E-4,3.8954805E-4,8.578748E-5,-3.6411546E-4,-1.3042312E-3,-2.7498244E-3,6.8635345E-5,4.8410297E-5,-1.3273206E-3,1.2234228E-3,5.336345E-4],"split_indices":[0,2,0,0,2,0,0,0,1,2,0,0,1,1,0,0,1,0,0,0,0,0,0,0,0,0,0,0,0,0,0],"split_type":[0,0,0,0,0,0,0,0,0,0,0,0,0,0,0,0,0,0,0,0,0,0,0,0,0,0,0,0,0,0,0],"sum_hessian":[7.2E1,6.6E1,6E0,4.5E1,2.1E1,3.1E1,1.4E1,1.2E1,9E0,5E0,2.6E1,9E0,5E0,8E0,4E0,4E0,5E0,3E0,2E0,1.3E1,1.3E1,4E0,1E0,4E0,4E0,3E0,1E0,2E0,2E0,1E0,4E0],"tree_param":{"num_deleted":"0","num_feature":"3","num_nodes":"31","size_leaf_vector":"1"}},{"base_weights":[-8.3007757E-4,-1.2970364E-2,1.1548839E-3,1.9771285E-2,-8.084061E-2,4.4785734E-2,-3.4910955E-2,-1.4657862E-1,1.2702862E-2,-5.2513864E-2,6.474914E-2,-7.3395175E-4,3.5047907E-2,-9.1944456E-2,-2.1560441E-1,-7.6223046E-2,8.469064E-2,6.497662E-4,-1.9166322E-3,1.7657726E-4,1.072156E-3,3.8643143E-4,8.535862E-5,-3.6120246E-4,-1.2937976E-3,-2.729201E-3,6.829202E-5,4.8087633E-5,-1.3184717E-3,1.2173057E-3,5.2936544E-4],"categories":[],"categories_nodes":[],"categories_segments":[],"categories_sizes":[],"default_left":[0,0,0,0,0,0,0,0,0,0,0,0,0,0,0,0,0,0,0,0,0,0,0,0,0,0,0,0,0,0,0],"id":54,"left_children":[1,3,-1,5,7,9,11,13,15,17,19,-1,21,23,25,27,29,-1,-1,-1,-1,-1,-1,-1,-1,-1,-1,-1,-1,-1,-1],"loss_changes":[1.04584105E-1,1.5048465E-1,0E0,6.448443E-2,1.3714793E-1,6.555802E-2,4.2957038E-2,2.9201537E-2,7.047117E-2,1.1054598E-1,5.2101582E-2,0E0,2.4205027E-4,1.4134936E-2,6.56085E-2,2.3170637E-2,6.130226E-4,0E0,0E0,0E0,0E0,0E0,0E0,0E0,0E0,0E0,0E0,0E0,0E0,0E0,0E0],"parents":[2147483647,0,0,1,1,3,3,4,4,5,5,6,6,7,7,8,8,9,9,10,10,12,12,13,13,14,14,15,15,16,16],"right_children":[2,4,-1,6,8,10,12,14,16,18,20,-1,22,24,26,28,30,-1,-1,-1,-1,-1,-1,-1,-1,-1,-1,-1,-1,-1,-1],"split_conditions":[3.1536E6,5E0,1.1548839E-3,3.504E4,6E0,5.2142857E1,5.256E4,3.504E4,6E1,3E0,2E0,-7.3395175E-4,6E2,6E1,5.256E4,3.504E4,6E2,6.497662E-4,-1.9166322E-3,1.7657726E-4,1.072156E-3,3.8643143E-4,8.535862E-5,-3.6120246E-4,-1.2937976E-3,-2.729201E-3,6.829202E-5,4.8087633E-5,-1.3184717E-3,1.2173057E-3,5.2936544E-4],"split_indices":[0,2,0,0,2,0,0,0,1,2,2,0,1,1,0,0,1,0,0,0,0,0,0,0,0,0,0,0,0,0,0],"split_type":[0,0,0,0,0,0,0,0,0,0,0,0,0,0,0,0,0,0,0,0,0,0,0,0,0,0,0,0,0,0,0],"sum_hessian":[7.2E1,6.6E1,6E0,4.5E1,2.1E1,3.1E1,1.4E1,1.2E1,9E0,5E0,2.6E1,9E0,5E0,8E0,4E0,4E0,5E0,3E0,2E0,1.3E1,1.3E1,4E0,1E0,4E0,4E0,3E0,1E0,2E0,2E0,1E0,4E0],"tree_param":{"num_deleted":"0","num_feature":"3","num_nodes":"31","size_leaf_vector":"1"}},{"base_weights":[-8.623898E-4,-1.2902145E-2,1.1449847E-3,2.2894735E-2,-7.39567E-2,1.4734303E-3,6.35278E-3,-1.23447E-1,1.2623462E-2,-3.1752057E-2,6.311299E-2,-2.6757007E-2,-1.6496454E-1,-7.57149E-2,8.4134854E-2,1.4420144E-3,-5.430244E-4,-6.5659074E-4,9.788031E-4,-1.1279093E-3,4.4457687E-4,-1.8282001E-3,6.795049E-5,4.776696E-5,-1.3096819E-3,1.2112191E-3,5.251306E-4],"categories":[],"categories_nodes":[],"categories_segments":[],"categories_sizes":[],"default_left":[0,0,0,0,0,0,0,0,0,0,0,0,0,0,0,0,0,0,0,0,0,0,0,0,0,0,0],"id":55,"left_children":[1,3,-1,5,7,-1,9,11,13,15,17,19,21,23,25,-1,-1,-1,-1,-1,-1,-1,-1,-1,-1,-1,-1],"loss_changes":[1.0286818E-1,1.481259E-1,0E0,8.7584555E-2,1.0868028E-1,0E0,8.635467E-2,5.9815332E-2,6.954227E-2,1.03058144E-1,7.8059696E-2,4.1775703E-2,3.4977615E-2,2.286273E-2,6.5710023E-4,0E0,0E0,0E0,0E0,0E0,0E0,0E0,0E0,0E0,0E0,0E0,0E0],"parents":[2147483647,0,0,1,1,3,3,4,4,6,6,7,7,8,8,9,9,10,10,11,11,12,12,13,13,14,14],"right_children":[2,4,-1,6,8,-1,10,12,14,16,18,20,22,24,26,-1,-1,-1,-1,-1,-1,-1,-1,-1,-1,-1,-1],"split_conditions":[3.1536E6,4E0,1.1449847E-3,1.2E1,6E0,1.4734303E-3,2E0,8.76E3,6E1,3E1,5.2142857E1,3.65E2,5.256E4,3.504E4,6E2,1.4420144E-3,-5.430244E-4,-6.5659074E-4,9.788031E-4,-1.1279093E-3,4.4457687E-4,-1.8282001E-3,6.795049E-5,4.776696E-5,-1.3096819E-3,1.2112191E-3,5.251306E-4],"split_indices":[0,2,0,1,2,0,2,0,1,1,0,0,0,0,1,0,0,0,0,0,0,0,0,0,0,0,0],"split_type":[0,0,0,0,0,0,0,0,0,0,0,0,0,0,0,0,0,0,0,0,0,0,0,0,0,0,0],"sum_hessian":[7.2E1,6.6E1,6E0,4.2E1,2.4E1,4E0,3.8E1,1.5E1,9E0,2.3E1,1.5E1,5E0,1E1,4E0,5E0,2E0,2.1E1,3E0,1.2E1,2E0,3E0,9E0,1E0,2E0,2E0,1E0,4E0],"tree_param":{"num_deleted":"0","num_feature":"3","num_nodes":"27","size_leaf_vector":"1"}},{"base_weights":[-8.281555E-4,-1.2762308E-2,1.1351703E-3,1.9451411E-2,-7.953816E-2,4.4028006E-2,-3.427542E-2,-1.4425279E-1,1.2544682E-2,-5.1923905E-2,6.371999E-2,-7.22459E-4,3.4721296E-2,-9.0088904E-2,-2.1289724E-1,-7.5210124E-2,8.358291E-2,6.4457103E-4,-1.8979062E-3,1.0549502E-3,1.7393526E-4,3.815968E-4,8.764684E-5,-3.527784E-4,-1.2688219E-3,-2.6950208E-3,6.761074E-5,4.7448673E-5,-1.3009508E-3,1.205163E-3,5.209297E-4],"categories":[],"categories_nodes":[],"categories_segments":[],"categories_sizes":[],"default_left":[0,0,0,0,0,0,0,0,0,0,0,0,0,0,0,0,0,0,0,0,0,0,0,0,0,0,0,0,0,0,0],"id":56,"left_children":[1,3,-1,5,7,9,11,13,15,17,19,-1,21,23,25,27,29,-1,-1,-1,-1,-1,-1,-1,-1,-1,-1,-1,-1,-1,-1],"loss_changes":[1.0106548E-1,1.4567071E-1,0E0,6.2248513E-2,1.3290997E-1,6.3772045E-2,4.1806053E-2,2.9154956E-2,6.862574E-2,1.0850375E-1,5.0417893E-2,0E0,2.0103529E-4,1.36739835E-2,6.399077E-2,2.255891E-2,7.001348E-4,0E0,0E0,0E0,0E0,0E0,0E0,0E0,0E0,0E0,0E0,0E0,0E0,0E0,0E0],"parents":[2147483647,0,0,1,1,3,3,4,4,5,5,6,6,7,7,8,8,9,9,10,10,12,12,13,13,14,14,15,15,16,16],"right_children":[2,4,-1,6,8,10,12,14,16,18,20,-1,22,24,26,28,30,-1,-1,-1,-1,-1,-1,-1,-1,-1,-1,-1,-1,-1,-1],